solver_type L2R_L2LOSS_SVC_DUAL
nr_class 11
label 11 10 5 2 3 6 7 1 8 4 9
nr_feature 81223
bias -1
w
0 0.001774378370760859 0 -0.0021050994292174 0 0 0 0 -0.000324365567183139 0 -0.0005884396447386872 
0.002683960784144964 -8.486783152923764e-05 0 0 0 0 0 -0.001818378806828337 0 0 0 
-0.0002007003922367125 0.001418747114760255 0 0 -0.003461485350769952 -0.0001667189841091531 -6.859988756005334e-05 -0.001507454265803296 0 0 0 
0 0 0 0 0 0 0 0 0 0 0 
0 0 0 0 0 0 0 0 0 0 0 
0 0 0 0 0 0 0 0 0 0 0 
0 0 0 0 0 0 0 0 0 0 0 
0 0 0 0 0 0 0 0 0 0 0 
0 0 0 0 0 0 0 0 0 0 0 
0 0 0 0 0 0 0 0 0 0 0 
0 0 0 0 0 0 0 0 0 0 0 
0 0 0 0 0 0 0 0 0 0 0 
0 0 0 0 0 0 0 0 0 0 0 
0 0 0 0 0 0 0 0 0 0 0 
0 0 0 0 0 0 0 0 0 0 0 
0 0 0 0 0 0 0 0 0 0 0 
0 0 0 0 0 0 0 0 0 0 0 
0 0 0 0 0 0 0 0 0 0 0 
0 0 0 0 0 0 0 0 0 0 0 
0 0 0 0 0 0 0 0 0 0 0 
0 0 0 0 0 0 0 0 0 0 0 
0 0 0 0 0 0 0 0 0 0 0 
0 0 0 0 0 0 0 0 0 0 0 
0 0 0 0 0 0 0 0 0 0 0 
0 0 0 0 0 0 0 0 0 0 0 
0 0 0 0 0 0 0 0 0 0 0 
0 0 0 0 0 0 0 0 0 0 0 
0 0 0 0 0 0 0 0 0 0 0 
0 0 0 0 0 0 0 0 0 0 0 
0 0 0 0 0 0 0 0 0 0 0 
0 0 0 0 0 0 0 0 0 0 0 
0 0 0 0 0 0 0 0 0 0 0 
0 0 0 0 0 0 0 0 0 0 0 
0 0 0 0 0 0 0 0 0 0 0 
0 0 0 0 0 0 0 0 0 0 0 
0 0 0 0 0 0 0 0 0 0 0 
0 0 0 0 0 0 0 0 0 0 0 
0 0 0 0 0 0 0 0 0 0 0 
0 0 0 0 0 0 0 0 0 0 0 
0 0 0 0 0 0 0 0 0 0 0 
0 0 0 0 0 0 0 0 0 0 0 
0 0 0 0 0 0 0 0 0 0 0 
0 0 0 0 0 0 0 0 0 0 0 
0 0 0 0 0 0 0 0 0 0 0 
0 0 0 0 0 0 0 0 0 0 0 
0 0 0 0 0 0 0 0 0 0 0 
0 0 0 0 0 0 0 0 0 0 0 
0 0 0 0 0 0 0 0 0 0 0 
0 0 0 0 0 0 0 0 0 0 0 
0 0 0 0 0 0 0 0 0 0 0 
0 0 0 0 0 0 0 0 0 0 0 
0 0 0 0 0 0 0 0 0 0 0 
0 0 0 0 0 0 0 0 0 0 0 
0 0 0 0 0 0 0 0 0 0 0 
0 0 0 0 0 0 0 0 0 0 0 
0 0 0 0 0 0 0 0 0 0 0 
0 0 0 0 0 0 0 0 0 0 0 
-0.0005698698804683169 0.002469791256766539 0 -0.00168626224082521 -0.0003367345849971541 -0.0001391934234357151 0 0 0 -0.000599786355985682 0 
0 0 0 0 0 0 0 0 0 0 0 
0 0 0 0 0 0 0 0 0 0 0 
0 0 0 0 0 0 0 0 0 0 0 
0 0 0 0 0 0 0 0 0 0 0 
0 0 0 0 0 0 0 0 0 0 0 
-0.00407560655666482 -0.001805256257846947 0 0 0 0 -0.0001968675192980017 0.007354074168244152 0 0 0 
0 -0.006097785897223009 0 0 0 0 0 0 0 0 0 
0 0 0 0 0 0 0 0 0 0 0 
-0.0002016902023628783 -0.000270755619592101 0 -1.428151048641951e-05 -0.0001754695893492147 0 0 0.00133735064633272 0 0 0 
0 0 0 0 0 -0.001389227536301139 0 0 0 0 0 
0 0 0 0 0 0 0 0 0 0 0 
0 0 0 0 0 0 0 0 0 0 0 
0 0 0 0 0 0 0 0 0 0 0 
0 0 0 0 0 0 0 0 0 0 0 
0 0 -0.00187916800986902 0 0 0.002006362986700615 0 -0.00124561999704117 -0.0007813639698027376 -0.0008830805303527245 -0.0003182656574895443 
0.03000421219321797 0 0 0 -0.0009644641294423533 0 0 0 0 -0.01558660802483323 0 
-0.002169060241147877 0.006610432554427431 -1.000929511311221e-05 -0.0003934877754939 -0.00154398259466038 0 0 -0.001589720509965006 0 0 0 
0 0.0005664929924951607 -9.239912867017451e-05 0 0 -8.623347661789042e-05 -0.0001339008918425918 0 -0.0001298171813072967 0 -0.0001844518683894845 
0 0.1657789276166815 0 -0.04091298992581385 -0.008469873499839773 0 0 -4.979091299596982e-06 0 -0.1205152701749801 0 
0 0 0 0 0 0 0 0 0 0 0 
0 0 0 0 0 0 0 0 0 0 0 
0 0.00052538044692812 0 0 0 0 -0.0001968589358711895 0 0 0 -1.906398640783724e-05 
0.005821950748595968 0 0 0 -0.001061852202938156 0 0 0 0 0 0 
0 0 0 0 0 0 0 0 0 0 0 
0 -0.0007524431026173619 0 0.001132732438191623 0 0 0 0 0 0 0 
0 0 0 0 0 0 0 0 0 0 0 
0 0 -0.0007526960124754997 0.007807854976990127 0 0 0 -0.005796539572855419 0 0 0 
0 0 0 0 0 0 0 0 0 0 0 
0 0 0.001016560831485419 -0.003728762671761217 -0.000944419695063177 0 0 0 -0.0003112436931864358 0 -6.245415494594367e-05 
0 0 0 0 0 0 0 0 0 0 0 
0 0 0 0 0 0 0 0 0 0 0 
0 0 0 0 0 0 0 0 0 0 0 
0 0 0 0 0 0 0 0 0 0 0 
0 0 0 0 0 0 0 0 0 0 0 
0 0 0 0 0 0 -0.0006811112859131549 0 0 -0.0009164307044584175 0 
0 0 0 0 0 0 0 0 0 0 0 
0 -0.03261121209873421 0 0 -0.0009268469214171582 0 0 0.03756608160721861 0 -0.002235877731013362 0 
0 -6.363043109321927e-05 0 0 0 -0.000128583427470488 -2.364629279950875e-05 3.989659688948742e-05 -7.944414274080517e-05 -4.381668810597139e-05 0 
0 0 0 0 0 0 0 0 0 0 0 
-0.0003324681577078694 0.0002262387964980447 -0.0001784120183321892 0 0 -5.962064895512125e-05 -5.759058505899419e-05 0 -0.0001352130514439046 -5.1601986512991e-05 0 
0 0.03277865526559246 0 -0.01076647951235816 -0.03058001762587275 0 0 0 0 0 0 
0 0 0 0 0 0 0 0 0 0 0 
-0.003398171846473501 0.007355568491184965 -0.0006136764896908195 0 0 -3.81954414151031e-05 0 0 0 0 0 
0 0 0 0 0 0 0 0 0 0 0 
0 0 0 0 0 0 0 0 0 0 0 
0 0 0 0 0 0 0 0 0 0 0 
-0.006038422559556145 0 0.01349285411181738 -0.01456280052337676 0 0 0 -0.001221922730748844 0 0 0 
0 0 0 0 0 0 0 0 0 0 0 
0 0 0 0 0 0 0 0 0 0 0 
0 0 -0.0003000200837059707 0 0 -0.0002835078070400573 0 0 0 -0.000987120943783406 0 
0 -0.0002104265174963258 0 0 0 0 0 -0.0001918648258548053 0 0.003791474338157276 0 
0 0 0 0 0 0 0 0 0 0 0 
0 0 0 0 0 0 0 0 0 0 0 
0 0 0 0 0 0 0 0 0 0 0 
0 0.003281566064426129 0 -0.002540609864970728 0 0 0 0 0 -0.0003179602017929839 0 
0 0 0 0 0 0 0 0 0 0 0 
0 0 0 -0.0009044127910352763 0 0 0 0 0 0 0 
-0.002275384678031379 0.2330427819284697 -0.03845322640201183 -0.08866482710445638 0 0 -0.06239234105087467 0 0 -0.003822507847563597 0 
0 0 0 0 0 0 0 0 0 0 0 
0 -0.001669103090138644 0 -0.001133659087759635 0 0.00061269597908381 -9.695975089103712e-06 0 0 0 0 
0.09093626721767248 0 -0.02341447277992466 -0.005749222499090557 -0.01015031794517643 0 0 0 0 -0.06557913481729905 0 
0 0 0 0 0 0 0 0 0 0 0 
0 0 0 0 0 0 0 0 0 0 0 
0 0 0 0 0 0 0 0 0 0 0 
0 0 0 0 0 0 0 0 0 0 0 
0 0 0 0 0 0 0 0 0 0 0 
-0.008728654274745007 0.05479198654222857 -0.0081862482655853 -0.03119716469283275 0 0 -0.008082923102040765 0 0 0 0 
0 0 -0.0003342083701612005 0 0 -5.571836142098797e-05 0 0 0 -0.0001190140797883374 -4.776063320890696e-05 
0 0 0 0 0 0 0 0 0 0 0 
0 0.004826162063986804 -0.0005469866955590292 0 0 0 0 -0.003196922025878926 0 0 0 
0 0 0 0 0 0 0 0 0 0 0 
0 0 0 0 0 0 0 0 0 0 0 
0 -0.0008789022494677887 0 -0.001058614532200038 0 0 -4.50828959421194e-05 0 0.0006669866808708643 0 -7.525777201817132e-05 
0 0 0 0 0 0 0 0 0 0 0 
0 0.002691519038198321 -0.0003836606332492641 0 0 0 -0.002232970744248569 0 0 0 0 
0 0 0 0 0 0 0 0 0 0 0 
0 -0.001216834474629418 -0.0001096299752992844 0 0 -1.50286506840568e-05 -1.553213217093905e-05 -0.0003839402339607011 0 0.0007930159027930907 0 
0 0 0 0 0 0 0 0 0 0 0 
-0.003120100998962414 0.003401613745854818 -0.0002915389242547778 -0.0002305506685238041 0 0 0 0 0 0 0 
0 0 0 0 0 0 0 0 0 0 0 
0 0 0 0 0 0 0 0 0 0 0 
0 0 0 0 0 0 0 0 -0.0008518291290613218 0 0 
0 0 0 0 0 0 0 0 0 0 0 
0.002194279412366445 -0.01436370094556266 0 -0.001470696175783475 0 0 0 0 0 0 0 
0 0 0 0 0 0 0 0 0 0 0 
0 0 0 0 0 0 0 0 0 0 0 
0 -0.00964842407001012 0 0 0.01310329290671625 0 0 0 0 -0.001955564047852619 0 
0 0 0 0 0 0 0 0 0 0 0 
-0.04356545996728967 -0.0004439555501568302 -0.03041727994925859 0.1491214099847525 -0.003949528080352064 -0.002317307627706924 -0.001083565357720202 -0.04901620136705498 -0.001812161915436975 0 -0.002869664620561591 
0 0 0 0 0 0 0 0 0 0 0 
0 0 0 0 0 0 0 0 0 0 0 
0 0 0 0 0 0 0 0 0 0 0 
-0.0009666599543673569 -0.001106278795683741 0 -0.001780351350735418 0 0 0 0 0 0.002471531294709277 0 
0 0 0 0 0 0 0 0 0 0 0 
0 0 0 0 0 0 0 0 0 0 0 
0 -0.001298708765268924 0 -0.004453620825958563 0.01078442483476482 -0.0007204957195786859 0 0 0 -0.001915325084893953 0 
0.1710431521323648 -0.08156882208824326 0 -0.001778736802835896 0 0 0 -0.02424579293052378 0 -0.01661124100120144 0 
0 0 0 0 0 0 0 0 0 0 0 
0 0 0 0 0 0 0 0 0 0 0 
0 0 0 0 0 0 0 0 0 0 0 
0 0 0 0 0 0 0 0 0 0 0 
-0.001054293982181611 0.0003113392467334579 0 0 0 0 -0.0008767638022781062 0 0 0 0 
0 0 0 0 0 0 0 0 0 0 0 
0 0 0 0 0 0 0 0 0 0 0 
0 0 0 0 0 0 0 0 0 0 0 
0 0 0 0 0 0 0 0 0 0 0 
0 0 0 0 0 0 0 0 0 0 0 
0 0 0 0 0 0 0 0 0 0 0 
0 0 0 0 0 0 0 0 0 0 0 
0 0 0 0 0 0 0 0 0 0 0 
0 0 0 0 0 0 0 0 0 0 0 
0 0 0 0 0 0 0 0 0 0 0 
0 0 0 0 0 0 0 0 0 0 0 
0 0 0 0 0 0 0 0 0 0 0 
0 0 0 0 0 0 0 0 0 0 0 
0 0 0.1222611236024078 -0.1432310404440336 0 -0.003862125577064594 -0.01696262756603149 -0.003423513072004098 0 0 0 
0 0 0 0 0 0 0 0 0 0 0 
0 0 0 0 0 0 0 0 0 0 0 
0 0 0 -0.0006435447027959589 0 0 0 -0.0001837882108429512 -6.46127152228155e-05 0.0006987748273201669 -2.97569231293617e-05 
0 0 0 0 0 0 0 0 0 0 0 
0 0 0 0 0 0 0 0 0 0 0 
0.001410059654506756 -0.001950866387366957 -0.0003690898497470047 -0.0004386160989188483 0 0 -0.0002661642462972376 0 -0.0009721152206308823 0 0 
-0.0005209260790882779 0 0 0 0 -0.001029526939785502 0 0.001946071219398928 0 0 0 
0 0 0 0 -0.0002543508791317092 0 0 1.035750445691703e-05 0 0 0 
0 0 0 0 0 0 0 0 0 0 0 
0 0 0 0 0 0 0 0 0 0 0 
0 0 0 0 0 0 0 0 0 0 0 
-0.02797327735241641 0.00969311840022905 -0.003380497507425735 0 0 0 -2.704443033343872e-05 -0.0005237435839907979 0 0 0 
0 0 0 0 0 0 0 0 0 0 0 
0 0 0 0 0 0 0 0 0 -0.000282712800415689 0 
0 0 0 0 0 0 0 0 0 0 0 
0 -0.0007059618677686738 0 0 0 0 0 0.0003100336336614341 0 -0.0007933336672207999 0 
0 0 0 0 0 0 0 0 0 0 0 
0 0 0 0 0 0 0 0 0 0 0 
0 0 0 0 0 0 0 0 0 0 0 
0 0 -0.0001636741061517697 0 0 0 0 0 0 0 0 
-0.008656528113519951 0.0548280207986356 -0.008221389828131977 -0.03114622781019965 0 0 -0.008081682097631286 0 0 0 0 
0 0 0 0 0 0 0 0 0 0 0 
0 0 0 0 0 0 0 0 0 0 0 
0 0 0 0 0 0 0 0 0 0 0 
0 0 0 0 0 0 0 0 0 0 0 
0 0 0 0 0 0 0 0 0 0 0 
0 0 0 0 0 0 0 0 0 0 0 
0 0 0 0 0 0 0 0 0 0 0 
0 -0.03335724951910116 -0.009784566184252375 -0.1599739401028226 0 0 -0.01644875270636398 0 -0.008682079427561523 0.2374175877854616 0 
0.00112056011264624 -0.0004666750038187125 0 0 0 -0.0001992712275759842 -6.52277604753164e-05 -0.0001550007291767608 -0.0002164536504742518 0 -8.438951592394251e-06 
0 0.005161668485345391 -0.003408781660738456 0 -0.00219019686011477 0 0 0 0 -0.001602333688511161 0 
0 0 0 0 0 0 0 0 0 0 0 
0 0 0 0 0 0 0 0 0 0 0 
0 0.001332052530566135 -0.0003433411253400398 0 -0.001226760702420673 -0.0005524237646864135 0 -0.0003057059206226491 -9.360776867020195e-05 0 0 
0 0 0 0 0 0 0 0 0 0 0 
0 0 0 0 0 0 0 0 0 0 0 
-0.002252534267316909 -0.01236121126661768 -0.0003665538714393939 0 -0.0008446188099024272 0.006594839672634976 0 0 0 0 0 
0 0 0 0 0 0 0 0 0 0 0 
0 0 0 0 0 0 0 0 0 0 0 
0 0 0 0 -0.002690073011277356 0 0 -7.442264346153114e-05 -0.0008070892746469782 0 0.004479608003380912 
0 0 0 0 0 0 0 0 0 0 0 
0 0 0 0 0 0 0 0 0 0 0 
-0.001096526515405181 0.006960164742177237 0 -0.003357293300669295 -0.0003229932569598499 0 0 -0.00115733984511287 -0.000198633174668523 0 0 
-0.003897244651629149 -0.004024981819313764 0.004068666758622631 0 0 -1.350810155665376e-05 0 0 -0.0002131033023572151 0 0 
0 0 0 0 0 0 0 0 0 0 0 
0 0 0 0 0 0 0 0 0 0 0 
-0.1147284708571301 0.2040081799278649 0 -0.002008769047322457 0 0 0 -0.02531690518225599 0 -0.01669526943584679 0 
0 0 0 0 0 0 0 0 0 0 0 
0 0 0 0 0 0 0 0 0 0 0 
0 0 0 0 0 0 0 0 0 0 0 
0 0 0 0 0 0 0 0 0 0 0 
0 -0.00894320221290946 0 0 -0.001107298205189633 0 0 0 0 -2.483962880859125e-05 0 
0 0 0 0 0 0 0 0 0 0 0 
0 0 0 0 0 0 0 0 0 0 0 
0.005183844338558805 0 -0.01166785593886409 0 0 0 0 0 0 0 0 
0 0 0 0 0 0 0 0.002047732369085189 0 0 0 
0 0 0 0 0 0 0 0 0 0 0 
0 0 0 0 0 0 0 0 0 0 0 
0 0 0 0 0 0 0 0 0 0 0 
0 0 0 0 0 0 0 0 0 0 0 
0 0 0 0 0 0 0 0 0 0 0 
0 0 0 0 0 0 0 0 0 0 0 
0 0 0 0 0 0 0 0 0 0 0 
0 0 0 0 0 0 0 0 0 0 0 
0 0 0 0 0 0 0 0 0 0 0 
0 0.006756233480675574 0 -0.001161394387529274 0 0 -0.004133415180276497 0 -0.000569629503803036 0 0 
-0.001429326879710893 0.0009189694709690506 0 -2.531272654052945e-05 0 0 0 0 0 0 0 
0 0 0 0 0 0 0 0 0 0 0 
0 0 0 0 0 0 0 0 0 0 0 
0 0 0 0 0 0 0 0 0 0 0 
0 0 0 0 0 0 0 0 0 0 0 
0.00125384273243507 0 -0.000495779521402946 0 -0.005056476634955172 0 -0.0001546566164349108 0 0 0 0 
0 0 0 0 0 0 0 0 0 0 0 
0 0 0 0 0 0 0 0 0 0 0 
0 0 0 0 0 0 0 0 0 0 0 
-0.004202704495815406 -0.001257307030068943 0.02456913739363375 0 0 0 0 -0.004030610518948552 0 -0.003372931586938456 0 
0 0 0 0 0 0 0 0 0 0 0 
0 0 0 0 0 0 0 0 0 0 0 
0 0 0 0 0 0 0 0 0 0 0 
0 0 0 0 0 0 0 0 0 0 0 
0 0 0 0 0.002194394140289621 -0.002209658064709332 0 0 0 0 0 
0 0 -0.04567233865112597 0 0.04187914678281191 0 0 0 0 0 -0.001028268455965448 
0 0.006435761185442051 0 -0.00295311193172256 -0.0003505936129886396 0 0 0 0 0 0 
-3.462778783517683e-05 0.000762682981097194 0 -4.308781902577841e-05 0 0 0 0 -4.548786542534846e-05 -4.905809614583788e-05 0 
0 0.003543854688284363 0 -0.001431779635992188 0 -6.999817563257764e-05 0 -0.0007760268158463487 -4.631338059785152e-05 0 0 
0 0 0 0 0 0 0 0 0 0 0 
0 0 0 0 0 0 0 0 0 0 0 
0 0 0 0 0 0 0 0 0 0 0 
0 0 0 0 0 0 0 0 0 0 0 
0 0 0 0 0 0 0 0 0 0 0 
0 0 0 0 0 0 0 0 0 0 0 
-0.006648894249383287 0.005220890563296623 -3.716638213411599e-05 0 0 -0.001080210473658913 0 0 0 0 0 
0 0 0 0 0 0 0 0 0 0 0 
0 0 0 0 0 0 0 0 0 0 0 
0 0 0 0 0 0 0 0 0 0 0 
0 0 0 0 0 0 0 0 0 0 0 
0 0 0 0 0 0 0 0 0 0 0 
0 0 0.008525382232847146 0 0 0 -0.0002346171021388468 -0.008044740659812701 0 0 0 
0 0 0 0 0 0 0 0 0 0 0 
0 0 0 0 0 0 0 0 0 0 0 
0 0 0 0 0 0 0 0 0 0 0 
0.0009547000727107631 -0.002122956928798412 -0.0007044364193089172 0 0 0 0 0 0 0 0 
0 0.1253350661332704 0 -0.02108861398984837 0 0 0 -0.004925598913505714 0 0 0 
0 0 0 0 0 0 0 0 0 0 0 
0 0.004886952572064874 0 0 -0.001018770995927653 0 -0.0001589123855871336 0 -0.0002016167147034363 0 0 
0 -0.007416526766705209 0 0 0 0.001249136025059067 0 0 0 0 0 
0 0 0 0 0 0 0 0 0 0 0 
0.000397322944688097 0 -5.117078370645862e-05 0 -6.000877238105846e-05 -2.119844733324856e-05 0 -5.67781605288322e-05 0 0 -4.233150681508885e-05 
0 0 0 0 0 0 0 0 0 0 0 
0 0 0 0 0 0 0 0 0 0 0 
0 -0.1029994095744054 0 -0.02415513699366683 -0.003552515293689302 0 0 0 0 0.1233897212180453 0 
0 0 0 0 0 0 0 0.02761505692383636 0 -0.001028857675923613 0 
0 0 0 0 0 0 0 0 0 0 0 
0 0 0 0 0 0 0 0 0 0 0 
0 -0.0002656844851258754 0 0 0 -0.0002185425555483604 0 0 0 0.0006711014749889629 -2.034812186664352e-05 
0 0 0 0 0 0 0 0 0 0 0 
0 0 0 0 0 0 0 0 0 0 0 
0 0 0 0 0 0 0 0 0 0 0 
0 0.0004453497931990768 0 0 0 0 0 0 -3.495779830930395e-05 -0.0002770636675535471 -2.466580135373381e-05 
0 0 0 0 0 0 0 0 0 0 0 
0 0 0 0 0 0 0 0 0 0 0 
0 0.02074009188131637 0 -0.005389654556358008 0 0 0 -0.0005351085483411749 0 -0.001717861193396992 0 
0 0 0 0 0 0 0 0 0 0 0 
-0.007711549394027058 0.04807320542668701 -0.007229739528506715 -0.02727637587350474 0 0 -0.00712024233085972 0 0 0 0 
0 0 0 0 0 0 0 0 0 0 0 
0 0 0 0 0 0 0 0 0 0 0 
0 0 0 0 0 0 0 0 0 0 0 
0 0 0 0 0 0 0 0 0 0 0 
0 0 0 0 0 0 0 0 0 0 0 
-0.003182343205496297 -0.01172561597259356 -0.0002887610672573163 -0.003837123515728243 0.01089156221091164 0 0 0 0 0 0 
-0.0006365015786083481 -0.0006995676874587845 0 -0.000214343647057913 0 0 -3.575767801186919e-05 -0.0002290746180065351 0 0 0.001403313620971551 
0 0 0 0 0 0 0 0 0 0 0 
0 0 0 0 0 0 0 0 0 0 0 
0 0 0 0 0 0 0 0 0 0 0 
0 0 0 0 0 0 0 0 0 0 0 
0 0 0 0 0 0 0 0 0 0 0 
0 0 0 0 0 0 0 0 0 0 0 
0 0 0 0 0 0 0 0 0 0 0 
0 0 0 0 0 0 0 0 0 0 0 
0.06305211499740809 -0.04938761975941089 0 0 -0.00274382545155426 0 0 -0.009849863732986 0 -0.06601168836750959 0 
0 0 0 0 0 0 0 0 0 0 0 
0.0004679918082493136 -9.733965864689805e-05 -1.604520523612373e-05 -6.30850217488523e-05 -7.573491733601385e-05 0 0 -4.89306011301174e-05 -0.0001175263294573863 -0.0001971941494870408 -9.484856722654195e-06 
0.0001838888456983337 -4.114223307468844e-05 0 -5.325497452101472e-06 0 0 -0.0001068980397194145 0 0 0 0 
0 0 0 0 0 0 0 0 0 0 0 
0 0 0 0 0 0 0 0 0 0 0 
0 0 0 0 0 0 0 0 0 0 0 
0 0 0 0 0 0 0 0 0 0 0 
0 0 0 0 0 0 0 0 0 0 0 
0 0.001213865274292553 -0.0002044428378976429 0 0 0 0 0 0 0 0 
0 0 0 0 0 0 0 0 0 0 0 
0 0 0 0 0 0 0 0 0 0 0 
0 0 0 0 0 0 0 0 0 0 0 
0 0 0 0 0 0 0 0 0 0 0 
0 0 0 0 0 0 0 0 0 0 0 
0 0 0 0 0 0 0 0 0 0 0 
0 0 0 0 0 0 0 0 0 0 0 
0 0 0 0 0 0 0 0 0 0 0 
0 0 0 0 0 -0.0001343670295438103 0 0 0 0 0 
0 0 0 0 0 0 0 -0.0003402682318089195 0 0 0 
0 0 0 0 0 0 0 0 0 0 0 
0 0 0 0 0 0 0 0 0 0 0 
0 0 0 0 0 0 0 0 0 0 0 
0 0 0 0 0 0 0 0 0 0 0 
0 0 0 0 0 0 0 0 0 0 0 
0 0 0 0 0 0 0 0 0 0 0 
-0.05580887176423478 -0.0003514145687993776 0 -0.01032694258360487 0 0 0 0 0 0.1032109855998215 0 
0 0 0 0 0 0 0 0 0 0 0 
-0.0003360659152758927 -0.0005393397733921725 0 0 0.00101500657903665 0 0 0 -5.233674179296237e-05 -0.0001225837385038986 0 
0 0 0 0 0 0 0 0 0 0 0 
0 0 -0.0006066227145045919 0 0 -0.0005342564664226057 0 0.003397463695985101 -0.00113604413936566 0 0 
-0.000373177570781073 0 0.003330394950565926 0 -0.0004873461694201816 0 0 -0.00154441408175046 0 0 0 
0 0 0 0 0 0 0 0 0 0 0 
-0.03775532351159797 -0.02916759915311714 0.114265724145626 -0.03494587959689694 0 -0.003596828433897951 0 -0.03173121254548694 -0.00221893721937947 0 -0.002530665874094424 
0 0 0 0 0 0 0 0 0 0 0 
0 0 0 0 0 0 0 0 0 0 0 
0.008830801006024465 0 0 -0.004462727699857036 -0.002447300177677398 0 0 0 0 0 0 
0 0 0 0 0 0 0 0 0 0 0 
0.001655044361344144 0.001337788741453662 -0.0007582626757179494 -0.001654054766290732 -5.100924914249658e-05 0 0 -0.0001233288987596513 0 -0.002068646761340282 0 
-0.002124071827730477 0.005487343484707721 0 -0.003304212403388043 -0.0006656866000220277 0 0 0 0 0 0 
0 0 0 0 0 0 0 0 0 0 0 
0 0 0 0 0 0 0 0 0 0 0 
0 0.1782389013125152 0 -0.02370592799405545 -0.002340187547165625 0 0 0 0 -0.1394276007869671 0 
0 0 0 0 0 0 0 0 0 0 0 
0 0 0 0 0 0 0 0 0 0 0 
0 0 0 0 0 0 0 0 0 0 0 
0 0 0 0 0 0 0 0 0 0 0 
0 0 0 -0.002560039907077679 -0.007030864655616396 0 0 0.003163276731191913 0 0 0 
0 0 0 0 0 0 0 0 0 0 0 
0 -0.001315016553283223 0 0 0 0 0 0.0003399629186219768 -2.95958342575631e-05 0 -4.564919630255158e-06 
0 0 0 0 0 0 0 0 0 0 -0.0001467514971984078 
0 0 0 0 0 0 0 0 0 0 0 
0 0 0 0 0 0 0 0 0 0 0 
0 0 0 0 0 0 0 0 0 0 0 
0 0 -0.002974119658938173 0.004180780632290186 0 -8.738102134959907e-05 0 0 -2.118178724843837e-05 0 -5.343367523955698e-06 
-0.0002817243314999122 0 0.005272394902861327 -0.001410055154640272 0 -0.001002550009327707 0 0 0 0 0 
0 0 0 0 0 0 0 0 0 0 0 
0 0 0 0 0 0 0 0 0 0 0 
0 0 0 0 0 0 0 0 0 0 0 
0 0 0 0 0 0 0 0 0 0 -0.0003687792880620788 
0 -0.0706157786965446 -0.008501097897921103 -0.1403735198656155 0 0 -0.01432216869972304 0 0.2751055837787553 -0.04163796645347204 0 
0 0.002034825063626983 -0.0009610010697858056 0 -0.0003388949831847304 -0.0001374580553306932 0 0 0 0 0 
-0.0008015526923343447 0.005799835002417871 -0.0004569575181650167 0 0 -0.0009913672688776213 0 0 0 0 0 
0 0 0 0 0 0 0 0 0 0 0 
0 0 0 0 0 0 0 0 0 0 0 
0 0 0 0 0 0 0 0 0 0 0 
0 0 0 0 0 0 0 0 0 0 0 
0 0 0 0 0 0 0 0 0 0 0 
0 -7.09384022652044e-05 0 -0.0001269717076658082 0 -2.243545946254339e-05 -0.0002248188745505966 0 0 0.0001738650308922574 0 
0 0 0 0 0 0 0 0 0 0 0 
-0.0002690794201387441 0 0 0 0 0 0 0 0 0 0.0003998701599460947 
-0.0001764235391333856 -0.001943499086061877 0 0 0 0.0007182136599614141 -2.510636497093344e-05 0 0 0 0 
0 0 0 0 0 0 0 0 0 0 0 
0 0 0 0 0 0 0 0 0 0 0 
0 0 0 0 -0.0004190292980528146 -7.797578039498504e-05 0 -3.460175256853043e-05 0 0 0 
0.0002404331543853816 -0.000108124411806802 -0.0001497128741883542 -9.878824044005971e-05 -0.0001510952143865408 0 -8.784855799733401e-06 0 -7.392573669614387e-05 -0.0001447422008540732 -2.504727932915926e-05 
0 0 0 0 0 0 0 0 0 0 0 
0 0 0 0 0 0 0 0 0 0 0 
0 0 0 0 0 0 0 0 0 0 0 
0 0 0 0 0 0 0 0 0 0 0 
0 0 0 0 0 0 0 0 0 0 0 
-0.003579830592584353 0 0.006283897492233534 -0.004013187569689953 0 0 -0.0002856281003451171 -0.0003667514867654864 0 -0.0001961871791029903 -1.212602979384828e-05 
0 0 0 -0.000428765353571435 0 0 0 0 0 0 0 
0 0 0 0 0 -2.773628957862374e-05 0 0 0 -9.315216306080392e-05 0 
0 -0.0006332834418509043 0 0.001139815506528621 -0.0007107851338258592 0 -9.534254954696614e-05 0 -0.0001284920468252305 0 0 
0 0 0 0 0 0 0 0 0 0 0 
0 0 0 0 0 0 0 0 0 0 0 
0 -0.0332836249749042 -0.009844755547786349 -0.1600073364924366 0 0 -0.01646406614164558 0 -0.008087565464886199 0.2375466835221417 0 
0 0.003125267331797166 0 -0.0004057854572076566 -0.0006539539864789289 -6.073332890367627e-05 -0.0003194270260868767 -0.0009004086137980556 0 0 0 
0.005470440547045316 0 0 0 -0.001098648809119912 0 -0.0007832941098254298 0 0 -0.0001107365773268935 0 
0 0 0 0 0 0 0 0.002064724548327176 0 0 0 
0 0 -0.003591507607177238 0 0.004816024841651655 0 0 0 -0.0005825957543778965 0 0 
0 0 0 0 0 0 0 0 0 0 0 
0 0 0 0 0 0 0 0 0 0 0 
-0.0003247901203550964 0 0 -4.219633679887338e-05 0 0 -0.0004594623308247942 0 0 0 0 
0 -0.0009621774045493121 0 -0.1494816575806053 0 0 -0.0007652238027465341 0 0 0.1686051252192413 0 
0 0 0 0 0 0 0 0 0 0 0 
-0.01000633206219612 0 0 0 0 0 -0.0003603207665295458 -0.001206333490110399 0 0 0 
0 0 0 0 0 0 0 0 0 0 0 
0 0 0 0 0 0 0 0 0 0 0 
0 0 0 0 0 0 0 0 0 0 0 
0 0 0 0 0 0 0 0 0 0 0 
0 0 0 0 0 0 0 0 0 0 0 
0 0 0 0 0 0 0 0 0 0 0 
0 0 0 0 0 0 0 0 0 0 0 
0 0 0 0 0 0 0 0 0 0 0 
0 0 0 0 0 0 0 0 0 0 0 
0 0 0 0 0 0 0 0 0 0 0 
0 0 0 0 0 0 0 0 0 0 0 
-2.389889764865264e-05 0 0 0 0 0 0 0 0 0 -0.0001043205377993478 
-0.0007660001167820945 -3.672887630068027e-05 0 0 0.001616370161953824 -0.0002618814857083723 0 0 0 0 0 
0 -0.003075166694782488 0 0 -0.02659512675694711 0 0 0 0 0.02027225739556036 0 
0 0 0 0 0 0 0 0 0 0 0 
0 0 0 0 0 0 0 0 0 0 0 
0 0 0 0 0 0 0 0 0 0 0 
0 0 0 0 0 0 0 0 0 0 0 
0 0 0 0 0 0 0 0 0 0 0 
0 0 0 0 0 0 0 0 0 0 0 
0 0 0 0 0 0 0 0 0 0 0 
0 0 0 0 0 0 0 0 0 0 0 
0 0 0 0 0 0 0 0 0 0 0 
0 0 0 0 0 0 0 0 0 0 0 
0 0 0 0 0 0 0 0 0 0 0 
-0.003148604003822658 -0.01175346024680626 -0.0002655452937148707 -0.003942102540536492 0.01098957950678073 0 0 0 0 0 0 
0 0 0 0 0 0 0 0 0 0 0 
0 0 0 0 0 0 0 0 0 0 0 
0 0 0 0 0 0 0 0 0 0 0 
0 0 -0.001458336809613296 -0.004563592448018382 -0.004105583559841279 0 -0.0006215631201972949 0 -0.0001873461722225532 0.006088875690740303 0 
0 0 0 0 0 0 0 0 0 0 0 
0 0 0 0 0 0 0 0 0 0 0 
0 0 0 0 0 0 0 0 0 0 0 
0 0 0 0 0 0 0 0 0 0 0 
-0.0005748307212350602 -0.001110704828249427 0 -0.005186645455732163 -0.001729801367833194 -0.003760632523894988 0.01122834571259566 1.084202172485504e-19 0 0 0 
0 -0.0333024706017957 -0.009746002579924523 -0.1600459209065379 0 0 0.2689325280206377 0 -0.008869555876388605 -0.04823971124467198 0 
0 0 0 0 0 0 0 0 0 0 0 
0 0 0 0 0 0 0 0 0 0 0 
0 0 0 0 0 0 0 0 0 0 0 
0 0 0 0 0 0 0 0 0 0 0 
0 0 0 0 0 0 0 0 0 0 0 
0 0 0 0 0 0 0 0 0 0 0 
0 0 0 0 0 0 0 0 0 0 0 
0 0 0 0 0 0 0 0 0 0 0 
0 0 0 0 0 0 0 0 0 0 0 
0 0 0 0 0 0 0 0 0 0 0 
0 0 0 0 0 0 0 0 0 0 0 
0 0 0 0 0 0 0 0 0 0 0 
-0.0001218991806995855 0.0004431976731363353 -0.0002332590711529506 0 0 0 -1.622629743207099e-06 -0.000506510966832793 0 0 -8.883422356775441e-05 
0 0 0 0 0 0 0 0 0 0 0 
0 0 0 0 0 0 0 0 0 0 0 
0 0 0 0 0 0 0 0 0 0 0 
0 0 0 0 0 0 0 0 0 0 0 
0 0 0 0 0 0 0 0 0 0 0 
0 0 0 0 0 0 0 0 0 0 0 
0 0.1782786491479731 0 -0.02382120421114823 -0.002474704133664815 0 0 0 0 -0.1394614350694609 0 
0 0 0 0 0 0 0 0 0 0 0 
0 0 0 0 0 0 0 0 0 0 0 
0 0 0 0 0 0 0 0 0 0 0 
0 0 0 0 0 0 0 0 0 0 0 
0 0 0 0 0 0 0 0 0 0 0 
0 0 0 0 0 0 0 0 0 0 0 
0 0 0 0 0 0 0 0 0 0 0 
0 0 0 0 0 0 0 0 0 0 0 
0 0 0 0 0 0 0 0 0 0 0 
0 0 0 0 0 0 0 0 0 0 0 
0 0 0 0 0 0 0 0 0 0 0 
0 0 0 0 0 0 0 0 0 0 0 
0 0 0 0 0 0 0 0 0 0 0 
0 0 0 0 0 0 0 0 0 0 0 
0 0 0 0 0 0 0 0 0 0 0 
0 0 0 0 0 0 0 0 0 0 0 
0 0 0 0 0 0 0 0 0 0 0 
0 0 0 0 0 0 0 0 0 0 0 
0 0 0 0 0 0 0 0 0 0 0 
0 0 0 0 0 0 0 0 0 0 0 
0 0 0 0 0 0 0 0 0 0 0 
0 0.002371738813275491 0 0 0 0 0 -0.002813995491735358 0 0 0 
0 0 0 0 0 0 0 0 0 0 0 
0 0.0004136066275980427 0 -0.0009349707905667521 0 -8.480404301515784e-05 0 0 0 -0.0001445510451134017 0 
0 -0.03332104491089109 0.2758824114223258 -0.1599687064508795 0 0 -0.01642590007765814 0 -0.008903501790887008 -0.04823653096207849 0 
0 0 0 0 0 0 0 0 0 0 0 
0 0 0 0 0 0 0 0 0 0 0 
0 -0.1072917101264836 0 -0.02385565887261868 -0.002421259299227664 0 0 0 0 0.1459302579429067 0 
0 0 0 0 0 0 0 0 0 0 0 
0 0 0 0 0 0 0 0 0 0 0 
0 0 0 0 0 0 0 0 0 0 0 
0 0 0 0 0 0 0 0 0 0 0 
0 0 0 0 0 0 0 0 0 0 0 
0 0 0 0 0 0 0 0 0 0 0 
0 0 0 0 0 0 0 0 0 0 0 
0 0 0 0 0 0 0 0 0 0 0 
0 0 0 0 0 0 0 0 0 0 0 
0 0 0 0 0 0 0 0 0 0 0 
0 0 0 0 0 0 0 0 0 0 0 
0 -0.002865843924219615 0 0.004918430800954712 -0.0001181274400109557 0.002828398085574231 -0.0009894353364446049 2.710505431213761e-20 0 -0.002807418716133605 0 
-0.00855429554978205 0.05487626953485122 -0.008135881535187293 -0.03106201876560072 0 0 -0.007833628930966298 0 0 0 0 
0 0 0 0 0 0 0 0 0 0 0 
-0.0001945942079303673 -0.003143421935713289 0 0 0 0 0 0 -0.001167610449556304 0.01215959460462507 -0.0001389520268353931 
0 0 0 0 0 0 0 0 0 0 0 
0 0 0 0 0 0 0 0 0 0 0 
0 0 0 0 0 0 0 0 0 0 0 
0 0 0 0 0 0 0 0 0 0 0 
0 0 0 0 0 0 0 0 0 0 0 
0 0 0 0 0 0 0 0 0 0 0 
0 0 0 0 0 0 0 0 0 0 0 
0 0 0 0 0 0 0 0 0 -0.002094831826742028 0 
0 0 0 0 0 0 0 0 0 0 0 
0 -0.002983728703262343 0 0.0037673492924615 -0.003279510521787452 0 0 -8.095435696090833e-05 0 0 0 
0 0 0 0 0 0 0 0 0 0 0 
0 0 0 0 0 0 0 0 0 0 0 
0 0 0 0 0 0 0 0 0 0 0 
0 0 0 0 0 0 0 0 0 0 0 
-0.0007361700552497572 0 0 0 -0.0003424526605365006 -2.717022513023645e-05 0 -0.0004536430948850435 -0.0001478687596363096 0.001236936303093568 0 
-0.00865076166584957 -0.2307220121019025 -0.008119735815444132 0.2541786746092792 0 0 -0.0079111082097274 0 0 0 0 
0 0 0 0 0 0 0 0 0 0 0 
0 0 0 0 0 0 0 0 0 0 0 
0 0 0 0 0 0 0 0 0 0 0 
0 -0.0009971372920717528 0 -0.1494047165468143 0 0 -0.001118442184802845 0 -0.0003911101569387569 0.1687656822898804 0 
0 0 0 0 0 0 0 0 0 0 0 
0 0 0 0 0 0 0 0 0 0 0 
0 0 0 0.002083311345470704 0 0 0 0 0 0 0 
0 0 0 0 0 0 0 0 0 0 0 
0 0 0 0 0 0 0 0 0 0 0 
0 0 0 0 0 0 0 0 0 0 0 
0 0 0 0 0 0 0 0 0 0 0 
0 0 0 0 0 0 0 0 0 0 0 
-0.001643755327651107 0 0 -0.005988227772040955 -9.480676600443843e-05 0 0 0 0 0.0147122967808521 0 
0 0 0 0 0 0 0 0 0 0 0 
0 0 0 0 0 0 0 0 0 0 0 
0 0 0 0 0 -0.0001505572752496996 0 0.0002141525672344419 0 -0.0005115905883442131 0 
0.0001206594441532817 0 -0.0002728837967035232 0 -0.0002603030208684597 -7.300281575231287e-06 0 -1.061312093484078e-07 0 0 -9.330826552989857e-05 
0 0 0 0 -0.00170833661656919 0 0 0 0 0.005024696461230509 0 
0 -0.009253142094343433 0 0.008221452583543044 0 0 0 0 0 -0.002213465301009277 0 
0 0 0 0 0 0 0 0 0 0 0 
0 0 0 0 0 0 0 0 0 0 0 
0 0 0 0 0 0 0 0 0 0 0 
0 0 0 0 0 0 0 0 0 0 0 
0 0 0 0 0 0 0 0 0 0 0 
0 0 0 0 0 0 0 0 0 0 0 
0 0 0 0 0 0 0 0 0 0 0 
0 0 0 0 0 0 0 0 0 0 0 
0 0 0 0 0 0 0 0 0 0 0 
0 0 0 0 0 0 0 0 0 0 0 
0 0 0 0 0 0 0 0 0 0 0 
0 0 0 0 0 0 0 0 0 0 0 
0 0 0 0 0 0 0 0 0 0 0 
0 0 0 0 0 0 0 0 0 0 0 
0 0 0 -0.0001721886644982875 0 0 0.01079312984680232 0 0 -0.002784423956570813 -0.0007537598108583397 
0 0 0 0 0 0 0 0 0 0 0 
0 0 0 0 0 0 0 0 0 0 0 
0 0 0 0 0 0 0 0 0 0 0 
0 0.0004456048014235644 0 0 -0.0008146444361761568 0 -2.753399426099261e-05 0 -9.37369011433983e-05 0 0 
0 0 0 0 0 0 0 0 0 0 0 
0 0 0 0 0 0 0 0 0 0 0 
0 0 0 0 0 0 0 0 0 0 0 
0 0 0 0 0 0 0 0 0 0 0 
0 0 0 0 0 0 0 0 0 0 0 
0 0 0 0 0 0 0 0 0 0 0 
0 0 0 0 0 0 0 0 0 0 0 
0 0 0 0 0 0 0 0 0 0 0 
0 0 0 0 0 0 0 0 0 0 0 
0 0 0 0 0 0 0 0 0 0 0 
0 0 0 0 0 0 0 0 0 0 0 
0 0 0 0 0 0 0 0 0 0 0 
0 0 0 -0.0004882472794233437 0 0 0 0 0 0 0 
0 0 0 0 0 0 0 0 0 0 0 
0 0 0 0 0 0 0 0 0 0 0 
0 0 0 0 0 0 0 0 0 0 0 
0 0 0 0 0 0 0 0 0 0 0 
0 0 0 0 0 0 0 0 0 0 0 
0 0 0 0 0 0 0 0 0 0 0 
0 0 0 0 0 0 0 0 0 0 0 
-0.0009391667150016095 -0.002451202854848043 0 0.008392807264511911 0 0 0 -0.0006507758625004686 0 0 0 
-0.0009013307536063679 0 0 0.002125010246050307 -0.0004890932471259713 0 0 0 0 -0.001937366563774141 0 
0 0 0 0 0 0 0 0 0 0 0 
0 0 0 0 0 0 0 0 0 0 0 
0 -0.00107935137688723 0 0.1349549841367417 0 0 -0.0007134812519460617 0 0 -0.1158104892702112 0 
0 0 0 0 0 0 0 0 0 0 0 
0 0 0 0 0 0 0 0 0 0 0 
0 0 0 0 0 0 0 0 0 0 0 
0 0 0 0 0 0 0 0 0 0 0 
0 0 0 0 0 0 0 0 0 0 0 
0 0 0 0 0 0 0 0 0 0 0 
0 0.002071921344324352 0 -3.143416415210114e-05 0 0 0 0 -2.499948069489196e-05 -0.001428712990860464 0 
0 0 0 0 0 0 0 0 0 0 0 
0 0 0 0 0 0 0 0 0 0 0 
0 0 0 0 0 0 0 0 0 0 0 
0 0 0 0 0 0 0 0 0 0 0 
0 0 0 0 0 0 0 0 0 0 0 
0 0 0 0 0 0 0 0 0 0 0 
-0.008626956264291955 0.05484427371598888 -0.00818263337442075 -0.03106842227646962 0 0 -0.008051047884899574 0 0 0 0 
0 0.2313869544505213 -0.008822834189994102 -0.158687222505053 0 0 -0.01556818706187727 0 -0.008419549130217394 -0.02907536594323401 0 
0 0 0 0 0 0 0 0.001268520188019074 0 0 0 
0 0 -0.0006914726147536042 0 -0.003130382030087266 -0.0004386698258919343 0 -0.0007466668368807269 0 0 -2.707739909513704e-05 
-0.1579322357986426 0.1690744839329395 0 -0.0001128047423072559 0 0 0 0 0 -0.0001742525372532554 0 
0 0 0 0 0 0 0 0 0 0 0 
0 0.002478252858350777 0 0 0 -6.96470566582399e-06 0 0 0 -0.007316372222681128 0 
0 0 0 0 0 0 0 0 0 0 0 
0 0 0 0 0 0 0 0 0 0 0 
0 0 0 0 0 0 0 0 0 0 0 
0 0 0.0006602919868295581 -0.004196506115897028 0 0 0 -0.004470373962397195 0 0 -0.0005539554231035308 
0 0 0 0 0 0 0 0 0 0 0 
0 0 0 0 0 0 0 0 0 0 0 
0 0 0 0 0 0 0 0 0 0 0 
0 0 0 0 0 0 0 0 0 0 0 
0 0 0 0 0 0 0 0 0 0 0 
0 0 0 0 0 0 0 0 0 0 0 
0 0 0 0 0 0 0 0 0 0 0 
-0.001309149696074469 0.004921435555346854 0 -0.001192075180204218 -3.455387025435585e-05 0 0 0 0 0 0 
-0.0003166062218045226 0 -0.0006484153715803487 0 -0.0005239694220323559 -0.0003201359032638659 0 0.0007832349845075322 0 0 -3.850648595768599e-06 
0 0 0 0 0 0 0 0 0 0 0 
0 0 0 -0.0004209924906193185 0 -0.001018218491017393 0 0.00199447255860372 0 0 0 
0 0 0 0 0 0 0 0 0 0 0 
0 0 0 0 0 0 0 0 0 0 0 
0 0 0 0 0 0 0 0 0 0 0 
0 0 0 0 0 0 0 0 0 0 0 
0 0 0 0 0 0 0 0 0 0 0 
0 0 0 0 0 0 0 0 0 0 0 
0 0 0 0 0 0 0 0 0 0 0 
0 0 0 0 0 0 0 0 0 0 0 
0 0 0 0 0 0 0 0 0 0 0 
0 0 0 0 0 0 0 0 0 0 0 
0 0 0 0 0 0 0 0 0 0 0 
0 0 0 0 0 0 0 0 0 0 0 
-0.0009109560098201654 -0.0001283802703586911 -0.001748108281757524 -0.00233484413341098 0 0 0 -0.002285901952312847 0 0.005513259043816045 0 
0 0 0 0 0 0 0 0 0 0 0 
0 0 0 0 0 0 0 0 0 0 0 
0 0 0 0 0 0 0 0 0 0 0 
0 0 0 0 0 0 0 0 0 0 0 
0 0 0 0 0 0 0 0 0 0 0 
0 0 0 0 0 0 0 0 0 0 0 
0 0 0 0 0 0 0 0 0 0 0 
0 0 0 0 0 0 0 0 0 0 0 
0 0 0 0 0 0 0 0 0 0 0 
0 0 0 0 0 0 0 0 0 0 0 
0 0 0 0 0 0 0 0 0 0 0 
0 0 0 0 0 0 0 0 0 0 0 
0 0 0 0 0 0 0 0 0 0 0 
0 -0.0003113967674185971 0 0 0 0 0 0 0 0 -3.333772387206363e-05 
0 0 0 0 0 0 0 0 0 0 0 
-0.002073093033086352 0.02314583716085472 0 -0.003414636880270877 -0.006356259783220248 -8.763170706972197e-05 -2.381661465064833e-05 0 0 0 0 
0 0 0 0 0 0 0 0 0 0 0 
0 0 0 0 0 0 0 0 0 0 0 
0 0 0 0 0 0 0 0 0 0 0 
-0.0006701565143686073 -0.0003157923369235665 0 0 0 0 0 0 0 0 0 
-0.0008642613614494743 -0.001527630668092144 0 -0.0003938487986122092 0.004782878085302008 -7.457133914179807e-05 0 0 0 0 0 
0 0 0 0 0 0 0 0 0 0 0 
0 0 0 0 0 0 0 0 0 0 0 
0 0 0 0 0 0 0 0 0 0 0 
0 0 0 0 0 0 0 0 0 0 0 
0 -0.00182755926449535 0.004576486365980652 0 -0.0004717867014485742 0 0 0 0 0 0 
0 0 0 0 0 0 0 0 0 0 0 
0 0 0 0 0 0 0 0 0 0 0 
-0.001000023857443367 0 0 0 -0.0007849953171825514 0 0 0 0 0.002857547290373395 0 
0 0 -0.001518087017495246 0 0.0001754451345751797 0 0 0 0 0 0 
-0.0005687987987152083 -0.001927781077121378 0 -0.0007634208321078487 0.0005927503460822146 -5.326549393583386e-06 0 0 0 0 0 
0 0 0 0 0 0 0 0 0 0 0 
0 0.03854268591104689 0 0 -0.03525518920483246 0 0 -0.0003118526210912395 0 0 0 
0 0 0 0 0 0 0 0 0 0 0 
0 0.03864183851644915 0 0 -0.03506894236299923 0 0 -0.0008275915780752834 0 0 0 
0 0 0 0 0 0 0 0 0 0 0 
0 0 -8.249821313457306e-05 0 0 0 0 0 0 0 0 
0 0 0 0 0 0 0 0 0 0 0 
0 0 0 0 0 0 0 0 0 0 0 
0 0 0 0 0 0 0 0 0 0 0 
0 0 0 0 0 0 0 0 0 0 0 
0 0 0 0 0 0 0 0 0 0 0 
0 0 0 0 0 0 0 0 0 0 0 
0 0 0 0 0 0 0 0 0 0 0 
0 0 0 0 0 0 0 0 0 0 0 
0 0 0 0 0 0 0 0 0 0 0 
0 0 0 0 0 0 0 0 0 0 0 
0 0 -0.001117501121558472 0 0 0 0 0 0 0 0 
0 0.002040894062785047 5.421010862427522e-20 5.421010862427522e-20 0 0 -0.0003717488745115964 0 0 -0.003426552637711687 0 
0 0 0 0 0 0 0 0 0 0 0 
0 0 0 0 0 0 0 0 0 0 0 
0 0 0 0 0 0 0 0 0 0 0 
0 0 0 0 0 0 0 0 0 0 0 
0 0 0 0 0 0 0 0 0 0 0 
0 0 0 0 0 0 0 0 0 0 0 
0 0 0 0 0 0 0 0 0 0 0 
0 0 0 0 0 0 0 0 0 0 0 
0 0 0 0 0 0 0 0 0 0 0 
0 0.1449786332334738 0 -1.025134582920465e-06 -0.002386298324554045 0 0 0 0 -0.1351988540938952 0 
0 0 0 -0.0009679211228033229 0 0 0 0 0 0.001135750482582686 0 
0.1896414162137446 -0.01314863703113219 -0.05998375562350235 -0.04251101440469316 -0.007186812122651084 -0.005756475012591676 -0.003685205242763051 -0.07979534166444639 -0.004404557400243959 0 -0.004412191980956234 
0 0 0 0 0 0 0 0 0 0 0 
0 0 0 0 0 0 0 0 0 0 0 
0 0 0 0 0 0 0 0 0 0 0 
0 0 0 0 0 0 0 0 0 0 0 
0 0 0 0 0 0 0 0 0 0 0 
0 0 0 0 0 0 0 0 0 0 0 
0 0 0 0 0 0 0 0 0 0 0 
0 0 0 0 0 0 0 0 0 0 0 
0 0 0 0 0 0 0 0 0 0 0 
0 0 0 0 0 0 0 0 0 0 0 
0 0 0 0 0 0 0 0 0 0 0 
0 0 0 0 0 0 0 0 0 0 0 
0 0 0 0 0 0 0 0 0 0 0 
0 0 0 0 0 0 0 0 0 0 0 
0 0 0 0 0 0 0 0 0 0 0 
0 0 0 0 0 0 0 0 0 0 0 
0 0 0 0 0 0 0 0 0 0 0 
0 0 0 0 0 0 0 0 0 0 0 
0 0.2626916699222336 -0.008526698238438017 -0.1403322168744829 0 0 -0.0144159636135906 0 -0.04416983249232732 -0.04165025182512944 0 
0 0 0 0 0 0 0 0 0 0 0 
0 0 0 0 0 0 0 0 0 0 0 
0 0 0 0 0 0 0 0 0 0 0 
0 0 0 0 0 0 0 0 0 0 0 
0 0 0 0 0 0 0 0 0 0 0 
0 0 0 0 0 0 0 0 0 0 0 
0 0 0 0 0 0 0 0 0 0 0 
0 0 0 0 0 0 0 0 0 0 0 
0 0 0 0 0 0 0 0 0 0 0 
0 0 0 0 0 0 0 0 0 0 0 
0 0 0 0 0 0 0 0 0 0 0 
0 0 0 0 0 0 0 0 0 0 0 
0 0 0 0 0 0 0 0 0 0 0 
0 0 0 0 0 0 0 0 0 0 0 
0 0.0003854571949356457 0 0 0 0 0 0 0 0 -2.737155933059215e-05 
0 0 0 0 -0.0003062700740914115 0 0 0 0 0 0 
0 0 0 0 0 0 0 0 0 0 0 
0 -0.002085506878000152 0 0.005137196617597949 0 1.355252715606881e-20 0 -1.355252715606881e-20 0 -5.421010862427522e-20 0 
0 0 0 0 0 0 0 0 0 0 0 
0 -0.004548594046113754 0 0.020181173095105 -0.0007203611237360274 0 0 0 0 0 0 
-0.001385437736904919 -0.001238758042703144 -0.001247673940922234 -0.001796856601381556 0 0.0004997093915128321 -0.0004036154305935445 0.002352354271619191 -9.681302778425865e-05 0 -0.0002930869864598572 
0 0 0 0 0 0 0 0 0 0 0 
0 0 0 0 0 0 0 0 0 0 0 
0 0 0 0 0 0 0 0 0 0 0 
-0.006246053742780696 0.1456655234007557 0 -0.002989110054652926 0 -0.1291826431828811 0 0 0 0 0 
0 0 0 0 0 0 0 0 0 0 0 
0 0 0 0 0 0 0 0 0 0 0 
0 0 -0.0002025979733122024 0.0001532446553604229 -0.0003318373784310556 0 -3.049763012253611e-05 0 0 -0.0003414113448279579 0 
0 -0.0007847920007177158 0 0.003554005863144046 0 0 0 -0.0005671456590892544 0 -0.001342090407925478 0 
0 0 0 0 -0.0008398234830309637 0 0 0 0 0 0 
0 -0.000879349238094955 0 0 -0.0001033807516597424 0 0 0 0 0.0009516444820946519 0 
0 0 0 0 0 0 0 0 0 0 0 
0 0 0 0 0 0 0 0 0 0 0 
0.004808054748978259 -0.002464473845321087 0 -0.0009562911874891831 0 0 0 0 0 0 0 
0 0 0 0 0 0 0 0 0 0 0 
0 -0.0024951419486948 0 0.004929591513530637 0 -0.001277170158467018 0 0 0 -0.001534630183503322 0 
-0.004699664453225653 -0.004070201327804848 -0.0004549831890850858 0 0.01013619239550638 0 0 -0.001668414163771875 0 0 0 
0 0 0 0 0 0 0 0 0 0 0 
0 0 0 0 0 0 0 0 0 0 0 
0 0 0 0 0 0 0 0 0 0 0 
0 0 0 0 0 0 0 0 0 0 0 
0 0 0 0 0 0 0 0 0 0 0 
0 0 0 0 0 0 0 0 0 0 0 
-0.009112068514234718 -0.1921158875092363 0 0.2037493995323434 0 0 0 -0.0005804985226100846 0 0 0 
0 0 0 -0.03778282954836953 0 0 0 0 0 0.03122035127632033 0 
0 0 0 0 0 0 0 -0.001268018462977167 0 0 0 
0 0 0 0 0 0 0 0 0 0 0 
0 0 0 0 0 0 0 0 0 0 0 
0 0 0 0 0 0 0 0 0 0 0 
0 0 0 0 0 0 0 0 0 0 0 
0 0 0 0 0 0 0 0 0 0 0 
0 0 0 0 0 0 0 0 0 0 0 
0 0 0 0 0 0 0 0 0 0 0 
0 0 0 0 0 0 0 0 0 0 0 
0 0 0 0 0 0 0 0 0 0 0 
0 0 0 0 0 0 0 0 0 0 0 
0 0 0 0 0 0 0 0 0 0 0 
0 0 0 0 0 0 0 0 0 0 0 
0 0 0 0 0 0 0 0 0 0 0 
0 0 0 0 0 0 0 0 0 0 0 
0 0 0 0 0 0 0 0 0 0 0 
0 0 0 0 0 0 0 0 0 0 0 
0 0 0 0 0 0 0 0 0 0 0 
0 0 0 0 0 0 0 0 0 0 0 
0 0 0 0 0 0 0 0 0 0 0 
0 0 0 0 0 0 0 0 0 0 0 
0 0 0 0 0 0 0 0 0 0 0 
0 0 0 0 0 0 0 0 0 0 0 
0 0 0 0 0 0 0 0 0 0 0 
0 0 0 0 0 0 0 0 0 0 0 
0 -0.1406142873167543 0.142522295761286 0 -0.003561434734370294 0 0 0 0 -0.0004008452724538966 0 
0 0 0 0 0 0 0 0 0 0 0 
0 0 -0.001414877685819023 0 0 0 0 0 0 0 0 
0 0.003440938588486561 0 -0.003218222473818169 0 0 0 0 0 0 0 
0 0 0 0 0 0 0 0 0 0 0 
0 0 0 0 0 0 0 0 0 0 0 
0 0 0 0 0 0 0 0 0 0 0 
0 -0.01322413381345007 -0.001118988272104416 0 0 0 0 0 0 0 0 
0 0 0 0 0 0 0 0 0 0 0 
0 0 0 0 0 0 0 0 0 0 0 
0 0 0 0 0 0 0 0 0 0 0 
0 0 0 0 0 0 0 0 0 0 0 
0 0 0 0 0 0 0 0 0 0 0 
-0.0003273753011252893 -0.0002322622855575532 0 0.005822961053150549 0 0 0 -0.0003860003186095114 0 -0.00354257616013772 0 
0 -0.00211197267069379 0.002073482263948793 0 -0.0001438663693662041 0 0 -0.0005617120167100594 0 0 0 
0 0 0 0 0 0 0 0 0 0 0 
-0.002262696736171065 0.2068153821217864 -0.005766626134012825 -0.1107166364967466 -0.004161643345378722 0 -0.02932504026674486 0 -0.007656841032495704 -0.05279439520695112 0 
-0.00922335575761119 0.01964574373987887 -0.01574632531777837 0.08268413331095868 -5.935377748874964e-07 -8.10227823441485e-06 -0.02148944545588126 -5.421010862427522e-20 -0.008936468425065172 -0.04815610066916816 -7.692810070869669e-05 
0 0 -4.411283518826022e-05 0.003600703564782814 -0.00128316775802489 0 0 0 0 0 0 
0 0 0 0 0 0 0 0 0 0 0 
0 -0.03333075325121158 -0.009814160056518053 0.1256592486526133 0 0 -0.01640024506635095 0 -0.009238076180242936 -0.04819377163554036 0 
0 0 0 0 0 0 0 0 0 0 0 
0 0 0 0 0 0 0 0 0 0 0 
0 0.04937919129204805 0 0 -0.009830902911711801 0 0 0 0 -0.04329143285741933 0 
0 -0.0007931731479476045 0 0 0 0 -0.0001485784618931564 0 0 0 0 
0 0 0 0 0 0 0 0 0 0 0 
0 0 0 0 0 0 0 0 0 0 0 
-0.0009790973068515396 -0.0001054915447057429 -0.00027245482420822 0 0 0 -0.0001531337001305671 0.001292460378074327 0 0 -2.126236201180357e-05 
0 0 0 0 0 0 0 0 0 0 0 
0 0 0 0 0 0 0 0 0 0 0 
0 0 0 0 0 0 0 0 0 0 0 
0 0 0 0 0 0 0 0 0 0 0 
0 0 0 0 0 0 0 0 0 0 0 
0 0 0 0 0 0 0 0 0 0 0 
0 0 0 0 0 0 0 0 0 0 0 
-0.0002267707940287251 0 -0.05097533082176554 0 0.05229391115064141 0 0 -0.002471335620314168 0 0 -0.0001542595538993534 
0 0 0 0 0 0 0 0 0 0 0 
0 0 0 0 0 0 0 0 0 0 0 
0 0 0 0 0 -0.0001009462678395266 -0.002531056530404991 0 0 0 -7.485676463961229e-05 
0 0 0 0 0 0 0 0 0 0 0 
0 0 0 0 0 0 0 0 0 0 0 
0 0 0 0 0 0 0 0 0 0 0 
0 0 0 0 0 0 0 0 0 0 0 
0 0.001967233125190216 0 0 0 -4.897864922561523e-05 0 -0.0005641603037019149 -2.557530225613624e-05 0 0 
0 0 0 -0.08161720849569071 -0.02401445567101622 0 0 0 0 0.08650626586125079 0 
-0.0004094458253632528 0 -0.0001570410212338436 0.005636066839478717 0 0 -0.001677300324022739 -1.46182637472814e-05 0 0 0 
0 0 0 0 0 0 0 0 0 0 0 
0 0 0 0 0 0 0 0 0 0 0 
0 0 0 0 0 0 0 0 0 0 0 
0 0 0 0 0 0 0 0 0 0 0 
0 -0.00461978582655989 0 0.004836434149288076 0 0 -0.001130393036450941 0 0 0 0 
0 0 0 0 0 0 0 0 0 0 0 
0 0 0 0 0 0 0 0 0 0 0 
0 0 0 0 0 0 0 0 0 0 0 
0 0 0 0 0 0 0 0 0 0 0 
0 0 0 0 0 0 0 0 0 0 0 
0 0 0 0 0 0 0 0 0 0 0 
0 0.0006941932975842498 0 -0.0008593188410615367 0 -0.0002154020093129149 0 0 0 0 0 
0 0 0 0 0 0 0 0 0 0 0 
0 0 0 0 0 0 0 0 0 0 0 
0 0 0 0 0 0 0 0 0 0 0 
0 0 0 0 0 0 0 0 0 0 0 
0 0 0 0 0 0 0 0 0 0 0 
0 0 0 0 0 0 0 0 0 0 0 
0 0 0 0 0 0 0 0 0 0 0 
0 0 0 0 0 0 0 0 0 0 0 
0 0 0 0 0 0 0 0 0 0 0 
0 0 0 0 0 0 0 0 0 0 0 
0 0 0 0 0 0 0 0 0 0 0 
0 0 0 0 0 0 0 0 0 0 0 
0 0 0 0 0 0 0 0 0 0 0 
0 0 -0.0004877429163503775 0.005648571274940107 0 0 0 0 0 -0.002452888807130063 0 
0 0 0 0 0 0 0 0 0 0 0 
0 0 0 0 0 0 0 0 0 0 0 
0 0 0 0 0 0 0 0 0 0 0 
0 0 0 0 0 0 0 0 0 0 0 
0 0 0 0 0 0 0 0 0 0 0 
0 0 0 0 0 0 0 0 0 0 0 
-0.002569116574098904 0.001668725710958919 0 0 0 0 0 -2.011346824216472e-05 0 0 0 
0 -0.002269052671040603 0 -0.0002459987076141667 0 0 0 0.005338576197718142 0 -0.0001327270645561253 0 
0 0 0 0 0 0 0 0 0 0 0 
0.008487958169078116 0 0 0 -0.001562402088375835 0 -0.01010043152736199 -0.00273235721209296 0 0 0 
-4.836021410395751e-05 0 -0.05097085841025689 0 0.05213046894441639 0 0 -0.003002021576516649 0 0 -0.0008220122832299602 
0 0.002136865083142679 0 -0.0005052975846287236 0 -0.001028197257758078 0 0 0 -0.00129774240208354 -2.2646376591535e-05 
0 0 0 0 0 0 0 0 0 0 0 
0 0 0 0 0 0 0 0 0 0 0 
0 0.04657407838242714 -0.001726487481814083 -0.00273289831794123 -0.005107468818104318 0 0 -0.0003832106377262847 0 0 0 
0.01244095863780774 -0.002242352317692194 -0.003897875755404138 -0.0003686180124654616 0 0 0 0 0 0 0 
0 0 0 0 0 0 0 0 0 0 0 
0 0 0 0 0 0 0 0 0 0 0 
0 0 0 0 0 0 0 0 0 0 0 
-0.000961420676788189 0 0 -0.0002489041043961501 0 0 0 0.0002295824580293287 0 0 0 
0 0 0 0 0 0 0 0 0 0 0 
0 -0.0006474081345701067 0 0.0004522844789413108 0 0 0 -5.596265259279799e-05 -0.0003132941661775227 0 -0.0002285294418781253 
0 0 0 0 0 0 0 0 0 0 0 
0 0 0 0 0 0 0 0 0 0.003560490133859034 0 
-0.0002886550934707297 0.0009925275136821005 0 0 0 0 0 0 0 0 0 
0 0 0 0 0 0 0 0 0 0 0 
0 0 0 0 0 0 0 0 0 0 0 
0 0 0 0 0 0 0 0 0 0 0 
0 0 0 0 0 0 0 0 0 0 0 
0 0 0 0 0 0 0 0 0 0 0 
0 0 0 0 0 0 0 0 0 0 0 
0 0 0 0 0 0 0 0 0 0 0 
-0.001199569074884729 -0.002079610712059586 0.003187793097838029 -0.000932849065508335 0.006664855200722303 -1.882359254439698e-05 -0.0001193152494711804 0 0 -0.0009090603854886945 0 
0 0 0 0 0 0 0 0 0 0 0 
-5.483872909966675e-05 0.000327329860470629 0 0 0 -0.0002510437104647474 0 0 0 0 0 
0 0.0001786980277409273 0 0 0 0 0 -0.0002830799053289444 0 -0.0003244254141279612 -0.0001849811176078935 
-0.01348330385452806 0.03341819702628581 -0.003090479115651836 0 0 0 -0.01586565556805094 0 0 0 0 
0 0 0 0 0 0 0 0 0 0 0 
0 0 0 0 0 0 0 0 0 0 0 
0 0 0 0 0 0 0 0 0 0 0 
0 0 0 0 0 0 0 0 0 0 0 
0 0 0 0 0 0 0 0 0 0 0 
0 0 0 0 0 0 0 0 0 0 0 
0 0 0 0 0 0 0 0 0 0 0 
0 0 0 0 0 0 0 0 0 0 0 
0 0 0 0 0 0 0 0 0 0 0 
0 0 0 0 0 0 0 0 0 0 0 
0 0 0 0 0 0 0 0 0 0 0 
0 -0.002235911701115503 0 -0.0004966365637702457 0 0.002664283106884291 0 -4.036911534024172e-05 0 0 0 
0 0 0 0 0 0 0 0 0 0 0 
0 -0.0007501030936034039 0 0 -2.775604595479935e-05 0 0 0 0.001033446900611921 -0.000606602508178512 0 
0 0 0 0 0 0 0 0 0 0 0 
0 0 0 0 0 0 0 0 0 0 0 
0 0 0 0 0 0 0 0 0 0 0 
0 0 0 0 0 0 0 0 0 0 0 
0 0 0 0 0 0 0 0 0 0 0 
0 0 0 0 0 0 0 0 0 0 0 
0 0 0 0 0 0 0 0 0 0 0 
0 0 0 0 0 0 0 0 0 0 0 
0 0 0 0 0 0 0 0 0 0 0 
0 0 0 0 0 0 0 0 0 0 0 
0 0 0 0 0 0 0 0 0 0 0 
0 0 0 0 0 0 0 0 0 0 0 
0 0 0 0 0 0 0 0 0 0 0 
0 0 0 0 0 0 0 0 0 0 0 
0 0 0 0 0 0 0 0 0 0 0 
-0.002015335561789577 0.0006878735317817351 0.0006320422160869602 0 -0.002603670837688566 -0.0005492382389881811 0 0 0 -0.001410388653024986 0 
0 0 0 0 0 0 0 0 0 0 0 
0 -0.001892673645774104 0.006810558600900802 0 -0.002357497255704378 0 0 0 0 0 0 
0 0 0 0 0 0 0 0 0 0 0 
0 0 0 0 0 0 0 0 0 0 0 
0 0 0 0 0 0 0 0 0 0 0 
0 0 0 0 0 0 0 0 0 0 0 
0 0 0 0 0 0 0 0 0 0 0 
0 0 0 0 0 0 0 0 0 0 0 
0 0 0 0 0 0 0 0 0 0 0 
0.005973540405749076 -0.004136008229697555 0 -0.001019564205055394 0 0 0 0 0 0 0 
0 0 0 0 0 0 0 0 0 0 0 
0 0 0 0.002494894340320218 0 0 0 0 -0.001026870971045893 -0.0002897335648753403 0 
0 0 0 0 0 0 0 0 0 0 0 
0 0.0386100916532981 0 0 -0.03535011500963862 0 0 -0.0002043556094900257 0 0 0 
0 0 0 0 0 0 0 0 0 0 0 
-0.0008499983086319254 0.0002619400224588228 0 0 0 0 0 0 0 0 0 
0 0 0 0 0 0 0 0 0 0 0 
0 0 0 0 0 0 0 0 0 0 0 
0 0 0 0 0 0 0 0 0 0 0 
0 0 0 0 0 0 0 0 0 0 0 
0.0008601263649804038 -4.854190413268243e-05 -0.0003617736982851528 -0.0002149642337395361 -6.11998269864108e-05 -0.0001874701786725365 -0.0001415331095498578 -0.0001465915125835201 -2.754392811651117e-05 0 -5.140203589604051e-05 
0 0 0 0 0 0 -6.85037906522891e-05 0 0 0 0 
0 0 0 0 0 0 0 0 0 0 0 
0 0 0 0 0 0 0 0 0 0 0 
0 0 0 0 0 0 0 0 0 0 0 
0 0 0 0 0 0 0 0 0 0 0 
0 0 0 0 0 0 0 0 0 0 0 
0 0 0 0 0 0 0 0 0 0 0 
0 -0.005201179077389801 0 0.006748296219545806 0 0 0 0 -0.00222390117144621 0 0 
0 0 0 0 0 0 0 0 0 0 0 
0 0 0 0 0 0 0 0 0 0 0 
0 0 0 0 0 0 0 0 0 0 0 
0 -0.006938081432389581 0 -0.003064343574560433 0 0 0 0 0 0.005629097927755571 0 
0 0 0 0 0 0 0 0 0 0 0 
0 0 0 0 0 0 0 0 0 0 0 
0 0 0 0 0 0 0 0 0 0 0 
0 -0.0850404269913284 0 -0.003863164713848766 -0.008370821589065868 0 0 0 0 0.07901768359936746 0 
0 0 0 0 0 0 0 0 0 0 0 
0 0 0 0 0 0 0 0 0 0 0 
0 0 0 0 0 0 0 0 0 0 0 
0 0 0 0 0 0 0 0 0 0 0 
0 0 0 0 0 0 0 0 0 0 0 
0 0 0 0 0 0 0 0 0 0 0 
0 0 0 0 0 0 0 0 0 0 0 
0 0 0 0 -0.0004611890747312743 -3.733917999134518e-05 0 0 0 -0.0001463926827363338 0 
0 -0.0009560667381524752 0 0.002838751422709869 -4.219622485022257e-05 0 0 -0.0007120930908474535 0 0 0 
0 0 0 0 0 0 0 0 0 0 0 
0 -0.03337100582706039 -0.009780220334254235 0.1257153752086531 0 0 -0.01649142868508023 0 -0.008924144795711566 -0.04837345697466253 0 
0 0 0 0 0 0 0 0 0 0 0 
0 0 0 0 0 0 0 0 0 0 0 
0 -0.004811732123739418 0 0.001439046413600784 0 0 0 0 0 0 0 
0 0 -0.006688483048124419 0.0001534154951001128 0 0 -0.0004580893808169819 0 0 0 0 
0 0 0 0 0 0 0 0 0 0 0 
0 0 0 0 0 0 0 0 0 0 0 
0 0 0 0 0 0 0 0 0 0 0 
0 0 0 0 0 0 0 0 0 0 0 
0 0 0 0 0 0 0 0 0 0 0 
0 0 0 0 0 0 0 0 0 0 0 
0 0 0 0 0 0 0 0 0 0 0 
0 0 0 0 0 0 0 0 0 0 0 
0 0 0 0 0 0 0 0 0 0 0 
0 0 0 0 0 0 0 0 0 0 0 
0 0 0 0 0 0 0 0 0 0 0 
0 0 0 0 0 0 0 0 0 0 0 
0 0 0 0 0 0 0 0 0 0 0 
0 0 0 0 0 0 0 0 0 0 0 
0 0 0 0 0 0 0 0 0 0 0 
0 0 0 0 0 0 0 0 0 0 0 
0 0 0 0 0 0 0 0 0 0 0 
0 0 0 0 0.003828783816136037 0 0 -0.0008909595962783777 -0.001000873019637154 -0.0003247502501765175 -0.0004900208205781334 
0 0 0 0 0 0 0 0 0 0 0 
0 0 0 0 0 0 0 0 0 0 0 
0 0 0 0 0 0 0 0 0 0 0 
0 0 0 0 0 0 0 0 0 0 0 
0 0 0 0 0 0 0 0 0 0 0 
0 0 0 0 0 0 0 0 0 0 0 
0 0 0 0 0 0 0 0 0 0 0 
0 0 0 0 0 0 0 0 0 0 0 
0 0 0 0 0 0 0 0 0 0 0 
0 0 0 0 0 0 0 0 0 0 0 
0 0 0 0 0 0 -2.727704037837608e-05 0 0 0 0 
-0.002564042616554252 0 0.004572634572278004 0 0 0 0 0 0 0 0 
0 0 0 0 0 0 0 0 0 0 0 
0 0 0 0 0 0 0 0 0 0 0 
0 -0.003782927051207054 -0.001934284179029116 -0.005830534262102162 0 -0.0002735580876366164 -0.001124564058633444 0 0 0 0.003135662825384362 
0 0 0 0 0 0 0 0 0 0 0 
0 0 0 0 0 0 0 0 0 0 0 
-0.0006125345093229621 -1.654868962209395e-05 -2.989185798597207e-05 -0.0003420174355014167 -6.299004551665555e-07 -0.0001178967461933467 0 0 0 0.0007205027217874499 -3.588339281567452e-06 
0 0 0 0 0 0 0 0 0 0 0 
0 0 0 0 0 0 0 0 0 0 0 
0 0 0 0 0 0 0 0 0 0 0 
0 0 0 0 0 0 0 0 0 0 0 
0 0 0 0 0 0 0 0 0 0 0 
0 0.005126760418312914 0 0 -0.001402933830900284 -4.645094425786124e-05 0 -0.002611896547213703 0 -4.760613951597074e-06 0 
0 0 -0.001266716765867062 -0.006227782273539302 0 0 0 0.0106521869273445 0 -0.0006230577009919191 0 
0.002393455285346479 0 -0.002669308566174352 0 0 0 0 0 0 -0.001201528448007473 0 
0 0.003431484833372592 0 -0.001263025007991728 0 -2.992032500165456e-05 0 -0.0005231152968503553 -5.248659136871899e-05 0 0 
0 0 0 0 0 0 0 0 0 0 0 
0 0 0 0 0 0 0 0 0 0 0 
0 0 0 0 0 0 0 0 0 0 0 
0 0 0 0 0 0 0 0 0 0 0 
0 0.004387165465518059 0 0 0 -0.002955875623220643 0 0 0 0 0 
0 0 0 0 0 0 0 0 0 0 0 
0 0 0 0 0 0 0 0 0 0 0 
0 0 0 0 0 0 0 0 0 0 0 
0 0 0 0 0 0 0 0 0 0 0 
0 0 0 0 0 0 0 0 0 0 0 
0 0 0 0 0 0 0 0 0 0 0 
0 -0.0001301691735540376 -0.001078167822726938 0.0025317213615558 0 0 -0.003127620340764908 0 -0.0004608985830859373 0 0 
0 0 0 0 0 0 0 0 0 0 0 
0 0 0 0 0 0 0 0 0 0 0 
0.000353698241463091 -8.269469039958882e-05 0 0 0 0 0 0 0 0 0 
0 0 0 0 0 0 0 0 0 0 0 
-0.001198381454155338 -0.03337670115188461 -0.01014659025416336 -0.1600127111470562 0.002254123835354126 0 -0.01726866175263697 0 -0.008408330038469849 0.2374681283936781 -1.559098826024074e-05 
0 -0.0005694101371443327 0.00407593638873556 0 -0.0006540133216011598 0 0 0 0 -4.112284927734386e-05 0 
0 0 0 0 0 0 0 0 0 0 0 
0 0 0 0 0 0 0 0 0 0 0 
0 0 0 0 0 0 0 0 0 0 0 
0 0 0 0 0 0 0 0 0 0 0 
0 0 0 0 0 0 0 0 0 0 0 
0 0 0 0 0 0 0 0 0 0 0 
0 0 0 0 0 0 0 0 0 0 0 
0 -0.004808972155695019 0 0.01303454269151927 0 0 0 0 -0.004944822756698544 0 0 
0 0 0 0 0 0 0 0 0 0 0 
0 -0.1278823863198468 0 0 -0.01954920484726644 0 0 0 0 0.1353899745043978 0 
0 0 0 -3.995064303445788e-05 0 0 0 0 0 0 0 
0.002251341105893928 -0.002366054021176817 0 0 0 0 0 0 0 0 0 
0 0 0 0 0 0 0 0 0 0 0 
0 0.1782613220852825 0 -0.02375852182215626 -0.002334691603320988 0 0 0 0 -0.1395119928448408 0 
0 0 0 0 0 0 0 0 0 0 0 
0 0 0 0 0 0 0 0 0 0 0 
0 0.1782374709905856 0 -0.02371063263550399 -0.002356024718469363 0 0 0 0 -0.1394915821512778 0 
0 0 0 0 0 0 0 0 0 0 0 
0 0 0 0 0 0 0 0 0 0 0 
0 0 -0.008423037642311155 0.001431140771661344 0 -0.0002659090876441502 -0.0004463479455525054 0 0 -0.003750515853240479 0 
0 0 0 0 0 0 0 0 0 0 0 
0 0 0 0 0 0 0 0 0 0 0 
0 0 0 0 0 0 0 0 0 0 0 
0 0 0 0 0 0 0 0 0 0 0 
0 0 0 0 0 0 0 0 0 0 0 
0 0 0 0 0 0 0 0 0 0 0 
0 0 0 0 0 0 0 0 0 0 0 
0 0 0 0 0 0 0 0 0 0 0 
-0.008636055401881827 -0.2306753900769686 -0.008201090017142185 0.2542083719468529 0 0 -0.008101529204456096 0 0 0 0 
0 0 0 0 0 0 0 0 0 0 0 
0.002867304137102251 0 0 -0.002047284619851192 -0.0008392698879817105 0 0 -0.0005234164549499331 -1.819676677725292e-05 0 0 
0 0 0 0 0 0 0 0 0 0 0 
0 0 0 0 0 0 0 0 0 0 0 
0 0 0 0 0 0 0 0 0 0 0 
0 0 0 0 0 0 0 0 0 0 0 
0 0 0 0 0 0 0 0 0 0 0 
0 0 0 0 0 0 0 0 0 0 0 
0 0 -0.001029424839949113 0 0.0005507557166924304 0 0 0 0 -0.001353663516805368 0 
0 0 0 0 0 0 0 0 0 0 0 
0 0 0 0 0 0 0 0 0 0 0 
0 0 0 0 0 0 0 0 0 0 0 
0 0 0 0 0 0 0 0 0 0 0 
0 -0.003361839350760169 0 0.005564380716934293 0 0 -0.0004679514718593348 0 0 -0.002120401743432582 0 
0 0 0 0 0 0 0 0 0 0 0 
0 0 0 0 0 0 0 0 0 0 0 
0 0 0 0 0 0 0 0 0 0 0 
0 0 0 0 0 0 0 0 0 0 0 
0 0 0 0 0 0 0 0 0 0 0 
0 -0.1175410463274172 -0.002983735965926723 0.02585208819637946 -0.001106696520228431 -0.001729113741273531 0 0 0 -0.0002434741616234175 -0.0005176189948654025 
0 0 0 0 0 0 0 0 0 0 0 
0 -0.01162212967907284 0 0.01567278261952492 0 0 0 0 0 0 0 
0 0 0 0 0 0 0 0 0 0 -0.0001383137800042485 
0 0 0 0 0 0 0 0 0 0 0 
0 0 0 0 0 0 0 0 0 0 0 
0 0 0 0 0 0 0 0 0 0 0 
0 0 0 0 0 0 0 0 0 0 0 
0 0 0 0 0 0 0 0 0 0 0 
0 0 0 0 0 0 0 0 0 0 0 
0 0 0 0 0 0 0 0 0 0 0 
0 0 0 0 0 0 0 0 0 0 0 
0 -0.0006453371498998257 0 0 0 0.001421458596185195 -0.0002813218627348574 -0.0007631497586035184 -0.0001617410097120094 -0.0003779078030840854 -0.00014903553480293 
0 0 0 0 0 0 0 0 0 0 0 
0.0005292210612784218 0 0 0 0 0 0 0 0 0 0 
0 -0.004616318224254328 0 0 0 0 0 0 0 0 0 
0 0 0 0 0 0 0 0 0 0 0 
0 0 0 0 0 0 0 0 0 0 0 
0 0 0 0 0 0 0 0 0 0 0 
0 0 0 0 0 0 0 0 0 0 0 
0 0 0 0 0 0 0 0 0 0 0 
0 0 -0.0005758606813699161 -0.002309384145697115 0.001632500199739401 -0.0002922209121504833 0 0.0005327247228597535 0 0 0 
0 0 0 0 0 0 0 0 0 0 0 
0 0.0009593190746689353 -0.0001032831718730743 -0.001109169141339073 0 0 0 0 -2.16238099570848e-05 -0.0004237855194529947 0 
0 0 0 0 -0.0001038832507801112 -0.0002533591535178476 0 0 0 0 0 
0 0 0 0 0 0 0 0 0 0 0 
0 0 0 0 0 0 0 0 0 0 0 
0 0 0 0 0 0 0 0 0 0 0 
0 0 0 0 0 0 0 0 0 0 0 
0 0 0 0 0 0 0 0 0 0 0 
0 0 0 0 0 0 0 0 0 0 0 
0 0 0 0 0 0 0 0 0 0 0 
0 0 0 0 0 0 0 0 0 0 0 
0 0 0 0 0 0 0 0 0 0 0 
0 0 0 0 0 0 0 0 0 0 0 
0 0 0 0 0 0 0 0 0 0 0 
0 0 0 0 0 0 0 0 0 0 0 
0 0 0 0 0 0 0 0 0 0 0 
0 0 0 0 0 0 0 0 0 0 0 
0 0 0 0 0 0 0 0 0 0 0 
0 0 0 0 0 0 0 0 0 0 0 
0 0 0 -0.00256298424426766 0 -5.045927991839138e-06 0 -0.002353070235750533 0 0.004017346558787343 0 
0 0 0 0 0 0 0 0 0 0 0 
0 0 0 0 0 0 0 0 0 0 0 
0 0 0 0 0 0 0 0 0 0 0 
-0.0009676606990398216 -0.03393621809567492 -0.02860708888028997 -0.02253913936741577 -0.04572734248898631 0 0 0 0 0.1950406122785752 0 
0 0 0 0 0 0 0 0 0 0 0 
0 0 0 0 0 0 0 0 0 0 0 
0 0 0 0 0 0 0 0 0 0 0 
0 0 0 0 0 0 0 0 0 0 0 
0 0 0 0 0 0 0 0 0 0 0 
0 0 0 0 0 0 0 0 0 0 0 
0 0 0 0 0 0 0 0 0 0 0 
0 0 0 0 0 0 0 0 0 0 0 
0 0 0 0 0 0 0 0 0 0 0 
0 0.004219136200731478 0 -0.0007611368325297101 -0.000461174555561476 0 0 0 -0.000609260080044761 -0.001892252015641987 0 
-0.000269834059438414 0 0 -0.00313558092058948 0 0 0 0 0.007196251422640468 -0.003218464218923243 -0.0001022557272857098 
0 0 -0.000703641221964602 0 0 0 0 0 0 0 0 
0 0 0 0 0 0 0 0 0 0 0 
0 0 0 0 0 0 0 0 0 0 0 
0 0 0 0 0 0 0 0 0 0 0 
0 0 -0.0003301877882177249 0.08771813764666329 0 0 0 0 0 -0.1632559408906129 0 
0 0 0 0 0 0 0 0 0 0 0 
0 0 0 0 0 0 0 0 0 0 0 
0 0 0 0 0 0 0 0 0 0 0 
0 0 0 0 0 0 0 0 0 0 0 
0 0 0 0 0 0 0 0 0 0 0 
0 0 0 0 0 0 0 0 0 0 0 
0 0 0 0 0 0 0 0 0 0 0 
0 0 0 0 0 0 0 0 0 0 0 
-0.008607430834376407 0.05483661985743791 -0.008116887110100677 -0.03112581668178703 0 0 -0.007873935996632419 0 0 0 0 
0 0.2523981221593964 -0.00980312415937209 -0.1599678486686885 0 0 -0.01649451778052618 0 -0.008606639333430125 -0.04811461436351734 0 
0 0.0001363914692656484 0 0 0 -0.0001587137700300634 0 -0.0002126675405037449 -9.541837003336033e-06 0 -5.329036812737392e-06 
0 0 0 0 0 0 0 0 0 0 0 
0 0 0 0 0 0 0 0 0 0 0 
0 0 0 0 0 0 0 0 0 0 0 
0 0 0 0 0 0 0 0 0 0 0 
0 0 0 0 0 0 0 0 0 0 0 
0 0 0 0 0 0 0 0 0 0 0 
0 0 0 0 0 0 0 0 0 0 0 
0 0 0 0 0 0 0 0 0 0 0 
0 0 0 0 0 0 0 0 0 0 0 
0 0 0 0 0 0 0 0 0 0 0 
0 0 0 0 0 0 0 0 0 0 0 
0 0 0 0 0 0 0 0 0 0 0 
0 0 0 0 0 0 0 0 0 0 0 
-7.266334133799443e-05 0.005575547759446127 -0.0006149637197048687 -0.002017635167754197 -0.0021122654345084 0 0 -0.0009679401834532845 0 0 -7.69362462736326e-05 
-0.008427422174885558 -0.0005458884809017273 -0.007172615861283646 -0.008467366100293954 -0.0008073852326804176 0 -0.004399753265272387 -6.127577623918829e-06 0 0 0 
0 0 0 0 0 0 0 0 0 0 0 
-0.008723857942976001 0.05489632489378838 -0.008191795157614066 -0.03110878682321599 0 0 -0.008070661535220925 0 0 0 0 
0 0 0 0 0 0 0 0 0 0 0 
0 0 0 0 0 0 0 0 0 0 0 
0 0 0 0 0 0 0 0 0 0 0 
0.006107435939376179 0 0 -0.005073616161725383 0 0 0 0 0 0 0 
0 0 0 0 0 0 0 0 0 0 0 
0 0 0 0 0 0 0 0 0 0 0 
0 -0.000352047363868806 0 0 0 0 0 0 0 -0.0001323681906322304 0 
0 0 0 0 0 0 0 0 0 0 0 
0 0 0 0.003332687077926551 0 0 0 0 0 0 0 
0 0 0 0 0 0 0 0 0 0 0 
0 0 0 0 0 0 0 0 0 0 0 
0 0 0 0 0 0 0 0 0 0 0 
0 0 0 0 0 0 0 0 0 0 0 
0 0 0 0 0 0 0 0 0 0 0 
0 0 0 0 0 0 0 0 0 0 0 
0 0 0 0 0 0 0 0 0 0 0 
0 0 0 0 0 0 0 0 0 0 0 
0 0 0 0 0 0 0 0 0 0 0 
0 0.004534194530500965 0 -0.003497216224239271 0 0 0 0 0 -0.0008432622566167562 0 
0 0 0 0 0 0 0 0 0 0 0 
0 0 0 0 0 0 0 0 0 0 0 
-0.0006699276333051156 0.0006401020250916072 0 0 0 0 -8.101305801012218e-06 0 0 -0.0002871265790679386 -4.119853064792832e-05 
0 0.002424588889356284 0 -0.0007540216972345154 0 0 0 0 -6.281458868723904e-05 0 0 
0.00157451552027527 0 0 0 -0.0004594743197943015 0 0 0 -5.563928394490591e-05 -0.0003344890362710245 0 
0 0 0 0 0 0 0 0 0 0 0 
0 0 0 0 0 0 0 0 0 0 0 
0 0 0 0 0 0 0 0 0 0 0 
0 0 0 0 0 0 0 0 0 0 0 
0 -0.000591032940976357 0 -0.009904529843627894 0 0 -3.082500045307015e-05 0 0.01284312687470216 -0.004719936686261174 0 
0 0 0 0 0 0 0 0 0 0 0 
0 0 0 0 0 0 0 0 0 0 0 
0.1128971297626592 -0.00143201811242263 0 -0.05662256551571797 -0.001736190217128045 0 0 -0.0004990823937090152 0 -0.06223614754566507 0 
0.000402481746775978 -2.718562234432721e-05 0 -7.916037922823434e-06 0 0 0 0 0 -0.0001573677134813542 0 
0 -0.004169892877874453 -0.002274384070862888 0.01329549818607167 0 0 -0.0003900918190671522 -1.61387132467078e-05 0 0 0 
0 0 0 0 0 0 0 0 0 0 0 
0 0 0 0 0 0 0 0 0 0 0 
0 0 0 0 0 0 0 0 0 0 0 
0 0 0 0 0 0 0 0 0 0 0 
0 0 0 0 0 0 0 0 0 0 0 
0 0 0 0 0 0 0 0 0 0 0 
0 0 0 0 0 0 0 0 0 0 0 
0 0 0 0 0 0 0 0 0 0 0 
0 0 0 0 0 0 0 0 0 0 0 
0 0 0 -0.002256138649064249 0.00660709513170521 0 0 0 0 0 0 
0 0 0 0 0 0 0 0 0 0 0 
0 0 0 0 0 0 0 0 0 0 0 
0 0 0 0 0 0 0 0 0 0 0 
0 0 0 0 0 0 0 0 0 0 0 
0 0 0 0 0 0 0 0 0 0 0 
0 0 0 0 0 0 0 0 0 0 0 
0 0 0 0 0 0 0 0 0 0 0 
0 0 0 0 0 0 0 0 0 0 0 
0 0 0 0 0 0 0 0 0 0 0 
0 0 0 0 0 0 0 0 0 0 0 
-0.008432237852420569 0.009164108446424086 -0.00215215085221126 0 0 0 -0.0001265670282303981 0 0 0 0 
0 0 0 0 0 0 0 0 0 0 0 
0 0 0 0 0 0 0 0 0 0 0 
0 0 0 0 0 0 0 0 0 0 0 
0 0 0 0 0 0 0 0 0 0 0 
0 0 0 0 0 0 0 0 0 0 0 
0 0 0 0 0 0 0 0 0 0 0 
0 0 0 0 0 0 0 0 0 0 0 
0 0 0 0 0 0 0 0 0 0 0 
0 0 0 0 0 0 0 0 0 -0.001055905645539705 0 
0.007193363970659308 -0.006806477621583597 -0.000455855720663048 -0.001109489162799413 0 0 0 0 0 0 0 
0 0 0 0 0 0 0 0 0 0 0 
-0.0001683791536832508 0 0 0 0 0 0 -0.0001289604779050577 0 0.007293419857632363 0 
0 0 0 -0.001330591536251723 0 0 -0.004433457271427273 0 0 0 0 
0 0 0 0 0 0 0 0 0 0 0 
0 -0.00348136994268686 0 0.009568823126556429 -0.00751526952945211 0 0 0 0 0 0 
0 0 0 0 0 0 0 0 0 0 0 
-0.0008720918487074266 0 0 0 -0.0005882343952679544 0.0009920628282994706 0 0 0 0 0 
-0.0001291674098206011 -0.00318204297646571 5.421010862427522e-20 0.006620183951147559 -0.001712084787019805 -0.0002283225831185453 0 -0.0002292624754655071 -9.971373320764832e-05 -0.002563234652397437 -6.287252300843656e-05 
0 0 0 0.001089552454683211 0 -0.0001821509589799086 0 0 0 0 0 
0 0 0 0 0 0 0 0 0 0 0 
0 0 0 0 0 0 0 0 0 0 0 
0 0 0 0 0 0 0 0 0 0 0 
0 0 0 0 0 0 0 0 0 0 0 
0 0 0 0 0 0 0 0 0 0 0 
0 0 0 0 0 0 0 0 0 0 0 
0 0 0 0 0 0 0 0 0 0 0 
0 0 0 0 0 0 0 0 0 0 0 
0 0 0 0 0 0 0 0 0 0 0 
0 0 0 0 0 0 0 0 0 0 0 
0 0 0 0 0 0 0 0 0 0 0 
0 0 0 0 0 0 0 0 0 0 0 
0 0 0 0 0 0 0 0 0 0 0 
0 0 0 0 0 0 0 0 0 0 0 
0 0 0 0 0 0 0 0 0 0 0 
0 0 0 0 0 0 0 0 0 0 0 
0 0 0 0 0 0 0 0 0 0 0 
0 0 0 0 0 0 0 0 0 0 0 
0 0 0 0 0 0 0 0 0 0 0 
0 0 0 0 0 0 0 0 0 0 0 
0 0 0 0 0 0 0 0 0 0 0 
-0.0008109763354600175 0.0001338298585676446 -0.0008012099873969093 -0.0001657259959727594 -0.0002440580161921997 -0.0001000403871819094 0 -0.0002041066363004967 -5.193749637967812e-05 0 -0.0001089749608313971 
0 -0.001563351316485098 0 0 0.01546718700487172 -0.0003216017437391161 0 -0.0009657478128590475 0 0 0 
0 0 0 0 0 0 0 0 0 0 0 
0 0 0 0 0 0 0 0 0 0 0 
0 0 0 0 0 0 0 0 0 0 0 
0 0 0 0 0 0 0 0 0 0 0 
0 0 0 0 0 0 0 0 0 0 0 
0 0 0 0 -0.0001721719790140385 0 -1.873116593060051e-05 -0.0002130827615824559 0.001076227143250099 -0.0004746701978586865 0 
0 0 0 0 0 0 0 0 0 0 0 
0 0 0 0 0 0 0 0 0 0 0 
0 0 0 0 0 0 0 0 0 0 0 
0 0 0 0 0 0 0 0 0 0 0 
0 0 0 0 0 0 0 0 0 0 0 
0 0 0 0 0 0 0 0 0 0 0 
0 0 -0.001798696875071725 0 0 0 0 0 0 -0.0007446219154175923 0 
0 0 0 0 0 0 0 0 0 0 0 
0 0 0 0 0 0 0 0 0 0 0 
0 0 0 0 0 0 0 0 0 0 0 
0 0 0 0 0 0 0 0 0 0 0 
0 0 0 0 0 0 0 0 0 0 0 
0.002418438813200829 -0.002095829003612834 -0.001927437620864825 0 0 0 -0.0003110220934035323 -0.0002659332886582762 0 0 0 
0 0 0 0 0 0 0 0 0 0 0 
0 0 0 0 0 0 0 0 0 0 0 
0 0 0 0 0 0 0 0 0 0 0 
0 0 0 0 0 0 0 0 0 0 0 
0 0 0 -0.001338217653530994 0 0 0 0 0 0.0008147085017506214 0 
0 0 0 0 0 0 0 0 0 0 0 
0 0 0 0 0 0 0 0 0 0 0 
0 0 0 0 0 0 0 0 0 0 0 
0 -0.0001064574160265375 0 -0.001161368014021632 0 0.000801453780927513 0 0 0 -0.0004989891214601117 0 
0 0 0 0 0 0 0 0 0 0 0 
0 0 0 0 0 0 0 0 0 0 0 
0 -0.05591149415563478 -0.009786696782486453 0.1316232865870592 0 0 -0.01647899593596115 0 -0.01014657058967859 -0.0310155882493044 0 
0 -0.03333295232815615 -0.009791727397927847 0.1257238787312187 0 0 -0.01655977541696716 0 -0.008724654722275 -0.04820326614780248 0 
0 0 0 0 0 0 0 0 0 0 0 
0 0 0 0 0 0 0 0 0 0 0 
0 0 0 0 0 0 0 0 0 0 0 
0 0 0 0 0 0 0 0 0 0 0 
0 0 0 0 0 0 0 0 0 0 0 
0 0 0 0 0 0 0 0 0 0 0 
0 0 0 0 0 0 0 0 0 0 0 
0 0 0 0 0 0 0 0 0 0 0 
0 0 0 0 0 0 0 0 0 0 0 
0 0 0 0 0 0 0 0 0 0 0 
0 0 0 0 0 0 0 0 0 0 0 
0 0 0 -0.002074250548717116 -0.001321197157727846 0 0 0 0 0.0008230703590047038 0 
0 0 0 0 0 0 0 0 0 0 0 
0 0 0 0 0 0 0 0 0 0 0 
0 0 0 0 0 0 0 0 0 0 0 
0 0 0 0 0 0 0 0 0 0 0 
0 0 0 0 0 0 0 0 0 0 0 
0 0 0 0 0 0 0 0 0 0 0 
0 -0.1072386068929519 0 -0.02367213941521251 -0.002464665183578692 0 0 0 0 0.1458167712664017 0 
0 0 0 0 0 0 0 0 0 0 0 
-0.00124282638549115 -0.06153932861732788 -0.003834905490848334 0 0 0 0 0 0 0.03210995215971244 0 
0 0 0 0 0 0 0 0 0 0 0 
0 0 0 -4.154343180649051e-05 -0.0002859228724171853 0 0 0.00128124729606607 0 -0.0008125940077963725 -0.0001757812200622154 
0 0 0 0 0 0 0 0 0 0 0 
0 0 0 0 0 0 0 0.002988735777647519 0 0 0 
-0.005362167051152274 0 0.003331661282877459 0 0 0 -0.0006266631192612234 0 0 -0.0006739484983934743 0 
0 0 0 0 0 0 0 0 0 0 0 
-0.007609784932548324 -0.2306117565704671 -0.008448810643893266 0.2517331098926399 0 0 -0.008060772040226365 0 -6.397032958765737e-06 0 0 
0 0 0 0 0 0 0 0 0 0 0 
0 0 0 0 0 0 0 0 0 0 0 
0 0 0 0 0 0 0 0 0 0 0 
0 0 0 0 0 0 0 0 0 0 0 
-5.904793744143791e-05 0.0010367860886694 0 -0.001017015042231285 -0.001527213393351201 0 0 0 0 0 0 
0 0 0 0 0 0 0 0 0 0 0 
0 0 0 0 0 0 0 0 0 -0.0003952608396073191 0 
0 0 0 0 0 0 0 0 0 0 0 
0.003326992628408077 -0.002515005164147992 -0.0001302620468381044 0 0 -2.927914054791842e-05 0 0 0 0 0 
0 0 0 0 0 0 0 0 0 0 0 
0 -0.03334432953348032 -0.009780424986694533 0.1257111562983175 0 0 -0.01644118278133455 0 -0.00828185417221757 -0.0481767437388821 0 
0 0 0 0 0 0 0 0 0 0 0 
0 0 0 0 0 0 0 0 0 0 0 
0 0 0 0 0 0 0 0 0 0 0 
0 0 0 0 0 0 0 0 0 0 0 
0 0 0 0 0 0 0 0 0 0 0 
0 -0.03334484181445193 -0.009775311173349238 0.1257290043934412 0 0 -0.01640373986308244 0 -0.008664642581920682 -0.04820196774054365 0 
0 0 0 0 0 0 0 0 0 0 0 
0 0 0 0 0 0 0 0 0 0 0 
0 0 0 0 0 0 0 0 0 0 0 
0 0 0 0.01114950360340864 0 0 -0.0006256548021066631 0 0 -0.02237159429669278 0 
0 0 0 0 0 0 0 0 0 0 0 
0 0 0 0 0 0 0 0 0 0 0 
0 0 0 0 0 0 0 0 0 0 0 
0 0 0 0 0 0 0 0 0 0 0 
0 0 0 0 0 0 0 0 0 0 0 
-0.0004996900654692595 0.001835748985623557 -0.000735766822530489 -0.0007265070501595405 0 0 -1.825207346972347e-05 0 0 0.01491395745938542 0 
-0.0134441728908281 0.03346451137531575 -0.00309082877416517 0 0 0 -0.01597793656356483 0 0 0 0 
0 0 0 0 0 0 -0.0004855019488069247 -0.002702687287813617 0 0 0 
0.001153414075308314 -0.001997024722813544 -0.0005668449787802624 0 0 0 0 0 0 0 0 
0 0 0 0 0 0 0 0 0 0 0 
0 -0.0001230398276278509 0.003796685895136884 0.006648429166682357 -0.01022803410247064 -0.001179910402962418 0 0 0 -0.01177853114305319 0 
0.001342129681833598 0 0 -0.0002743110992485768 0 0 0 -0.0007060593556568037 0 -0.0002949460563494058 0 
0 0 0 0 0 0 0 0 0 0 0 
0 0 0 0 0 0 0 0 0 0 0 
0 0 0 0 0 0 0 0 0 0 0 
0 -0.0007951906162413496 0 0 0 0 0 0 0 0.001236808099748255 0 
0 0 0 0 0 0 0 0 0 0 0 
0 0 0 0.06067441187823754 0 0 0 0 0 -0.06850142843047115 0 
0 0 0 0 0 0 0 0 0 0 0 
0 -0.0002738824818628046 0.005982943463590622 -0.00327176737742743 0 0 0 0 0 -0.0004806865430954146 0 
0 0 0 0 0 0 0 0 0 0 0 
0.001094751867054105 -0.0005739414398565417 -4.165842078488288e-05 -0.0003578879379627307 0 0 0 -0.000178912020845833 0 0 -0.0001194583504705892 
0 0.1154128460838157 0 -0.004224369130767946 -0.04853950517686117 0 0 0 0 -0.06949566127766296 0 
0 0 0 0 0 0 0 0 0 0 0 
0 0 0 0 0 0 0 0 0 0 0 
0 0 0 0 0 0 0 0 0 0 0 
0 -0.002969914191831134 -0.001858179744629048 -0.001395653251103002 0.008004706273390434 -0.0001027566902396199 0 0 0 0 0 
0.001771096104427394 0 0 0 0 0 0 0 0 0 0 
0 0 0 0 0 0 0 0 0 0 0 
0 0 0 0 0 0 0 0 0 0 0 
0 0 0 0 0 0 0 0 0 0 0 
0 0 0 0 0 0 0 0 0 0 0 
0 0 0 0 0 0 0 0 0 0 0 
0 0 0 0 0 0 0 0 0 0 0 
0 0 0 0 0 0 0 0 0 0 0 
0 0 0 -0.002542016471656526 0.001658770362945323 -0.0003258837069524143 0 -2.614995530414576e-05 0 0 -3.607174968309978e-05 
0 0 0 0 0 0 0 0 0 0 0 
0 0 0 0 0 0 0 0 0 0 0 
0 0 0 0 0 0 0 0 0 0 0 
0 0 0 0 0 0 0 0 0 0 0 
0 0 0 0 0 0 0 0 0 0 0 
0 0 0 0 0 0 0 0 0 0 0 
0.08524412012459046 -0.07678811610744182 0 -0.000151447922826792 0 0 0 0 0 -0.0004591892232041365 0 
-0.0006923193981101346 -0.001001935635897374 0 0 0 0 -0.00011441274444156 0 -0.0001618396176785342 0 0 
0 0 0 0 0 0 0 0 0 0 0 
0 0 0 0 0 0 0 0 0 0 0 
0 0 0 0 0 0 0 0 0 0 0 
0.0036599938092862 0 0 0 0 0 0 -0.001692849450625176 0 0 0 
0 0 0 0 0 0 0 0 0 0 0 
0 0 -9.405254609951481e-05 0.001089947865320209 0 0 0 0 0 0 0 
0 0 0 0 0 0 0 0 0 0 0 
0 -0.0008272884613018559 0 0 0 0 0 -0.000464001911021258 -1.65997468842122e-05 0.0006179905114858157 0 
0 0 0 0 0 0 0 0 0 0 0 
0 0 0 0 0 0 0 0 0 0 0 
0 0 0 0 0 0 0 0 0 0 0 
0 0 0 0 0 0 0 0 0 0 0 
0 0 0 0 0 0 0 0 0 0 0 
0 0 0 0 0 0 0 0 0 0 0 
0 0 0 0 0 0 0 0 0 0 0 
0 0 0 0 0 0 0 0 0 0 0 
-0.000207254522455956 -0.00557573131747549 0 0.01814188806315032 -0.002672409120123911 0 0 0 0 0 0 
0 0 0 0 0 0 0 0 0 0 0 
0 0 0 0 0 0 0 0 0 0 0 
0 0 0 0 0 0 0 0 0 0 0 
0 0 0 0 0 0 0 0 0 0 0 
0 0 0 0 0 0 0 0 0 0 0 
0 -0.0001968167498621725 -0.003910565851099218 -0.003627979082522241 0 0 0 0 0 0.01049473290273504 0 
0 0 0 0 0 0 0 0 0 0 0 
0 0 0 0 0 0 0 0 0 0 0 
-0.0008568325942040724 -0.03400663631026096 -0.0287260342945623 -0.02265352383524481 0.2283147100611565 0 0 0 0 -0.08354439455612651 0 
0 0 0 0 0 0 0 0 0 0 0 
0 0 0 0 0 0 0 0 0 0 0 
0 0 0 0 0 0 0 0 0 0 0 
0 0 0 0 0 0 0 0 0 0 0 
0 0 0 0 0 0 0 0 0 0 0 
0 0 0 0 0 0 0 0.002311689488713779 0 0 0 
0 0 0 0 0 0 0 0 0 0 0 
0 0 0 0 0 0 0 0 0 0 0 
0.001879031439461922 0 0 0 0 -0.0008569539991443047 0 -6.090937475167441e-05 -0.0008860997201063059 -0.002427747432527932 -0.001042909807616353 
0 0 0 0 0 0 0 0 0 0 0 
0 0 0 0 0 0 0 0 0 0 0 
0 0 0 0 0 0 0 0 0 0 0 
-0.005763165998609219 0 0 0.009830803158688929 0 0 -6.840572272894239e-05 -0.003314616372157481 0 0 0 
0 0 0 0 0 0 0 0 0 0 0 
0 0 0 0 0 0 0 0 0 0 0 
0 0 0 0 0 0 0 0 0 0 0 
0 0 0 0 0 0 0 0 0 0 0 
0 0 0 0 0 0 0 0 0 0 0 
0 0 0 0 0 0 0 0 0 0 0 
0 0 0 0 0 0 0 0 0 0 0 
0 0 0 0 0 0 0 0 0 0 0 
0 0 0 0 0 0 0 0 0 0 0 
0 0 0 0 0 0 0 0 0 0 0 
0 0 0 0 0 0 0 0 0 0 0 
0 0 0 0 0 0 0 0 0 0 0 
0 0 0 0 0 0 0 0 0 0 0 
0 0 0 0 0 0 0 0 0 0 0 
0 0 0 0 0 0 0 0 0 0 0 
0 0 0 0 0 0 0 0 0 0 0 
0 0 0 0 0 0 0 0 0 0 0 
0 0 0 0 0 0 0 0 0 0 0 
0 0 0 0 0 0 0 0 0 0 0 
0 0 0 0 0 0 0 0 0 0 0 
0 0 0 0 0 0 0 0 0 0 0 
0 0 0 0 0 0 0 0 0 0 0 
0 0 0 0 0 0 0 0 0 0 0 
0 0 0 0 0 0 0 0 0 0 0 
0 0 0 0 0 0 0 0 0 0 0 
0 0 0 0 0 0 0 0 0 0 0 
0 0 0 0 0 0 0 0 0 0 0 
0 0 0 0 0 0 0 0 0 0 0 
0 0 0 0 0 0 0 0 0 0 0 
0 0 0 0 0 0 0 0 0 0 0 
0 0 0 0 0 0 0 0 0 0 0 
0 0 0 0 0 0 0 0 0 0 0 
0 0 0 0 0 0 0 0 0 0 0 
0 0 0 0 0 0 0 0 0 0 0 
0 0 0 0 0 0 0 0 0 0 0 
0 0 0 0 0 0 0 0 0 0 0 
0 0 0 0 0 0 0 0 0 0 0 
0 0 0 0 0 0 0 0 0 0 0 
0 0 0 0 0 0 0 0 0 0 0 
0.00182788851921689 0 0 0 0 0 -3.949669811376976e-05 0 -3.005353826190964e-05 0 0 
0 0 0 -0.0001940332932654989 0 0 0 -0.0002437416271360812 0 -0.0005933423128345479 0 
0 0 0 0 0 0 0 0 0 0 0 
0 0 0 0 0 0 0 0 0 0 0 
0 0 0 0 0 0 0 0 0 0 0 
0 0 0 0 0 0 0 0 0 0 0 
-0.0001925765074360541 -0.0005794887935298745 0 0 0 0 0 5.613283741834114e-06 0 0 0 
0 0 0 0 0 0 0 0 0 0 0 
0 0 0 0 0 0 0 0 0 0 0 
0 0 0 0 0 0 0 0 0 0 0 
0 0 0 0 0 0 0 0 0 0 0 
0 -0.004884086328402531 -0.03064291274010938 0 0.02094661977952807 0 0 -0.007877774358790153 0 0 0 
0 0 0 0 0 0 0 0 0 0 0 
0 0 0 0 0 0 0 0 0 0 0 
0 -0.06691089554457283 -0.1636324240929186 0.1306658960264472 0 0 -0.0009028049991273576 0 0 0 0 
0 0 0 0 0 0 0 0 0 -0.0001069257859720954 0 
0 0 0 0 0 0 0 0 0 0 0 
0 0 0 0 0 0 0 0 0 0 0 
0 -0.001813798022848404 0 0 0.005212520662944209 0 0 0 0 -0.006980250187911144 0 
0 0 0 0 0 0 0 0 0 0 0 
0 -0.0005524284078352637 -2.832019830080944e-06 0 0 0 -5.123560484026155e-05 0 0 0 0 
0 0 0 0 0 0 0 0 0 0 0 
0 0 0 0 0 0 0 0 0 0 0 
0 0 0 0 0 0 0 0 0 0 0 
0 -0.1072490085326848 0 0.261594950375773 -0.002358236710667619 0 0 0 0 -0.139397537089898 0 
0.0005229697919699686 0 0 -0.001973697049884925 0 0 0 0 -5.556979893457022e-05 0 0 
0 0 0 0 0 0 0 0 0 0 0 
0 0 0 0 0 0 0 0 0 0 0 
0 0 -0.0007218878589001124 0 0 0 0 0 0 -0.001463791008975532 0 
0 0 0 0 0 0 0 0 0 0 0 
0 0 0 0 0 0 0 0 0 0 0 
0 0 0 0 0 0 0 0 0 0 0 
0 0 0 0 0 0 0 0 0 0 0 
0 0 0 0 0 0 0 0 0 0 0 
0 0 0 0 0 0 0 0 0 0 0 
0 0 0 0 0 0 0 0 0 0 0 
0 0 0 0 0 0 0 0 0 0 0 
0 0 0 0 0 0 0 0 0 0 0 
0 0 0 0 0 0 0 0 0 0 0 
0 0 0 0 0 0 0 0 0 0 0 
0 0 0 0 0 0 0 0 0 0 0 
0 0 0 0 0 0 0 0 0 0 0 
0 -0.002608734852366744 0 0.01284871324898789 -0.004952266054979862 0 -0.005190669360219199 0 -0.0003370934326959406 0 0 
0 0 0 0 0 0 0 0 0 0 0 
-0.002053907912369288 0 -0.003238523045038967 0.007856074256202224 0 0 0 0 0 -0.001482770582387292 0 
0 0 0 0 -0.0005015823239715837 -2.192506348994244e-05 0 0 0 0.001000776540972101 0 
0 0 0 0 0 0 0 0 0 0 0 
0 0 0 0 0 0 0 0 0 0 0 
0 0 0 0 0 0 0 0 0 0 0 
0 0 -0.0008550277083683753 -0.0009039028479342345 0 0 0 0 0 -0.0004139703794871154 0 
0 0 0 0 0 0 0 0 0 0 0 
0 0 0 -0.0005167838095276788 -2.038964594540891e-05 -0.0002056627683873151 0 -3.540797220930389e-05 0 0.001391020890022957 0 
-0.0002784530174415446 -0.000679460103850331 0 0 0 -9.282291948103798e-05 0 0.0002709770194009709 -4.550600650789361e-05 -1.336964341585139e-05 -5.860671477691307e-06 
-0.00421316741390448 -0.001970298687847441 0 0 -0.001634612143379099 0 0 0 0 0.008955952436448365 0 
0 0 0 0 0 0 0 0 0 0 0 
0 0 -0.0001353870567805825 0.003305716638836429 -0.001617766504736558 0 0 0 0 0 0 
0 0 0 0 0 0 0 0 0 0 0 
0 0 0 0 0 0 0 0 0 0 0 
0 -0.001044070875487518 -0.001133303689568467 0 -0.00769637461112058 0 0 0 0 0 0 
0 0 0 0 0 0 0 0 0 0 0 
0 0 0 0 0 0 0 0 0 0 0 
0 0 0 0 0 0 0 0 0 0 0 
0 0 0 0 0 0 0 0 0 0 0 
0 0 0 0 0 0 0 0 0 0 0 
0 0 0 0 0 0 0 0 0 0 0 
0 0 0 0 0 0 0 0 0 0 0 
0 0 0 0 0 0 0 0 0 0 0 
0 0 0 0 0 0 0 0 0 0 0 
0 0 0 0 0 0 0 0 0 0 0 
0 0 0 0 0 0 0 0 0 0 0 
0 0 0 0 0 0 0 0 0 0 0 
0 0 0 0 0 0 0 0 0 0 0 
0 0 0 0 0 0 0 0 0 0 0 
0 0 0 0 0 0 0 0 0 0 0 
0 0 0 0 0 0 0 0 0 0 0 
0 0 0 0 0 0 0 0 0 0 0 
0 0 0 0 0 0 0 0 0 0 0 
0 0 0 0 0 0 0 0 0 0 0 
0 0 0 0 0 0 0 0 0 0 0 
0 0 0 0 0 0 0 0 0 0 0 
0 0 0 0 0 0 0 0 0 0 0 
0 0 0 0 0 0 0 0 0 0 0 
0 0 0 -0.003347262742198017 0 0 0 0 0 0.002216019939330957 0 
0 0.004794419987341139 0 0 -0.002580282590814615 0 -0.000740418736152573 0 0 0 0 
0.0002109598302257972 0 -0.0007432274304057312 0 -0.0007705917655478668 0 0 -0.0005685263762403096 0 0 0 
0 0 0 0 0 0 0 0 0 0 0 
0 0 0 0 0 0 0 0 0 0 0 
0 0.01639394808286185 0 -0.01226300107805183 0 0 0 0 0 0 0 
0 0 0 0 0 0 0 0 0 0 0 
0 0 0 0 0 0 0 0 0 0 0 
0 0 0 0 0 0 0 0 0 0 0 
0 0 0 0 0 0 0 0 0 0 0 
0 -0.003323223146753978 -0.0009305449732413356 0.00346264449300203 0 0 0 -0.0006285192829027317 0 -0.001257044573539526 0 
0 0 0 0 0 0 0 0 0 0 0 
0 0 0 0 0 0 0 0 0 0 0 
0 0 0 0 0 0 0 0 0 0 0 
0 0 0 0 0 0 0 0 0 0 0 
0 -0.001527028335135153 -0.0007102289262130974 0 0.004925837248101731 0 0 0 0 0 0 
0 0 0 0 0 0 0 0 0 0 0 
-0.008697393829077573 0.0548017050158545 -0.008156164816385626 -0.03107013731231369 0 0 -0.008068788145280999 0 0 0 0 
0 0 0 0 0 0 0 0 0 0 0 
0 0 0 0 0 0 0 0 0 0 0 
0 0 0 0 0 0 0 0 0 0 0 
0 0 0 0 0 0 0 0 0 0 0 
0 0 0 0 0 0 0 0 0 0 0 
-0.0004077803803285886 -2.233637773931776e-05 0.0008083430082728276 -0.0003470983819006297 0 0 0 -0.0004802987300816516 0 0 -2.269352584975265e-05 
-0.001503591830603265 -0.033372477460771 -0.009843344510544158 0.1291171270426185 0 -9.648714009313749e-05 -0.01645162309928703 0 -0.008729215878447839 -0.04822684124958921 0 
0 0 0 0 0 0 0 0 0 0 0 
0 0 0 0 0 0 0 0 0 0 0 
-0.004125396324241403 -0.00116213631584771 -0.0007843305526347336 0.004124942688725315 0 0 0 0 0 -1.94426751436631e-05 0 
0 0 0 0 0 0 0 0 0 0 0 
0 0 0 0 0 0 0 0 0 0 0 
0 0.001779052639335175 0 -0.001514015684200005 -0.0008528002603399115 0 0 0 -0.0001906614334564862 0 0 
0 0 0.0005262907274973874 -0.0003303965502713003 0 0 0 0 0 0 0 
0 0 0 0 0 0 0 0 0 0 0 
0 0 0 0 0 0 0 0 0 0 0 
0 0 0 0 0 0 0 0 0 0 0 
0 0.0008776298045070916 0 0 -0.0002418866647601594 0 0 -0.0005687017380705518 -8.040926185682994e-05 -0.0003188682627406224 0 
0 0 0 0 0 0 0 0 0 0 0 
-0.0008329585972569404 0 0.002752539907657019 0 0 -0.0001019525712369798 0 -0.0005321998995351917 0 0 -7.19223248771575e-05 
0 0 0 0 0 0 0 0 0 0 0 
0 0 0 0 0 0 0 0 0 0 0 
0 0 0 0 0 0 0 0 0 0 0 
0 0 0 0 0 0 0 0 0 0 0 
0 0 0 0 0 0 0 0 0 0 0 
0 0 0 0 0 0 0 0 0 0 0 
0 0 0 0 0 0 0 0 0 0 0 
0 0 0 0 0 0 0 0 0 0 0 
0 0 0 0 0 0 0 0 0 0 0 
0 0 0 0 0 0 0 0 0 0 0 
0 0 0 0 0 0 0 0 0 0 0 
0 0 0 0 0 0 0 0 0 0 0 
0.113274580267891 -0.007665318165523117 0 -0.05670562764737123 0 0 0 -0.0001480334664051709 0 -0.06209389014160294 0 
-0.008779676964005024 0.05477434462716854 -0.008254776735190364 -0.03111004974872447 0 0 -0.007997006036024117 0 0 0 0 
0 0 0 0 0 0 0 0 0 0 0 
0 0 0 0 0 0 0 0 0 0 0 
0 0.132229249789466 0 -0.128388615480663 0 -0.001560482567595844 0 0 0 -0.00121167142392922 0 
0 0 0 0 0 0 0 0 0 0 0 
0 0 0 0 0 0 0 0 0 0 0 
0 0 0 0 0 0 0 0 0 0 0 
0 0 0 0 0 0 0 0 0 0 0 
0 0 0 0 0 0 0 0 0 0 0 
0 0 0 0 0 0 0 0 0 0 0 
0 0.02225710978238639 -0.004700488429312978 0 0 -0.0003544507852732811 0 0 -0.000344364873854896 0 0 
0 0 0 0 0 0 0 0 0 0 0 
0 -0.0004283756063915104 -0.003342215739395064 0.01917856183239555 0 0 0 -0.0002199194715851481 0 -0.003870217004675888 0 
0.001527769009687636 -0.002774640173687928 0 0 0 0 0 -0.001107600497021054 0 0 0 
0 0 0 0 0 0 0 0 0 0 0 
0 -0.03327996189223856 -0.009781366304322572 0.1257295715602334 0 0 -0.01642922994076917 0 -0.008824903649095082 -0.04828197070317796 0 
0 0 0 0 0 0 0 0 0 0 0 
-0.00149930296848955 0.003099573836969916 0 0 0 0 0 0 0 -0.001084526050393187 -0.0002318212046419272 
0 -0.2462004262147516 0 0 0.2473715149771549 0 0 -0.0004000949291081968 0 0 0 
0 0 0 0 0 0 0 0 0 0 0 
0 0 0 0 0 0 0 0 0 0 0 
0 0 0 0 0 0 0 0 0 0 0 
0 0 0 0 0 0 0 0 0 0 0 
0 -0.003376548778658592 0 0 0.009544811607974324 0 -0.0017704794608439 -0.005808740228824883 0 0 0 
0 -0.03332243667804645 -0.009815770436606122 0.1257249278082938 0 0 -0.01640242294523914 0 -0.008995185427732335 -0.04821346965854501 0 
0 0 0 0 0 0 0 0 0 0 0 
-0.004129581471899026 0.008370004112479 0 -0.0006758896524613498 0 0 0 -0.001155388631875936 0 -0.004080466305069976 0 
0 0 0 0 0 0 0 0 0 0 0 
-0.001763456657720419 0 0 -0.001180857756098664 -0.00555520286900974 0 0 0.009467974319774471 0 0 0 
-0.0005555765975723758 0 -0.0007371385002991126 0.003535669652524416 0 -0.000317739132006498 0 0 0 0 0 
0 0 0 0 0 0 0 0 0 0 0 
0 0 0 0 0 0 0 0 0 0 0 
0 0 0 0 0 0 0 0 0 0 0 
0 0 0 0 0 0 0 0 0 0 0 
0 0 0 0 0 0 0 0 0 0 0 
0 0 0 0 0 0 0 0 0 0 0 
0 0 0 0 0 0 0 0 0 0 0 
0 0 0 0 0 0 0 0 0 0 0 
0 0 0 0 0 0 0 0 0 0 0 
0 0 0 0 0 0 0 0 0 0 0 
0 0.0004197800027594897 0 0 0 0 -0.0002460497874863347 -0.0001045072853638887 0 -0.00080472548729649 0 
0 0 0 0 0 0 0 0 0 0 0 
0 0 0 0 0 0 0 0 0 0 0 
0 0 0 0 0 0 0 0 0 0 0 
0 0 0 0 0 0 0 0 0 0 0 
0 0 0 0 0 0 0 0 0 0 0 
-0.002745236903739763 0 0 0.01249346268815498 0 0 0 0 0 -0.007729924668203968 0 
0 0 0 0 0 0 0 0 0 0 0 
-0.002064694839465562 0 0 0.007244699678506228 0 0 -0.0004621242928786316 -0.001191533151007793 0 0 0 
0 0 0 -0.002233703087208317 -0.0003199294984516987 0 0 0 0 0 0 
0 0 0 0 0 0 0 0 0 0 0 
0 0 0 0 0 0 0 0 0 0 0 
-0.01329363686771516 0.03347625329869788 -0.003148646254400961 0 0 0 -0.01589290344758923 0 0 0 0 
0 0 0 0 0 0 0 0 0 0 0 
0 0 0 0 0 0 0 0 0 0 0 
-0.01218533679456134 0.001654980963981328 0 0 0 0 0 0 0 0 0 
0 0 0 0 0 0 0 0 0 0 0 
0 0 0 0 0 0 0 0 0 0 0 
0 0 0 0 0 0 0 0 0 0 0 
0 0 0 0 0 0 0 0 0 0 0 
0 0 0 0 0 0 0 0 0 0 0 
0 0 0 0 0 0 0 0 0 0 0 
0 0 0 0 0 0 0 0 0 0 0 
-0.000326200891096867 -0.001149178633296328 0.001975185610131052 0 0 -7.098494746988305e-05 0 0 0 0 -7.833466856644439e-05 
0 -0.03330281579222749 -0.009815876449153072 0.1257294113726268 0 0 -0.0164670693720303 0 -0.008723629798196139 -0.0482380611855291 0 
-0.008653876474435355 0.05482745179814952 -0.008147985594839553 -0.03115780126762265 0 0 -0.008101653826828046 0 0 0 0 
0 0 0 0.004349046340725179 -0.005851246328805315 0 0 0 0 0 0 
0 0 0 0 0 0 0 0 0 0 0 
0 0 0 0 0 0 0 0 0 0 0 
0.01426879807834082 -0.007747268143547855 -0.002469374842925297 0 0 0 0 0 0 0 0 
-0.0004044991616895936 0.001606067586613442 0 0 0 0 0 -0.0001387665170666658 0 0 0 
0 0 0 0 0 -0.001519604498116399 0 0 0 0 0 
0 0 0 0 0 0 0 0 0 0 0 
0 0 0 -0.005430810523477979 -0.0007225863643106637 0 0 0.004890357034737768 0 0 0 
0 0 0 0 0 0 0 0 0 0 0 
0 0 0 0 0 0 0 0 0 0 0 
0 -0.001832330885422215 0 -0.005804343791364622 0 0 -0.0002875975918772327 0.006443641495228059 0 -0.00037105917482686 0 
0 -0.003984250848351752 0 0.005841318335246933 0 -0.003530959483638874 0 0 0 0 0 
-0.0004069484911049162 -0.001743673677234164 5.421010862427522e-20 0.002695024380803524 -0.001035846992618636 -0.0009552085711971492 0 -0.001347653768003851 1.355252715606881e-20 0 0 
0 0 0 0 0 0 0 0 0 0 0 
0 0 0 0 0 0 0 0 0 0 0 
0 0 0 0 0 0 0 0 0 0 0 
0 0 0 0 0 0 0 0 0 0 0 
0 0.01374620852329737 0 -0.007157343361896904 0 0 0 0 0 0 0 
0 0 0 0 0 0 0 0 0 0 0 
0 0.03860078196050448 0 0 -0.03520612399662209 0 0 -0.0004252659166435552 0 0 0 
-0.004656802355975169 0.002943364911679007 0 0 -0.00332365831652713 0 0 0 0 0 0 
0.0006961378169639312 -0.001467462184136539 0 0 0 -4.791854124177472e-05 -8.744464742692105e-05 0 0 0 0 
0 0 -8.443520491713463e-05 0 0 -0.0002685597896447944 0 0.001360374394010824 0 0 -2.284464647435082e-05 
0 0 0 0 0 0 0 0 0 0 0 
0 0 0 0 0 0 0 0 0 0 0 
0 0 0 0 0 0 0 0 0 0 0 
0 0 0 0 0 0 0 0 0 0 0 
0 0 0 0 0 0 0 0 0 0 0 
0 0.001696428070280841 0 0 0 -0.0003762795778724768 0 0 -2.580059363169228e-05 0 0 
0 0 0 0 0 0 0 0 0 0 0 
0 0 0 0 0 0 0 0 0 0 0 
0 0 0 0 0 0 0 0 0 0 0 
0 0 0 0 0 0 0 0 0 0 0 
0 0 0 0 0 0 0 0 0 0 0 
0 0 0 0 0 0 0 0 0 0 0 
0 0 0 0 0 0 0 0 0 0 0 
0 0 0 0 0 0 0 0 0 0 0 
0 0 0 0 0 0 0 0 0 0 0 
0 -0.1072450268453653 0 -0.02374329632041502 -0.002490658207658621 0 0 0 0 0.1457837232796376 0 
0 0 0 0 0 0 0 0 0 0 0 
0 0 0 0 0 0 0 0 0 0 0 
0 0 0 0 0 0 0 0 0 0 0 
0 0.0005175780481987093 0 -0.0003343432609056071 0 -3.338990787893926e-05 0 -7.730234721347646e-05 0 0 0 
0 -0.002767921571631226 0 0.01147983547902157 0 0 -0.0005911499104740342 0 0 -0.005177784809757599 0 
0 0 0 0 0 0 0 0 0 0 0 
0 0 0 0 0 0 0 0 0 0 0 
0 0 0 0 0 0 0 0 0 0 0 
0 -0.01370729765758302 0 0 0 -0.0004325979213254164 0 0 0 0 0 
0 0 0 0 0 0 0 0 0 0 0 
0 0 0 0 0 0 0 0 0 0 0 
0 0 0 0 0 0 0 0 0 0 0 
0 0 0 0 0 0 0 0 0 0 0 
0 0 0 0 0 0 0 0 0 0 0 
0 0 0 0 0 0 0 0 0 0 0 
0.2764859174093311 -0.2306726176286998 -0.008176809441417398 -0.03109277750692818 0 0 -0.008055200986691099 0 0 0 0 
0 -0.0004003925891734631 0 0 0 0 0 0 0 0 0 
0 0 0 0 0 0 0 0 0 0 0 
0 0 0 0 0 0 0 0 0 0 0 
0 0 -0.002670128447246874 6.505213034913027e-19 -0.005432990341149711 0 -0.0001940748749724949 0 0 -0.002682173412870532 0 
-0.001971801225180805 0.007392203289090148 0 0 -0.0001130682359101746 0 0 0 0 -0.0005209994456129929 0 
0 0 0 0 0 0 0 0 0 0 0 
0 0 0 0 0 0 0 0 0 0 0 
0 0 0 -0.0004229761297123179 -0.006034728662562171 0 0 0.00713308906521839 0 0 0 
0 0 0 0 0 0 0 0 0 0 0 
0 0 0 0 0 0 0 0 0 0 0 
0 0 0 0 0 0 0 0 0 0 0 
0 0 0 0 0 0 0 0 0 0 0 
0 0 0 0 0 0 0 0 0 0 0 
0 0 0 0 0 0 0 0 0 0 0 
0 -0.002752812551315264 0 0.003027631769416134 0 0 0 0 0 0 0 
0 -0.0006146594793889295 0 -0.0005242534242471729 -0.0002187508699649439 -0.0001602645245491339 0 0 0 0.001725337697025816 0 
0 0 0 0 0 0 0 0 0 0 0 
0.0007936404578239598 0 0 0 0 -0.0001852541400004829 0 0 0 -0.0001525506573523855 0 
0 0 0 -0.0003779329606418035 0 0 0 0 0 0 0 
0 0 0 0 0 0 0 0 0 0 0 
0 0 0 0 0 0 0 0 0 0 0 
0 0 0 0 0 0 0 0 0 0 0 
0 0 0 0 0 0 0 0 0 0 0 
0 0 0 0 0 0 0 0 0 0 0 
0 0 0 0 0 0 0 0 0 0 0 
0 0 0 0 0 0 0 0 0 0 0 
0 0 0 0 0 0 0 0 0 0 0 
0 0 -0.0005976877151990229 -0.001951592960859775 0 0 0 0 0 0.008139885989649863 0 
0 0 0 0 0 0 0 0 0 0 0 
0 0 0 0 0 0 0 0 0 0 0 
0.0006362000694983313 -0.002015811786043918 -0.0005938401237756796 -0.003670073861018922 -0.002484512198428216 0.002848846627783048 5.421010862427522e-20 -0.0009770103362169826 0 0.003678709993090061 -0.0005417794278747538 
0 0 0 0 0 0 0 0 0 0 0 
0.003392378622692403 -0.001898240625920529 -0.0009386681716109042 0 -0.0002540877307761981 -0.0001105973569631413 -0.0005783549353592502 0 0 -0.000405467659440842 0 
0 0 0 0 0 0 0 0 0 0 -0.0001400929456550557 
0 0.008387426773126318 -0.0005363239488258905 -0.002045971986248141 -0.001296951884711341 0 0 0 0 -0.0003812142253508029 0 
0 -0.001594935749019464 -0.000223370080021787 0.001974779892813692 0 -0.0005662157218911541 0 0 0 0 0 
0 0 0 0 0 0 0 0 0 0 0 
-0.001142232942546958 -0.000946732581194831 0 -0.0002413263246942121 0.00863724436348918 -0.0001557301736249864 0 0 0 -0.001098504112785872 0 
0 0 0 0 0 0 0 0 0 0 0 
0 0 0 0 0 0 0 0 0 0 0 
0 0 0 0 0 0 0 0 0 0 0 
0 0 0 0 0 0 0 0 0 0 0 
0 0 0 0 0 0 0 0 0 0 0 
0 0 0 0 -0.001855370659483513 -0.0005081388278756486 0 0 0 0.002440724083616858 0 
0 0 0 0 0 0 0 0 0 0 0 
0 0 0 0 0 0 0 0 0 0 0 
0 0 0 0 0 0 0 0 0 0 0 
0 -0.008311301674537091 0.006513313918088875 0 0 -0.000908526203910301 0 -0.0001402475527497193 0 0 0 
0 0 0 0 0 0 0 0 0 0 0 
0 -0.002281058355310806 0 0 0 0 0 0 0 0 0 
0 -0.0009589348659030505 0 0.1348901579993386 0 0 -0.0006845451932711411 0 0 -0.1155671559625727 0 
0 -0.107225783519625 0 -0.02377765766558881 -0.002392819982213857 0 0 0 0 0.1459076987262026 0 
0 0.1785071344845158 0 0 -0.0151616933805342 0 0 0 0 -0.1787857227864389 0 
-3.009946221074842e-05 0.0007238217725224873 0 0 0 0 0 -0.0004472624171102713 0 -6.262159336248123e-05 0 
0 0 0 0 0 0 0 0 0 0 0 
0 0.001283952832329643 0 0 -0.0003145789165342088 -2.91573566234629e-05 0 -0.0007405156828274488 -8.739818015913012e-05 0 0 
0 0 0 0 0 0 0 0 0 0 0 
0 -0.0008465494977532129 0 0 0 0 0 0.0007663213591547043 0 -9.345069308507578e-05 0 
0 0 0 0 0 0 0 0 0 0 0 
0 0 0 0 0 0 0 0 0 0 0 
-0.008652253621203554 0.05482830234021 -0.008234522365987818 -0.03114866037072313 0 0 -0.008004741472222203 0 0 0 0 
0 0 0 0 0 0 0 0 0 0 0 
0 0 0 0 0 0 0 0 0 0 0 
0 0 0 0 0 0 0 0 0 0 0 
0 0 0 0 0 0 0 0 0 0 0 
0.0008354449201582805 -0.000498121730809632 0 0 -0.0004014459512636299 -8.340307566947634e-05 0 0 0 0 0 
0 0 0 0 0 0 0 0 0 0 0 
0 0 0 0 0 0 0 0 0 0 0 
0 0 0 0 0 0 0 -0.0005689655434970202 0 0 0 
0 0 0 0 0 0 0 0 0 0 0 
0 0 0 0 0 0 0 0 0 0 0 
0 0 0 0 0 0 0 0 0 0 0 
0 0 0 0 0 0 0 0 0 0 0 
0 0 0 0 0 0 0 0 0 0 0 
0 0 0 0 0 0 0 0 0 0 0 
0 -0.001458993917500817 0 0 -0.003319703647050847 0 0 0 0 0 0 
0 0 0 0 0 0 0 0 0 0 0 
0 0 0 -0.006163879497690304 0 0 0 0 0 0.007382282774088425 0 
0 0 0 0 0 0 0 0 0 0 0 
0 0.000775057267950741 0 0 -3.800389511801169e-05 -0.0001117015040955169 0 0 0 0 0 
0 0 0 0 0 0 0 0 0 0 0 
0 0 0 0 0 0 0 0 0 0 0 
0 0.003889804672912388 0 -0.001319352544916242 0 -0.0006168327848394891 0 -0.001004645922874609 0 0 0 
0 0 0 0 0 0 0 0 0 0 0 
0 -0.002297899866366268 0 0 0 0.00151092181838589 0 -0.0003695207622330787 0 0 -0.0001514313871643105 
-0.000912647679971517 0.001145470359825459 0 0 0 0 0 -0.0003942846772458318 0 0 0 
0 -0.004335030452482247 0 0.004350829967341626 0 -0.0001124651569982457 0 0 0 -4.779948015091377e-06 -6.982029083119639e-07 
0 0 0 0 0 0 0 0 0 0 0 
0 0 0 0 0 0 0 0 0 0 0 
0 0 0 0 0 0 0 0 0 0 0 
0 0 0 0 0 0 0 0 0 0 0 
-0.0001576914714719435 -0.0003217830199126763 0 0.005121773017222769 0 0 -0.0001021252814368733 0 0 0 0 
0 0 0 0 0 0 0 0 0 0 0 
0 0 0 0 0 0 0 0 0 0 0 
0 0 0 0 0 0 0 0 0 0 0 
0 0 0 0 0 0 0 0 0 0 0 
0 0.004477336278998852 0 -0.002544247033479487 0 -1.127096738013539e-05 0 0 0 0 0 
0 0 0 0 0 0 0 0 0 0 0 
0 0 0 0 0 0 0 0 0 0 0 
0 0 0 0 0 0 0 0 0 0 0 
0.00478701853560106 0 0 0 0 -0.001714210342595921 0 -0.0004794715789051474 0 0 0 
0 0.009098657354704486 0 -0.002342231155168964 0 -0.003524368303794774 0 5.759824041329242e-20 -0.0002163679171876315 0 0 
-0.0006502667032300464 0.0009138458619325368 -0.0003368500223333863 0 0 -0.0003680868209655904 0 0 -8.960728085807135e-05 -0.001354660347302301 0 
-0.008592787032340732 0.05481361943801817 -0.008185381701339584 -0.03108285802252572 0 0 -0.008060549651784673 0 0 0 0 
0 0 0 0 0 0 0 0 0 0 0 
-4.336808689942018e-19 -0.002286733492456293 -0.003401499930597356 0 -0.0005177410271471376 -0.000365382582026561 -0.0002270495090865381 0 0 0 -0.0002212212468669065 
0 0 0 0 0 0 0 0 0 0 0 
-0.001298244753799092 0 0 -0.0004575870694890832 -8.758287155710962e-05 0 0 0 0 0 0 
0 0 0 0 0 0 0 0 0 0 0 
-0.0002098336955283354 0 -0.05100067884516792 0 0.05221946594104166 0 0 -0.002967426572709097 0 0 -9.392515136432124e-05 
0 0 0 0 0 0 0 0 0 0 0 
0 0 0 0 0 0 0 0 0 0 0 
0 0 0 0 0 0 0 0 0 0 0 
0 0 0 0 0 0 0 0 0 0 0 
0 0 0 0 0 0 0 0 0 0 0 
0 0 0 0 0 0 0 0 0 0 0 
0 0 0 0 0 0 0 0 0 0 0 
0 0 0 0 0 0 0 0 0 0 0 
0 0 0 0 0 0 0 0 0 0 0 
0 0 0 0 0 0 0 0 0 0 0 
0 0 0 0 0 0 0 0 0 0 0 
0 0 0 0 0 0 0 0 0 0 0 
0 0 0 0 0 0 0 0 0 0 0 
0 0 0 0 0 0 0 0 0 0 0 
0 0 0 0 0 0 0 0 0 0 0 
0 0 0 0 0 0 0 0 0 0 0 
0 0 0 0 0 0 0 0 0 0 0 
0 0 0 0 0 0 0 0 0 0 0 
0 0 0 0 0 0 0 0 0 0 0 
0 0 0.0005046096317562154 -0.0003539059335925462 -0.0017214798165305 0 0 0 0 -0.0005391802501093327 0 
0 -0.08500272574892294 0 -0.003859670485972711 -0.00841583609119214 0 0 0 0 0.0790642783658534 0 
0 0 0 0 0 0 0 0 0 0 0 
0 0 0 0 0 0 0 0 0 0 0 
0 0 0 0 0 0 0 0 0 0 0 
0 0 0 0 0 0 0 0 0 0 0 
0 0 0 0 0 0 0 0 0 0 0 
0 0 0 0 0 0 0 0 0 0 0 
0 0 0 0 0 0 0 0 0 0 0 
0 0 0 0 0 0 0 0 0 0 0 
0 0 0 0 0 0 0 0 0 0 0 
0 0 0 0 0 0 0 0 0 0 0 
0 0 0 0 0 0 0 0 0 0 0 
0 0 0 -0.08200180215103485 -0.02406525303990648 0 0 0 0 0.08678997016500535 0 
0 0 0 0 0 0 0 0 0 0 0 
0 0 0 0 0 0 0 0 0 0 0 
0 0 0 0 0 0 0 0 0 0 0 
0 0 0 0 0 0 0 0 0 0 0 
0 0 0 0 0 0 0 0 0 0 0 
0 0 0 0 0 0 0 0 0 0 0 
0 0 0 0 0.007292874806920318 0 0 -0.006936797155656624 0 0 0 
0 0 0 0 0 0 0 0 0 0 0 
0 0 0 0 0 0 0 0 0 0 0 
0 0 0 0 0 0 0 0 0 0 0 
0 0 0 0 0 0 0 0 0 0 0 
0 0 0 0 0 0 0 0 0 0 0 
0 0 0 0 0 0 0 0 0 0 0 
0 0 0 0 0 0 0 0 0 0 0 
0 0 0 0 0 0 0 0 0 0 0 
0 0 0 0 0 0 0 0 0 0 0 
0 0 0 0 0 0 0 0 0 0 0 
0 0 0 0 0 0 0 0 0 0 0 
-5.883678989316377e-05 0.0005723711367486433 -0.0003876492776068756 0 -0.0001729624428212682 -9.093883900504792e-05 0 0 0 -0.0001362544932315897 0 
0 0 0 0 0 0 0 0 0 0 0 
0 0 0 0 0 0 0 0 0 0 0 
0 0 0 0 0 0 0 0 0 0 0 
0 0 0 0 0 0 0 0 0 0 0 
0 0 0 0 0 0 0 0 0 0 0 
0 0 0 0 0 0 0 0 0 0 0 
0 0 0 0 0 0 0 0 0 0 0 
0 -0.03330114730116463 -0.009776592794394964 -0.1599126048846607 0 0 -0.01644394879244316 0 -0.00888303752887387 0.2374785537071546 0 
0 0 0 0 0 0 0 0 0 0 0 
0 0 0 0 0 0 0 0 0 0 0 
0 0 0 0 0 0 0 0 0 0 0 
0 0.003282266387445524 -0.0003466252117056111 0 0 -0.0005544287887847568 0 -0.0009185551059390522 -0.000254598372915205 0 0 
0 0 0 0 0 0 0 0 0 0 0 
0 0 0 0 0 0 0 0 0 0 0 
0 0 0 0 0 0 0 0 0 0 0 
0 0 0 0 0 0 0 0 0 0 0 
0 0 0 0 0 0 0 0 0 0 0 
0 0 0 0 0 0 0 0 0 0 0 
0 0 0 0 0 0 0 0 0 0 0 
0 0 0 0 0 0 0 0 0 0 0 
0 0 0 0 0 0 0 0 0 0 0 
0 0 0 0 0 0 0 0 0 0 0 
0 0 0 0 0 0 0 0 0 0 0 
0.0006304916968824935 -0.001233643421886608 0 -5.421010862427522e-20 -1.248452960040766e-05 0 0 -2.710505431213761e-20 0 0 0 
0 0 0 0 0 0 0 0 0 0 0 
0 0 0 0 0 0 0 0 0 0 0 
0 0 0 0 0 0 0 0 0 0 0 
0 0 0 0 0 0 0 0 0 0 0 
0 0 0 0 0 0 0 0 0 0 0 
0 0 0 0 0 0 0 0 0 0 0 
0 0 0 0 0 0 0 0 0 0 0 
0 0 0 0 0 0 0 0 0 0 0 
0 0 0 0 0 0 0 0 0 0 0 
0 0 0 0 0 0 0 0 0 0 0 
0 0 0 0 0 0 0 0 0 0 0 
-0.002534411984248109 -0.0502489217768959 0.2438779379587103 -0.08883876783501923 0 0 -0.0620744485435732 0 0 -0.003715515244833649 0 
0 0 0.004270656423749705 -0.01807431075482746 0 0 0 0 -2.786473521676241e-05 0 0 
-0.02926103630769126 0 -0.001903422674140932 -0.002473425165010241 -0.0001863427363005079 -0.0004750435263477482 0 0 0 0.01477921570960057 0 
0 -0.006937648528586354 0 -0.003405994576442506 0 -0.000968382088902628 0 0 0 0.007585776782752711 0 
-0.002187339126626147 0 0 -0.002601659690423193 -0.003620137089134554 0 0 0 0 0.007190361044904783 0 
0 0 0 0 0 0 0 0 0 0 0 
0 0 0 0 0 0 0 0 0 0 0 
0 0 0 0 0 0 0 0 0 0 0 
-0.002636699027280129 -1.355252715606881e-20 -0.004394462602903108 -0.008831860595994721 0.009870847612136991 0 0 -0.009604568284179712 0 0.008603278350033557 0 
-5.421010862427522e-20 -0.007219044071560118 -0.0005046156677506014 -0.00315794741257167 0 0 0.01144186313610627 -0.0001746636257792555 0 -0.0006301076068346132 0 
0 0 0 -0.0004548235762687366 0 0.0006902314278616594 0 0 0 0 0 
0 0 0 0 0 0 0 0 0 -0.001083451767449486 0 
0 0 0 0 0 0 0 0 0 0 0 
0 -0.03337147929116182 -0.009756252650189508 0.1257030982380435 0 0 -0.0164957280360615 0 -0.008811610774626399 -0.04817131608687604 0 
0 0 0 0 0 0 0 0 0 0 0 
0 0 0 0 0 0 0 0 0 0 0 
-0.001405745938676212 0 0 0.002931434315749745 0 0 0 0 0 -0.002436684626141546 0 
0 0 0 0 0 0 0 0 0 0 0 
0 0 0 0 0 0 0 0 0 0 0 
0 0 0 0 0 0 0 0 0 0 0 
0 0 0 0 0 0 0 0 0 0 0 
0 0 0 0 0 0 0 0 0 0 0 
-0.0004856708724511605 -0.003136463918771528 7.825359099331367e-05 4.336808689942018e-19 0 -0.0003398082316652681 -0.0001732575294665651 0.001977526692027142 0 -0.003966521647819626 0 
0.001871304010490343 0 -0.00147077386496331 0 0 -2.834594625714906e-05 0 0 0 0 0 
0 0 0 0 0 0 0 0 0 0 0 
0.004732890465094055 0.006931293204105888 -0.0002214198118402218 -0.005627732978959711 0 -0.0008020801349421509 -0.0004217629767033332 -0.006797408674173173 0 4.336808689942018e-19 0 
0 0 0 0 0 0 0 0 0 0 0 
0.002430673116015372 -0.0008267303706951029 0 0 0 0 0 -0.0004377927277285336 0 0 -1.513570283027379e-05 
0 0 0 0 0 0 0 0 0 0 0 
0 0 0 0 0 0 0 0 0 0 0 
0 0 0 0 0 0 0 0 0 0 0 
0.001490925728802471 -0.004431879308136785 0 -0.003185935454642483 -0.009992993340810941 0 0 0 0 0 0 
-2.739681886845419e-05 0.0006777075356863909 -0.0002769542991531221 0 0 -3.615176259384308e-05 -7.946696057555116e-05 0 0 0 -5.723632999837486e-05 
0 0 0 0 0 0 0 0 0 0 0 
0 0.01053618448149909 0 -0.01012023896206902 0 0 0 0 0 -0.005291566272701126 0 
0 0 0 0 0 0 0 0 0 0 0 
0 0 0 0 0 0 0 0 0 0 0 
0 0 0 0.01447207192320484 0 0 0 -0.000569733997741218 0 0 0 
0 0 0 0 0 0 0 0 0 0 0 
0 0 0 0 0 0 0 0 0 0 0 
0 0 0 0 0 0 0 0 0 0 0 
0 0 0 0 0 0 0 0 0 0 0 
0 0 0 0 0 0 0 0 0 0 0 
0 0 0 0 0 0 0 0 0 0 0 
0 0 0 0 0 0 0 0 0 0 0 
0 0 0 0 0 0 0 0 0 0 0 
0 0 0 -0.005545282414341342 0 0 0 0 0 0.001615581708880988 0 
0 0 0 0 0 0 0 0 0 0 0 
0 -0.0005662306668060934 0 0 -0.006106693977180928 0 0 0 0 0.0001762556776827402 0 
0 0 0 0 0 0 0 0 0 0 0 
-0.001142798309100835 -0.000204117708564858 -1.355252715606881e-20 -0.005946860750351006 0 0.006741618348973136 -0.004669882055877081 -5.599365341833405e-05 -1.629039000026639e-05 0 0 
0 0 0 0 0 0 0 0 0 0 0 
0 0 0 0 0 0 0 0 0 0 0 
0 0 0 0 0 0 0 0 0 0 0 
0 0 0 0 0 0 0 0 0 0 0 
0 0 0 0 0 0 0 0 0 0 0 
0 0 0 0 0 0 0 0 0 0 0 
0 0 0 0 0 0 0 0 0 0 0 
0 0 0.006602116898537344 0 0 0 0 -0.007730981892234325 0 0 0 
0 -0.1073406703860854 0 -0.02383549908698875 -0.002416761170947161 0 0 0 0 0.1459845667136745 0 
0 0 0 0 0 0 0 0 0 0 0 
0 0 0 0 0 0 0 0 0 0 0 
0 0 0 0 0 0 0 0 0 0 0 
0 0 0 0 0 0 0 0 0 0 0 
0 0 0 0 0 0 0 0 0 0 0 
0 0 0 0 0 0 0 0 0 0 0 
0 0 0 0 0 0 0 0 0 0 0 
0 0 0 0 0 0 0 0 0 0 0 
-0.000988761607124651 -9.24407720208403e-05 -0.0002112810300267508 0 0 0 -0.0001679998666384485 0.002612350959229201 0 0 -9.067246941105346e-05 
0 0 0 0 0 0 0 0 0 0 0 
-0.007507329863608809 0.04805582513926557 -0.007155594492068204 -0.02722049106936484 0 0 -0.007018083100602626 0 0 0 0 
0 0 0 0 0 0 0 0 0 0 0 
0 -0.0001636314465598949 0 0 0 0.000663720400626521 -1.594729622444971e-05 0 0 -0.0007974116595548893 0 
0 0 0 0 0 0 0 0 0 0 0 
0 0 0 0 -7.682847208989188e-05 0 -0.003643840538686885 -0.002476372821490393 0 0.0156427948194084 -0.0005132259546269835 
1.084202172485504e-19 -1.084202172485504e-19 0.001935100694053349 0.001953101906850335 -0.003575037399553065 0 -0.0001075866085815402 -6.776263578034403e-21 0 0.008104441496240265 0 
0 0 0 0 0 0 0 0 0 0 0 
-0.001368590855720754 0 0.001520771656127079 -0.0001922035349718251 -0.0001115353836766426 0 0 -0.0005070836835305402 0 -4.658142167843467e-05 0 
0 0 0 0 0 0 0 0 0 0 0 
0 0 0 0 0 0 0 0 0 0 0 
0 0 0 0 0 0 0 0 0 0 0 
0 0 0 0 0 0 0 0 0 0 0 
0 0 0 0 0 0 0 0 0 0 0 
-0.1666765293849991 -0.001022236018676828 0 -0.05694365434465491 -0.001804841967841113 0 0 -3.566675365985567e-05 0 0.2195480305765233 0 
0 0.002967247826512612 0 -0.004593030241069568 -0.0006056940595578618 0 0 0 0 0 0 
0 0 0 0 0 0 0 0 0 0 0 
0 0.004251714114839078 -0.0009177503786690724 -0.003280302098034097 0 0 0 0 0 0 0 
0 0 0 0 0 0 0 0 0 0 0 
0 -0.004495921891489975 0 0 0 -4.444727805377136e-05 0 0 0 0 0 
0 0 0 0 0 0 0 0 0 0 0 
0 0 0 0 0 0 0 0 0 0 0 
0 0 0 0 0 0 0 0 0 0 0 
0 0 0 0 0 0 0 0 0 0 0 
0 -0.000438212817850041 0 0 0 0.001430968526633359 0 0 -7.371439919537793e-05 -0.0002505259173936491 0 
0 0 0 0 0 0 0 0 0 0 0 
0 0 0 0 0 0 0 0 0 0 0 
0 0 0 0 0 0 0 0 0 0 0 
0 0 0 0 0 0 0 0 0 0 0 
-0.001985807498343851 0.003472425115190415 0 0 0 -0.0009748068926881597 -0.0003605050652906481 0 0 0 0 
0 0 0 0 0 0 0 0 0 0 0 
0 0 0 0 0 0 0 0 0 0 0 
0 0 0 0 0 0 0 0 0 0 0 
0 0.0116280395964166 0 0 0 0 0 0 -0.0007086818601280316 0 0 
0 0 0 0 0 0 0 0 0 0 0 
0.001274763065293291 -0.001076035760871645 -0.0005671228972130781 0 0 -0.000158767876112631 -0.0001984682303047669 -0.0001565416325496167 0 0 0 
0 0 0 0 0 0 0 0 0 0 0 
0 0 0 0 0 0 0 0 0 0 0 
0 0 0 0 0 0 0 0 0 0 0 
-0.008604097582568436 -0.2307340084780295 -0.008148911751320502 -0.03101677646105666 0 0 0.2755318672044135 0 0 0 0 
0 0 0 0 0 0 0 0 0 0 0 
0 0 0 0 0 0 0 0 0 0 0 
0 0 -0.002069177553859578 0 0 0 0 0 0 0 0 
0 0 0 0 0 0 0 0 0 0 0 
0 0 0 0 0 0 0 0 0 0 0 
0.1711241701503978 -0.08172664713570998 0 -0.001787496003952485 0 0 0 -0.02463377608011245 0 -0.01653829882027676 0 
0 0 0 0 0 0 0 0 0 0 0 
0 -0.002712170746736302 0 -0.003406162450130307 0 0 0.005624094837367676 0 0 -0.004241772901880043 0 
0 0 0 0 0 0 0 0 0 0 0 
0 0 0 0 0 0 0 0 0 0 0 
0 0 0 0 0 0 0 0 0 0 0 
0 0 0 0 0 0 0 0 0 0 0 
0 0 0 0 0 0 0 0 0 0 0 
0 0 0 0 0 0 0 0 0 0 0 
0 0 0 0 0 0 0 0 0 0 0 
0 0 0 0 0 0 0 0 0 0 0 
0 0 0 0.003817044099391024 0 0 0 0 0 0 0 
0 0 0 0 0 0 0 0 0 0 0 
0 0 0 0 0 0 0 0 0 0 0 
0 0 0 0 0 0 0 0 0 0 0 
0 0.07465498156056935 -0.04391780467584692 -0.0005695001513367584 0 0 0 0 0 -0.01759483851694889 0 
0 0 0 0 0 0 0 0 0 0 0 
0 0 0 0 0 0 0 0 0 0 0 
0 0 0 0 0 0 0 0 0 0 0 
0 0 0 0 0 0 0 0 0 0 0 
0 0 0 0 0 0 0 0 0 0 0 
0 0.01152849614249152 0 -0.004514631846424893 -0.0008729015881884344 0 0 0 0 -0.003426659825167275 0 
0 0 0 0 0 0 0 0 0 0 0 
0 0 0 0 0 0 0 0 0 0 0 
-0.0149462934858836 -0.07626402727200011 0 0 -0.02964921467580845 0 -0.001018194998548403 0.01069991630176522 0 0 0 
0 0 0 0 0 0 0 0 0 0 0 
0 0 0 0 0 0 0 0 0 0 0 
0 0 0 0 0 0 0 0 0 0 0 
0 0 0 0 0 0 0 0 0 0 0 
0 -1.355252715606881e-19 0 0 0 -0.000489200891476832 0 -0.0003588571763301285 0 0 0 
0 0 0 0.0006910278724006634 -0.002593670322183844 0 0 0 0 -0.001111657354345795 0 
0 0 0 0 0 0 0 0 0 0 0 
0 0 0 0 0 0 0 0 0 0 0 
0 0 0 0 0 0 0 0 0 0 0 
0 0 0 0 0 0 0 0 0 0 0 
0 0 0 0 0 0 0 0 0 0 0 
0 0 0 0 0 0 0 0 0 0 0 
0 0 0 0 0 0 0 0 0 0 0 
0 0 0 0 0 0 0 0 0 0 0 
0 0 0 0 0 0 0 0 0 0 0 
0 0 0 0 0 0 0 0 0 0 0 
0 0 0 0 0 0 0 0 0 0 0 
0 0 0 0 0 0 0 0 0 0 0 
0 0 0 0 0 0 0 0 0 0 0 
0 -0.0009756749568281743 0 -0.0005716731711313535 0 0.00547751547628473 0 0 0 -0.0006737329951797121 0 
0 0 0 0 0 0 0 0 0 0 0 
0 0 0 0 0 0 0 0 0 0 0 
0 0 0 0 0 0 0 0 0 0 0 
0 0 0 0 0 0 0 0 0 0 0 
0 0 0 0 0 0 0 0 0 0 0 
0 0 0 -0.0002114273190621816 0 0 0 0 0 0 0 
0 0 0 0 0 0 0 0 0 0 0 
0 0 0 0 0 0 0 0 0 0 0 
0 0 0 0 0 0 0 0 0 0 0 
-0.002329337963219495 -0.04356338114348123 -0.006318238314004372 -0.1121012346446838 -0.003412923619076394 0 -0.0284385612068159 0 -0.007495927527082887 0.1976599723164419 0 
-0.09608061895468302 -0.01314504612866382 -0.05991480428740738 -0.04251984160010695 -0.007265164212984509 -0.005735661025587808 -0.003659608820886612 0.2059658618730595 -0.004419747507583321 0 -0.005380393122389368 
0 0 0 0 0 0 0 0 0 0 0 
0 0 0 0 0 0 0 0 0 0 0 
-0.001337509756932679 0 0 -0.00100524849989972 0.004849106070150862 0 0 -0.001141046940139304 0 0 0 
0 0.1782078527173533 0 -0.02380926227899167 -0.002396516209525663 0 0 0 0 -0.1395446961315247 0 
0 0 -0.0005178055632177041 0 0.001200273795092188 0 0 0 0 0 0 
0 0 0 0 0 0 0 0 0 0 0 
0 0 0 0 0 0 0 0 0 0 0 
0 0 0 0 0 0 0 0 0 0 0 
0 0 0 0 0 0 0 0 0 0 0 
0 0 0 0 0 0 0 0 0 0 0 
0 0 0 0 0 0 0 0 0 0 0 
0 0 0.004540796610558242 -0.0007848433311143098 0 0 0 -0.004779794141912061 0 0 0 
0 0 0 0 0 0 0 0 0 0 0 
0 0 0 0 0 0 0 0 0 0 0 
0 0.0005181611085559294 -0.0009813411887193899 -4.18741317765392e-05 -0.000654616724092026 -1.087729589208459e-05 0 0 0 0 0 
0 0 0 0 0 0 0 0 0 0 0 
0 0 0 0 0 0 0 0 0 0 0 
0 0 0 0 0 0 0 0 0 0 0 
0 0 0 0 0 0 0 0 0 0 0 
0 0.002710219243921942 0 -0.002442151056654591 0 0 0 0 0 0 0 
-0.001221117701777213 -0.001852934192660786 -0.002316594039183704 0 0 0 -1.199757589283321e-05 0 0.002856850458236025 -0.0005881422493779218 0 
0 0 0 0 0 0 0 0 0 0 0 
0 0.00125603961693569 0 -5.468501334537025e-05 0 0 0 -2.316464533877928e-05 0 -0.001266743124704678 0 
0 0 0 0 0 0 0 0 0 0 0 
0 -0.0008740980928964846 0 0 0 0 0 0 0 0 0 
0 0 0 0 0 0 0 0 0 0 0 
0 0 0 0 0 0 0 0 0 0 0 
0 0 0 -0.005028341566599201 0 0 0 -7.295841451042119e-05 0 0.006965091260738433 0 
-3.561968150410363e-05 0 0 0.001620531462093104 0 -0.001368714890436895 -0.0003586773403289412 -4.46451547903883e-05 0 0 0 
0 0 0 0 0 0 0 0 0 0 0 
0 0 0 0 0 0 0 0 0 0 0 
0 0 0 0 0 0 0 0 0 0 0 
0 -0.0001215161217490617 -0.0006288324702354045 0 0.0009647090327527802 0 0 0 0 0 0 
-0.0007447167037601491 0.2473687282244465 -0.02871055526484478 -0.02299526373244602 -0.04576997466431831 0 0 0 0 -0.08364513442003736 0 
0 0 0 0 0 0 0 -0.0001900510710064849 -0.0004023529874185645 0 0 
0 -0.04977064948389164 0.1187509801146698 -0.07706880931505791 0 0 0 0 0 0 0 
0 0 0 0 0 0 0 0 0 0 0 
0 0 0 0 0 0 0 0 0 0 0 
0 0 0 0 0 0 0 0 0 0 0 
0 0 0 0 0 0 0 0 0 0 0 
0 0 0 0 0 0 0 0 0 0 0 
0 0 0 0 0 0 0 0 0 0 0 
0 0.0004457976422414681 0 0 0 0 0 0 0 0 0 
0 0 0 -0.002298956331266556 0.005086809828177442 0 0 0 0 -0.0009750425157247256 0 
0 0 0 0 0 0 0 0 0 0 0 
0 0 -0.001055774640271967 0 0 0 0 0.001328062013281143 0 0 0 
0 0 0 0 0 0 0 0 0 0 0 
-0.0001779342376772017 -0.0001764739729392408 0 0 -0.0001201937277663899 0 -6.090926188221943e-05 0 -2.771651683857164e-05 0 0 
0 0 0 0 0 0 0 0 0 0 0 
0 0 0 0 0 0 0 0 0 0 0 
9.214695336242281e-05 0 0 -0.001295479782115632 0 0 0 0 0 -0.003238155807084329 0 
0 0 0 -0.0007982187364127381 0 0 0 0.001086438223694678 0 0 0 
0 -0.0067112396477689 -0.001027913932037324 0.01096379340626871 0 0 0 0 0 0 0 
0 0 0 0 0 0 0 0 0 0 0 
0 0 0 0 0 0 0 0 0 0 0 
0 0 0 0 0 0 0 0 0 0 0 
0 -0.07593377383946188 0 0 0.1628796927889084 0 0 0 0 -0.09534891495402327 0 
0 0 0 0 0 0 0 0 0 0 0 
0 0 0 0 0 0 0 0 0 0 0 
0 0 0 0 0 0 0 0 0 0 0 
0 0 0 0 0 0 0 0 0 0 0 
0 0 0 0 0 0 0 0 0 0 0 
0.00102824026486727 -7.435666516260863e-05 -0.0003603206108430287 -0.0003914574397314897 0 -4.653242679238374e-06 -8.514385083146063e-05 0 0 -6.935668546521717e-05 0 
0 0 0 0 0 0 0 0 0 0 0 
0 0 0 0 0 0 0 0 0 0 0 
0 0 0 0 0 0 0 0 0 0 0 
0 0 0 0 0 0 0 0 0 0 0 
0 0 0 0 0 0 0 0 0 0 0 
0 0 0 0 0 0 0 0 0 0 0 
0 0 0 0 0 0 0 0 0 0 0 
0 0 0 0 0 0 0 0 0 0 0 
0.001010711993027007 -0.0009435116258703028 0 0 0 0 0 0 -0.0003637161154289486 0 0 
0 0 0 0 0 0 0 0 0 0 0 
-0.0004474628245443658 -6.670095988865188e-05 0 -0.0006844686102299151 0.002101673523327365 0 0 -0.0001943919819042413 0 0 0 
0 0 0 0 0 0 0 0 0 0 0 
0 0 0 0 0 0 0 0 0 0 0 
0 0 0 0 0 0 0 0 0 0 0 
0 0 0 0 0 0 0 0 0 0 0 
0 0 0 0 0 0 0 0 0 0 0 
0 0.006751557365232135 -0.001836406744010546 -0.001456827536126548 0 0 0 0 0 -0.001994463969401094 0 
0 0 0 0 0 0 0 0 0 0 0 
0.001184248962806869 -0.0004566924299892871 0 0 0 0 0 -0.000211096756804196 0 0 0 
0 0.005328935128789731 0 -0.0003561424887659001 0 0 0 0 0 0 0 
0 0 0 0.00624753924433717 -0.0004780016023182414 0 0 0 0 -0.005756310446592167 0 
0 0 0 0 0 0 0 0 0 0 0 
0 0 0 0 0 0.000850369277746455 0 -0.001268067411015323 0 -0.000150840468356337 0 
0 0 0 0 0 0 0 0 0 0 0 
0 0 0 -0.007493927900940192 -0.00041202779065548 0 0 0 0 0.002807641415474293 0 
0 0.001234863146492847 0 -0.002000132250247401 0 0 -0.0001965267524447972 0 0 0 0 
0 0 0 0 0 0 0 0 0 0 0 
0 0 0 0 0 0 0 0 0 0 0 
0 0 0 0 0 0 0 0 0 0 0 
0 0 0 0 0 0 0 0 0 0 0 
0 0 0 0 0 0 0 0 0 0 0 
0 0 0 0 0 0 0 0 0 0 0 
0 0 0 0 0 0 0 0 0 0 0 
0 -2.263983610761526e-05 0 -0.002246402665637835 -0.00023590038944764 0 0 0 0 0.002728515321807839 -1.102971818500963e-06 
0 0 0 0 0 0 0 0 0 0 0 
0 0 0 0 0 0 0 0 0 0 0 
0 0 0 0 0 0 0 0 0 0 0 
0 0 0 0 0 0 0 0 0 0 0 
0 0 0 0 0 0 0 0 0 0 0 
0 0 0 0 0 0 0 0 0 0 0 
0 0 0 0 0 0 0 0 0 0 0 
0 0 0 0 0 0 0 0 0 0 0 
0 0 0 0 0 0 0 0 0 0 0 
0 0 0 0 0 0 0 0 0 0 0 
0 0 0 0 0 0 0 0 0 0 0 
0 0 0 0 0 0 0 0 0 0 0 
0 0 0 0 0 0 0 0 0 0 0 
0 0 0 0 0 0 0 0 0 0 0 
0 0 0.006455344904709723 0 -0.002797001097530357 0 0 0 -0.0001027352758280551 -0.005342771251615065 0 
0 0 0 0 0 0 0 0 0 0 0 
0 0 0 0 0 0 0 0 0 0 0 
0 0 0 0 0 0 0 0 0 0 0 
0 0 0 0 0 0 0 0 0 0 0 
0 0 0 0 0 0 0 0 0 0 0 
0 0 0 0 0 0 0 0 0 0 0 
0 0 0 0 0 0 0 0 0 0 0 
0 0 0 0 0 0 0 0 0 0 0 
0 0 0 0 0 0 0 0 0 0 0 
0 0 0 0 0 0 0 0 0 0 0 
0 0 0 0 0 0 0 0 0 0 0 
0 0 0 0 0 0 0 0 0 0 0 
0 0 0 0 0 0 0 0 0 0 0 
0 0 0 0 0 0 0 0 0 0 0 
0 0 0 0 0 0 0 0 0 0 0 
0 0 0 0 0 0 0 0 0 0 0 
0 0 0 0 0 0 0 0 0 0 0 
0 0 0 0 0 0 0 0 0 0 0 
0 0 0 0 0 0 0 0 0 0 0 
0 0 0 0 0 0 0 0 0 0 0 
0 0 -0.002478238871506556 -0.001815836003242541 0 0.002100826724206327 0 0 0 0 -0.0003757232455211883 
0 0 0 0 0 0 0 0 0 0 0 
0 0 0 0 0 0 0 0 0 0 0 
0 0 0 0 0 0 0 0 0 0 0 
0 0 0 0 0 0 0 0 0 0 0 
0 0 0 0 0 0 0 0 0 0 0 
0 0 0 0 0 0 0 0 0 0 0 
0 0 0 0 0 0 0 0 0 0 0 
0 0 0 0 0 0 0 0 0 0 0 
0 0 0 0 0 0 0 0 0 0 0 
0 0 0 0 0 0 0 0 0 0 0 
0 0 0 0 0 0 0 0 0 0 0 
0 0 0 0 0 0 0 0 0 0 0 
-0.002548368529123995 -0.05049937564279994 -0.03892059151937862 -0.08931801753988335 0 0 0.2115098007222297 0 0 -0.003993737663830266 0 
0 0 0 0 0 0 0 0 0 0 0 
0 0 0 0 0 0 0 0 0 0 0 
0 0 0 0 0 0 0 0 0 0 0 
0 0 0 0 0 0 0 0 0 0 0 
0 -0.0002010711662205234 0 0 0 0 0 0.0003607668343779535 -1.655909265958358e-05 0 -0.0003300974269655319 
0 0 0 0 0 0 0 0 0 0 0 
0 0 0 0 0 0 0 0 0 0 0 
0 0 0 0 0 0 0 0 0 0 0 
0 0 0 0 0 0 0 0 0 0 0 
0.001216102850056211 -0.005108896670951628 0 0 -0.001130501131098699 0 0 -2.059166029196686e-05 0 0 0 
0 0 0 0 0 0 0 0 0 0 0 
0 0 0 0 0 0 0 0 0 0 0 
0 0 0 0 0 0 0 0 0 0 0 
0 0 0 0 0 0 0 0 0 0 0 
0 0 0 0 0 0 0 0 0 0 0 
0 0 0 0 0 0 0 0 0 0 0 
0 0 0 0 0 0 0 0 0 0 0 
-0.0203340817429171 -0.009790027111457333 0 0 -0.0005222804172000077 0 -0.002946137462851423 0.01722641618690365 0 0 0 
0 0 0 0 0 0 0 0 0 0 0 
0 0 0 0 0 0 0 0 0 0 0 
-0.0002727961375106261 0 0 0 0 0 0 -0.0003521464646785145 0 0.007275227361719272 0 
-0.0001123589880471026 -0.0008297819287842283 -0.002413041065614942 -0.001097678589489507 -3.102993755093933e-05 0 -0.0003554925544051153 0.002127875051384777 -1.56709861245068e-05 0.00528274044242906 0 
0 0 0 0 0 0 0 0 0 0 0 
0 0 0 0 0 0 0 0 0 0 0 
0 0 0 0 0 0 0 0 0 0 0 
-0.002359369787084973 0 0 0 0 0 0 0.001220144571202436 0 0 0 
0 -0.002059551208121721 0 0.002978308374283109 0 0 0 -0.000680349968417498 0 -0.0004462807041813106 0 
0 0 0 0 0 0 0 0 0 0 0 
0 0 0 0 0 0 0 0 0 0 0 
