solver_type L2R_L2LOSS_SVC_DUAL
nr_class 11
label 9 6 0 3 7 8 5 4 10 2 1
nr_feature 74013
bias -1
w
0.1918819772901121 0 -0.03801904441620414 -0.01440288752695027 -0.1167405442467348 0 -0.002962316854344256 -0.00185969570415388 -0.005722405279632264 -5.410846893429158e-05 0 
-0.007572690101139311 0 -0.007655751389313846 0 0 0.01768251392512026 0 0 0 0 0 
0 0 0 0 0 0 0 0 0 0 0 
0 0 0 0 0 0 0 0 0 0 0 
0 0 0 0 0 0 0 0 0 0 0 
0 0 0 0 0 0 0 0 0 0 0 
0 0 0 0 0 0 0 0 0 0 0 
0 0 0 0 0 0 0 0 0 0 0 
0 0 0 0 0 0 0 0 0 0 0 
0 0 0 0 0 0 0 0 0 0 0 
-0.1094911671243474 0 0.1283616553220882 0 -0.005210568374731312 0 -0.01190856067051155 0 0 0 0 
0 0 0 0 0 0 0 0 0 0 0 
-0.02741708483798815 0 -0.001840043852888496 0.1433301147971577 -0.08243660408555345 0 -0.006797811421817858 -0.003280044219160277 -0.01404979981529535 0 0 
0.02471692500349407 -0.02422520692292554 -0.003503061145832525 0 0 0 0 -0.05762253006662985 0 0 0 
0.2300985092382562 0 -0.004078540814780368 -0.01356725099209073 -0.08493158817911398 -0.09794604778786992 -1.901382420736806e-05 -0.02390154026679898 0 0 0 
0 0 0 0 0 0 0 0 0 0 0 
0 0 0 0 0 0 0 0 0 0 0 
0 0 0 0 0 0 0 0 0 0 0 
0 0 0 0 0 0 0 0 0 0 0 
0 0 0 0 0 0 0 0 0 0 0 
0 0 0 0 0 0 0 0 0 0 0 
0 0 0 0 0 0 0 0 0 0 0 
-0.02629650436237991 -0.02276168657479323 -0.001528562835445709 -0.09350431291223756 0.1862670775564348 0.08363095760671686 -0.01178759002773041 -0.05331088728235867 -0.002587655279532296 0 -0.0002335445314345786 
0 0 0 0 0 0 0 0 0 0 0 
0 0 0 0 0 0 0 0 0 0 0 
0.1331803498002619 0 0 -0.09770834328064927 0 -0.01288272659101167 0 -0.01318867793178296 0 0 0 
0 0 0 0 0 0 0 0 0 0 0 
0 0 0 0 0 0 0 0 0 0 0 
0 0 0 0 0 0 0 0 0 0 0 
0 0 0 0 0 0 0 0 0 0 0 
0 0 0 0 0 0 0 0 0 0 0 
0 0 0 0 0 0 0 0 0 0 0 
0 0 0 0 0 0 0 0 0 0 0 
0.03266323439114099 -0.01777280072447969 -0.01953605992645477 -0.103904266711305 0.07336902057762271 0.1478610307674679 -0.02456553565270774 0.1476867740251969 -0.1847455225380799 0 0 
0 0 0 0 0 0 0 0 0 0 0 
0 0 0 0 0 0 0 0 0 0 0 
0 0 0 0 0 0 0 0 0 0 0 
-0.0283764032929328 0 -0.004492470685006487 0.2418671238887078 -0.1436115322450853 -0.01022619005111307 0 -0.001207195626302152 -0.01351140950174527 0 0 
0 0 0 0 0 0 0 0 0 0 0 
0 0 0 0 0 0 0 0 0 0 0 
0 0 0 0 0 0 0 0 0 0 0 
0 0 0 0 0 0 0 0 0 0 0 
0 0 0 0 0 0 0 0 0 0 0 
-0.028045240668639 0 0.1516087251991823 0 -0.02249466709248262 -0.09599560158561182 0 -0.01637860182055734 -0.002968736017615884 0 0 
-0.03083501905384891 0 0 -0.08259064267709142 -0.03846736438702544 -0.002749274493614424 -0.004505108940713463 0 0.1756004954287613 0 0 
0 0 0 0 0 0 0 0 0 0 0 
0 0 0 0 0 0 0 0 0 0 0 
0 0 0 0 0 0 0 0 0 0 0 
0 0 0 0 0 0 0 0 0 0 0 
0 0 0 0 0 0 0 0 0 0 0 
0 0 0 0 0 0 0 0 0 0 0 
-0.02468848692368217 0 0 -0.07653111472384928 0.1484337071821188 -0.01858283558437734 0 0 -0.01263461592610421 0 0 
0 0 0 0 0 0 0 0 0 0 0 
0 0 0 0 0 0 0 0 0 0 0 
-0.03329902233221224 0 0 -0.05060067398067793 0.07626104425573184 0 0 0 0 0 0 
0 0 -0.0001851463848884423 -0.039473139282442 0.1127707723825632 -0.05710734130086928 0 -0.004001320665449414 0 0 0 
0 0 0 0 0 0 0 0 0 0 0 
0 0 0 0 0 0 0 0 0 0 0 
0.1059008123031058 0 -0.01785285488451382 -0.006420926857661451 -0.003543584234390073 -0.02833189713523899 0 -0.01478420711466064 -0.02242297133400438 0 0 
0.2078615573459762 0 -0.00977327718154984 -0.09028616592433336 -0.05563386459155876 -0.007721340419702342 -0.01279275949514771 0 -0.02763844515831353 0 0 
-0.02287120143873237 0 -0.002116478941419236 0 -0.07868487744044698 -0.005780601241106595 -0.01931125115706233 0.1404219825365128 0 0 0 
-4.67694381702476e-05 0 -0.01574837707089528 -0.01116940899964234 -0.03997389170613916 0.1574393000926878 0 -0.07266495630067163 -0.01078326108176605 0 0 
-0.01169504647719464 0 -0.001942482233333651 0.1111907113387618 -0.02372620817414624 -0.02282021245489306 0 -0.009574953519055624 -0.00978519460607079 0 0 
0 0 0 0 0 0 0 0 0 0 0 
0 0 0 0 0 0 0 0 0 0 0 
0 0 0 0 0 0 0 0 0 0 0 
-0.0009419815703872075 -0.009563190057388697 0.06004094296122274 -0.006285764965133555 0 0 0 0 -0.05562996490430668 0 0 
0 0 0 0 0 0 0 0 0 0 0 
0.2170389286047816 -0.00809142451526489 0 -0.05764328160153418 -0.05473222985567378 -0.001573662296882713 -4.876459775442488e-05 -0.01471115487700683 0 0 0 
0 0 0 0 0 0 0 0 0 0 0 
0 0 0 0 0 0 0 0 0 0 0 
0 0 0 0 0 0 0 0 0 0 0 
-0.1051283349453398 -0.002565645014860414 -0.06313454690966901 0.08007589071141114 -0.01333045175902846 -0.04647795366293911 -0.03863300222501804 -0.1527911216483183 0.1763001694915609 0 -1.354995647974043e-05 
0 0 0 0 0 0 0 0 0 0 0 
0 0 0 0 0 0 0 0 0 0 0 
0.1324678471294308 0 -0.005859027416543661 0 -0.05900636487891787 -0.03726509198954617 0 0 -0.01840051276982824 0 0 
0 0 0 0 0 0 0 0 0 0 0 
0 0 0 0 0 0 0 0 0 0 0 
-0.0118930911393128 0 -0.003091346651195642 0 -0.01405845520339452 0.08174989449290468 -0.007099798562406378 -0.05467322976806036 0 0 0 
-0.3126020653234843 -0.007460500735105544 -0.01020954819433666 0.0897223699453995 0.058758018638618 6.505213034913027e-19 -0.02865463684394258 -0.04545006086465564 0.2266992838893226 0 0 
0 0 0 0 0 0 0 0 0 0 0 
0.04076586616492991 0 0 -0.009645824389056184 0 0 0 -0.02587168923932126 -0.00827710437195572 0 0 
0 0 0 0 0 0 0 0 0 0 0 
0 0 0 0 0 0 0 0 0 0 0 
0 0 0 0 0 0 0 0 0 0 0 
0 0 0 0 0 0 0 0 0 0 0 
0 0 0 0 0 0 0 0 0 0 0 
0 0 0 0 0 0 0 0 0 0 0 
0 0 -0.00721986795211449 -0.1993862827161174 0.2207592116638711 0 -0.004459126495384054 0 -0.00295979884268906 0 0 
0 0 0 0 0 0 0 0 0 0 0 
-0.05795773639068453 0 -0.0311990335204966 0 0.1053807648502652 -0.004210321475966563 -0.007823574514560106 0 0 0 0 
-0.08123775229685415 -0.008633302306427384 0.0519192929440693 -0.09828806834052799 0.06606941902610128 0.1178138941629195 -0.04484619277577089 0.03944438506035772 -0.05999009865898326 0 0 
0 0 0 0 0 0 0 0 0 0 0 
0 0 0 0 0 0 0 0 0 0 0 
0 0 0 0 0 0 0 0 0 0 0 
0 0 0 0 0 0 0 0 0 0 0 
-0.223935046464084 -0.0004339230326925127 0 0.1848708067401602 0 0 0 0 0 0 0 
0 0 0 0 0 0 0 0 0 0 0 
0 0 0 0 0 0 0 0 0 0 0 
0 0 -0.01466271745893213 0 -0.02538745730275239 0.01660225253584751 0 -0.00291373559686173 0 0 0 
0 0 0 0 0 0 0 0 0 0 0 
0 0 0 0 0 0 0 0 0 0 0 
0 0 0 0 0 0 0 0 0 0 0 
0 0 0 0 0 0 0 0 0 0 0 
0 0 0 0 0 0 0 0 0 0 0 
-0.002193906662524809 0 0 0.1343468071565369 -0.01903771330080657 8.673617379884035e-19 0 -1.084202172485504e-19 -0.03738369252234615 0 0 
0 0 0 0 0 0 0 0 0 0 0 
0 0 -0.0001535030807270201 -0.05673064153794889 -0.005883365922006206 0.1178330577303514 0 0 -0.01119072105657166 0 0 
0 0 0 0 0 0 0 0 0 0 0 
0 0 0 0 0 0 0 0 0 0 0 
0 0 0 0 0 0 0 0 0 0 0 
0 0 0 0 0 0 0 0 0 0 0 
0 0 0 0 0 0 0 0 0 0 0 
0 0 0 0 0 0 0 0 0 0 0 
-0.01200616040140474 0 -0.0166439736043962 -0.03341711333569185 0.0952854539559 -0.008471843575903842 0 0 -0.01399250021907214 0 0 
0 0 0 0 0 0 0 0 0 0 0 
0 0 0 0 0 0 0 0 0 0 0 
0 0 -0.009217162194345355 0 0.106238968835721 0 0 -0.0412166946486018 -0.0298134469805723 0 0 
0 0 0 0 0 0 0 0 0 0 0 
0 0 0 0 0 0 0 0 0 0 0 
0 0 0.02184826925580786 0 -0.009944786884348014 -0.01594949903770517 -0.003260108507237406 0 0 0 0 
-0.07736783501139181 0 0 -0.00887258585916717 0.166580175446776 0 0 -0.02243063195563635 -0.03531054094610471 0 0 
0 0 0 0 0 0 0 0 0 0 0 
-0.001645175411007232 0 -0.005641652291880428 0.2160831368873058 -0.1285226845876748 0 0 -0.0245446269399025 -0.03402632361423412 0 0 
0 0 0 0 0 0 0 0 0 0 0 
0 0 0 0 0 0 0 0 0 0 0 
0 0 0 0 0 0 0 0 0 0 0 
0 0 0 0 0 0 0 0 0 0 0 
0 0 0 0 0 0 0 0 0 0 0 
-0.02992832493632586 0 0 -0.03307650111627124 0.08743296859052334 0 -0.01754242025590595 0 0 0 0 
0 0 0 0 0 0 0 0 0 0 0 
-0.002960843499063803 0 -0.00561694440787493 -0.01238817274963263 0 0.06952797434425681 -0.01119678919471087 -0.002881715957522797 -0.00762389583963613 0 0 
-0.004015468655559564 0 0.09552661823980008 0 -0.01075665560526643 -0.01071651159207623 -0.04856974616645066 0 -0.02363509872953778 0 0 
0 0 0 0 0 0 0 0 0 0 0 
0 0 0 0 0 0 0 0 0 0 0 
-0.04878847499544626 0 -0.0001541050663974667 0.1438560277430777 -0.04865429542121249 0 -0.0266707851107525 0 -0.0280813291121456 0 0 
0 0 0 -0.01227675229687639 -0.003834108720486654 0.07294944837864763 -0.004534250303492473 0 -0.03972207430568044 0 0 
0 0 0 0 0 0 0 0 0 0 0 
-0.04017042646730253 0 0 -0.008592352234340326 0 0 0 0.1203086583937276 -0.07940052977930216 0 0 
-0.02323904684293231 0 -0.01212130168626573 -0.01859040593493137 0 0.08674241500689057 -0.004435042595809372 -0.00403045036763147 -0.009567995789847801 0 0 
-0.0003152625252473074 0 -0.02239905993691307 0 -0.03123327096573214 0.07696090600585814 0 0 -0.004023434734943676 0 0 
0 0 0 0 0 0 0 0 0 0 0 
0 0 0 0 0 0 0 0 0 0 0 
0 0 0 0 0 0 0 0 0 0 0 
0 0 0 0 0 0 0 0 0 0 0 
0 0 0 0 0 0 0 0 0 0 0 
0 0 0 0 0 0 0 0 0 0 0 
0 0 0 0 0 0 0 0 0 0 0 
-0.01402906918410618 0 -0.03818691542355566 -0.0381376520324317 -0.03699425714436296 0.101887011362902 0 0 0 0 0 
-0.0197891885064648 0 0 0 -0.02185845859012059 0.117145352954257 -0.03497609350736346 -0.01041738844924044 -0.02611428336356841 0 0 
-0.01766438770141698 0 -0.06044285314033825 0 -0.008634695791885664 -0.03814196309002124 -0.007256731417817453 0.1788687388690661 -0.02794409240316049 0 0 
0 0 0 0 0 0 0 0 0 0 0 
-0.06110384125531696 0 -0.01152413249418842 0.2338137940666278 -0.1576443176575524 -0.000101386810445399 0 0 0 0 0 
0 0 0 0 0 0 0 0 0 0 0 
0 0 0 0 0 0 0 0 0 0 0 
0 0 0 0 0 0 0 0 0 0 0 
0 0 0 0 0 0 0 0 0 0 0 
0 0 0 0 0 0 0 0 0 0 0 
0 0 -0.01194898698062344 -0.006086056589105316 -0.001619561982451032 -0.08354246943889217 -0.00966551819339769 -0.01585616960312225 0.1114158930770396 0 0 
0 0 0 0 0 0 0 0 0 0 0 
0 0 0 0 0 0 0 0 0 0 0 
0 0 0 0 0 0 0 0 0 0 0 
0 0 0 0 0 0 0 0 0 0 0 
0 0 0 0 0 0 0 0 0 0 0 
-0.07905654739053936 0 0.1608723727722155 0 -0.006533467397559045 -0.03415215582636078 0 -0.001925737385678198 -0.07439570436344177 0 0 
0 0 0 0 0 0 0 0 0 0 0 
0 0 0 0 0 0 0 0 0 0 0 
0 0 0 0 0 0 0 0 0 0 0 
0 0 0 0 0 0 0 0 0 0 0 
-0.02194270288934114 0 0 0 0 -0.03152733491446712 0.04175229443362839 0 -0.01782169263461018 0 0 
0 0 0 0 0 0 0 0 0 0 0 
0 0 0 0 0 0 0 0 0 0 0 
0.1022482362742278 -0.01226194413778089 0 -0.02773380592489249 -0.02736002396189306 0 0 -0.009559645972169026 -0.010462438976074 0 0 
0 0 0 0 0 0 0 0 0 0 0 
0 0 0 0 0 0 0 0 0 0 0 
0.07121004348549205 -0.007910959662240515 0 0 -0.01088642628580154 -0.002325986902601726 0 -0.02302423228712063 0 0 0 
0.1667627566007563 -0.004318241677046095 0 -0.0118719191941969 -0.05265285328866591 0 -0.02472528159274275 -0.02322148732808611 -0.01745844658593876 0 0 
0 0 0 0 0 0 0 0 0 0 0 
0 0 0 0 0 0 0 0 0 0 0 
0 0 0 0 0 0 0 0 0 0 0 
0 0 0 0 0 0 0 0 0 0 0 
0 0 0 0 0 0 0 0 0 0 0 
0 0 0 0 0 0 0 0 0 0 0 
0 0 0 0 0 0 0 0 0 0 0 
0 0 0 0 0 0 0 0 0 0 0 
0 0 0 0 0 0 0 0 0 0 0 
0 0 0 0 0 0 0 0 0 0 0 
0 0 0 0 0 0 0 0 0 0 0 
-0.004350544239451051 0 -0.002575651532492612 -0.03148878302398839 0 0.07044861578122737 0 -0.03084710403586631 -0.003014785679408789 0 0 
0 0 0 0.1261152220088104 -0.03278882226840839 -0.01482374847930236 -0.001450792478208233 -0.002917099970937221 -0.0439120792105069 0 0 
0 0 0 0 0 0 0 0 0 0 0 
0 0 0 0 0 0 0 0 0 0 0 
0.1239584858598408 -0.01058430945252763 0 0 -0.0748428848370019 -0.01155602860391262 0 -0.04734436690513123 0 0 0 
0 0 0 0 0 0 0 0 0 0 0 
0 0 0 0 0 0 0 0 0 0 0 
-0.001643916296245281 0 -0.008946984219753944 0.09170669527332653 -0.04110740823377926 -0.03807720074850665 0 0 -0.006440286784928701 0 0 
0 0 0 0 0 0 0 0 0 0 0 
-0.06440420961341708 -0.008216426299085321 -0.009543863888456985 -0.05621242183467416 -0.1356040095889253 0 0 0 0.2617338212983232 0 0 
0 0 0 0 0 0 0 0 0 0 0 
-0.05317871152057648 0 -0.001509515078576755 -2.11205350265048e-05 -0.0781539556412307 -0.02704309606429354 0 -0.0001601641037869259 0.1629829177783929 0 0 
0 0 -0.009258874835607615 0.09157300243109631 -0.03524085976206339 0 0 0 -0.02257221929392072 0 0 
0 0 -0.008472438063635479 0.1512744092681233 -0.02787573195423305 -0.09946306805328009 0 0 -0.03111712819027208 0 0 
0 0 0 0 0 0 0 0 0 0 0 
0 0 0 0 0 0 0 0 0 0 0 
0.06679531510134135 0 -0.01270893996880552 -0.03643410690782725 0 -0.0195836727136497 0 0 0 0 0 
0 0 0 0 0 0 0 0 0 0 0 
-0.003274983493703886 0 0 0 0.0361758362854805 -0.003996296281638313 -0.01164195879923718 0 0 0 0 
0 0 0 0 0 0 0 0 0 0 0 
0 0 0 0 0 0 0 0 0 0 0 
0 0 0 0 0 0 0 0 0 0 0 
0 0 0 0 0 0 0 0 0 0 0 
0 0 0 0 0 0 0 0 0 0 0 
0 0 0 0 0 0 0 0 0 0 0 
-0.02313220147314308 -0.002453325125289705 0 0 -0.05005351620582457 0.1058143028324805 0 -0.0222638707937101 -0.01982663823759467 0 0 
0 0 0 0 0 0 0 0 0 0 0 
0 0 0 0 0 0 0 0 0 0 0 
-0.04615612665079859 0 0.194645994727233 -0.05385132116884249 -0.08332888958500327 0 0 0 0 0 0 
0 0 0 0 0 0 0 0 0 0 0 
0 0 0 0 0 0 0 0 0 0 0 
0 0 0 0 0 0 0 0 0 0 0 
-0.06896198107295973 0 0 -0.06012490517759915 0 0.1506054048767323 0 0 -9.429579212720486e-05 0 0 
0 0 0 0 0 0 0 0 0 0 0 
0 0 0 0 0 0 0 0 0 0 0 
0 0 0 0 0 0 0 0 0 0 0 
0 0 0 0 0 0 0 0 0 0 0 
0 0 0 0 0 0 0 0 0 0 0 
0 0 0 0 0 0 0 0 0 0 0 
0 0 0 0 0 0 0 0 0 0 0 
0 0 0 0 0 0 0 0 0 0 0 
0 0 0 0 0 0 0 0 0 0 0 
0 0 0 0 0 0 0 0 0 0 0 
0 0 0 0 0 0 0 0 0 0 0 
0 0 0 0 0 0 0 0 0 0 0 
0 0 0 0 0 0 0 0 0 0 0 
0 0 0 0 0 0 0 0 0 0 0 
0 0 0 0 0 0 0 0 0 0 0 
0 0 0 0 0 0 0 0 0 0 0 
-0.01263777294518196 0 -0.0176854058475091 -0.03252332405234247 0.09342927571392196 -0.008183982739922309 0 0 -0.01576633900063295 0 0 
0 0 0 0 0 0 0 0 0 0 0 
0 0 0 0 0 0 0 0 0 0 0 
0 0 0 0 0 0 0 0 0 0 0 
-0.1708384127365018 -0.005844187193444215 -0.001898742375373088 -0.02601316048623946 -0.0466134736400922 -0.01154920123451517 0 -0.01037347540371901 -0.002797348512299981 0 4.486551905880471e-08 
0 0 0 0 0 0 0 0 0 0 0 
0 0 0 0 0 0 0 0 0 0 0 
0 0 0 0 0 0 0 0 0 0 0 
-0.05622138406050362 0 -0.02129986027899451 -0.006413700874954295 0 -0.006833346482968635 -0.004458233561178158 0.1375269079462603 -0.004996911937473714 0 0 
-0.02818520753299678 0 -0.001863287959294301 0.1431906228766963 -0.08146800715028141 0 -0.00657278230346582 -0.004883587638263483 -0.01457163002138125 0 0 
-0.1437925510819888 -0.02071689838882918 0 0.2261889177698901 -0.01361103838305916 0 0 0 0 0 0 
-0.03911157770722642 0 -0.0003473394463996004 -0.007469233338687091 0.1062337243352453 0 0 -0.03569362432756541 -0.00149744974396455 0 0 
0 0 0 0 0 0 0 0 0 0 0 
0 0 0 0 0 0 0 0 0 0 0 
0 0 0 0 0 0 0 0 0 0 0 
0 0 0 0 0 0 0 0 0 0 0 
0 0 0 0 0 0 0 0 0 0 0 
0 0 0 0 0 0 0 0 0 0 0 
0 0 0 0 0 0 0 0 0 0 0 
0 0 0 0 0 0 0 0 0 0 0 
0 0 0 0 0 0 0 0 0 0 0 
0 0 0 0 0 0 0 0 0 0 0 
0 0 0 0 0 0 0 0 0 0 0 
0.1112565196364799 0 -0.0203348833580197 0 -0.005854830121991735 -0.02123492066512784 -0.007706796454640659 -0.01255199255450662 -0.02557024722743097 0 0 
0 0 0 0 0 0 0 0 0 0 0 
0 0 0 0 0 0 0 0 0 0 0 
0 0 0 0 0 0 0 0 0 0 0 
0 0 0 0 0 0 0 0 0 0 0 
0 0 0 0 0 0 0 0 0 0 0 
-0.02219029713510668 0 0 0 0.07137479382299707 -0.0118055688461328 -0.02506349674370939 -0.006001165032959718 0 0 0 
0 0 0 0 0 0 0 0 0 0 0 
0 0 0 0 0 0 0 0 0 0 0 
0 0 -0.01557992696900507 0 0.03890368374025578 -0.01411682377534106 -0.007438004311159261 0 0 0 0 
0 0 0 0 0 0 0 0 0 0 0 
0 0 0 0 0 0 0 0 0 0 0 
0 0 0 0 0 0 0 0 0 0 0 
0.03823076034069944 -0.006483983239193799 -0.03305098594976817 -0.04505243552955419 -0.09183242396440197 -0.04113027286059604 -0.02333842954288205 -0.1309226040091754 0.352897341705555 0 0 
0 0 0 0 0 0 0 0 0 0 0 
0 0 0 0 0 0 0 0 0 0 0 
0 0 -0.001632234231798983 -0.1536057002918938 -0.06810665899958343 0 -0.0001702716194969538 -0.01615326066220862 0.2500237777008215 0 0 
-0.05960486070311198 -0.002900769167902112 0 -0.0003549004707601302 -0.2062582590748772 0 0 0.2872615038075628 0 0 0 
0 0 0 0 0 0 0 0 0 0 0 
0 0 0 0 0 0 0 0 0 0 0 
0 0 0 0 0 0 0 0 0 0 0 
0 0 0 0 0 0 0 0 0 0 0 
0 0 0 0 0 0 0 0 0 0 0 
0 0 0 0 0 0 0 0 0 0 0 
0 0 0 0 0 0 0 0 0 0 0 
0 0 0 0 0 0 0 0 0 0 0 
0 -0.00446737397530089 -0.01580197152324264 -0.04054312796519059 -0.01521870605709875 0.1562915915907569 0 -0.01013605864121964 -0.05713329014613033 0 0 
0 0 0 0 0 0 0 0 0 0 0 
0 0 0 0 0 0 0 0 0 0 0 
0 0 0 0 0 0 0 0 0 0 0 
0 0 0 0 0 0 0 0 0 0 0 
0 0 0 0 0 0 0 0 0 0 0 
0 0 0 0 0 0 0 0 0 0 0 
0 0 0 0 0 0 0 0 0 0 0 
0 0 0 0 0 0 0 0 0 0 0 
0 0 0 0 0 0 0 0 0 0 0 
0 0 0 0 0 0 0 0 0 0 0 
-0.02504048259055249 0 -0.06373946181502543 0 -0.03091983943494366 0 0 -0.05127226214924065 0.151665520975706 0 0 
0 0 0 0 0 0 0 0 0 0 0 
0 0 0 0 0 0 0 0 0 0 0 
0.06752178948977863 0 -0.03039309366038504 0 0 -0.00447364586523299 0 -0.01685925587743167 -0.007116964439785413 0 0 
0 0 0 0 0 0 0 0 0 0 0 
-0.03449121545932396 0 0 0 -0.02645203969824222 -0.01816454665296771 0.119501812933683 -0.01438761976881677 -0.02167798958175611 0 0 
0 0 0 0 0 0 0 0 0 0 0 
0 0 0 0 0 0 0 0 0 0 0 
0 0 0 0 0 0 0 0 0 0 0 
0 0 0 0 0 0 0 0 0 0 0 
-8.949525129867461e-05 0 -0.02217092960958559 -0.03800141611367536 0.0809300893586441 -0.01151155224370494 -0.007820122831207105 0 0 0 0 
0 0 0 0 0 0 0 0 0 0 0 
0 0 0 0 0 0 0 0 0 0 0 
0 0 0 0 0 0 0 0 0 0 0 
0 0 0 0 0 0 0 0 0 0 0 
0 0 0 0 0 0 0 0 0 0 0 
-0.02915368367449032 0 -0.04718103048862581 -0.03407644000301337 0.2007025227395619 -0.06576669613384289 0 -0.004977234799548388 -0.0107795335024289 0 0 
-0.009433364910272683 -0.02394057047217108 -0.02149003173323751 -0.01098871872402233 0.1680165174753046 -0.0009294600876129543 0 0 -0.05357322745435838 0 0 
-0.02558531157765629 0 0 -0.04652831060842125 -0.08921926144315098 -0.04610502151345814 0 0.2146939823546468 0 0 0 
0 0 0 0 0 0 0 0 0 0 0 
0 0 0 0 0 0 0 0 0 0 0 
0 0 0 0 0 0 0 0 0 0 0 
0 0 0 0 0 0 0 0 0 0 0 
0.04838327902669476 0 -0.01652618791853742 0 0 -0.004702910580266485 0 -0.02099842385890215 -0.006118405507667875 0 0 
0 0 0 0 0 0 0 0 0 0 0 
0 0 0 0 0 0 0 0 0 0 0 
0 0 0 0 0 0 0 0 0 0 0 
0 0 0 0 0 0 0 0 0 0 0 
0 0 0 0 0 0 0 0 0 0 0 
0 0 0 0 0 0 0 0 0 0 0 
0 0 0 0 0 0 0 0 0 0 0 
0 0 0 0 0 0 0 0 0 0 0 
0 0 0 0 0 0 0 0 0 0 0 
0 0 0 0 0 0 0 0 0 0 0 
0 0 0 0 0 0 0 0 0 0 0 
0 0 0 0 0 0 0 0 0 0 0 
-0.03113123366094952 0 0 -0.01467465150140107 -0.03109927804629522 0.08455176668284159 0 0 -0.007725122233309775 0 0 
0 0 -0.006965655288294761 0.07132396529277393 -0.04042276460937012 -0.03285732707704919 0 0 -0.01431420617152505 0 0 
0 0 0 0 0 0 0 0 0 0 0 
0 0 0 0 0 0 0 0 0 0 0 
0 0 0 0 0 0 0 0 0 0 0 
0 0 0 0 0 0 0 0 0 0 0 
0 0 0 0 0 0 0 0 0 0 0 
0.157222361669234 0 -0.02807472772312783 0 -0.0320081999332435 -0.05278276731649338 0 -0.003588987856966631 -0.04186703323703726 0 0 
0 0 0 0 0 0 0 0 0 0 0 
0 0 0 0 0 0 0 0 0 0 0 
0 0 0 0 0 0 0 0 0 0 0 
0 0 0 0 0 0 0 0 0 0 0 
0 0 0 0 0 0 0 0 0 0 0 
0.1537786773943827 0 0 0 -0.1606729204271405 0 0 -0.01381897688750024 0 0 0 
0 0 0 0 0 0 0 0 0 0 0 
0 0 0 0 0 0 0 0 0 0 0 
-0.02311788523664245 0 -0.03648067593700044 0 -0.01249367563285634 0.1169460153931138 -0.009430700748874471 -0.005726864674852612 -0.02984027839146181 0 0 
0 0 0 0 0 0 0 0 0 0 0 
-0.03430815311635066 0 -0.03590611036448987 -0.0174334250247565 0.112461675066985 0 0 -0.01115081809786374 -0.03079343347487521 0 0 
0 0 0 0 0 0 0 0 0 0 0 
0 0 0 0 0 0 0 0 0 0 0 
0 0 0 0 0 0 0 0 0 0 0 
0 0 0 0 0 0 0 0 0 0 0 
0 0 0 0 0 0 0 0 0 0 0 
0.1431145959279473 0 0 0 -0.1102182958394332 0 -0.02854715742705493 0 -0.00997684140731519 0 0 
-0.003458710238770381 -0.00446534414485837 -0.01859553719347711 -0.001933360399764077 0.03726525811075294 -0.00371481147724431 -0.001573346079449212 0 0 0 0 
0 0 0 0 0 0 0 0 0 0 0 
0 0 0 0 0 0 0 0 0 0 0 
0 0 0 0 0 0 0 0 0 0 0 
0 0 -0.00306409425260948 -0.02607907771558303 -0.06774661653265759 0.1257788837308375 -0.008642252868332655 -0.02540205443695217 0 0 0 
0 0 0 0 0 0 0 0 0 0 0 
0 0 0 0 0 0 0 0 0 0 0 
-0.1058959296820394 0 -0.004633096369705771 0.2226842461401371 0 -0.09420731774312931 -0.009919362460779187 -0.01734693595245672 0 0 0 
-0.08999373753604485 0 0 0 0 -0.01433076833369863 -0.01626310762505221 -0.008797562426376514 0.1264689061642924 0 0 
0 0 0 0 0 0 0 0 0 0 0 
0 0 0.1396354346209227 -0.009258453805318952 -0.07283604105831078 0 0 -0.003536312601980252 -0.04280557264259112 0 0 
0 0 0 0 0 0 0 0 0 0 0 
0 0 0 0 0 0 0 0 0 0 0 
0 0 0 0 0 0 0 0 0 0 0 
0 0 0 0 0 0 0 0 0 0 0 
0 0 0 0 0 0 0 0 0 0 0 
0.2243428484995341 -0.002949911694550036 0 -0.0001199705100836698 -0.2068416271400211 0 0 0 0 0 0 
0 0 0 0 0 0 0 0 0 0 0 
-0.1148658911803263 -0.01650663551758139 0 -0.03407592436463129 0.2680167601009603 -0.0308571096611312 0 -0.01921650560675635 -0.01265944556643903 0 0 
0 0 0 0 0 0 0 0 0 0 0 
0 0 0 0 0 0 0 0 0 0 0 
0 0 0 0 0 0 0 0 0 0 0 
0 0 0 0 0 0 0 0 0 0 0 
0 0 0 0 0 0 0 0 0 0 0 
-0.02704736142677306 0 -0.002205533904640757 0.1445861197229881 -0.08109347666504538 0 -0.006721477062956453 -0.004164234783695093 -0.01373626625307544 0 0 
0 0 0 0 0 0 0 0 0 0 0 
0 0 0 0 0 0 0 0 0 0 0 
0 0 0 0 0 0 0 0 0 0 0 
0 0 0 0 0 0 0 0 0 0 0 
0 0 0 0 0 0 0 0 0 0 0 
0 0 0 0 0 0 0 0 0 0 0 
-0.002453872174974894 -0.003653762524168877 -0.0190053187893314 -0.06378911271664604 -0.04372370340093255 -0.04606593553851353 -0.01170844177566608 0.06668372593573713 0.1356700207394554 0 0 
0 0 0 0 0 0 0 0 0 0 0 
0 0 0 0 0 0 0 0 0 0 0 
0 0 0 0 0 0 0 0 0 0 0 
0 0 0 0 0 0 0 0 0 0 0 
-0.006989261169376568 0 0 0 -0.1095738301092962 0 0.08549875802729792 -0.003146079075220648 -0.01400883695787336 0 0 
-0.02627596610465169 0 0 -0.01585202433562991 -0.05784359892578157 0.1185120855851481 -0.02131751571586898 0 0 0 0 
0 0 0 0 0 0 0 0 0 0 0 
0 0 0 0 0 0 0 0 0 0 0 
0 0 0 0 0 0 0 0 0 0 0 
0 0 0 0 0 0 0 0 0 0 0 
0 0 0 0 0 0 0 0 0 0 0 
0 0 0 0 0 0 0 0 0 0 0 
0.1277657902575901 -0.00638667505082768 -0.003192791591070959 -0.03851447667095198 -0.01670814104467009 -0.01624421599199555 0 -0.01751751477108229 -0.008511022183965426 0 0 
-0.01254253232151157 0 0 -0.01314763323299686 -0.1366184459956678 -0.02473901597777291 0.2262695024180389 -0.0005530970627535064 -0.002360903040027676 0 0 
0 0 0 0 0 0 0 0 0 0 0 
0 0 0 0 0 0 0 0 0 0 0 
0 0 0 0 0 0 0 0 0 0 0 
0 0 0 0 0 0 0 0 0 0 0 
0 0 0 0 0 0 0 0 0 0 0 
0.1778334981565771 0 -0.006466194195350125 -0.04035934969054689 0 -0.01701514364273291 0 -0.08398649525786561 -0.03621697868438526 0 0 
0 0 -0.008956546379907728 -0.0163216719479059 -0.02879796580305077 -0.01345858537057824 0.08524845579262977 -0.0243967309677137 -0.000124325607971 0 0 
0 0 0 0 0 0 0 0 0 0 0 
0 0 0 0 0 0 0 0 0 0 0 
-0.01202934659690951 -0.001651876255714199 -0.04058393056203891 -0.01915709533255383 0 -0.004264020276285017 -0.003685772773983024 0 0 4.381425373976812e-07 0 
0 0 0 0 0 0 0 0 0 0 0 
-0.02529543255769767 0 -0.01569505932981795 -0.01505931254381935 -0.04518024180880716 0.1399762468329622 0 -0.01256037482423447 -0.02086299960036173 0 0 
0 0 0 0 0 0 0 0 0 0 0 
0 0 0 0 0 0 0 0 0 0 0 
0 0 0 0 0 0 0 0 0 0 0 
0 0 0 0 0 0 0 0 0 0 0 
0.1502796900173652 -0.03128770571092297 0 -0.03957230197152199 0 -0.03090888255212191 -0.007531029493273978 -0.02359948969736569 -0.009050627774140146 0 0 
-0.02773881725913886 0 -0.002346133531258452 -0.1393179671732742 0.200074264006168 0 -0.006205787488077707 -0.003551412287867152 -0.01408086256314672 0 0 
0 0 0 0 0 0 0 0 0 0 0 
0 0 0 0 0 0 0 0 0 0 0 
0 0 0 0 0 0 0 0 0 0 0 
0 0 0 0 0 0 0 0 0 0 0 
0 0 0 0 0 0 0 0 0 0 0 
0 0 0 0 0 0 0 0 0 0 0 
0 0 0 0 0 0 0 0 0 0 0 
0 0 0 0 0 0 0 0 0 0 0 
0 0 0 0 0 0 0 0 0 0 0 
0 -1.084202172485504e-19 0.03930372191533804 -0.0001873328134008628 0.03836284288478777 -0.05592896903995893 -0.008788739035006923 -0.01207615846140471 8.673617379884035e-19 0 0 
0 0 0 0 0 0 0 0 0 0 0 
0 0 0 0 0 0 0 0 0 0 0 
-0.04309354110387711 -0.0002291969480693974 -0.01732993639159101 -0.04312329912944261 0 -0.009129334481639799 0 0.1595767849272602 -0.04792205597725599 0 0 
0 0 0 0 0 0 0 0 0 0 0 
0 0 0 0 0 0 0 0 0 0 0 
0 0 0 0 0 0 0 0 0 0 0 
-0.006495556314021137 0 -0.01895644363055532 -0.01119313007078735 -0.01436374919190888 0.1045427350231808 -0.0008641761056585955 -0.02297769802445833 -0.01962568314415433 0 0 
0 0 0 0 0 0 0 0 0 0 0 
0 0 0 0 0 0 0 0 0 0 0 
0 0 0 0 0 0 0 0 0 0 0 
0 0 0 0 0 0 0 0 0 0 0 
0 0 0 0 0 0 0 0 0 0 0 
0 0 0 0 0 0 0 0 0 0 0 
-0.01816968590920638 0 -0.02189699639396285 0.1186778688312762 -0.0001511259702452602 -0.03998312643518866 0 -0.01217205555273284 -0.01274829463939269 0 0 
0 0 0 0 0 0 0 0 0 0 0 
0 0 0 0 0 0 0 0 0 0 0 
0 0 0 0 0 0 0 0 0 0 0 
0 0 0 0 0 0 0 0 0 0 0 
0 0 0 0 0 0 0 0 0 0 0 
0 0 0 0 0 0 0 0 0 0 0 
0 0 0 0 0 0 0 0 0 0 0 
-0.008086042271650103 -0.004953798584603258 -0.01792147625958158 -0.01067045279412538 -0.01698712927365867 0.03989165175178915 -0.006056132118610454 -0.01367618780149605 -0.00303705838163788 -0.004995230354801023 -0.004877512166731513 
0 0 0 0 0 0 0 0 0 0 0 
0 0 0 0 0 0 0 0 0 0 0 
0 0 0 0 0 0 0 0 0 0 0 
0 0 0 0 0 0 0 0 0 0 0 
0 0 0 0 0 0 0 0 0 0 0 
0 0 0 0 0 0 0 0 0 0 0 
0 0 0 0 0 0 0 0 0 0 0 
-0.03265725496872032 0 0 -0.06513915557492611 0.08680496743090463 0 0 0 0 0 0 
0.1274160097712707 -0.007062010352234587 -0.003708350592318629 -0.03925904109121366 -0.01889435914799759 -0.015645916708645 0 -0.01939481423843598 -0.008530966473732223 0 0 
0 0 0 0 0 0 0 0 0 0 0 
0 0 0 0 0 0 0 0 0 0 0 
0 0 0 0 0 0 0 0 0 0 0 
-0.007350351672838908 0 -0.0008906564056281336 -0.00161214725737689 0 -0.03058210199397434 -0.002753241180393389 0.07609517723056121 -0.0166648710232352 0 0 
-0.01829471049138075 -0.02254960311584072 -0.005244661357842687 0 -0.0182379567684878 0.1388050407197488 0 -0.04026880569745914 -0.01700994024047688 0 0 
0.2032376421430254 0 -0.01129441325277114 0 -0.1740737898234764 0 0 -0.01228584549983502 -0.005061068651142116 0 0 
-0.01063622565358003 -9.824446268554124e-07 -0.00569165408800633 0 -0.02068130888248062 0.06243156288765778 -0.002583526107080768 0 -0.006260963793766622 0 0 
0 0 0 0 0 0 0 0 0 0 0 
0 0 0 0 0 0 0 0 0 0 0 
0 0 0 0 0 0 0 0 0 0 0 
0 0 0 0 0 0 0 0 0 0 0 
-0.003653186010565274 -0.00402928973178273 0 0.005275747239747226 -0.0395217024727544 -0.06207065096590136 -0.0300913508604956 0 0.1164551504509291 0 0 
0 0 0 0 0 0 0 0 0 0 0 
0 0 0 0 0 0 0 0 0 0 0 
0 0 0 0 0 0 0 0 0 0 0 
0.08856433589554903 0 0 -0.01941113801736214 -0.02741784882278591 0 -0.003550487522391745 -0.01455700554584846 -0.0001189063814147014 0 0 
-0.08581010296942189 0 0 0 -0.07721024767216048 0 0.1216745095934979 0 -0.02667332147998513 0 0 
0 0 -0.06715642754595431 0 0.1320140265861061 0 -0.01337798907890286 -0.01002643277027864 -0.03303965501408299 0 0 
0.03363166984731504 -0.01626441204422953 -0.01107119356741309 0.00957518433916903 -0.02233195066803287 -0.05077110414030701 -0.07478263463807408 0.3685077760170618 -0.3325695803725123 -0.0002849837669367628 0 
0 0 0 0 0 0 0 0 0 0 0 
0 0 -0.02153440505168614 -0.013826296161729 0.1131322231102326 0 0 -0.004322052158625836 -0.05651739132881481 0 0 
0 0 0 0 0 0 0 0 0 0 0 
0.1296168896825566 -0.006133734597902498 -0.003154141613401428 -0.02315158893422068 -0.03898250239437605 -0.01517844222881328 0 -0.01404666220521728 -0.008038265688938289 0 0 
0 0 0 0 0 0 0 0 0 0 0 
0 0 0 0 0 0 0 0 0 0 0 
0 0 -0.007924017244880377 0 0.03845341182263656 -0.01886002758960097 0 -0.006509132553953138 0 0 0 
0 0 0 0 0 0 0 0 0 0 0 
0 0 0 0 0 0 0 0 0 0 0 
0 -0.003465621027999699 0 0 -0.01360552910158007 0.01296250025130361 0 0 0 0 0 
0 0 0 0 0 0 0 0 0 0 0 
0 0 0 0 0 0 0 0 0 0 0 
0 0 0 0 0 0 0 0 0 0 0 
0 0 0 0 0 0 0 0 0 0 0 
0 0 0 0 0 0 0 0 0 0 0 
0 0 -0.01283227992316767 0 -0.02333100584502023 0.02210621468147341 0 0 0 0 0 
-0.007737046676752017 0 -0.01435562746064599 0.1118553389786081 -0.0469472829716929 -0.04181405417343857 0 -0.0008028830321146376 0 0 0 
0 0 0 0 0 0 0 0 0 0 0 
0 0 0 0 0 0 0 0 0 0 0 
-0.05963090012125823 -0.002129892570199261 0 0 0.07393931330590418 0 0 0 0 0 0 
-0.00366783778074747 0 0.05273640919877035 -0.02014066527784036 0 0 -0.01524779179435541 0 -0.00424786687085464 0 0 
0 0 0 0 0 0 0 0 0 0 0 
0 0 0 0 0 0 0 0 0 0 0 
0 0 0 0 0 0 0 0 0 0 0 
0 0 -0.01192515733703312 0 0.1144434135868336 -0.05689880517790163 -0.006413614172930089 -0.01341020542012099 -0.01622679042244552 0 0 
0 0 0 0 0 0 0 0 0 0 0 
-0.09323486558700199 -0.00548048671670799 -0.02082581877647274 0 0 -0.0101465508146783 -0.008793337068610674 0 0.1290723565399541 0 0 
-0.03215694412043108 0 0.07050392782925893 -0.03627983741114646 -0.007899932474781188 0 -0.03295341045758111 -0.02128394279770044 0.08282217159504779 -0.000999919004062 -0.0004334458373306699 
0 0 0 0 0 0 0 0 0 0 0 
-0.01867343345351592 0 0 0 0.05798672832594586 -0.01282565115888891 -0.02306032815268198 -0.00544117251846619 0 0 0 
0 0 0 0 0 0 0 0 0 0 0 
0 0 0 0 0 0 0 0 0 0 0 
0 0 0 0 0 0 0 0 0 0 0 
0 0 0 0 0 0 0 0 0 0 0 
0 0 0 0 0 0 0 0 0 0 0 
-0.01476295253459024 -0.009926503298585996 -0.01806371712463937 -0.01525313362993027 -0.005463615210256674 0.01622748022192988 -0.0125757078787113 -0.009153482853179006 -0.01626207717330277 -0.008013594930322216 -0.008018845569065351 
0.1288256574969224 -0.01990037400401085 0 -0.08498780002776386 0 0 0 -0.007972859989575226 -0.01617795732273678 0 0 
-0.0004424219277051264 -0.003209309726672662 -0.0602385256697882 -0.009611342002030119 -0.01733538754815682 -0.002471783999104984 0.08471460118196768 0 0 0 0 
-0.03338010901902546 0 -0.0373695671013218 0 -0.01546997445375534 -0.01981918157351642 0 -0.01917542776134459 0.140803598934049 0 0 
0 -0.006691557922889296 0.0283661297483702 0 0 0 -0.0004822692150889897 0 -0.05535586074551455 -1.644391324871536e-05 -3.72939365361717e-05 
0 0 0 0 0 0 0 0 0 0 0 
0 0 0 0 0 0 0 0 0 0 0 
0 0 0 0 0 0 0 0 0 0 0 
0 0 0 0 0 0 0 0 0 0 0 
0 0 0 0 0 0 0 0 0 0 0 
0 0 0 0 0 0 0 0 0 0 0 
0 0 0 0 0 0 0 0 0 0 0 
-0.001652273453654031 0 -0.003478660839849141 0 0.0308554870316476 -0.03274816824449975 0 0 0 0 0 
0 0 0 0 0 0 0 0 0 0 0 
0 0 0 0 0 0 0 0 0 0 0 
0 0 0 0 0 0 0 0 0 0 0 
-0.03044242909007062 -0.002906257342296439 -0.04600183693763201 -0.01607361633835209 -0.002384029769522588 0.08150359979401293 -0.00449987166783298 0 0 0 0 
0 0 0 0 0 0 0 0 0 0 0 
0 0 0 0 0 0 0 0 0 0 0 
0 0 0 0 0 0 0 0 0 0 0 
0 0 0 0 0 0 0 0 0 0 0 
0 0 0 0 0 0 0 0 0 0 0 
0 0 0 0 0 0 0 0 0 0 0 
0 0 0 0 0 0 0 0 0 0 0 
0 0 0 0.1027087741461233 -0.06195272491015463 -0.0157592190269291 -0.006400755938082773 0 -0.004647910741604073 0 0 
0 0 0 0 0 0 0 0 0 0 0 
0 0 0 0 0 0 0 0 0 0 0 
-0.0001948834276514488 -0.005956577843980847 -0.003978600936305737 -0.03955878993454566 0.08828853441756744 -0.01535267037769181 0 -0.02046304489739578 -0.008814292877770311 0 0 
0 0 0 0 0 0 0 0 0 0 0 
0 0 0 0 0 0 0 0 0 0 0 
0 0 0 0 0 0 0 0 0 0 0 
0 0 0 0 0 0 0 0 0 0 0 
0 0 0 0 0 0 0 0 0 0 0 
0 0 0 0 0 0 0 0 0 0 0 
0.1055183877449349 0 0 -0.02815054861184218 0 -0.07439810706614422 -0.0005650972674860936 0 -0.01074505845102823 0 0 
-0.01922382109223557 0 0 0 -0.017436416415675 -0.009212255897250707 -0.01004218003367881 0.09206057608830857 -0.01625870385778927 0 0 
-0.06888227964538927 -0.01858879638065288 -0.02858084588828761 0.09893785153822716 0 0 -0.01666561678752674 -0.01833181151796176 0 0 0 
-0.05826673438505141 -0.001939489580222237 0 -0.0006020121813748235 0.07460601288836248 0 0 0 0 0 0 
0 0 0 0 0 0 0 0 0 0 0 
0 0 0 0 0 0 0 0 0 0 0 
0 0 0 0 0 0 0 0 0 0 0 
0 0 0 0 0 0 0 0 0 0 0 
0 0 0 0 0 0 0 0 0 0 0 
0.1398821990440778 0 0 -0.02328903870712229 0 0 0 -0.1143852006364397 0 0 0 
0 0 0 0 0 0 0 0 0 0 0 
0 0 0 0 0 0 0 0 0 0 0 
0 0 0 0 0 0 0 0 0 0 0 
0 0 0 0 0 0 0 0 0 0 0 
-0.005584627293713407 -0.00238323212031411 -0.02655345855909726 0 0.06888939657046005 -0.01154380145209103 0 -0.001345263342705448 -0.01182142377788111 0 0 
0 0 0 0 0 0 0 0 0 0 0 
0 0 0 0 0 0 0 0 0 0 0 
0 0 0 0 0 0 0 0 0 0 0 
-0.03825207937535821 0 0 0.1736793009960826 -0.04253098452547797 -0.04634334386826303 0 -0.01502231529103423 -0.01013052357650349 0 0 
0 0 0 0 0 0 0 0 0 0 0 
-0.06378200608575424 -0.007642510821987462 -0.007544846161091168 -0.05354156885324886 0.1452178902984894 0 0 0 -0.01901553430313795 0 0 
0 0 0 0 0 0 0 0 0 0 0 
0 0 0 0 0 0 0 0 0 0 0 
0.04096626898334219 0 0 -0.001206922091721317 -0.01087813339106669 0 0 0 -0.02968407479631839 0 0 
0 0 0 0 0 0 0 0 0 0 0 
0 0 0 0 0 0 0 0 0 0 0 
0 0 -0.06563329995266985 0 -0.0251359326377658 -0.04264688860694698 0 0.08828323569402015 0 0 0 
0 -0.002981271156314245 0.03024685457499279 -0.009949441693545209 -0.01667495468537324 -0.01959116962137025 0 -0.01289866458914887 -0.003601580541711633 -0.004704312754568923 -0.004623401808512887 
-0.06356954019785713 -0.007236657522812873 -0.009647851896986597 0.2272884045771675 -0.1356383966786484 0 0 0 -0.01972113035172521 0 0 
0.1075873124424424 0 -0.01495788260997323 0 -0.06504395524721504 -0.02556282132883892 0 0 -0.003615921744164222 0 0 
-0.0332816681844996 0 -0.02711555141960783 -0.0664467849337982 0.194298560191296 -0.02202293283090153 -0.0006555642277341762 -0.00685269058266534 -0.01443643642154877 0 0 
0.04954811412085212 -0.001504692599882408 -0.07364983170809468 0 -0.0313602732890325 -0.01405213289510992 0.1290997371015123 -0.03828408974313165 -0.03586342156454195 0 0 
0 0 0 0 0 0 0 0 0 0 0 
0 0 0 0 0 0 0 0 0 0 0 
0 0 0 0 0 0 0 0 0 0 0 
0 0 0 0 0 0 0 0 0 0 0 
0 0 0 0 0 0 0 0 0 0 0 
0 0 0 0 0 0 0 0 0 0 0 
-0.0162323369994666 0 0.01227998870846539 -0.04266568017837286 0 -0.005101574663946271 -4.336808689942018e-19 -0.02601438557262816 0.1062642505956847 0 0 
0 0 0 0 0 0 0 0 0 0 0 
-0.07829892261229596 0 -0.01586198469299942 -0.02188058706943136 -0.01169679102050092 -0.07820639425647086 0 0.2228313178608296 -0.007900894609202291 0 0 
0 0 0 0 0 0 0 0 0 0 0 
0 0 0 -0.1553192648514609 0.2477204202939931 -0.01490286979656655 -0.001680880080489468 -0.0027640236419822 -0.04366394479475071 0 0 
0 0 -0.02834732178942855 0 -0.04048666277364124 0.07487541789502289 -0.005464098498468353 -0.001075437418590753 0 0 0 
0 0 0 0 0 0 0 0 0 0 0 
0 0 0 0 0 0 0 0 0 0 0 
0 0 0 0 0 0 0 0 0 0 0 
0 0 0 0 0 0 0 0 0 0 0 
0 0 0 0 0 0 0 0 0 0 0 
-0.04433968453294648 0 0 -0.01634866948776281 -0.02314445304547281 -0.02859079527169084 -0.00427447361362142 0 0.1450110972120698 0 0 
0 0 0 0 0 0 0 0 0 0 0 
0.1311319717410229 0 -0.01802501379421511 0 0 -0.03922269488349597 -0.01740435100553907 -0.03893515167382049 0 0 0 
0 0 0 0 0 0 0 0 0 0 0 
0 0 0 0 0 0 0 0 0 0 0 
0 0 0 0 0 0 0 0 0 0 0 
-0.03482295504079196 0 -0.009106009434194033 -0.03838828923026128 0 0 0 -0.009410238432988882 0.1049334352311745 0 0 
0 0 0 0 0 0 0 0 0 0 0 
0 0 0 0 0 0 0 0 0 0 0 
0 0 0 0 0 0 0 0 0 0 0 
-0.06091164656944676 -0.003268598376592533 0 0 0.07176028548325959 0 0 0 0 0 0 
0 0 0 0 0 0 0 0 0 0 0 
0 0 0 0 0 0 0 0 0 0 0 
0 0 0 0 0 0 0 0 0 0 0 
0 0 0 0 0 0 0 0 0 0 0 
0 0 0 0 0 0 0 0 0 0 0 
0 0 0 0 0 0 0 0 0 0 0 
-0.07973010478880491 -0.0001059618034210134 -0.01838318769954095 -0.03777510600963209 0.1966008449982168 -0.0532025323450053 -4.185579772604082e-05 0 0 0 0 
0 0 0 0 0 0 0 0 0 0 0 
0 0 0 0 0 0 0 0 0 0 0 
0 0 0 0 0 0 0 0 0 0 0 
0 0 0 0 0 0 0 0 0 0 0 
0 0 0 0 0 0 0 0 0 0 0 
0 0 0 0 0 0 0 0 0 0 0 
0 0 0 0 0 0 0 0 0 0 0 
0 0 0 0 0 0 0 0 0 0 0 
0 0 0 0 0 0 0 0 0 0 0 
0 0 0 0 0 0 0 0 0 0 0 
0 0 0 0 0 0 0 0 0 0 0 
0 0 0 0 0 0 0 0 0 0 0 
0 0 0 0 0 0 0 0 0 0 0 
0 0 0 0 0 0 0 0 0 0 0 
0 0 0 0 0 0 0 0 0 0 0 
0 0 0 0 0 0 0 0 0 0 0 
0 0 0 0 0 0 0 0 0 0 0 
0 0 0 0 0 0 0 0 0 0 0 
0 0 0 0 0 0 0 0 0 0 0 
0 0 0.04659067412719718 -0.02020736692493988 -0.0003749087244680962 -0.0256075945888092 -0.005655118036595926 0 0 0 0 
0 0 0 0 0 0 0 0 0 0 0 
-0.03335503927864296 0 0 -0.05040361594769489 0.07664083685069641 0 0 0 0 0 0 
0 0 0 0 0 0 0 0 0 0 0 
0 0 0 0 0 0 0 0 0 0 0 
0.1751913210461444 -0.002196828194634204 0 -0.03546130582973905 -0.05971520926794732 0 -0.0225446751361324 -0.01106642714321864 -0.04345393775030858 0 0 
0 0 0 0 0 0 0 0 0 0 0 
0 0 0 0 0 0 0 0 0 0 0 
0 0 0 0 0 0 0 0 0 0 0 
0.07307359455568668 0 0 0 -0.006099608584744983 -0.01031510493477465 -0.008003168404007152 -0.01783187515015137 0 0 0 
0 0 0 0 0 0 0 0 0 0 0 
-0.1534125735651924 0.2171761357362644 0 -0.05139820375589844 0 0 0 -0.005098944536163626 0 0 0 
0 0 0 0 0 0 0 0 0 0 0 
0 0 0 0 0 0 0 0 0 0 0 
0 0 0 0 0 0 0 0 0 0 0 
0 0 0 0 0 0 0 0 0 0 0 
0 0 0 0 0 0 0 0 0 0 0 
0 0 0 0 0 0 0 0 0 0 0 
0 0 0 0 0 0 0 0 0 0 0 
0 0 0 0 0 0 0 0 0 0 0 
0 0 0 0 0 0 0 0 0 0 0 
0 0 0 0 0 0 0 0 0 0 0 
-0.2040547069508001 0.03681508155946693 -0.005085890801719528 -0.03422305978616354 0 -0.04183569689784319 0.250224564887681 -2.878708286369824e-05 -0.007878684202230637 0 0 
0 0 0 0 0 0 0 0 0 0 0 
0 0 0 0 0 0 0 0 0 0 0 
0 0 0 0 0 0 0 0 0 0 0 
0 0 0 0 0 0 0 0 0 0 0 
0 0 0 0 0 0 0 0 0 0 0 
0 0 0 0 0 0 0 0 0 0 0 
0 0 0 -0.01952826396409037 0.08198307274072859 0 0 -0.01395927363621222 -0.01463877284930693 0 0 
0.2615213793527195 -0.1701436693737538 0 -0.1403885426050679 0 -1.734723475976807e-18 -0.08562599946112447 -0.02802722260292252 -0.06602620886121124 0 0 
0 0 0.05904164075212061 -0.01929056897198833 0 0 0 0 -0.02660498104379881 0 0 
0 0 0 0 0 0 0 -0.004723126833583276 0 0 0 
0 0 0 0 0 0 0 0 0 0 0 
-0.07696461432597508 0 0 0 0.08462890689217048 -0.02396863217957062 0 -0.03301568712591937 -0.007198971868747649 0 0 
0.06896596898230715 0 0 -0.012551411107657 0 -0.006711026266597143 0 -0.01988746048450512 -0.03023334583221226 0 0 
0 0 0 0 0 0 0 0 0 0 0 
0 0 0 0 0 0 0 0 0 0 0 
0 0 0 0 0 0 0 0 0 0 0 
0 0 0 0 0 0 0 0 0 0 0 
0 0 0 0 0 0 0 0 0 0 0 
0 0 0 0.1047021101256547 0 -0.02924053179184283 0 -0.05573678971012207 -0.0497594922167021 0 0 
0 0 0 0 0 0 0 0 0 0 0 
0 0 0 0 0 0 0 0 0 0 0 
0 0 0 0 0 0 0 0 0 0 0 
0 0 0 0 0 0 0 0 0 0 0 
0 0 0 0 0 0 0 0 0 0 0 
0 0 0 0 0.06811493486851211 -0.03093587580539103 -0.008437070582950174 0 -0.05876521425202174 0 0 
0 0 0 0 0 0 0 0 0 0 0 
0 0 0 0 0 0 0 0 0 0 0 
-0.01869625413675203 0 0 -0.01244828342035945 0 0.02378869099739526 0 0 0 0 0 
0 0 0 -0.05855097907788711 0.08131349011507716 0 -0.005560768512511397 -0.02153041495194535 0 0 0 
-0.06058780667833029 -0.002046324120474331 0 -0.0009416626579537928 0.07397238696099061 0 0 0 0 0 0 
0 0 0 0 0 0 0 0 0 0 0 
0 0 0 0 0 0 0 0 0 0 0 
0 0 0 0 0 0 0 0 0 0 0 
0 0 0 0 0 0 0 0 0 0 0 
0 0 0 0 0 0 0 0 0 0 0 
0 0 0 0 0 0 0 0 0 0 0 
0 0 0 0 0 0 0 0 0 0 0 
0 0 0 0 0 0 0 0 0 0 0 
0 0 0 0 0 0 0 0 0 0 0 
0 0 0 0 0 0 0 0 0 0 0 
0 0 0 0 0 0 0 0 0 0 0 
0 0 0 0 0 0 0 0 0 0 0 
0 0 0 0 0 0 0 0 0 0 0 
0 0 0 -0.01657301984617655 -0.04431567434981641 -0.03208116505983193 -0.0229344059756931 0 0.1230191171991472 0 0 
0 0 0 0 0 0 0 0 0 0 0 
-0.04499405874578438 0 -0.01102980375049105 0 0.1494805685260641 -0.02118893634854499 -0.01014636805471134 -0.03662600035256917 0 0 0 
0 0 0 0 0 0 0 0 0 0 0 
0 0 0 0 0 0 0 0 0 0 0 
0 0 0 0 0 0 0 0 0 0 0 
0 0 0 0 0 0 0 0 0 0 0 
0 0 0 0 0 0 0 0 0 0 0 
0 0 0 0 0 0 0 0 0 0 0 
0 0 0 0 0 0 0 0 0 0 0 
-0.08141794196931826 0 0 0 0.1800866456187076 -0.03963618585390651 -0.001064090880997557 0 -0.07453507413988171 0 0 
0 0 0 0 0 0 0 0 0 0 0 
0.1018462389826734 0 -0.008914271528210499 -0.0001618053202989511 -0.01022579489409703 -0.02391911713036242 -0.005784619511616108 -0.0009851024671325727 -0.0408492668014273 0 0 
0 0 0 0 0 0 0 0 0 0 0 
0 0 -0.02240900839756836 0 -0.02932511967588277 -0.03053477682382399 -0.02097460571566526 0.1188913731783483 -0.02895517046260967 0 0 
0.1576116827151561 0 0 -0.006934869240275665 -0.1355714432517357 -0.02492129164164033 0 0 0 0 0 
-0.02771247426052274 0 0 0.1824911802334673 -0.07929815950248188 -0.04110587737421832 0 0 -0.005766830217854776 0 0 
0 0 -0.001545724267413856 -0.006169613465981516 0.01274825148618033 -0.0295150201012729 0 0 0 0 0 
0 0 0 0 0 0 0 0 0 0 0 
0 0 0 0 0 0 0 0 0 0 0 
0 0 0 0 0 0 0 0 0 0 0 
0 0 0 0 0 0 0 0 0 0 0 
0 0 0 0 0 0 0 0 0 0 0 
0 0 0 0 0 0 0 0 0 0 0 
-0.04653307039585344 0 -0.007275746862103077 -0.08633161763844768 -0.0336930192021602 0 0.2017774081907251 0 -0.02376840501407701 0 0 
-0.00977942757783714 0 0 0 0.03293241260815503 0 -0.00926177620007684 -0.02876524797673916 -0.001101510408445311 0 0 
-0.01066652921315052 0 -0.01273221151567773 0 0 0.0513670241485694 -0.00418021487132524 -0.01166314763119756 0 0 0 
0 0 0 0 0 0 0 0 0 0 0 
0 0 0 0 0 0 0 0 0 0 0 
0.1939685796037261 -0.06805582545830439 0 -0.01808945898797254 0 0 -0.04289912836085456 -0.013216293287331 -0.1407515659009042 0 0 
0 0 0 0 0 0 0 0 0 0 0 
0 0 0 0 0 0 0 0 0 0 0 
-0.06267892466251231 -0.002117925812490902 -0.05855127814036496 -0.0007380210938309489 0.03217747161384398 0 0 -5.421010862427522e-20 0.1024947674654142 0 0 
-0.1559366925886453 -0.006133645622580423 -0.003865767274309627 -0.03933872028936478 -0.01852554063931186 -0.01618786628232398 0 0.2632179469613353 -0.009560573765042142 0 0 
0 0 0 0 0 0 0 0 0 0 0 
-0.05266182988235368 0 -0.0015672899136119 0 0.07302426057646069 0 0 -0.02058887521129216 -0.03725659697095411 0 0 
-0.03918531317759451 0 -0.01280131542480944 -0.0107819766460595 0 0.09316463888453624 -0.008005194970723471 -0.04045735535921487 0 0 0 
-0.02601745781601615 0 0 0 -0.0647509057581655 -0.00788825723699723 -0.02779106766381731 0 0.1086565386966313 0 0 
-0.03824070597529603 -0.003209477841405749 0.1236378462230217 0 -0.03258346502597564 0 0 -0.01391477777440271 -0.05767777462323942 0 0 
0 0 0 0 0 0 0 0 0 0 0 
0 0 0 0 0 0 0 0 0 0 0 
0 0 0 0 0 0 0 0 0 0 0 
0 0 0 0 0 0 0 0 0 0 0 
0 0 0 0 0 0 0 0 0 0 0 
0 0 0 0 0 0 0 0 0 0 0 
0 0 0 0 0 0 0 0 0 0 0 
0 0 0 0 0 0 0 0 0 0 0 
0 0 0 0 0 0 0 0 0 0 0 
0 0 0 0 0.08905623033465096 0 -0.01772816759853803 -0.01733081433220187 -0.04402173771095314 0 0 
0 0 0 0 0 0 0 0 0 0 0 
0 0 0 0 0 0 0 0 0 0 0 
-0.04454359982479923 0 0 0.09056646189862712 -0.01408098835194222 0 -0.01354314802649588 0 -0.005323983721441023 0 0 
0 0 0 0 0 0 0 0 0 0 0 
0 0 0 0 0 0 0 0 0 0 0 
0 0 0 0 0 0 0 0 0 0 0 
0 0 0 0 0 0 0 0 0 0 0 
-0.1213626324185344 0 0 -0.134177221803275 -0.009381300721463886 -0.001369459127873327 0 -6.439854183339442e-05 0 0 4.231034083311245e-08 
0 0 0 0 0 0 0 0 0 0 0 
0 0 0 0 0 0 0 0 0 0 0 
-0.03575208240900912 -0.01065116668116118 0 -0.02193558758236713 0.1075523145352032 0 0 -0.01701847986478687 -0.007825954580228936 0 0 
0 0 0 0 0 0 0 0 0 0 0 
0 0 0 0 0 0 0 0 0 0 0 
0 0 0 0 0 0 0 0 0 0 0 
0 0 0 0 0 0 0 0 0 0 0 
0 0 0 0 0 0 0 0 0 0 0 
0 0 0 0 0 0 0 0 0 0 0 
0 0 0 -0.02494715545269004 0.02992612347897715 0 -0.006969186961384801 0 -0.01750447627131438 0 0 
0 0 0 0 0 0 0 0 0 0 0 
0 0 -0.110373767981058 -0.0157583607582007 -0.06383821056702373 0 -0.007231774049562821 -0.008970198438436522 0.2056077244514996 0 0 
0 0 0 0 0 0 0 0 0 0 0 
0 0 0 0 0 0 0 0 0 0 0 
-0.05328224538421898 -0.008648558853478179 0 -0.02808165379335231 -0.05093398712425911 0.1867003502892242 -0.01903124762469766 -0.05828539196179727 -0.01253895747450976 0 0 
0 0 0 0 0 0 0 0 0 0 0 
-0.002594877162459819 0 0 -0.02124887351405311 0 0.06397409129936427 0 -0.005769354724641684 -0.01917023868471584 0 0 
-0.1171760450940451 -0.01401905724684197 0 -0.06874839216623843 0.2488479816186035 0 0 0 -0.02538292240231959 0 0 
0 0 0 0 0 0 0 0 0 0 0 
-0.04079317921154282 0 0 -0.003713606147799283 0.09744832352916222 -0.01218234617970295 0 -0.0373325408559308 0 0 0 
0 0 0 0 0 0 0 0 0 0 0 
0 0 0 0 0 0 0 0 0 0 0 
0.04393697578676164 -0.007358898342894216 -0.01303511390378007 -0.04922289443814014 0.07774671463301543 -0.01399284063634052 -0.005463927605788616 -0.0166284314544861 -0.008411699316583176 -0.0005763166974857381 -0.0002681398308235927 
0 0 0 0 0 0 0 0 0 0 0 
0 0 0 0 0 0 0 0 0 0 0 
0 0 0 0 0 0 0 0 0 0 0 
0 0 0 0 0 0 0 0 0 0 0 
-0.02033241045979749 0 -0.02081635876285577 -0.005871206158377134 -0.006566083711142547 -0.07669060987473091 -0.02502335803541924 0.1704796071054545 -0.01587614858570594 0 0 
0 0 0 0 0 0 0 0 0 0 0 
-0.02814263336384267 0 -0.04654375371057882 -0.03378353142408765 -0.08285859822229816 0.2128574329583085 0 -0.004417812321911429 -0.01040386147023838 0 0 
0 0 0 0 0 0 0 0 0 0 0 
0 0 0 0 0 0 0 0 0 0 0 
0 0 0 0 0 0 0 0 0 0 0 
0 0 0 0 0 0 0 0 0 0 0 
-0.01837627192730469 0 -0.004164593909229873 0.1021006721526431 -0.03206765657664781 0 -0.002258995941816073 0 -0.02799219021626081 0 0 
0 0 0 0 0 0 0 0 0 0 0 
0 0 0 0 0 0 0 0 0 0 0 
0 0 0 0 0 0 0 0 0 0 0 
0 0 0 0 0 0 0 0 0 0 0 
0 0 0 0 0 0 0 0 0 0 0 
0 0 0 0 0 0 0 0 0 0 0 
0 0 0 0 0 0 0 0 0 0 0 
0.07573476451889877 0 -0.01154044244714273 0.1051877262294895 -0.03585254003832656 -0.04668177824567114 -0.014408676154387 -0.04564189075787325 8.673617379884035e-19 0 0 
-0.02795800234296412 0 -0.001366001681811332 0.1242764082813241 -0.04904840374117132 0 -0.005978232370344072 -0.02447350814561133 -0.01897747444912452 0 0 
-0.05938184916499106 0.2766205097380277 0 -0.0001393376075099923 -0.206930658655279 0 0 0 0 0 0 
0 0 0 0 0 0 0 0 0 0 0 
0 0 -0.005176421789065476 -0.008075510422539317 -0.03149908322279247 -0.06251532730971493 0 0.1304843104726036 -0.007220370545794243 0 0 
0 0 0 0 0 0 0 0 0 0 0 
0 0 0 0 0 0 0 0 0 0 0 
0 0 0.09013498399093317 -0.03025635324922265 0 -0.04349169490377672 0 -0.005336370922166099 -0.00896414412573671 0 0 
0.1219862876122039 0 0 -0.1029751950819808 0 0 0 -0.03427611747732218 -0.005726032899470161 0 0 
-0.03215444487183424 0 0 -0.04929866079109442 -0.07531838761160457 0 0 0 -0.004000082195543197 4.400161631945813e-07 0 
0 0 0 0 0 0 0 0 0 0 0 
0 0 0 0 0 0 0 0 0 0 0 
0 0 0 0 0 0 0 -0.004890127495596047 0 0 0 
0 0 0 0 0 0 0 0 0 0 0 
0 0 0 0 0 0 0 0 0 0 0 
0 0 0 0 0 0 0 0 0 0 0 
0 0 -0.006257863680327254 -0.01586598992059993 0.08737330189781949 -0.05056942190578512 -0.003440527756749414 -0.001108784873731526 -0.00343703184742289 0 0 
0 0 0 0 0 0 0 0 0 0 0 
0 0 0 0 0 0 0 0 0 0 0 
0 0 0 0 0 0 0 0 0 0 0 
0 0 0 0 0 0 0 0 0 0 0 
0 0 0 0 0 0 0 0 0 0 0 
0 0 0 0 0 0 0 0 0 0 0 
0 0 0 0 0 0 0 0 0 0 0 
0 0 0 0 0 0 0 0 0 0 0 
0 0 0 0 0 0 0 0 0 0 0 
0 0 0 0 0 0 0 0 0 0 0 
0 0 0 0 0 0 0 0 0 0 0 
0 0 0 0 0 0 0 0 0 0 0 
0 0 0 0 0 0 0 0 0 0 0 
0 0 0 0 0 0 0 0 0 0 0 
0 0 0 0 0 0 0 0 0 0 0 
0 0 0 0 0 0 0 0 0 0 0 
-0.01576916452991711 -0.005982131458238097 -0.005502301014856363 -0.01278524814187505 -0.04693697572960813 0.1278457304562122 -0.01084983851305332 0 -0.006864965594964112 0 0 
0 0 0 0.02524127399739525 0 -0.02927081789445076 -0.005268669214428206 0 0 0 0 
-0.01373243423560966 0 -0.01050760436612714 -0.0903882295872494 -0.05438116650693615 -0.007277928857714827 -0.01237986413794941 0 0.1930564424669229 0 0 
-0.07811593129646169 0 0 0 0.08517558981719993 0 0 0 -0.02665251945331197 0 0 
-0.0886858358308505 0 -0.002755039937101846 0.1514564938226123 -0.07685230368162935 -0.067330750590104 -0.00301411067081913 0.1486136507783018 -0.05171706856987001 0 0 
-0.10201736856717 0 0 -0.004755783705266249 0.1913848203329441 0 -0.01414052110170792 -0.04643719874991138 -0.03204327390900459 0 0 
0 0 -0.008791445188360791 -0.00499739487852518 -0.1133815487477499 -0.05394585078589328 0 -0.01429488993777536 0.1868509556821898 0 0 
0 0 0 0 0 0 0 0 0 0 0 
-0.009620759332669608 0 0.1155693127425801 0 -0.01246324815722987 -0.03682641548117051 -0.01479203835587341 -0.01255995316027389 -0.0004305687622584691 0 0 
0 0 0 0 0 0 0 0 0 0 0 
-0.02397472057717402 0 0.1029612077119323 0 0.02061273544286755 -0.0457362287602412 -0.02270828528659543 -0.005340903832530344 -0.013479839133807 0 0 
0 0 0 0 0 0 0 0 0 0 0 
0 0 0 0 0 0 0 0 0 0 0 
0 0 0 0 0 0 0 0 0 0 0 
0 0 0 0 0 0 0 0 0 0 0 
0 0 0 0 0 0 0 0 0 0 0 
-0.009212234791089258 -0.02028044581424636 -0.0416780751228996 -0.004709627022348729 0.1536055022213211 0 0 -0.008259321701649299 -0.06745599229285115 0 0 
0 0 0 0 0 0 0 0 0 0 0 
0 0 0 0 0 0 0 0 0 0 0 
0.1527010719365208 0 -0.02892955720575102 -0.02536425012577413 -0.008444010343295096 -0.03827120456452093 -0.02686427154370119 -0.004973470982136334 -0.00276898208758268 0 0 
0 0 0 0 0 0 0 0 0 0 0 
0 0 0 0 0 0 0 0 0 0 0 
0 0 0.02666339050315204 -0.01169664944481218 0 0 0 0 -0.02591162256425996 -7.549218690117154e-05 0 
0 0 0 0 0 0 0 0 0 0 0 
0 0 0 0 0 0 0 0 0 0 0 
0 0 0 0 0 0 0 0 0 0 0 
0 0 0 0 0 0 0 0 0 0 0 
-0.03415970934009145 0 -0.03680356131286882 0 -0.0166687154237139 -0.02182735578243068 0 -0.02007026819204306 0.1428679222121729 0 0 
-0.04887475218107797 0 0 -0.0415394945802596 0.142581817235278 -0.02517810217576172 0 0 -0.01427700325509499 0 0 
0 0 0 0 0 0 0 0 0 0 0 
0 0 0 0 0 0 0 0 0 0 0 
0 0 0 0 0 0 0 0 0 0 0 
-0.07697396214536294 -0.002032652071626856 -0.01527909878006764 -0.06101535278570625 -0.007355167459888239 0.1918682718372416 0 -0.0132022051343073 0 0 0 
0 0 0 0 0 0 0 0 0 0 0 
0.1649618948327935 -0.01663028174949577 0 -0.03191612505461557 -0.01215536465835949 -0.02971846582428225 0 -0.02119091445234894 -0.01106828709113943 0 0 
0 0 0 0 0 0 0 0 0 0 0 
0 0 0 0 0 0 0 0 0 0 0 
0.08970122266471028 -0.05001426412624106 0 -0.01698881523369061 -0.04565701310101822 0 0 -0.007886739849407446 -0.02050872208766861 0 0 
-0.01411315219116706 -0.003865541605705557 -0.02452664274764639 0 0.1243048909515121 -0.07376823038602889 -0.003856574484116178 0 -0.01627870016336587 0 0 
0 0 0 0 0 0 0 0 0 0 0 
0 0 0 0 0 0 0 0 0 0 0 
0 0 0 0 0 0 0 0 0 0 0 
0 0 0 0 -0.0222116253799758 0.0768291718953478 -0.002956198150448415 -0.01489470519094768 -0.02258093030415756 0 0 
0 0 0 0 0 0 0 0 0 0 0 
-0.0582227034214888 0 0 -0.04714195208095395 0.1448918322696481 -0.003123973836255804 -0.01527940535476132 0 -0.01629784350079641 0 0 
-0.01271454598338975 0 0 -0.08328032179123604 -0.004021225530946129 0.1259565839309949 0 0 -0.01086600682786374 0 0 
0 0 0 0 0 0 0 0 0 0 0 
0 0 0 0 0 0 0 0 0 0 0 
0 0 0 0 0 0 0 0 0 0 0 
0 -0.01250265367102259 0 -0.0292116837647057 0 0 -0.005769430241631326 0 0 0 0 
0 -0.002376917538887307 0.09757039187994561 0 -0.05851096941467598 -0.01870653687421388 0 -0.02152459791618922 -0.01367846713270182 0 0 
0 0 0 0 0 0 0 0 0 0 0 
0.08318190040104238 0 0 -0.008059109399148985 -0.03735814072195992 -0.006255582830159132 0 0 -0.02687641103661301 0 0 
-0.034881799378459 -0.004743790856896726 0 0 0.06113903820916396 -0.02104593564095305 0 0 -0.01166090161615473 0 0 
0 0 0 0 0 0 0 0 0 0 0 
-0.01811577879554472 -0.01157594782521378 0.05027733925988703 -0.03386267773546948 -0.05416974644320489 0 -0.01171360972323214 -0.01677474349883253 -0.0005499791682963029 -0.007943398579191494 -0.008092423756025608 
0 0 0 0 0 0 0 0 0 0 0 
0 0 0 0 0 0 0 0 0 0 0 
0 0 0 0 0 0 0 0 0 0 0 
0 0 0 0 0 0 0 0 0 0 0 
-0.00867730090767929 -0.000754920063064644 -0.05961563450438064 0 0.08662317864776313 -0.0158276269047401 0 0 0 0 0 
0 0 0 0 0 0 0 0 0 0 0 
0 0 0 0 0 0 0 0 0 0 0 
0 0 0 0 0 0 0 0 0 0 0 
0 0 0 0 0 0 0 0 0 0 0 
0 0 0 0 0 0 0 0 0 0 0 
0 0 0 0 0 0 0 0 0 0 0 
0 0 0 0 0 0 0 0 0 0 0 
0 0 -0.006625926654431348 0 -0.01444117992221293 -0.011958400747426 0 0.1146577252441632 -0.06139732515746594 0 0 
0 0 0 0 0 0 0 0 0 0 0 
0 0 0 0 0 0 0 0 0 0 0 
-0.06433891181277773 0 -0.01944723355423302 -0.05654846410506404 -0.02105094428499387 -0.05046110624338249 -0.03527362129630007 0.06813594722145946 0.1207290682936683 0 0 
-0.001166994958345138 0 0.1159666757953362 0 -0.03233881278681032 0 -0.05960087022206532 -0.003872016204922604 -0.01732060966629551 0 0 
-0.06426084152350134 -0.007924233562008956 -0.01009594579205976 -0.05488970929849626 0.1451615426818816 0 0 0 -0.01885763422833464 0 0 
0 0 0 0 0 0 0 0 0 0 0 
0 0 0 0 0 0 0 0 0 0 0 
-0.03805761061122693 0 -0.02469270402425903 0 -0.006803001380318071 0.07538799423153253 0 0 -0.01831224409081147 0 0 
0 0 0 0 0 0 0 0 0 0 0 
0 0 0 0 0 0 0 0 0 0 0 
0 0 0 0 0 0 0 0 0 0 0 
0.141335569021487 -0.02092988948554501 0 -0.05627957525095367 -0.01226241939194803 0 0 0 0 0 0 
-0.001287229821741107 0 -0.0194663303607525 0 -0.02302143833205802 0.1008772951880097 -0.03406640251261626 0 -0.01939160443948442 0 0 
0.1752199676428508 0 0 -0.07705152256649292 -0.03024479985142349 0 0 -0.002173189825490316 -0.03615556668577717 0 0 
0 0 0 0 0 0 0 0 0 0 0 
0 0 0 0 0 0 0 0 0 0 0 
0 0 0 0 0 0 0 0 0 0 0 
0 0 0 0 0 0 0 0 0 0 0 
0 0 0 0 0 0 0 0 0 0 0 
0 0 -0.009225281886008036 -0.04015875123591075 0.1355635083457997 -0.04620280397454984 -0.01091912025285914 -0.02092035608598101 -0.01447698320577347 0 0 
0 0 0 0 0 0 0 0 0 0 0 
0 0 0 0 0 0 0 0 0 0 0 
0 0 0 0 0 0 0 0 0 0 0 
0 0 0 0 0 0 0 0 0 0 0 
0 0 0 0 0 0 0 0 0 0 0 
0 0 0 0 0 0 0 0 0 0 0 
0 0 0 0 0 0 0 0 0 0 0 
0 0 0 0 0 0 0 0 0 0 0 
0 0 0 0 0 0 0 0 0 0 0 
-0.04210215372162653 0 0.2406327658099885 -0.009438707506834574 -0.02168509018962336 -0.09677995151058162 0 -0.04764147931424251 -0.01115000312977848 0 0 
0 0 0 0 0 0 0 0 0 0 0 
0 0 0 0 0 0 0 0 0 0 0 
0 0 0 0 0 0 0 0 0 0 0 
0 0 0 0 0 0 0 0 0 0 0 
0 0 0 0 0 0 0 0 0 0 0 
0 0 0 0 0 0 0 0 0 0 0 
0 0 0 0 0 0 0 0 0 0 0 
0 0 0 0 0 0 0 0 0 0 0 
0 0 0 0 0 0 0 0 0 0 0 
-0.06730111657821876 0 0 0 0.03267820412621618 0 0 0 0 0 0 
0 0 0 0 0 0 0 0 0 0 0 
0 0 0 -0.01729310448834445 -0.084243214460134 -0.02379261122502884 0 0.1271750629785675 -0.01083972250420068 0 0 
0 0 -0.04537670307470118 0 -0.05685342625777626 0.1090518401311693 -0.005992854033752594 0 -0.01420070969179647 0 0 
0 0 0 0 0 0 0 0 0 0 0 
-0.02804754268557394 0 -0.01175825404055658 0 0.1806243922712825 -0.09734416635128454 0 -0.0360323837186113 0 0 0 
0.1428618951762369 -0.05418193828291665 0 -0.07154220558670102 -0.1266456061924683 0 -0.001914226807305217 -0.003400117105926672 0.1615903323820137 0 0 
-0.01842143793624326 -2.4063023954128e-05 -0.01708980001561576 0 -0.04671799269884353 0 -0.02731629772057675 -0.01113555778662968 0.1307537649199938 0 0 
0 0 0 0 0 0 0 0 0 0 0 
0 0 0 0 0 0 0 0 0 0 0 
0 0 0 0 0 0 0 0 0 0 0 
0 0 0 0 0 0 0 0 0 0 0 
0 0 -0.006186497242540812 0 -0.02772222140765856 -0.1404773027474778 -0.01151000859085649 0.1990371284784517 -0.01434749068834947 0 0 
-0.01743363963352694 0 0 -0.01569688092060185 0.1794139731203495 0 0 -0.104404543505311 -0.02497321815478307 0 0 
0 0 0 0 0 0 0 0 0 0 0 
0 0 0 0 0 0 0 0 0 0 0 
0 0 0 0 0 0 0 0 0 0 0 
0 0 0 0 0 0 0 0 0 0 0 
-0.02069520838365625 0 0 -0.08493020973402905 0.09447294299660951 0 0 0 0 0 0 
0 0 0 0 0 0 0 0 0 0 0 
-0.01271123899364601 0 -0.01112730285803108 0 -0.07870154439282409 0.1061209745927355 -0.004581053549620351 -0.009121942094839292 0 0 0 
-0.1191944698899535 0 0 0.1909936351995575 -0.008406803310188497 -0.001318654470236501 0 -8.83857788531836e-05 0 0 0 
0 0 0 0 0 0 0 0 0 0 0 
0 0 0 0 0 0 0 0 0 0 0 
0 0 0 0 0 0 0 0 0 0 0 
0 0 0 0 0 0 0 0 0 0 0 
0 0 0 0 0 0 0 0 0 0 0 
0 0 -0.01800914765600057 -0.005743364641623108 -0.1253868066100808 -0.001354486298716398 0 -0.02135029695405948 0 0 4.384297699263868e-08 
0.02525020597552477 0 0 0 -0.04247896322181414 -0.001927184170407544 0 0 -0.001011329326609665 0 0 
0 0 0 0 0 0 0 0 0 0 0 
0 0 0 0 0 0 0 0 0 0 0 
0.1351743882206275 -0.0005000647471804808 0 0 -0.09352692098194595 0 0 -0.003436978182437575 -0.00266192304278986 0 0 
0 0 0 0 0 0 0 0 0 0 0 
-0.002449985633121456 0 0 -0.02848473703419144 -0.05374048619378052 -0.005868587312478427 0 0.1026658209566452 -0.01293000492833141 0 0 
0 0 0 0 0 0 0 0 0 0 0 
-0.03802839093539017 0 0 0 0.1284361373700711 -0.04477336396042042 -0.03816699624526158 0 -0.00229175271962574 0 0 
-0.1062318449155455 -0.02810501052804043 0 0.1966245653250866 -0.03066054194006815 0 -0.002245819572333835 0 -0.01206961231898888 0 0 
-0.03655606921941015 0 0 -0.005261487646067344 0.04728113285527768 -0.006127419982548279 0 0 0 0 0 
-0.003239374470620648 0 0 -0.0002789759425086261 0.135048094468929 0 -0.00836495203836494 -0.05108271131563066 -0.04059749939386289 0 0 
0 0 0 0 0 0 0 0 0 0 0 
-0.06412357025531698 0 -0.01668729175233807 -0.04268472982558474 -0.03587589516010013 0.239348377532036 -0.006628380605417952 -0.02678615032271127 -0.04329953355403773 0 0 
0 0 0 0 0 0 0 0 0 0 0 
0 0 0 0 0 0 0 0 0 0 0 
0 0 0 0 0 0 0 0 0 0 0 
0 0 0 0 0 0 0 0 0 0 0 
0 0 0 0 0 0 0 0 0 0 0 
0 0 -0.003245873634201271 -0.03681635976711566 -0.04620738733919466 -0.01053048425732321 -0.004078884443782098 0 0.1227379505095643 0 0 
0 0 0 0 0 0 0 0 0 0 0 
-0.1560650240527826 -0.006666263056171755 -0.002316203512908796 0.2424631954145688 -0.01728202962551431 -0.01486331489954028 0 -0.01800862351197658 -0.008629734285965756 0 0 
0 0 0 0 0 0 0 0 0 0 0 
0 0 0 0 0 0 0 0 0 0 0 
0 0 0 0 0 0 0 0 0 0 0 
0 0 0 0 0 0 0 0 0 0 0 
0 0 0 0 0 0 0 0 0 0 0 
0 0 0 0 0 0 0 0 0 0 0 
0 0 0 0 0 0 0 0 0 0 0 
0 0 0 0 0 0 0 0 0 0 0 
0 0 0 0 0 0 0 0 0 0 0 
0 0 0 0 0 0 0 0 0 0 0 
0 0 0 0 0 0 0 0 0 0 0 
-0.01308227772087915 0 -0.008078857851558837 -0.06029164346054292 -0.01586900495650847 0.1231933964327796 0 0 -0.02336761447219371 0 0 
0.08693580347069257 0 -0.01171561033466907 -0.00674209545925082 0 0 0 -0.06882447464732554 0 0 0 
0 0 0 0 0 0 0 0 0 0 0 
-0.009887551584593656 0 0 0.0754240988367124 0 0 -0.003524924844949432 0 -0.04463431976242756 0 0 
-0.003540613154472724 0 0 -0.01505083891776798 -0.07730495306621762 -0.01375765281636449 0 -0.0002060941597676798 0 0 4.292127121765342e-08 
0 0 0 0 0 0 0 0 0 0 0 
0 0 0 0 0 0 0 0 0 0 0 
0 0 0 0 0 0 0 0 0 0 0 
-0.04261930958187795 0 -0.03909365610654782 -0.009404920013461207 -0.02425411340472818 0.1833913196998692 0 -0.04660171806585293 -0.01022947216307245 0 0 
0 0 0 0 0 0 0 0 0 0 0 
0 0 0 0 0 0 0 0 0 0 0 
0 0 0 0 0 0 0 0 0 0 0 
-0.02937281168850764 0 -0.02352639587436789 0.1274411971131572 -0.02107674098228342 -0.01775660113191249 -0.04382406255534316 0 -0.008493797155940036 0 0 
-0.02064370853782547 0 0 -0.01280223640270319 0 0.05619208770579727 -0.004670270395030932 0 0 0 0 
0 0 0 0 0 0 0 0 0 0 0 
0 0 0 0 0 0 0 0 0 0 0 
0 0 0 0 0 0 0 0 0 0 0 
-0.0127604732869041 0 -0.01202068942980467 -0.04334993768606019 0.1066373489429564 0 0 0 -0.008839585665265087 0 0 
0.07668453254010375 -0.00322854228505425 0 -0.02176437322713302 0 -0.003825478978475249 -0.02176335708903068 0 0 0 0 
0 0 0 0 0 0 0 0 0 0 0 
0 0 0 0 0 0 0 0 0 0 0 
0 0 0 0 0 0 0 0 0 0 0 
0 0 0 0 0 0 0 0 0 0 0 
0 0 0 0 0 0 0 0 0 0 0 
0 0 0 0 0 0 0 0 0 0 0 
0 0 0 0 0 0 0 0 0 0 0 
0 0 0 0 0 0 0 0 0 0 0 
0 0 0 0 0 0 0 0 0 0 0 
0 0 0 0 0 0 0 0 0 0 0 
0 0 0 0 0 0 0 0 0 0 0 
0 0 0 0 0 0 0 0 0 0 0 
0 0 0 0 0 0 0 0 0 0 0 
0 0 0 0 0 0 0 0 0 0 0 
0 0 0 0 0 0 0 0 0 0 0 
0 0 0 0 0 0 0 0 0 0 0 
0 0 0 0 0 0 0 0 0 0 0 
0 0 0 0 0 0 0 0 0 0 0 
0 0 0 0 0 0 0 0 0 0 0 
0.1273993676102873 -0.006755573810242927 -0.002831934326418012 -0.03951950080899998 -0.01807295563647632 -0.01550196932350694 0 -0.01723081558021359 -0.009419962738387633 0 0 
-0.01255267750005395 0 -0.004063272044665686 -0.005599626912805765 -0.03634222615613473 0.1213300639611391 -0.02207403464468518 0 -0.035218234990567 0 0 
-0.007559819134151744 0 -0.01099707489328067 -0.005643082697479341 0.1291667371977938 -0.04251649632977923 -0.008642747696070629 -0.01680880422649778 -0.02621156301901417 0 0 
0 0 0 0 0 0 0 0 0 0 0 
0 0 0 0 0 0 0 0 0 0 0 
0 0 0 0 0 0 0 0 0 0 0 
-0.002623745719316939 0 0 0 0.08831999853060193 -0.03120325632932176 -0.01155341603978451 0 -0.03051802928482412 0 0 
0 0 0 0 0 0 0 0 0 0 0 
0 0 0 0 0 0 0 0 0 0 0 
0 0 0 0 0 0 0 0 0 0 0 
0 0 0 0 0 0 0 0 0 0 0 
0 0 -0.01072802419006996 -0.05462285695215366 -0.1047538476519633 -0.02032667105103701 0 0.2195866062616284 -0.05397280997363771 0 0 
0 0 0 0 0 0 0 0 0 0 0 
0 0 0 0 0 0 0 0 0 0 0 
-0.003211429384720966 -0.002962683886370474 0 -0.02212968614012667 -0.0558580893678953 -0.0092482109043417 0 0 0 4.526131151081419e-07 0 
0 0 0 0 0 0 0 0 0 0 0 
0 0 0 0 0 0 0 0 0 0 0 
0 0 0.07413685691905354 -0.00388831323949383 -0.02400191772447193 -0.009354219929493824 -0.0184837659989372 0 -0.02230883080694536 0 0 
0 0 0 0 0 0 0 0 0 0 0 
0 0 0 0 0 0 0 0 0 0 0 
0 0 0 0 0 0 0 0 0 0 0 
-0.07540084176320141 -0.004303651050092791 0 -0.001754240608465602 -0.03605111927301749 0.145959742458234 -0.01309521120736395 -0.007110370677053383 -0.00334224335212958 0 0 
0 0 0 0 0 0 0 0 0 0 0 
0 0 0 0 0 0 0 0 0 0 0 
0 0 0 0 0 0 0 0 0 0 0 
0.09833348446437686 0 -0.002740103573700515 -0.0263152336079155 0 0 -0.01127026365292513 -0.0369650565121929 0 0 0 
-0.05318577866506741 0 -0.001267190762662571 -0.0002311842008802535 -0.07796922172206526 -0.02688056936742835 0 -0.0005099614396901143 0.1617712127895296 0 0 
0 0 0 0 0 0 0 0 0 0 0 
0 0 0 0 0 0 0 0 0 0 0 
0 0 0 0 0 0 0 0 0 0 0 
0 0 0 0 0 0 0 0 0 0 0 
0 0 0 0 0 0 0 0 0 0 0 
0 0 0 0 0 0 0 0 0 0 0 
0 0 0 0 0 0 0 0 0 0 0 
0 0 0 0 0 0 0 0 0 0 0 
0.07899744278627076 0 -0.005809529853202941 -0.06300965807406099 0 0 0 0 -0.01909442792223928 0 0 
0 0 0 0 0 0 0 0 0 0 0 
0 0 0 0 0 0 0 0 0 0 0 
0 0 0 0 0 0 0 0 0 0 0 
0 0 0 0 0 0 0 0 0 0 0 
0 0 0 0 0 0 0 0 0 0 0 
0 0 0 0 0 0 0 0 0 0 0 
0 0 0 0 0 0 0 0 0 0 0 
0 0 0 0 0 0 0 0 0 0 0 
0 0 0 0 0 0 0 0 0 0 0 
0 0 0 0 0 0 0 0 0 0 0 
0 0 0 0 0 0 0 0 0 0 0 
-0.01586564573362617 0 0 -0.01364508185969683 0.1067484402061139 -0.01995761276258262 -0.02401077576811433 -0.001566250073784579 -0.002379724244486459 0 0 
0.05445645186664011 -0.02171910595219067 -0.02019005091848121 -0.09380801726980526 4.119968255444917e-18 -0.007450596041590122 -0.02178577926085962 -0.03766288090463018 0.07147744295585054 0 0 
0.02652101383105615 0 -0.005975571370174732 0.08811034144074323 -0.102264256205762 0 -0.005217149954996592 3.469446951953614e-18 -0.007474662268990653 0 0 
0 0 0 0 0 0 0 0 0 0 0 
0 0 0 0 0 0 0 0 0 0 0 
0 0 0 0 0 0 0 0 0 0 0 
0 0 0 0 0 0 0 0 0 0 0 
0 0 0 0 0 0 0 0 0 0 0 
0 0 0 0 0 0 0 0 0 0 0 
0 0 0 0 0 0 0 0 0 0 0 
0 0 0 0 0 0 0 0 0 0 0 
0 0 0 0 0 0 0 0 0 0 0 
0 0 0 0 0 0 0 0 0 0 0 
-0.01928288644437178 0 -0.01923526594064929 0 -0.01899380176105157 -0.0291742443185857 -0.002798931221946311 0.07828401748723413 0 0 0 
0 0 0 0 0 0 0 0 0 0 0 
0 0 0 0 0 0 0 0 0 0 0 
0 0 0 0 0 0 0 0 0 0 0 
-0.06767684714871364 0 -0.003167653443552383 -0.2003431507309604 0.3631198626370518 0 -9.176547679694348e-05 -0.03989584282263862 -0.04959671926224766 0 0 
0 0 0 0 0 0 0 0 0 0 0 
0 0 0 0 0 0 0 0 0 0 0 
0 -0.0009769989635630776 0 0 -0.02463712729568868 0.03680277780139562 -0.002802977580060667 -0.01542850712078265 0 0 0 
0 -0.002756193707478439 0 0 -0.01891175804586076 0.04485191493652727 0 -0.02897052589989217 0 0 0 
0 0 0 0 0 0 0 0 0 0 0 
-0.03250497074270675 0 -0.03221622347305482 0 0 0 0 -0.01176749425515414 0.1183877891352921 0 0 
0 0 0 0 0 0 0 0 0 0 0 
0 0 0 0 0 0 0 0 0 0 0 
0 0 0 0 0 0 0 0 0 0 0 
-0.03868288640889758 0 0 0.1112385464222192 -0.08387625062391266 0 -0.006170166670642847 0 0 0 0 
0 0 0 0 0 0 0 0 0 0 0 
0 0 0 0 0 0 0 0 0 0 0 
0 0 0 0 0 0 0 0 0 0 0 
0 0 0 0 0 0 0 0 0 0 0 
0.1251371829881252 -0.01330688811790438 0.01917589380619616 0.06345861471890904 -0.1198585742682614 -0.06006790687886233 0.2467266894474904 -0.1162551051494056 -0.1297322389913136 0 0 
-0.01252280101143793 0 -0.01856374553313541 -0.01076425812250356 0.148341558807582 -0.06470093031646214 -0.004117221568878704 -0.01492334757811262 -0.0114071179427777 0 0 
0 0 0 0 0 0 0 0 0 0 0 
0 0 0 0 0 0 0 0 0 0 0 
0 0 0 0 0 0 0 0 0 0 0 
0 0 0 0 0 0 0 0 0 0 0 
0 0 0 0 0 0 0 0 0 0 0 
0 0 0 0 0 0 0 0 0 0 0 
-0.02415788198387518 -0.01079130398322486 0 0 -0.05325933914415604 -0.007435921866903543 -0.003233470789544385 0.1286927119588623 -0.01519130957362365 0 0 
0 0 0 0 0 0 0 0 0 0 0 
0 0 0 0 -0.04683420403970171 0.0564816674730941 -0.008731182040073867 -0.02865599630978407 0 0 0 
0 0 0 0 0 0 0 0 0 0 0 
0 0 0 0 0 0 0 0 0 0 0 
0 0 0 0 0 0 0 0 0 0 0 
0 0 0 0 0 0 0 0 0 0 0 
0 0 0 0 0 0 0 0 0 0 0 
0 0 0 0 0 0 0 0 0 0 0 
0 0 0 0 0 0 0 0 0 0 0 
-0.04064644413704878 0 -0.001911161191543632 0 -0.05799346423467621 -0.03834313547773642 0 -0.001184912710621195 -0.02764552220324991 0 4.500184536354854e-08 
0 0 0 0 0 0 0 0 0 0 0 
0 0 0 0 0 0 0 0 0 0 0 
0.09824678228842089 0 -0.02039062768193146 0 -0.05999400692345749 -0.006779593361370028 -0.01759059159240812 0 0 0 0 
0.04470292633844476 0 0 -0.009136037333317486 0 0 0 -0.02882272490602986 -0.01228287535903419 0 0 
-0.02770498835578069 0 -0.002238940851945227 -0.1393203447987602 0.1986557386689069 0 -0.005957601633470377 -0.004262633413144253 -0.0137665472426747 0 0 
0 0 0 0 0 0 0 0 0 0 0 
0 0 0 0 0 0 0 0 0 0 0 
0 0 0 0 0 0 0 0 0 0 0 
0 0 -0.02460333450028714 0.08684350474924683 -0.04124499540146817 -0.01789010914988395 0 0 -0.03494910288787102 0 0 
-0.003577505622675186 0 -0.03178691020037303 -0.1290076944697827 -0.03821713544606689 0.1784810770547183 0.02973857587243365 0 -0.04342738897471918 -0.0006264525607657641 -0.000375649751962488 
0 -0.005791501166040259 -0.03337101561735138 0 0.1110057621348905 -0.04950637028337962 0 -0.02201509209159879 -0.0002443209823463542 0 0 
0 0 0 0 0 0 0 0 0 0 0 
0 0 0 0 0 0 0 0 0 0 0 
0 0 0 0 0 0 0 0 0 0 0 
0 0 0 0 0 0 0 0 0 0 0 
0 0 0 0 0 0 0 0 0 0 0 
0 0 0 0 0 0 0 0 0 0 0 
0 0 0 0 0 0 0 0 0 0 0 
0 0 0 0 0 0 0 0 0 0 0 
0 0 0 0 0 0 0 0 0 0 0 
0 0 0 0 0 0 0 0 0 0 0 
0 0 0 0 0 0 0 0 0 0 0 
0 0 0 0 0 0 0 0 0 0 0 
0 0 0 0 0 0 0 0 0 0 0 
0 0 0 0 0 0 0 0 0 0 0 
0.264285479310383 0 -0.003185136210261061 -0.179279329069314 -0.03389285672533772 0 -0.002719040450936093 0 -0.02620114532817966 0 0 
0 0 0 0 0 0 0 0 0 0 0 
0 0 0 0 0 0 0 0 0 0 0 
0 0 0 0 0 0 0 0 0 0 0 
0 0 0 0 0 0 0 0 0 0 0 
-0.04456793766772019 -0.00123704508773894 -0.01328916258957487 -0.03234519888066317 0.1647718592562167 -0.05724137912517108 -0.002906556481403175 0 -9.057817875032423e-05 0 0 
0 0 0 0 0 0 0 0 0 0 0 
0 -0.006149203192884463 0 0 0.05153569060125492 -0.02002325080666755 0 -0.008061606896943626 0 0 0 
0 0 0 0 0 0 0 0 0 0 0 
-0.01305886175529358 0 -0.01717101103727671 -0.03286584469010428 0.09474023472176547 -0.009067563804995566 0 0 -0.01583093189485043 0 0 
-0.1134599582640204 0 -0.003699794182858565 0.1973738599638621 -0.004878586059165783 -0.01217348419778138 -0.003510069400492116 -0.02312036489992974 -0.00901057522740413 0 0 
0 0 0.03945104703194294 0 -0.04842181923633476 -0.007391739397818632 0 0 0 0 0 
0 0 0 0 0 0 0 0 0 0 0 
0 0 0 0 0 0 0 0 0 0 0 
0 0 0 0 0 0 0 0 0 0 0 
0 0 0.01072997266419109 0 -0.01029753890542109 -0.004973146643774615 0 0 -0.004788965300452832 0 0 
0 0 0 0 0 0 0 0 0 0 0 
0 0 0 0 0 0 0 0 0 0 0 
-0.05659853744017637 0 -0.03588131085451474 0.1732626633114487 0.05313204706814939 -0.0388731089380683 -0.00245700817845261 -0.04613115862663476 -0.00564728067955389 0 0 
0 0 0 0 0 0 0 0 0 0 0 
0 0 0 0 0 0 0 0 0 0 0 
0 0 0 0 0 0 0 0 0 0 0 
-0.03571926179193252 0 0 0 0 0.05129100816388084 -0.009575391805312538 0 0 0 0 
0 0 0 0 0 0 0 0 0 0 0 
0 0 0 0 0 0 0 0 0 0 0 
0 0 0 0 0 0 0 0 0 0 0 
0 0 0 0 0 0 0 0 0 0 0 
0 0 0 0 0 0 0 0 0 0 0 
-0.0101290116786975 0 -0.005435314654428845 0 -0.01753769365966729 -0.008267867953665752 -0.006123255645058082 0.06663451640202812 0 -0.001982912153477981 -0.001684680045028197 
0.1802665548305427 -0.02217334738643896 0 -0.01242128282529245 -0.003564158541773082 -0.07318790511266535 -0.003310419131479279 -0.03184022676163813 -0.002438043546244808 0 0 
0 0 0 0 -0.02463493942271029 0.02465006525752681 0 0 0 0 0 
0 0 0 0 0 0 0 0 0 0 0 
0 0 0 0 0 0 0 0 0 0 0 
0 0 0 0 0 0 0 0 0 0 0 
0.1152127657037873 0 -0.003293152722315612 -0.01107866781614847 -0.01898735161986814 -0.01063550418629163 -0.03073206888420449 0 0 0 0 
0 0 0 0 0 0 0 0 0 0 0 
-0.02889056214983406 0 -0.04642197537188424 -0.0329714879369948 -0.08138357620838733 0.2130181523400037 0 -0.00454736481503766 -0.009970591855850943 0 0 
0.003312405776216186 0.2004560413659031 0 -0.02164219577390462 -0.03855365479158777 -0.04591955052478736 -0.01261090597212929 -0.02788291811214248 -0.02651340736265161 0 0 
0 0 0 0 0 0 0 0 0 0 0 
-0.1548698601599 -0.006071562287828779 -0.002454691185021116 0.2428272329647093 -0.01696705010915889 -0.01536135352204234 0 -0.01694943754936331 -0.009707121636397979 0 0 
0.2052864058914092 0 0 -0.04185582713754942 -0.1001898033446656 -0.0427726332695386 0 -0.004697132093204301 -0.007213156668136452 0 0 
0 0 0 0 0 0 0 0 0 0 0 
0 0 0 0 0 0 0 0 0 0 0 
0 0 0 0 0 0 0 0 0 0 0 
0 0 0 0 0 0 0 0 0 0 0 
0 0 0 0 0 0 0 0 0 0 0 
0 0 0 -0.007385737852469062 -0.04812285207308901 0.08229156447194075 0 -0.0161200697545537 -0.005265452667883865 0 0 
-0.02933949065306969 0 -0.001986173331977971 -0.1387164927691241 0.1975537532161975 0 -0.006951452641877492 -0.00437864392548403 -0.01492809799468641 0 0 
0 0 0 0 0 0 0 0 0 0 0 
-0.2455406406919138 0 0 0.151856337206054 -0.04648451674721896 -0.009294612102760048 0 -0.008012959403613042 0.1206846710326786 0 0 
-0.004909623739585387 -0.009620661067517151 -0.006810662556153257 0 0.05320274926875308 -0.0476375042436722 -0.005486531968663459 0 0 0 0 
0 0 0 0 0 0 0 0 0 0 0 
0 0 0 0 0 0 0 0 0 0 0 
0 0 0 0 0 0 0 0 0 0 0 
0 0 0 0 0 0 0 0 0 0 0 
0 0 0 0 0 0 0 0 0 0 0 
0.1347441057268916 -0.005253336739229652 0 -0.08548880747033619 0 0 -0.01670167105774603 -0.006925261541234733 -0.02248947848322488 0 0 
0 0 0 0 0 0 0 0 0 0 0 
-0.01704342389636938 0 0 0 -0.04922802313450856 0 0 -0.05773989512201479 0.09668448364278445 0 0 
0 0 0 0 0 0 0 0 0 0 0 
0 -0.008230833089330111 0.206643457135801 -0.05641568313424348 -0.05887698128129885 -0.03405135781448044 0 0 -0.05062836121542896 0 0 
0 0 0 0 0 0 0 0 0 0 0 
0 0 0 0 0 0 0 0 0 0 0 
-0.01973557415681649 -0.002352386033374106 -0.05602450363956891 0 0 -0.01907091449962952 -0.00772002579492122 0.1496993569278981 -0.03060450851295712 0 0 
0 0 0 0 0 0 0 0 0 0 0 
0 0 0 0 0 0 0 0 0 0 0 
0 0 0 0 0 0 0 0 0 0 0 
0 0 0 0 0 0 0 0 0 0 0 
-0.03666889333563926 -0.007187274829757909 -0.001622715587207933 0 0.1259862810142295 -0.02686241711652129 0 -0.01501253942325364 -0.01847159206861497 0 0 
0 0 0 0 0 0 0 0 0 0 0 
0 0 0 0 0 0 0 0 0 0 0 
0 0 0 0 0 0 0 0 0 0 0 
0 0 -0.01003526226018418 -0.01948520896843352 0.2122694125740864 -0.1018245216540649 0 -0.07408205143298455 -0.01901432493351688 0 0 
0 0 0 0 0 0 0 0 0 0 0 
0 0 0 0 0 0 0 0 0 0 0 
-0.1758133620835245 0.2313314359556308 0 -0.08151368637403475 0 0 -0.01882327000832317 0 -0.006216827843355563 0 0 
0 0 0 0 0 0 0 0 0 0 0 
0 0 0 0 0 0 0 0 0 0 0 
0 0 0 0 0 0 0 0 0 0 0 
0 0 0 0 0 0 0 0 0 0 0 
0 0 0 0 0 0 0 0 0 0 0 
-0.08931019003937693 0 -0.01736648909622007 -0.01713572217112654 0 0.143723442865126 0 0 -0.02802573527562142 0 0 
0 0 0 0 0 0 0 0 0 0 0 
0 0 0 0 0 0 0 0 0 0 0 
0 0 0 0 0 0 0 0 0 0 0 
0 0 0 0 0 0 0 0 0 0 0 
0 0 0 0 0 0 0 0 0 0 0 
0 0 0 0 0 0 0 0 0 0 0 
0 0 0 0 0 0 0 0 0 0 0 
-0.1046855757069677 -0.02008798972261892 0.009905814835274453 -0.02412811441709516 0.02501563999521702 -0.02948122307655316 0.1218589079817742 -0.01792470384755413 -0.09412427836858625 -0.01192755118191723 -0.01192687703156049 
0 0 0 0 0 0 0 0 0 0 0 
0 0 0 0 0 0 0 0 0 0 0 
0.10099808797173 -0.01341734184174829 -0.01239861025232031 -0.0226056911298009 -0.004424022760332001 -0.003677601665446938 0 -0.004037038264061546 0 0 0 
0 0 0 0 0 0 0 0 0 0 0 
0 0 0 0 0 0 0 0 0 0 0 
-0.01638351672342664 0 0 -0.03233430680783145 0 0.08353497952685383 0 0 -0.01436167794537118 0 0 
0 0 0 0 0 0 0 0 0 0 0 
-0.03868992231938224 -0.003631920279708136 0 -0.00973329949145765 0.06269657973073876 -0.003679957631835172 0 0 -0.01552428861288954 0 0 
0 0 0 0 0 0 0 0 0 0 0 
0 0 0 0 0 0 0 0 0 0 0 
0 -0.02051352267876378 0 0.0596050458408055 -0.06126482370843855 0 -0.006577459548607697 0 0 0 0 
-0.02829721289740428 0 -0.002590576394452112 0.1435082978412718 -0.08035553156235702 0 -0.006972602380962461 -0.004721580970585273 -0.01431111880320564 0 0 
0 0 0 0 0 0 0 0 0 0 0 
-0.03026997280061555 0 -0.0221640302125303 0 -0.01789008152942615 0 0 -0.03508622019083843 0.1548043837968221 0 0 
0 0 0 0 0 0 0 0 0 0 0 
0 0 0 0 0 0 0 0 0 0 0 
-0.01669884203153522 0 -0.01611589750005251 0 -0.032891357902505 0.1577653996755838 -0.04638305490501572 -0.01171802741596747 -0.002617202471575852 0 0 
0 0 0 0 0 0 0 0 0 0 0 
0 0 0 0 0 0 0 0 0 0 0 
0 0 0 0 0 0 0 0 0 0 0 
0 0 0 0 0 0 0 0 0 0 0 
0 0 0 0 0 0 0 0 0 0 0 
0 0 0 0 0 0 0 0 0 0 0 
0 0 0 0 0 0 0 0 0 0 0 
0.1471860098950643 0 -0.00410856690070441 -0.112130670820747 0 0 -0.01221661492690305 -0.03202281735882775 0 0 0 
0 0 0 0 0 0 0 0 0 0 0 
0 0 0 0 0 0 0 0 0 0 0 
0 0 0 0 0 0 0 0 0 0 0 
-0.0007975128445542395 0 -0.0359869605659563 -0.03414044349928538 0.1134208835276807 0 0 -0.002199587270539877 -0.02340218900881338 0 0 
0.1397920287623491 -0.02146241996270123 0 -0.05777429110746797 -0.0128418114025095 0 0 0 0 0 0 
0 0 0 0 0 0 0 0 0 0 0 
0.1177001100790701 0 -0.005386619990242216 0 -0.05564264863808503 -0.01415120992045638 -0.005415910665440795 -0.02310937753301886 -0.01443577637149449 0 0 
-0.01210997722436567 0 0 -0.0006872841186649095 -0.06735969163547194 0 0.1014263739919437 0 -0.02749500750802923 0 0 
0 0 0 0 0 0 0 0 0 0 0 
0 0 0 0 0 0 0 0 0 0 0 
0 0 0 0 0 0 0 0 0 0 0 
0 0 0 0 0 0 0 0 0 0 0 
0 0 0 0 0 0 0 0 0 0 0 
-0.03745848619773314 0 0 -0.008321860799795267 0.06884507763978814 0 -0.007353384263428548 0 -1.838532844285933e-05 0 0 
0 0 0 0 0 0 0 0 0 0 0 
0 0 0 0 0 0 0 0 0 0 0 
0.09139773543670736 0 -0.02077830143108431 0 -0.04194336803174815 -0.0157116501348836 -0.00579538297230339 -0.002423308564227114 0 0 0 
0 0 0 0 0 0 0 0 0 0 0 
0 0 0 0 0 0 0 0 0 0 0 
-0.02990211296453946 -0.00901956481519612 -0.01777367817847006 -0.02189389664932119 -0.04298977134357052 -0.02173847391079859 -0.002247163469073775 -0.01101539779776648 0.1855052264099399 0 0 
0 -0.002969960443590973 0 0 -0.01440700170469185 0.01371388343205914 0 0 0 0 0 
-0.0364372510325763 0 0 0.08777101413445827 0 0 0 -0.02326534593004684 -0.02690262638666259 -1.864252046304542e-05 0 
0 0 0 0 0 0 0 0 0 0 0 
0 0 0 0 0 0 0 0 0 0 0 
0 0 0 0 0 0 0 0 0 0 0 
0 0 0 0 0 0 0 0 0 0 0 
0 0 0 0 0 0 0 0 0 0 0 
-0.1545610383014871 0.2727459043919145 -0.002855061726183533 -0.04018298372882676 -0.01718521990015235 -0.01578511381149935 0 -0.0180233071943487 -0.00853940149315496 0 0 
0 0 0 0 0 0 0 0 0 0 0 
0 0 0 0 0 0 0 0 0 0 0 
0 0 0 0 0 0 0 0 0 0 0 
0 0 0 0 0 0 0 0 0 0 0 
0 0 0 0 0 0 0 0 0 0 0 
0 0 0 0 0 0 0 0 0 0 0 
0 0 0 0 0 0 0 0 0 0 0 
0 0 0 0 0 0 0 0 0 0 0 
0 0 0 0 0 0 0 0 0 0 0 
0 0 0 0 0 0 0 0 0 0 0 
0 0 0 0 0 0 0 0 0 0 0 
0 0 0 0 0 0 0 0 0 0 0 
0.1454167381117176 0 -0.02253936693986518 -0.01597532525420083 -0.007165599944864647 -0.0437855514638461 -0.01239186420398156 0 -0.03291299555966964 0 0 
0 0 0 0 0 0 0 0 0 0 0 
0 0 0 0 0 0 0 0 0 0 0 
0 0 0 0 0 0 0 0 0 0 0 
0 0 0 0 0 0 0 0 0 0 0 
0 0 0 0 0 0 0 0 0 0 0 
0 0 0 0 0 0 0 0 0 0 0 
0 0 0 0 0 0 0 0 0 0 0 
0 0 0 0 0 0 0 0 0 0 0 
0 0 0 0 0 0 0 0 0 0 0 
0 0 0 0 0 0 0 0 0 0 0 
0 0 0 0 0 0 0 0 0 0 0 
0 0 0 0 0 0 0 0 0 0 0 
0 0 0 0 0 0 0 0 0 0 0 
-0.0062426983966107 0 0 -0.008398396113616834 0.05113592759172658 0 0 0 -0.02651210888685867 0 0 
0 0 0 0 0 0 0 0 0 0 0 
0 0 0 0 0 0 0 0 0 0 0 
0 0 0 0 0 0 0 0 0 0 0 
0 0 0 0 0 0 0 0 0 0 0 
0 0 0 0 0 0 0 0 0 0 0 
0.1194594409846417 -0.02281833652680848 0 -0.01077622251325162 -0.004207037572480221 -0.01821895173348902 -0.005578240593812383 -0.03311384336539953 0 0 0 
0 0 0 0 0 0 0 0 0 0 0 
0 0 -0.008890996023808356 -0.1295412553588658 -0.02964766452039178 0.1788898434191251 0 0 -0.03146801764680264 0 0 
0 0 0 0 0 0 0 0 0 0 0 
0 0 0 -0.003812028013698793 0.0003556181408399636 -0.01004886348859704 0 0 0 0 0 
0 0 0 0 0 0 0 0 0 0 0 
0 0 0 0 0 0 0 0 0 0 0 
0.1660441075342787 -0.0005369456683053928 -0.007465652076999831 0 -0.1498249535265716 0 0 0 0 0 0 
0 0 0 0 0 0 0 0 0 0 0 
0 0 0 0 0 0 0 0 0 0 0 
0 0 0 0 0 0 0 0 0 0 0 
0 0 0 0 0 0 0 0 0 0 0 
0 0 0 0 0 0 0 0 0 0 0 
0 0 0 0 0 0 0 0 0 0 0 
0 0 0 0 0 0 0 0 0 0 0 
0 0 0 0 0 0 0 0 0 0 0 
-0.2020694950428545 0 0 0.201687514572042 0 0 0 -0.03621555979771111 -0.004151673189683212 0 0 
0 0 0 0 0 0 0 0 0 0 0 
0 0 0 0 0 0 0 0 0 0 0 
-0.01508014046483402 0 -0.01883711406994933 -0.009698306221731907 0 -0.03628310894942331 0.09761792427428469 -0.000614941380485028 -0.002764874004599748 0 0 
0 0 0 0 0 0 0 0 0 0 0 
0 0 0 0 0 0 0 0 0 0 0 
0 0 0 0 0 0 0 0 0 0 0 
-0.4345260808216376 0.6828447583912096 8.131516293641283e-19 -0.03898163151968084 -0.03630547543579966 -0.1215907580748127 -0.02624435434662089 -0.02760012015643202 -0.03777201374543442 0 0 
-0.01437291803133652 -0.005141757236083731 -0.009039233970665892 0 -0.006429118845212424 -0.09010553262640909 -0.006901978346689173 0.1489038268724964 -0.001328405843691765 0 0 
0 0 0 0 0 0 0 0 0 0 0 
0 0 0 0 0 0 0 0 0 0 0 
0 0 -0.001702743487528935 0 0.07941767839114106 -0.03130794500315467 -0.01797219854881214 -0.00910471389961803 0 0 0 
0 0 0 0 0 0 0 0 0 0 0 
0 0 0 0 0 0 0 0 0 0 0 
0 0 0 0 0 0 0 0 0 0 0 
0 0 0 0 0 0 0 0 0 0 0 
0 0 0 0 0 0 0 0 0 0 0 
0 0 0 0 0 0 0 0 0 0 0 
0 0 0 0 0 0 0 0 0 0 0 
0 0 0 0 0 0 0 0 0 0 0 
0 0 0 0 0 0 0 0 0 0 0 
0.2902709971753268 -0.01956233856995945 0 -0.09981970593473549 -0.1749126100635639 0 0 -0.01663757409796074 -0.01867872143955666 0 0 
0 0 0 0 0 0 0 0 0 0 0 
0 0 0 0 0 0 0 0 0 0 0 
0 0 0 0 0 0 0 0 0 0 0 
0 0 0 0.07746172447433664 -0.08339524434034774 0 -0.004538621731457484 0 0 0 0 
0 0 0.1209837653570126 0 -0.04847392327754026 -0.04157316887309853 -0.008107169548844181 0 -0.002305123910315133 0 0 
0 0 0 0 0 0 0 0 0 0 0 
0 0 -0.02922622863722219 0 -0.06389720032821036 0 -0.004405774495196453 0 0.06212011306283531 0 0 
-0.009774073556306523 0 0 -0.0026929236417214 0.01521519058563745 0 0 -0.007470130112625375 0 0 0 
0 0 0 0 0 0 0 0 0 0 0 
0 0 0 0 0 0 0 0 0 0 0 
0 0 0 0 0 0 0 0 0 0 0 
0 0 0 0 0 0 0 0 0 0 0 
0 0 0 0 0 0 0 0 0 0 0 
0.1265855217975796 -0.005660566881628737 -0.003779822567306704 -0.04035634185979545 -0.01826867471695772 -0.0152181841930751 0 -0.01654868480851899 -0.009157356201673362 0 0 
-0.09037999909018474 0 -0.0187954060382611 -0.04129070838024088 0 -0.02293902126080368 -0.01109138203939702 0.203403678351524 0 0 0 
0 0 0 0 0 0 0 0 0 0 0 
0 0 0 0 0 0 0 0 0 0 0 
0.1361418875104037 0 0 -0.1131800123285278 0 -0.00388675949606334 0 0 0 0 0 
0 0 0 0.07666111977166072 -0.08169417033135157 0 -0.004138031278893146 0 0 0 0 
0 0 0 0 0 0 0 0 0 0 0 
0 0 0 -0.1531972437444629 -0.03888716660804338 0 0 0 -0.05448903619051334 4.61281293770039e-07 0 
0 0 0 0 0 0 0 0 0 0 0 
0 -0.001473137643596994 -0.01122741886099284 -0.01569089505058852 0.06987496023352832 0 -0.01057163324674525 0 -0.0181760891946322 0 0 
0 0 0 0 0 0 0 0 0 0 0 
0 0 0 0 0 0 0 0 0 0 0 
0 0 0 0 0 0 0 0 0 0 0 
0 0 0 0 0 0 0 0 0 0 0 
0 0 -0.0714775818019166 0 -0.07233229103598764 -0.002581269503316578 0.1698923062358739 -0.003513034429100914 -0.02272436637119667 0 0 
0 0 0 0 0 0 0 0 0 0 0 
-0.01257087663149502 0 -0.001655073575572987 0.108307967039811 -0.02438404733140341 -0.02226675894311112 0 -0.007103662663845449 -0.00933040408283353 0 0 
-0.02253041715939309 0 0 0 0.05528647943182857 -0.01474003745556622 0 -0.007403945718242773 0 0 0 
0 0 0 0 0 0 0 0 0 0 0 
0 0 0 0 0 0 0 0 0 0 0 
0 0 0 0 0 0 0 0 0 0 0 
0 0 0 0 0 0 0 0 0 0 0 
0 0 0 0 0 0 0 0 0 0 0 
-0.006149275395062902 -0.001773039317055 0 0 0.01113477038249867 0 0 -0.0328970438361259 0 0 0 
-0.002500980230495171 0 -0.02358560496659872 -0.01804977072417898 0.09976065937838433 -0.004634003331829735 -0.01210183055422452 -0.02426944495078495 -0.004588638463487097 0 0 
0 0 0 0 0 0 0 0 0 0 0 
0 0 0 0 0 0 0 0 0 0 0 
0 0 0 0 0 0 0 0 0 0 0 
0 0 0 0 0 0 0 0 0 0 0 
0 0 0 0 0 0 0 0 0 0 0 
-0.0001610666539468276 -0.002592385388224689 -0.003664630217454436 0.1259187152994388 -0.01420434468680967 -0.05108516908666384 0 -0.03330159059951238 -0.02060475349285031 0 0 
0 0 -0.006895095342108849 0 0 0 0 -0.001993979040830947 -0.003664736474499819 0 0 
0 0 0 0 0 0 0 0 0 0 0 
-0.0004726121721038847 0 -0.01136022831399192 -0.1286516412711919 -0.04622615102887089 0.1805194748415474 0.0560828599501994 -1.084202172485504e-18 -0.06131697467104277 0 0 
0 0 0 0 0 0 0 0 0 0 0 
0 0 0 0 0 0 0 0 0 0 0 
0 0 0 0 0 0 0 0 0 0 0 
0 0 0 0 0 0 0 0 0 0 0 
-0.02894659125933353 -0.001823926934207021 0.07433815534310528 0 0 -0.006193092414273188 0 -0.01322798430067026 0 0 0 
0 0 0 0 0 0 0 0 0 0 0 
0 0 0 0 0 0 0 0 0 0 0 
0 0 0 0 0 0 0 0 0 0 0 
0 0 0 0 0 0 0 0 0 0 0 
0 0 0 0 0 0 0 0 0 0 0 
0 0 0 0 0 0 0 0 0 0 0 
0 0 0 0 0 0 0 0 0 0 0 
0.1704348107952717 0 0 -0.002958550177639454 -0.1738118669149465 0 0 0 0 0 0 
0 0 0 0 0 0 0 0 0 0 0 
0 0 0.03993759982537122 0 -0.03075643229327278 0 0 0 -0.01951008894661876 0 0 
0 0 0 0 0 0 0 0 0 0 0 
0 0 0 0 0 0 0 0 0 0 0 
0 0 0 0 0 0 0 0 0 0 0 
0 0 0 0 0 0 0 0 0 0 0 
0 0 0 0 0 0 0 0 0 0 0 
0 0 0 0 0 0 0 0 0 0 0 
0 0 0 0 0 0 0 0 0 0 0 
0 0 0 0 0 0 0 0 0 0 0 
0 0 -0.02977290685313362 -0.03835585981691709 -0.01974459397650071 -0.03910981413345338 0.1740219543435193 -0.02173509556872511 -0.009476415705753728 0 0 
-0.01788334675919891 0 -0.028453034602862 -0.0286415992968831 -0.05918799065306397 -0.03862103474967676 0 -0.01162230083810045 0.2058959933312433 0 0 
0 0 0 0 0 0 0 0 0 0 0 
-0.06330879166467741 0 0 0 0.1904846392233826 -0.05367529595493771 -0.03895502763510328 0 -0.03276636508443059 0 0 
0 0 0 0 0 0 0 0 0 0 0 
0 0 0 0 0 0 0 0 0 0 0 
0 0 0 0 0 0 0 0 0 0 0 
0 0 0 0 0 0 0 0 0 0 0 
0 0 0 0 0 0 0 0 0 0 0 
0 0 0 0 0 0 0 0 0 0 0 
0 0 0 0 0 0 0 0 0 0 0 
0 0 0 0 0 0 0 0 0 0 0 
0 0 0 0 0 0 0 0 0 0 0 
-0.01151010942262618 -0.005050847078672052 -0.007033369296951454 -0.004449130786374904 -0.02246070105739431 -0.01893408542728608 0.03751194961317352 -0.008108860797435374 -0.01391281673934023 -0.007060803299671283 -0.007040222634671222 
0.10957120362253 0 0 -0.02190476474551807 -0.04187647670346476 0 0 -0.0046360119053001 -0.01485845195818961 0 0 
0 0 0 0 0 0 0 0 0 0 0 
0.1756708867246631 0 0 -0.0442899959505402 -0.04272126229280765 -0.008714213631305078 -0.009637327268421845 -0.01094843601885926 -0.02193068413901935 0 0 
0 0 0 0 0 0 0 0 0 0 0 
0 0 0 0 0 0 0 0 0 0 0 
0 0 0 0 0 0 0 0 0 0 0 
0 0 0 0 0 0 0 0 0 0 0 
0 0 0 0 0 0 0 0 0 0 0 
-0.04669602882805805 0 0.1538555250355302 -0.01231270894392153 -0.008158471497297785 -0.01526042564883485 0 -0.02543192665776283 -0.01464247710755399 0 0 
0 0 0 0 0 0 0 0 0 0 0 
0 0 0 0 0 0 0 0 0 0 0 
0 0 0 0 0 0 0 0 0 0 0 
0 -0.003391505193322423 0 0 -0.01363460115310044 0.01415891406745264 0 0 0 0 0 
0 0 0 0 0 0 0 0 0 0 0 
0 0 0 0 0 0 0 0 0 0 0 
0 0 0 0 0 0 0 0 0 0 0 
0 0 0 0 0 0 0 0 0 0 0 
0 0 0 0 0 0 0 0 0 0 0 
0 0 0 0 0 0 0 0 0 0 0 
0 0 0 0 0 0 0 0 0 0 0 
0 0 0 0 0 0 0 0 0 0 0 
0 0 0 0 0 0 0 0 0 0 0 
0 0 0 0 0 0 0 0 0 0 0 
0 0 0 0 0 0 0 0 0 0 0 
0 0 0 0 0 0 0 0 0 0 0 
0 0 0 0 0 0 0 0 0 0 0 
0 0 0 0 0 0 0 0 0 0 0 
0 0 0 0 0 0 0 0 0 0 0 
0 0 0 0 0 0 0 0 0 0 0 
0 0 0 0 0 0 0 0 0 0 0 
0 0 0 0 0 0 0 0 0 0 0 
0 -0.0005125496458246474 0.04403820505807775 -0.00198489960260139 -0.0204363768230528 -0.02313078277351795 -0.003851131539248632 -0.00681152629671102 -0.002071577282894218 -0.001853503593113172 -0.00184008486806235 
0 0 0 0 0 0 0 0 0 0 0 
0 0 0 0 0 0 0 0 0 0 0 
0 0 0 0 0 0 0 0 0 0 0 
0 0 0 0 0 0 0 0 0 0 0 
0 0 0 0 0 0 0 0 0 0 0 
-0.009338956188877298 -0.01247595934620884 0.03286938413910789 -0.02682278519203785 -0.04539957015110005 -0.02671519541177272 -0.01597003932421113 -0.003908350504206873 -0.001306517796290221 -0.01061092787305344 -0.01052325007957519 
-0.05959089223413863 -0.002937730920648756 0 -0.0004794707930330438 0.07356454850532798 0 0 0 0 0 0 
0 0 0 0 0 0 0 0 0 0 0 
0 0 0 0 0 0 0 0 0 0 0 
0 0 0 0 0 0 0 0 0 0 0 
0 0 0 0 0 0 0 0 0 0 0 
0 0 0 0 0 0 0 0 0 0 0 
0 0 0 0 0 0 0 0 0 0 0 
0 0 0 0 0 0 0 0 0 0 0 
0 0 0 0 0 0 0 0 0 0 0 
0 0 0 0 0 0 0 0 0 0 0 
0 0 0 0 0 0 0 0 0 0 0 
-0.0002051270553228522 0 0.06350864188724725 -0.01311855449583037 -0.0021773925573536 -0.001380694381018047 -0.002493091227470164 -0.01034300273881241 -0.009160373664848471 0 0 
-0.04894875863829716 0 -0.03763244031103982 0 -0.02715620654104737 -0.03020628018186935 -0.005386116401913877 0 0.1486953286054881 0 0 
0 -0.002518296971363017 -0.009734156240164589 0 -0.03575991365703731 0.03254871076433218 -0.009703306903367051 0 0 0 0 
0 0 0 0 0 0 0 0 0 0 0 
0 -0.0004251645811112907 0 -0.03236125574638622 0.09687941341306507 -0.03005246241805832 0 -0.02691913132305894 -0.02425597142663533 0 0 
-0.04542950708212862 0 -0.04101810714744624 -0.02025961990000602 0.1035655864874655 0.09400507778306907 -0.003798521312806393 -0.02068744802046981 -0.07100369154332847 0 0 
0 0 0 0 0 0 0 0 0 0 0 
0.08545999127260184 -0.001277703054620918 0 -0.03379261835040385 0 0 -0.01465520748455193 0 0 0 0 
-0.1287718899121832 0 0 0.1915570322585269 -0.0151204462287466 -0.003606547841550418 0 -0.001401388607200205 0 0 0 
0 0 0 0 0 0.01187979965297368 0 -0.0210149181091338 0 0 0 
0 0 -0.01655017789310286 0 0.07821291516408137 -0.01679463788250898 -0.02568362346654758 -0.0003883252057359621 -0.004627789723506964 0 0 
0 0 0 0 0 0 0 0 0 0 0 
0 0 0 0 0 0 0 0 0 0 0 
0 0 0 0 0 0 0 0 0 0 0 
0 0 0 0 0 0 0 0 0 0 0 
0 0 0 0 0 0 0 0 0 0 0 
-0.009218121512038874 0 0.08670234957612986 -0.01350691573725113 -0.0002681539678207 -0.03953648141893327 -0.02210023371590474 -0.01089517473814376 -0.001534713104301161 0 0 
0 0 0 0 0 0 0 0 0 0 0 
0 0 0 0 0 0 0 0 0 0 0 
0 0 0 0 0 0 0 0 0 0 0 
0 0 0 0 0 0 0 0 0 0 0 
-0.000181591365334809 0 -0.002365080089788485 -0.01061043030683625 -0.04334623513984772 -0.05530988261879026 -0.01443107266900155 -0.004902123854820042 0.1532500853378511 0 0 
0 0 0 0 0 0 0 0 0 0 0 
-0.01720565045778669 0 0 -0.02123781769148712 -0.03384906931968104 -0.03078608947194676 -0.01607224828248409 -0.003553786799563509 0.1261131061640881 0 0 
0 0 0 0 0 0 0 0 0 0 0 
0 0 0 0 0 0 0 0 0 0 0 
-0.01032532254732064 0 -0.01579865779175639 0.1502185525410454 -0.08850006732441076 -0.01366533121827114 -0.01581110695479712 -0.008443793963908607 -0.01616062890062964 0 0 
0 0 0 0 0 0 0 0 0 0 0 
0 0 0 0 0 0 0 0 0 0 0 
0 0 0 0 0 0 0 0 0 0 0 
0.09752332787418147 0 -0.0004169851462021649 -0.004755916483498461 -0.01423707984821186 -0.02987086788514882 0 -0.009166344064522892 -0.01857027853483392 0 0 
0 0 0 0 0 0 0 0 0 0 0 
0 0 0 0 0 0 0 0 0 0 0 
0 0 0 0 0 0 0 0 0 0 0 
-0.02053298663088987 0 0.1204647512967256 -0.01060526309792237 0 -0.02263667457264681 -0.01064114403467723 -0.03330240921488961 0 0 0 
0 0 0 0 0 0 0 0 0 0 0 
0 0 0 0 0 0 0 0 0 0 0 
0 0 0 0 0 0 0 0 0 0 0 
0 0 0 0 0 0 0 0 0 0 0 
0 0 0 0 0 0 0 0 0 0 0 
-0.1484455286550904 0 -0.002886412820037456 0 -0.02072489418054764 0 -0.003440229001405281 0 0.1681094429900393 0 0 
0 0 0 0 0 0 0 0 0 0 0 
0 0 0 0 0 0 0 0 0 0 0 
0 0 0 0 0 0 0 0 0 0 0 
0.07135573128389193 0 -0.007843364684498954 -0.01648507515322427 0 0 0 -0.05492243532850932 0 0 0 
0 0 0 0 0 0 0 0 0 0 0 
0 0 0 0 0 0 0 0 0 0 0 
0 0 0 0 0 0 0 0 0 0 0 
0 0 0 0 0 0 0 0 0 0 0 
0 0 0 0 0 0 0 0 0 0 0 
0 0 0 0 0 0 0 0 0 0 0 
0 0 0 0 0 0 0 0 0 0 0 
0 0 0 0 0 0 0 0 0 0 0 
0 0 0 0 0 0 0 0 0 0 0 
0.1207844637024967 0 -0.01650444918011986 -0.008727417402991383 -0.02824438292496049 -0.02803851989968404 0 -0.007294712305601802 -0.02807861283092919 0 0 
0 0 0 0 0 0 0 0 0 0 0 
0 0 0 0 0 0 0 0 0 0 0 
0 0 0 0 0 0 0 0 0 0 0 
0 0 0 0 0 0 0 0 0 0 0 
-0.05046442193498481 0 -0.02654401905841669 0 -0.04778253653972884 0.1786328199910698 -0.01043787915835589 0 -0.02773989725196005 0 0 
0 0 0 0 0 0 0 0 0 0 0 
0.3335794925282828 -0.005569873588832137 -0.04187794509691756 -0.1517384964036992 -0.1238310213679973 -0.04143300175793758 -0.01264761440086458 -0.06808593134845753 0.0397793873429932 0 0 
0 0 0 0 0 0 0 0 0 0 0 
-0.01224053319583435 0 -0.01838059145520867 -0.01140610712703968 0.148569705072254 -0.0652549705112473 -0.003949965821348511 -0.01490442954142342 -0.01144534365290252 0 0 
0 0 0 0 0 0 0 0 0 0 0 
0 0 0 0 0 0 0 0 0 0 0 
0 0 0 0 0 0 0 0 0 0 0 
0 0 0 0 0 0 0 0 0 0 0 
0 0 0 0 0 0 0 0 0 0 0 
0 0 0 0.1015342900747458 -0.09056614714105771 0 -0.006120019547113053 0 -0.003053095688232296 0 0 
0 0 0 0 0 0 0 0 0 0 0 
0 -0.002639133282951038 0 0 -0.008741668976758189 0.05465205952415163 0 -0.02218229025260396 -0.01287113718698482 0 0 
0 0 0 0 0 0 0 0 0 0 0 
0 0 0 0 0 0 0 0 0 0 0 
0.0356930801889418 0 0 0 -0.00176699750234676 0 -0.008250932968938684 0 -0.005852342791364901 0 0 
0 0 0 0 0 0 0 0 0 0 0 
0 0 0 0 0 0 0 0 0 0 0 
-0.02952450622021832 0 0 0.07057661098785253 -0.02250413563179076 0 -0.009681313334838543 0 -0.02996459684940987 0 0 
0 0 0 0 0 0 0 0 0 0 0 
0 0 0 0 0 0 0 0 0 0 0 
0 0 0 0 0 0 0 0 0 0 0 
0 0 0 0 0 0 0 0 0 0 0 
0 0 0 0 0 0 0 0 0 0 0 
0 0 0 0 0 0 0 0 0 0 0 
0 0 0 0 0 0 0 0 0 0 0 
-0.01554656186505629 0 -0.02795772776522688 0 0 -0.02687975315801974 0.1093548278395002 -0.003882418745099142 -0.01526155111264204 0 0 
0 0 0 0 0 0 0 0 0 0 0 
-0.02759310347774211 0 -0.01923080677037289 -0.06263161838806941 -0.08275375541367247 -0.01249409435813668 0 -0.003821822564729065 0.222585405176793 0 0 
-0.02811593261566052 0 -0.008263081168452998 0.1475711497617534 -0.08057567827662597 -0.01056312482285729 -0.009131340354284506 0 -0.002670002092679222 0 0 
-0.09257231978476174 0 0.1940035232648652 0 0 -0.01382940653327985 0 -0.06800029483062742 -0.0203882189386838 0 0 
0 0 0 0 0 0 0 0 0 0 0 
0 0 0 0 0 0 0 0 0 0 0 
-0.1436014147002352 -0.02103487668217464 0 0.2268690067045899 -0.01322674717061248 0 -0.0003008069336676635 0 0 0 0 
0 0 0 0 0 0 0 0 0 0 0 
0 0 -0.06190302980006782 0 0.09649438546194952 -0.0129184004583176 0 0 -0.02057506380405783 0 0 
0 0 0 0 0 0 0 0 0 0 0 
0 0 0 0 0 0 0 0 0 0 0 
0 0 -0.008326238860563575 0.1249002808364774 -0.1019465649763499 0 -0.005254300105730262 0 -0.002289382711012882 0 0 
0 0 0 0 0 0 0 0 0 0 0 
0 0 0 0 0 0 0 0 0 0 0 
0 0 0 0 0 0 0 0 0 0 0 
0 0 -0.02052634055664517 0 -0.01631948883256029 0.06489185326491362 0 -0.02390950891990178 -0.008511219913778869 0 0 
0 0 0 0.08001528252703519 -0.02991313216924796 -0.009918444407494589 -0.01542098288980965 0 -0.02212358866677432 0 0 
0 0 0 0 0 0 0 0 0 0 0 
-0.01288185190443815 0 -0.01683278428962115 -0.03186313635073774 0.09340064356339026 -0.009220180060746007 0 0 -0.01623560850806337 0 0 
0 0 0 0 0 0 0 0 0 0 0 
0 0 0 0 0 0 0 0 0 0 0 
0 0 0 0 0 0 0 0 0 0 0 
0.2301841673086102 0 0 -0.07759441060994229 -0.03931255745048681 -0.0001705380877561383 0 -0.01179486553989609 -0.06435844451102277 -0.0002402061170235516 -5.403186271955422e-05 
0.07368546245096409 0 0 0 -0.03281834529074178 -0.03039622388236599 0 -0.01289910882272669 0 0 0 
0 0 0 0 0 0 0 0 0 0 0 
-0.02996002752612016 0 -0.006299888521488475 -0.03254174071823407 -0.07024397225046379 0 0 -0.05038883952238345 0.2093336460157695 0 0 
-0.02114644499444375 0 -0.01970374290905033 0 0.03257473927894573 -0.00191143507649828 0 -7.300680772647004e-05 0 0 0 
0 0 0 0 0 0 0 0 0 0 0 
-0.02159425923853872 0 0 0 0.1544792503597315 -0.09353656112263942 0 -0.03692275656920222 -0.009860657140351458 0 0 
0.1105601183914958 0 0.02382649300293416 0 -0.07360455863299881 -0.02729554109861173 0 -0.006171532693867693 -0.02358330483357465 0 0 
-0.014447719109617 0 -0.01549725575772124 0.157723685352762 -0.05106908858041555 0 0 -0.03462834549271145 -0.01552161756192991 0 0 
0 0 0 0 0 0 0 0 0 0 0 
-0.09839055842927796 -0.01230125831576582 0 -0.06588310351192378 0.170908211928517 0 0 0 0 0 0 
0 0 0 0 0 0 0 0 0 0 0 
0 0 0 0 0 0 0 0 0 0 0 
0 0 0 0 0 0 0 0 0 0 0 
0 0 0 0 0 0 0 0 0 0 0 
0 0 0 0 0 0 0 0 0 0 0 
-0.007857118304361406 0 0.1540155889176449 -0.005646653709025386 -0.06273192500420055 -0.04216570882742286 0 -0.01094121050131995 -0.02090816796832489 0 0 
0 0 0 0 0 0 0 0 0 0 0 
0 0 0 0 0 0 0 0 0 0 0 
0 0 0 0 0 0 0 0 0 0 0 
0 0 0 0 0 0 0 0 0 0 0 
0 0 0 0 0 0 0 0 0 0 0 
0 0 -0.009083597250934846 0.1257631522431589 -0.03976054039209727 -0.01608018832262502 0 -0.02458989946933458 -0.0141535918867765 0 0 
-0.03999477711141319 -0.0103753748664092 0 -0.0002596825100711388 -0.07108101919851169 0 -0.00237526766468075 -0.0364400696840025 -0.0002347965428361143 4.333522325592313e-07 0 
0 0 0.1143435651373237 0 -0.05418311131874402 -0.01109915552607958 -0.01173110570967741 -0.03741885182239009 -0.01400188273962524 0 0 
0.09172304293905004 -0.008374290218606018 0 -0.006020195631836723 -0.09423107069295518 -0.009987401849688302 -0.0001136984436697433 0.1075296985029867 -0.08620353585038247 0 0 
0 0 0 0 0 0 0 0 0 0 0 
0 0 0 0 0 0 0 0 0 0 0 
0 0 0 0 0 0 0 0 0 0 0 
0 0 0 0 0 0 0 0 0 0 0 
0.1026498441215161 -0.001824153789841016 0 -0.0532052247704347 -0.01130659376081086 0 -0.002839426391248074 -0.0007033853951766141 -0.01232990843565973 0 0 
0 0 0 0 0 0 0 0 0 0 0 
-0.02088895062568126 0 -0.02486545181853896 -0.00676458540704294 -0.02536175873521887 -0.008354710583125027 0.1101654722985944 0 -0.006643215910285992 0 0 
0 0 -0.00743942956398465 -0.001060281804143776 0.03112731007418467 -0.02081947386243869 0 -0.002880646122867915 0 0 0 
0 0 0 0 0 0 0 0 0 0 0 
0 0 0 0 0 0 0 0 0 0 0 
0 0 0 0 0 0 0 0 0 0 0 
-0.05855549500931663 -0.002442013932942166 0 -0.0001816531486540778 0.07508968718338081 0 0 0 0 0 0 
0 0 0 0 0 0 0 0 0 0 0 
0 0 0 0 0 0 0 0 0 0 0 
0 -0.009917298486207555 0 -0.00847836639093392 0.05932964205300419 -0.01078485239102768 -0.00833161736949087 0 -0.02643603409073183 0 0 
0 0 0 0 0 0 0 0 0 0 0 
0 0 0 0 0 0 0 0 0 0 0 
0 0 0 0 0 0 0 0 0 0 0 
0 0 0 0 0 0 0 0 0 0 0 
0 0 0 0 0 0 0 0 0 0 0 
0 0 0 0 0 0 0 0 0 0 0 
0 0 0 0 -0.0518686270937479 0.05484115223888725 -0.009866122310349121 -0.01133713025462831 0 0 0 
0 0 0 0 0 0 0 0 0 0 0 
0 0 0 0 0 0 0 0 0 0 0 
-0.05867260030057097 -0.004963088043869864 0 -0.0002978277493522366 0.07347565653540783 0 0 0 0 0 0 
0.1815465435570523 0 0 -0.07980668081596398 -0.04535264820168203 0 -0.03308889368255214 0 -0.01175772005928936 0 0 
0 0 0 0 0 0 0 0 0 0 0 
0.1267788013088798 -0.00721735025365784 -0.003286338950374054 -0.03980966884305213 -0.01657746295853987 -0.01499624330553223 0 -0.01729708105425774 -0.008931420440332587 0 0 
-0.09531366541877984 0 0 -0.01016164164848774 -0.01435132872181751 -0.004342543131887894 0 0.139002920598525 0 0 0 
0 0 0 0 0 0 0 0 0 0 0 
-0.05275852231252747 0 0 0 -0.03281485750822571 0.09590602939329076 0 -0.04618662966161655 0 0 0 
0 0 -0.0205586173250907 -0.001655605984823412 -0.01974567215601247 0.05813470519590492 -0.004857732327264442 0 0 0 0 
0 0 0 0 0 0 0 0 0 0 0 
0 0 0 0 0 0 0 0 0 0 0 
0 0 0 0 0 0 0 0 0 0 0 
0 0 0 0 0 0 0 0 0 0 0 
-0.01905262591066089 0 -0.001241186952526273 -0.1377234338141925 0.1796392277986473 0 -0.006689404294853203 -0.003131431345954958 -0.008086619921256234 0 0 
0.07584327116720332 0 0 -0.02176469670180995 -0.01451428192790661 0 0 0 -0.01656760116170851 0 0 
-0.02456074098841224 -0.0001135634009973245 -0.001360762561136743 -0.002479330388198495 -0.02940827359455285 0.08415610963945803 0 -0.005847172904306566 -0.01321115188519584 0 0 
0.1019578882327261 0 -0.007876799988903763 0 -0.009104471554317786 -0.02274763618874344 -0.0053334927270461 0 -0.03912463806279282 0 0 
0 0 0 0 0 0 0 0 0 0 0 
0 0 0 0 0 0 0 0 0 0 0 
0 0 0 0 0 0 0 0 0 0 0 
-0.04828332874275781 0 0 -0.008199946399851419 0.089239840347783 -0.005789683081426039 -0.02212527153676933 0 -0.01295042859783634 0 0 
0 0 0 0 0 0 0 0 0 0 0 
-0.05928488721481628 -0.002007888619239109 0 0 0.0737302124600609 0 0 0 0 0 0 
0 0 0 0 0 0 0 0 0 0 0 
0 0 0 0 0 0 0 0 0 0 0 
0 0 0 0 0 0 0 0 0 0 0 
0 0 0 0 0 0 0 0 0 0 0 
0 0 0 0 0 0 0 0 0 0 0 
0 -0.00266945930947805 0 0 -0.01278799315800246 0.01336662848501783 0 0 0 0 0 
-0.06736304357174584 0 -0.02867999344180966 -0.002747967643107401 -0.007925254043178153 0 0 0.145687373629809 0 0 0 
0 0 0 0 0 0 0 0 0 0 0 
0 0 0 0 0 0 0 0 0 0 0 
0 0 0 0 0 0 0 0 0 0 0 
0 0 0 0 0 0 0 0 0 0 0 
0 0 0 0 0 0 0 0 0 0 0 
-0.02759026302658354 0 0 0 0.1153191160669264 -0.1068072427529399 -0.00323748483685699 0 0 0 0 
0 0 0 0 0 0 0 0 0 0 0 
0 0 0 0 0 0 0 0 0 0 0 
-0.0159931649987968 0 0.109263327938359 0 -0.03456416938864684 -0.02063935543960897 0 -0.01530981965079983 -0.02254911366933357 0 0 
0 0 0 0 0 0 0 0 0 0 0 
0 0 0 0 0 0 0 0 0 0 0 
0.1104267659607062 0 0 -0.02551282743614834 -0.07596294394625271 0 0 0 0 0 0 
0 0 0 0 0 0 0 0 0 0 0 
0.133504387090002 -0.002619749219417247 -0.00761459657464748 -0.0001023826290235125 -0.2059883585125402 0.05970073482796845 0 -0.01429994082616004 -0.008161617670911002 0 0 
0.2440816730639825 0 -0.008790045160970475 -0.06948340399916735 -0.06190551668344653 -0.08256233485345907 0 0 -0.008345698696822276 0 0 
0 0 0 0 0 0 0 0 0 0 0 
0 0 0 0 0 0 0 0 0 0 0 
0 0 0 0 0 0 0 0 0 0 0 
0 0 0 0 0 0 0 0 0 0 0 
0 0 0 0 0 0 0 0 0 0 0 
-0.0109711019892499 0 -0.008391663207960079 0.08464270041934664 0 -0.02375628697381505 0 0 -0.003882897420634184 0 0 
0 0 0 0 0 0 0 0 0 0 0 
0 0 0 0 0 0 0 0 0 0 0 
0 0 0 0 0 0 0 0 0 0 0 
0 0 -0.04289123325083297 -0.04236745415075292 -0.002417174866289657 -0.01513224961538005 -0.01433201676438643 -0.01022589793157763 0 4.420800865898241e-07 0 
0 0 0 0 0 0 0 0 0 0 0 
0 0 -0.00922561262039656 0 0.04449819181162749 -0.01424846364794506 -0.0189165689948088 0 0 0 0 
0 0 0 0 0 0 0 0 0 0 0 
0 0 0 0 0 0 0 0 0 0 0 
0 0 0 0 0 0 0 0 0 0 0 
0 0 0 0 0 0 0 0 0 0 0 
0 0 0 0 0 0 0 0 0 0 0 
0 0 0 0 0 0 0 0 0 0 0 
0 0 0 0 0 0 0 0 0 0 0 
0 0 0 0 0 0 0 0 0 0 0 
0 0 0 0 0 0 0 0 0 0 0 
0 0 0 0 0 0 0 0 0 0 0 
0 0 0 0 0 0 0 0 0 0 0 
0 -0.002463004759723051 -0.02007059015128547 -0.01037320919255583 0 0.04292788929398678 0 0 0 0 0 
0 0 0 0 0 0 0 0 0 0 0 
-0.05960055461696913 -0.003379454491598132 0 -9.373780006730312e-06 0.07348629806036534 0 0 0 0 0 0 
0 0 0 0 0 0 0 0 0 0 0 
0 0 0 0 0 0 0 0 0 0 0 
0 0 0 0 0 0 0 0 0 0 0 
0 0 0 0 0 0 0 0 0 0 0 
0 0 0 0 0 0 0 0 0 0 0 
-0.06571091512261469 0 0 0 -0.07095826394294748 0.1410970060033012 -0.005317445379106818 -0.01853426306827857 0 0 0 
-0.01248996056719516 0 -0.08320086199952208 0 -0.0355198310582359 -0.04225319817307317 0 -0.06610196403198285 0.2233802614769096 0 0 
0 0 0 0 0 0 0 0 0 0 0 
0 0 0.1703428626959316 0 0 -0.05868658033357801 -0.0003826548800782555 -0.04958615394030101 -0.06203824772205526 0 0 
0 0 0 0 0 0 0 0 0 0 0 
0 0 0 0 0 0 0 0 0 0 0 
0.1978778673728812 0 0 -0.01890460873252345 -0.1753836830367792 0 0 -0.008168447792050297 -0.004910153082719672 0 0 
0.1394462201890087 0 -0.004820287310673283 -0.08770653792943123 -0.03306459605931435 0 0 0 -0.01433501104152221 0 0 
0 0 0 0 0 0 0 0 0 0 0 
0 0 0 0 0 0 0 0 0 0 0 
0 0 0 0 0 0 0 0 0 0 0 
0 0 0 0 0 0 0 0 0 0 0 
0 0 0 0 0 0 0 0 0 0 0 
0 0 0 0 0 0 0 0 0 0 0 
0 0 0 0 0 0 0 0 0 0 0 
-0.00160220325567986 -0.006195295203648352 -0.002635073654172435 0 -0.01370008090262187 -0.01372510211517053 -0.009073474183990094 -0.002650809740014504 0.1026567701900736 0 0 
0 0 0 0 0 0 0 0 0 0 0 
-0.02335704730527693 0 -0.008429370448010291 0.1001506245267721 -0.02048977008567918 0 0 -0.006156592236142027 -0.0352135024919487 0 0 
-0.05284405337912441 0 0.1699550048311969 -0.03562004358817451 0 -0.004685090221478097 -0.001088478927162388 -0.009956570831244434 -0.04146170799083902 0 0 
0 0 0 0 0 0 0 0 0 0 0 
0 0 0 0 0 0 0 0 0 0 0 
0 0 0 0 0 0 0 0 0 0 0 
0 0 -0.0002105771135608766 0 0 0.001349965502438783 0 -0.002787447274855725 -0.006906961019250477 0 0 
-0.02151902143699867 0 -0.02177138520982994 0.06665841609835373 -0.02312484188694579 0 -0.01343675552187935 -0.02468774259936238 -0.04223828558591416 3.716099441225976e-07 -0.003692776764486374 
0 0 0 0 0 0 0 0 0 0 0 
0 0 0 0 0 0 0 0 0 0 0 
-0.00918626175770337 -0.0001551287806947335 0 -0.02131334015869372 0.08222439210808882 -0.00893763082535068 0 0 -0.004071774270350477 0 0 
0 0 0 0 0 0 0 0 0 0 0 
0 0 0 0 0 0 0 0 0 0 0 
0 0 -0.008130446942939559 0.1529008477742312 -0.02966861809340179 -0.09995212571119529 0 0 -0.03235777547570116 0 0 
-0.02822251586856058 0 -0.001709014747971056 0.142803379974391 -0.08391079131683914 0 -0.005618561343005857 -0.004579100002484806 -0.01500565355913903 0 0 
0 0 0 0 0 0 0 0 0 0 0 
0 -0.01805099500337445 -0.01580579168170649 -0.002388086037257654 -0.02804568092512741 0.03731161046630413 -0.01319393507698759 0 0 0 0 
0 0 0 0 0 0 0 0 0 0 0 
-0.09734601127011903 0 0.1110906101268069 -0.04225516029933442 0.07648737075188293 -0.01479284711445588 0 -0.009671210199604399 -0.007437627391347061 0 0 
0 0 0 0 0 0 0 0 0 0 0 
0 0 0 0 0 0 0 0 0 0 0 
0 0 -0.07618619519596817 0 -0.02026846110294144 -0.02649777129665315 0 0.1833577857202344 -0.02975162920829211 0 0 
0 0 0 0 0 0 0 0 0 0 0 
0 0 0 0 0 0 0 0 0 0 0 
-0.05467485958668054 0 0 -0.01866226236573496 0.09299881756156356 0 -0.02774385897743719 0 0 0 0 
0 0 0 0 0 0 0 0 0 0 0 
0 0 0 0 0 0 0 0 0 0 0 
-0.05862437198707748 -0.002996475527668709 0 0 0.07280194149042793 0 0 0 0 0 0 
0 0 0 0 0 0 0 0 0 0 0 
0 0 0 0 0 0 0 0 0 0 0 
-0.09103769019231264 0 0 0 0.2481305056228309 -0.009229469444015155 -0.01192167263544692 0 -0.1164921587906557 0 0 
0 0 0 0 0 0 0 0 0 0 0 
-0.1146780861589397 -0.003125109090021871 -0.01277212889604386 -0.0001839460062037814 0.1776797601181662 -0.07414743769254277 8.673617379884035e-19 -0.007085092956993886 0 0 0 
0 0 0 0 0 0 0 0 0 0 0 
0.188108544020471 -0.007436464716167441 -0.03829391160438005 -0.04549078582319416 -0.1219878138113504 -0.05586514846422343 -0.004255397265135648 0.06553048146925979 -0.03826549991096098 0 0 
-0.01280285749256979 0 -0.01776619182015336 0 -0.0426821458203246 -0.04327631793381762 0 0.1235147460446909 -0.00740037078042809 0 0 
0 0 0 0 0 0 0 0 0 0 0 
-0.02469052149810793 -0.000516733440464866 0 -4.886854216843355e-05 0.07713693746079114 -0.009058699387257457 0 -0.002873684046874728 -0.00018446861447726 0 0 
0 0 0 0 0 0 0 0 0 0 0 
0 0 0 0 0 0 0 0 0 0 0 
0 0 0 -0.002767950568434709 -0.0149014058928211 0 0.07330175954433277 0 -0.04661443579213628 0 0 
-0.01270955716697148 0 -0.01405839791370819 0 0.08842817211449271 -0.02405449705030334 -0.01785599085764233 -0.006382765689452364 -0.003450739705521701 0 0 
0 0 0 0 0 0 0 0 0 0 0 
0 0 0 0 0 0 0 0 0 0 0 
0 0 0 0 0 0 0 0 0 0 0 
0 0 0 0 0 0 0 0 0 0 0 
0 0 0 0 0 0 0 0 0 0 0 
0 0 0 0 0 0 0 0 0 0 0 
0 0 0 -0.003396396156138428 -0.03115940174053095 -0.1157044827468609 0.0990705853172299 0 0 0 0 
0 0 0 0 0 0 0 0 0 0 0 
0 0 0 0 0 0 0 0 0 0 0 
0 0 0 0 0 0 0 0 0 0 0 
0 0 0 0 0 0 0 0 0 0 0 
