solver_type L2R_L2LOSS_SVC_DUAL
nr_class 11
label 10 8 2 3 4 6 7 11 1 5 9
nr_feature 73260
bias -1
w
0 0 0 0 0 0 0 0 0 0 0 
0 0 0 0 0 0 0 0 0 0 0 
0 0 0 0 0 0 0 0 0 0 0 
0 0 0 0 0 0 0 0 0 0 0 
0 0 0 0 0 0 0 0 0 0 0 
0 0 0 0 0 0 0 0 0 0 0 
0 0 0 0 0 0 0 0 0 0 0 
0 0 0 0 0 0 0 0 0 0 0 
0 0 0 0 0 0 0 0 0 0 0 
0 0 0 0 0 0 0 0 0 0 0 
0 0 0 0 0 0 0 0 0 0 0 
0 0 0 0 0 0 0 0 0 0 0 
0 0 0 0 0 0 0 0 0 0 0 
0 0 0 0 0 0 0 0 0 0 0 
0 0 0 0 0 0 0 0 0 0 0 
0 0 0 0 0 0 0 0 0 0 0 
0 0 0 0 0 0 0 0 0 0 0 
0 0 0 0 0 0 0 0 0 0 0 
0 0 0 0 0 0 0 0 0 0 0 
0 0 0 0 0 0 0 0 0 0 0 
0 0 0 0 0 0 0 0 0 0 0 
0 0 0 0 0 0 0 0 0 0 0 
0 0 0 0 0 0 0 0 0 0 0 
0 0 0 0 0 0 0 0 0 0 0 
0 0 0 0 0 0 0 0 0 0 0 
0 0 0 0 0 0 0 0 0 0 0 
0 0 0 0 0 0 0 0 0 0 0 
0 0 0 0 0 0 0 0 0 0 0 
0 0 0 0 0 0 0 0 0 0 0 
0 0 0 0 0 0 0 0 0 0 0 
0 0 0 0 0 0 0 0 0 0 0 
0 0 0 0 0 0 0 0 0 0 0 
0 0 0 0 0 0 0 0 0 0 0 
0 0 0 0 0 0 0 0 0 0 0 
0 0 0 0 0 0 0 0 0 0 0 
0 0 0 0 0 0 0 0 0 0 0 
0 0 0 0 0 0 0 0 0 0 0 
0 0 0 0 0 0 0 0 0 0 0 
0 0 0 0 0 0 0 0 0 0 0 
0 0 0 0 0 0 0 0 0 0 0 
0 0 0 0 0 0 0 0 0 0 0 
0 0 0 0 0 0 0 0 0 0 0 
0 0 0 0 0 0 0 0 0 0 0 
0 0 0 0 0 0 0 0 0 0 0 
0 0 0 0 0 0 0 0 0 0 0 
0 0 0 0 0 0 0 0 0 0 0 
0 0 0 0 0 0 0 0 0 0 0 
0 0 0 0 0 0 0 0 0 0 0 
0 0 0 0 0 0 0 0 0 0 0 
0 0 0 0 0 0 0 0 0 0 0 
0 0 0 0 0 0 0 0 0 0 0 
0 0 0 0 0 0 0 0 0 0 0 
0 0 0 0 0 0 0 0 0 0 0 
0 0 0 0 0 0 0 0 0 0 0 
0 0 0 0 0 0 0 0 0 0 0 
0 0 0 0 0 0 0 0 0 0 0 
0 0 0 0 0 0 0 0 0 0 0 
0 0 0 0 0 0 0 0 0 0 0 
0 0 0 0 0 0 0 0 0 0 0 
0 0 0 0 0 0 0 0 0 0 0 
0 0 0 0 0 0 0 0 0 0 0 
0 0 0 0 0 0 0 0 0 0 0 
0 0 0 0 0 0 0 0 0 0 0 
0 0 0 0 0 0 0 0 0 0 0 
0 0 0 0 0 0 0 0 0 0 0 
0 0 0 0 0 0 0 0 0 0 0 
0 0 0 0 0 0 0 0 0 0 0 
0 0 0 0 0 0 0 0 0 0 0 
0 0 0 0 0 0 0 0 0 0 0 
0 0 0 0 0 0 0 0 0 0 0 
0 0 0 0 0 0 0 0 0 0 0 
0 0 0 0 0 0 0 0 0 0 0 
0 0 0 0 0 0 0 0 0 0 0 
0 0 0 0 0 0 0 0 0 0 0 
0 0 0 0 0 0 0 0 0 0 0 
0 0 0 0 0 0 0 0 0 0 0 
0 0 0 0 0 0 0 0 0 0 0 
0 0 0 0 0 0 0 0 0 0 0 
0 0 0 0 0 0 0 0 0 0 0 
0 0 0 0 0 0 0 0 0 0 0 
0 0 0 0 0 0 0 0 0 0 0 
0 0 0 0 0 0 0 0 0 0 0 
0 0 0 0 0 0 0 0 0 0 0 
0 0 0 0 0 0 0 0 0 0 0 
0 0 0 0 0 0 0 0 0 0 0 
0 0 0 0 0 0 0 0 0 0 0 
0 0 0 0 0 0 0 0 0 0 0 
0 0 0 0 0 0 0 0 0 0 0 
0 0 0 0 0 0 0 0 0 0 0 
0 0 0 0 0 0 0 0 0 0 0 
0 0 0 0 0 0 0 0 0 0 0 
0 0 0 0 0 0 0 0 0 0 0 
0 0 0 0 0 0 0 0 0 0 0 
0 0 0 0 0 0 0 0 0 0 0 
0 0 0 0 0 0 0 0 0 0 0 
0 0 0 0 0 0 0 0 0 0 0 
0 0 0 0 0 0 0 0 0 0 0 
0 0 0 0 0 0 0 0 0 0 0 
0 0 0 0 0 0 0 0 0 0 0 
0 0 0 0 0 0 0 0 0 0 0 
0 0 0 0 0 0 0 0 0 0 0 
0 0 0 0 0 0 0 0 0 0 0 
0 0 0 0 0 0 0 0 0 0 0 
0 0 0 0 0 0 0 0 0 0 0 
0 0 0 0 0 0 0 0 0 0 0 
0.00238289642066969 0 -0.002305405685077105 0 0 0 0 0 0 -0.001222716126323276 0 
0 0 0 0 0 0 0 0 0 0 0 
0 0 0 0 0 0 0 0 0 0 0 
0 0 0 0 0 0 0 0 0 0 0 
0 0 0 0 0 0 0 0 0 0 0 
0.001307835377356537 0 0 -0.0003131199661715298 0 -5.193048952382856e-06 0 -2.710505431213761e-20 0 0 0 
0 0 0 -0.0003199872363265392 0 0.0001823287014472369 0 -0.0001909877807597944 -0.0003450550001858027 0 0 
0 0 0 0 0 0 0 0 0 0 0 
0 0 0 0 0 0 0 0 0 0 0 
0 0 0 0 0 0 0 0 0 0 0 
0 0 0 0 0 0 0 0 0 0 0 
-0.0001107385901568192 8.310529967120522e-05 0 0 0 0 0 -9.045374489279682e-06 0 0 0 
-0.003172937491187517 0 0 0 0 0 0 0 -9.860223646915937e-05 0 0 
0 0 0 0 0 0 0 0 0 0 0 
0 0 0 -0.0004094759863224749 0.001038036791909343 -0.0008973145786877687 -4.132784038317427e-05 -0.0001076775975645943 0 0 0 
0 0 0 0 0 0 0 0 0 0 0 
0 0 0 0 0 0 0 0 0 0 0 
0 0 0 0 0 0 0 0 0 0 0 
0 0 0 0 0 0 0 0 0 0 0 
0.0006833874493812065 0 0 0 0 0 0 -0.003598669626771995 0 0 0 
0 0 0 0 0 0 0 0 0 0 0 
0 0 0 0 0 0 0 0 0 0 0 
0 0 -0.0007223953591310326 0 0 0 0 0 0 -6.776263578034403e-21 0 
0 0 0 0 0 0 0 0 0 0 0 
0 0 0 0 0 0 0 0 0 0 0 
0 0 0 0 0 0 0 0 0 0 0 
0 0 0 0 0 0 0 0.001009377187486389 0 0 0 
0.00210020082842194 -0.0003546536482481517 0 0 0 -0.0003909135107985653 0 0 0 0 0 
0 0 0 0 0 0 0 0 0 0 0 
0 0 0 0 0 0 0 0 0 0 0 
0 0 0 0 0 0 0 0 0 0 0 
0 0 0 0 0 0 0 0 0 0 0 
0 0 0 0 0 0 0 0 0 0 0 
0 0 0 0 0 0 0 0 0 0 0 
0 0 0 0 0 0 0 0 0 0 0 
0 0 0 0 0 0 0 0 0 0 0 
0 0 0 0 0 0 0 0 0 0 0 
0 0 0 0 0 0 0 0 0 0 0 
0 0 0 0 0 0 0 0 0 0 0 
0 0 0 0 0 0 0 0 0 0 0 
0 0 0 0 0 0 0 0 0 0 0 
0 0 0 0 0 0 0 0 0 0 0 
0 0 0 0 0 0 0 0 0 0 0 
0 0 0 0 0 0 0 0 0 0 0 
0 0 0 0 0 0.000977070229885243 0 -0.001196551460502823 0 0 -7.154443965061831e-05 
0 0 0 0 0 0 0 0 0 0 0 
0 0 0 0 0 0 0 0 0 0 0 
-0.002042259821949303 0.0003202922075746704 -0.0003517123741736076 0 -3.55865399615807e-05 -0.0003525579722763528 0 -0.0005765346514139658 0 0 0.0008460206326840373 
0 0 0 0 0 0 0 0 0 0 0 
0.0044370269128194 0 -0.0008408489896986439 0 0 0 0 0 0 0 0 
0 0 0 0 0 0 0 0 0 0 0 
0 0 0 0 0 0 0 0 0 0 0 
0 0 0 0 0 0 0 0 0 0 0 
0 0 0 0 0 0 0 0 0 0 0 
0 0 0 0 0 0 0 0 0 0 0 
0 0 0 0 0 0 0 0.0004814109145425496 0 0 0 
0 0 0 0 0 0 0 0 0 0 0 
-0.008119076938307955 -3.41070001457354e-05 0.006118115084699396 -0.0001976568073231037 0.0003873145696743768 -0.0003860426208255545 -0.0005988120459092242 0.0001997505652438342 -3.556220733565827e-05 0 0 
0 0 0 0 0 0 0 0 0 0 0 
0 0 0 0 0 0 0 0 0 0 0 
0 0 0 0 0 0 0 0 0 0 0 
0 0 0 0 0 0 0 0 0 0 0 
0 0 0 0 0 0 0 0 0 0 0 
0 0 0 0 0 0 0 0 0 0 0 
0 0 0 0 0 0 0 0 0 0 0 
0 0 0 0 0 0 0 0 0 0 0 
0 0 0 0 0 0 0 0 0 0 0 
0 0 0 0 0 0 0 0 0 0 0 
0 0 0 -4.926285920233939e-08 0.002467263626535298 -0.0009715376815604994 0 -0.001340697425418495 0 0 -3.686623385780164e-05 
0 0 0 0 0 0 0 0 0 0 0 
0 0 0 0 0 0 0 0 0 0 0 
0 0 0 0 0 0 0 0 0 0 0 
0 0 0 0 0 0 0 0 0 0 0 
0 0 0 0 0 0 0 0 0 0 0 
0 0 0 0 0 0 0 0 0 0 0 
0 0 0 0 0 0 0 0 0 0 0 
0 0 0 0 0 0 0 0 0 0 0 
0 0 -0.001473625681615467 0 0 0 0 0 0 0 0 
0 0 0 0 0 0 0 0 0 0 0 
0 0 0 0 0 0 0 0 0 0 0 
0 0 0 0 0 0 0 0 0 0 0 
0 0 0 0 -0.0004222739444442815 0 0 0 0 0.001538798395487124 0 
0 -0.0001415463706749734 0 0 0 0 -0.0001977830745390896 0 0 0 0 
-0.001528421424925822 0 0 0 0 0 0 0.0001981700495244847 -0.0007850005870582995 0 0 
0 0 0 0 0 0 0 0 0 0 0 
0 0 0 0 0 0 0 0 0 0 0 
0 0 0 0 0 0 0 0 0 0 0 
0.0009669172837686649 -0.0001536598609955475 0 0 0 0 0 -0.0001205729137052061 -0.0006636359529935043 -0.0003550333493147571 -3.089712242284213e-05 
0 0 0 0 0 0 0 0 0 0 0 
0 0 0 0 0 0 0 0 0 0 0 
0 0 0 0 0 0 0 0 0 0 0 
0 0 0 0 0 0 0 0 0 0 0 
0 -0.001215228472395643 0.005628086617836024 0 0 0 0 0 0 0 0 
0 0 -0.003450413046453465 0 0 0 0 0 0 0 0 
0 0 0 0 0 0 0 0 0 0 0 
0 0 0 0 0 0 0 0 0 0 0 
-0.002059991457847407 0 0 0 0 0 0 0 0 0.0007965676193501005 0 
0 0 0 0 0 0 0 0 0 0 0 
0 0 0 0 0 0 0 0 0 0 0 
0 0 0 0 0 0 0 0 0 0 0 
0 0 0 0 0 0 0 0 0 0 0 
-0.005080762502077032 0 0 -0.0003233260315877849 0.006575250402816291 0 -0.0001216499548834986 0 0 -0.003899160874927032 0 
0 0 0 0 0 0.0001691168504721958 0 0 -0.0002260143924655509 0 0 
0 0 0 0 0 0 0 0 0 0 0 
0 0 0 0 0 0 0 0 0 0 0 
0 0 0 0 0 0 0 0 0 0 0 
0 0 0 0 0 0 0 0 0 0 0 
0 0 0 0 0 0 0 0 0 0 0 
0 0 0 0 0 0 0 0 0 0 0 
0 0 0 0 0 0 0 0 0 0 0 
0 0 0 0 0 0 0 0 0 0 0 
0 0 0 0 0 0 0 0 0 0 0 
0 0 0 0 0 0 0 0 0 0 0 
0 0 0 0 0 0 0 0 0 0 0 
0 0 0 -2.703472853847308e-05 0.001642613170206847 -0.0002699907096172699 0 0 0 0 0 
0.006204263854129669 0 0 0 -0.001100507624737127 0 0 0 0 0 0 
0 0 0 0 0 0 0 0 0 0 0 
-0.003085134277444413 0.008077687964966208 0 0 -0.0007799685428782533 0 -0.0001920702695878323 -0.0008312683776360604 -0.0006098639684244687 -7.106927526137289e-05 0 
0 0 0 0 0 0 0 0 0 0 0 
0 0 0 0 0 0 0 0 0 0 0 
0.002080967104625896 -0.0003995560151692363 0 0 0 0.0001554143447962469 -0.0001280221298406646 0 -9.336430117158089e-05 -4.53318409371207e-05 -1.014093492862925e-05 
0 0 -0.002221446478267278 0 0 -0.0005741564768508957 0 0.006960876960062815 0 0 -0.0003881095941299334 
0 0 0 -0.0004251944680598915 0 0 0 0 0 0 0 
0.001393370258222357 0 -0.0005022866503639014 0 0 0 0 0 0 0 0 
0 0 0 0 0 0 0 0 0 0 0 
0 0 0 0 0 0 0 0 0 0 0 
0 0 0 0 0 0 0 0 0 0 0 
0 0 0 0 0 0 0 0 0 0 0 
0 0 0 0 0 0 0 0 0 0 0 
0 0 0 0 0 0 0 0 0 0 0 
0 0 0 0 0 0 0 0 0 0 0 
0 0 0 0 0 0 0 0 0 0 0 
0 0 0 0 0 0 0 0 0 0 0 
0 0 0 0 0 0 0 0 0 0 0 
0 -0.000825233207154338 0 0 0 0 0 0 0 0 0 
0 0 0 0 0 0 0 0 0 0 0 
0 0 0 0 0 0 0 0 0 0 0 
0 0 0 0 0 0 0 0 0 0 0 
0 0 0 0 -4.344607690357188e-05 0 0 -0.0008049338204337185 0 0 0 
0 0 0 0 0 0 0 0 0 0 0 
0 0 0 0 0 0 0 0 0 0 0 
0 0 0 0 0 0 0 0 0 0 0 
0 0 0 0 0 0 0 0 0 0 0 
0 0 0 0 0 0 0 0 0 0 0 
0 0 0 0 0 0 0 0 0 0 0 
0 0 0 0 0 0 0 -0.0004002577119808627 0 0 0 
0 0 0 0 0 0 0 0 0 0 0 
0 0 0 0 0 0 0 0 0 0 0 
0 0 0 0 0 0 0 0 0 0 0 
0 0 0 0 0 0 0 0 0 0 0 
0 0 0 0 0 0 0 0 0 0 0 
0 0 0 0 0 0 0 0 0 0 0 
0 0 0 0 0 0 0 0 0 0 0 
0.001656850492195313 -0.0002315479422002776 0 0 0 0 0 -0.001280088914152021 0 0 -0.0002187305919821159 
0.006808681944893546 -0.004429193167449825 0 0 0 0 0 0 0 0 0 
0 0 0 0 0 0 0 0 0 0 0 
0 0 0 0 0 0 0 0 0 0 0 
0 0 0 0 0 0 0 0 0 0 0 
0 0 0 0 0 0 0 0 0 0 0 
0 0 0 0 0 0 0 0 0 0 0 
-0.003813666789514014 -0.0004253403689799143 0 0 0 0.002514863363371938 0 0 0 0 0 
0 0 0 0 0 0 0 0 0 0 0 
0 0 0 0 0 0 0 0 0 0 0 
0 0 0 0 0 0 0 0 0 0 0 
0 0 0 0 0 0 0 0 0 0 0 
0 0 0 0 0 0 0 0 0 0 0 
0 0 0 0 0 0 0 0 0 0 0 
0 0 0 0 0 0 0 0 0 0 0 
0 0 0 0 0 0 0 0 0 0 0 
0 0 0 0 0 0 0 0 0 0 0 
0 0 0 0 0 0 0 0 0 0 0 
0 0 0 0 0 0 0 0 0 0 0 
0 0 0 0 0 0 0 0 0 0 0 
0 0 0 0 0 0 0 0 0 0 0 
0 0 0 0 0 0 0 0 0 0 0 
0.0007009305012029831 0 0 0 0 0 0 0 0 0 0 
0 0 0 0 0 0 0 0 0 0 0 
0 0 0 0 0 0 0 0 0 0 0 
0.03675058995029454 -0.0003863972977576258 0.01169602724013356 0 -0.03855621790088977 0 -0.0003487886216092084 0.0010040253957581 0 0 0 
0 0 0 0 0 0 0 0 0 0 0 
0 0 0 0 0 0 0 0 0 0 0 
0 0 0 0 0 0 0 0 0 0 0 
-0.0005054862970333109 0 0 0 0 0.0001030360256027817 -1.536608905774294e-06 0 0 0 0 
0.001344449698289751 0 0 -0.0001298102289975896 0 -0.0002488170735577639 0 0 -0.0003742765035756595 0 0 
0 0 0 0 0 0 0 0 0 0 0 
0 0 0 0 0.0005967149304930717 -4.975806813839122e-05 0 -8.975349730573558e-05 -0.0005945276378506553 -1.179309169122506e-05 0 
0 0 0 0 0 0 0 0 0 0 0 
0 0 0 0 0 0.0006596461057556452 0 -0.0005605184683175384 -0.0001292281535057824 0 0 
0 0 0 0 0 0 0 0 0 0 0 
0 0 0 0 0 0 0 0 0 0 0 
0 0 0 0 0 0 0 0 0 0 0 
0 0 0 0 0 0 0 0 0 0 0 
0 0 0 0 0 0 0 0 0 0 0 
0 0 0 0 0 0 0 0 0 0 0 
0 0 0 0 0 0 0 0 0 0 0 
0 0 0 0 0 0 0 0 0 0 0 
0 0 0 0 0 0 0 0 0 0 0 
0 0 0 0 0 0 0 0 0 0 0 
0 0 0 0 0 0 0 0 0 0 0 
0 0 0 0 0 0 0 0 0 -0.0001633745610656375 0 
0 0 0 0 0 0 0 0 0 0 0 
0.001047027944065096 -0.001107834454766353 -0.001592297038262053 -0.0002850518671831502 -0.001151536613982557 -7.979222822416202e-05 -0.0003717123925744186 0 -0.0005091507212242868 0 -0.0001877887962296677 
0 0 0 0 0 0 0 0 0 0 0 
0 0 0 0 0 0 0 0 0 0 0 
0 0 0 0 0 0 0 0 0 0 0 
0 -0.0004840887311907992 0 0 0 0.0001233041746719316 0 0 -0.0008465944907853311 0 -0.0001008040547273499 
0 0 0 0 0 0 0 0 0 0 0 
0 0 0 0 0 0 0 0 0 0 0 
0 0 0 0 0 0 0 0 0 0 0 
0 0 0 0 0 0 0 0 0 0 0 
0 0 0 0 0 0 0 0 0 0 0 
0 0 0 0 0 0 0 0 0 0 0 
0 0 0 0 0 0 0 0 0 0 0 
0 0 0 0 0 0 0 -1.31452348692919e-05 -0.0001716662203072895 0 -3.221835179820113e-05 
0 0 0 0 0 0 0 0 0 0 0 
0 0 0 0 0 0 0 0 0 0 0 
0 0 0 0 0 0 0 0 0 0 0 
0 0 0 0 0 0 0 0 0 0 0 
0 0 0 0 0 0 0 0 0 0 0 
0 0 0 0 0 0 0 0 0 0 0 
0 0 0 0 0 0 0 0 0 0 0 
-0.001055580641050275 0 4.336808689942018e-19 -2.877186754612583e-06 0.00913397870212846 0 0 -0.0006034524156460914 0 0 0 
0 0 0 0 0 0 0 0 0 0 0 
0 0 0 0 -0.004124629659720692 0 0 0 0 -0.004638889528027472 0 
0 0 0 0 0 0 0 0 0 0 0 
0.0004278955004332556 0 -0.0008017733166187854 0 0 0 0 -0.0001026036308113803 0 0 0 
0 0 0 0 0 0 0 -0.002534023517504502 0 0 0 
0 0 -0.003433971183004963 0 -2.438475122565213e-06 0 0 0 0 0.002028948634766133 0 
0 0 0 0 0 0 0 0 0 0 0 
0 0 0 0 0 0 0 0 0 0 0 
0 0 0 0 0 0 0 0 0 0 0 
0 0 0 0 0 0 0 0 0 0 0 
0 0 0 0 0 0 0 0 0 0 0 
0 0 0 0 0 0 0 0 0 0 0 
0 0 0 0 0 0 0 0 0 0 0 
0 0 0 0 0 0 0 0 0 0 0 
0 0 0 0 0 0 0 0 0 0 0 
0 0 0 0 0 0 0 0 0 0 0 
0 0 0 0 0 0 0 0 0 0 0 
0 0 0 0 0 0 0 0 0 0 0 
0 0 0 0 0 0 0 0 0 0 0 
0.0001537564398463058 0 0 -8.131516293641283e-20 0 4.065758146820642e-20 -0.003024035732458529 -0.001570994401475134 0 0 -0.0001005338298372267 
-0.002455851280604302 0 0 0 -0.0009712524188423579 0 0 0.003632174388517269 0 0 -0.0005631053644744461 
0.01945255840132945 0 -0.001596489144741188 -0.0003568766418286352 -0.01415932169010671 0 -0.0008800487517068554 -0.00114991111581413 0 0 -0.0003512516321497826 
0 0 0 0 0 0 0 0 0 0 0 
0 0 0 0 0 0 0 0 0 0 0 
0 0 0 0 0 0 0 0 0 0 0 
0 0 0 0 0 0 0 0 0 0 0 
0 0 -0.004471293561653341 0 0 0 -3.458762010806406e-05 0 0 0 -0.0006928875328166528 
0 -4.400396720946046e-05 -9.202001434820037e-05 -0.000180104637267709 -3.030283495591285e-05 -7.549417710460821e-05 -5.224304661091387e-05 -0.0002300575350190226 0.0003233679677035782 0 -3.786751730124452e-05 
0 0 0 0 0 0 0 0 0 0 0 
0 0 0 0 0 0 0 0 0 0 0 
0.002549909868762036 -2.82987197928445e-05 0 -0.0006691986441955812 0 -0.0002740083965354728 -5.791862215975065e-05 0 -0.001038369940470415 0 -0.0003638583710073244 
0 0 0 0 0 0 0 0 0 0 0 
0 0 0 0 0 0 0 0 0 0 0 
0 0 0 0 0 0 0 0 0 0 0 
0 0 0 0 0 0 0 0 0 0 0 
0 0 0 0 0 0 0 0 0 0 0 
0 0 0 -0.0002999064144314648 0 0 0 -0.0001265742588184476 -0.0004873400711849956 0 0 
0 0 0 0 0 0 0 0 0 0 0 
0 0 0 0 0 0 0 0 0 0 0 
-0.01776680446158935 0 0.01049706968257847 0 1.355252715606881e-20 0 0 6.776263578034403e-21 -0.0001069360350329198 -0.001325803817554367 0 
0.004091080801674524 -0.0002227467041739826 -0.005087577128853807 0 0 0 0 2.710505431213761e-20 0 0 5.421010862427522e-20 
0.01012227483762877 1.355252715606881e-20 -0.009782463707373068 0 -2.710505431213761e-20 -0.0003733917093589676 0 0 -0.0005742942699669261 9.486769009248164e-20 0 
0 0 0 0 0 0 0 0 0 0 0 
0 0 0 0 0 0 0 0 0 0 0 
0.0007899419370271395 0 0 0 0 0 0 0 0 0 0 
0 0 0 0 0 0 0 0 0 0 0 
0 0 0 0 0 0 0 0 0 0 0 
0 0 0 0 0 0 0 0 0 0 0 
0 0 0 0 0 0 0 0 0 0 0 
0 0 0 0 0 0 0 0 0 0 0 
0 0 0 0 0 0 0 0 0 0 0 
0 0 0 0 0 0 0 0 0 0 0 
0 0 0 0 0 0 0 0 0 0 0 
0 0 0 0 0 0 0 0 0 0 0 
0 0 0 0 0 0 0 0 0 0 0 
0 0 0 0 0 0 0 0 0 0 0 
0 0 0 0 0 0 0 0 0 0 0 
0 0 0 -0.000620271355724939 0 0 -0.0007717216794950618 0.001093456346826013 0 0 -0.0001046787405086435 
0 0 0 0 0 0 0 0 0 0 0 
0 0 0 0 0 0 0 0 0 0 0 
0 0 0 0 0 0 0 0 0 0 0 
0 0 0 0 0 0 0 0 0 0 0 
0 0 0 0 0 0 0 0 0 0 0 
0 0 0 0 0 0 0 0 0 0 0 
0 0 0 0 0 0 0 0 0 0 0 
0 0 0 0 0 0 0 0 0 0 0 
0 0 -0.0001447569501461178 -7.8138985517362e-05 -0.0005540456676144282 -8.99879171768493e-05 0 -0.0009036206469108667 0 0.001033994796771551 0 
0 0 0 0 0 0 0 0 0 0 0 
0.001048558237588546 0 -0.000405543019365868 -0.0003353065695792479 -9.693865258552633e-05 -0.0001671651755641565 -3.388131789017201e-21 -0.0002840329763176946 0 -0.0001118123412849336 0 
0 0 0 0 0 0 0 0 0 0 0 
0 0 0 0 0 0 0 0 0 0 0 
0 0 0 0 0 0 0 0 0 0 0 
-0.002093753624996322 -0.001280270923043712 0 -0.0007506740782379555 0 -0.001252562539931851 0 0.009868226061353047 0 0 -0.002694829363412853 
0 0 0 0 0 0 0 0 0 0 0 
0 0 0 0 0 0 0 0 0 0 0 
0 0 0 0 0 0 0 0 0 0 0 
0 0 0 0 0 0 0 0 0 0 0 
0 0 0 0 0 0 0 0 0 0 0 
0 0 0 0 0 0 0 0 0 0 0 
0 0 0 0 0 0 0 0 0 0 0 
0 0 0 0 0 0 0 -0.001663399330281212 0 0 0 
0 0 0 0 0 0 0 0 0 0 0 
0 0 0 0 0 0 0 0 0 0 0 
0 0 0 0 0 0 0 0 0 0 0 
0 0 0 0 0 0 0 0 0 0 0 
0 0 0 0 0 0 0 0 0 0 0 
0 0 0 0 0 0 0 0 0 0 0 
0 0 0 0 0 0 0 0 0 0 0 
0 0 0 0 0 0 0 0 0 0 0 
0 0 0 0 0 0 0 0 0 0 0 
0 0 0 0 0 0 0 0 0 0 0 
0 0 0 0 0 0 0 0 0 0 0 
0 0 0 0 0 0 0 0 0 0 0 
0 0 0 0 0 0 0 0 0 0 0 
0.004453940485165879 -0.0007733386575011682 -1.084202172485504e-19 -0.001695608239521112 5.421010862427522e-20 0 -0.0001206890438235527 -0.007031085176378988 0.0008773984348792274 -0.0007732775708876474 -0.0006362412149544951 
0 0 0 0 0 -0.0002708396348851229 0 0 0 -5.045084899378468e-05 0 
0 0 0 0 0 0 0 0 0 0 0 
0 0 0 0 0 0 0 0 0 0 0 
0 0 0 0 0 0 0 0 0 0 0 
0 0 0 0 0 0 0 0 0 0 0 
0 0 0 0 0 0 0 0 0 0 0 
0 0 0 0 0 0 0 0 0 0 0 
0 0 0 0 0 0 0 0 0 0 0 
0 0 0 0 0 0 0 0 0 0 0 
0 0 0 0 0 0 0 0 0 0 0 
0 0 0 0 0 0 0 0 0 0 0 
0 0 0 0 0 0 0 0 0 0 0 
-0.0005001477180212719 -1.924219567393154e-05 0 -8.059004084402138e-07 -0.0003706509983853582 0 0.0005453728756576516 0 0 0 0 
0 0 0 0 0 0 0 0 0 0 0 
0 0 0 0 0 0 0 0 0 0 0 
0 0 0 0 0 0 0 0 0 0 0 
0 0 0 0 0 0 0 0 0 0 0 
0 0 0 0 0 0 0 0 0 0 0 
0.001990318545263186 0 -0.00164572147055251 -0.0004165716755868839 -7.465281862215863e-05 0 0 -0.00020319655167051 0 -2.006422656990866e-05 0 
0 0 0 0 0 0 0 0 0 0 0 
0 0 0 0 0 0 0 0 0 0 0 
0.0001227911518568679 -0.0006324439672541234 0 0 0 0 0 0 0 -0.0001190194586986535 0 
1.254600679295305e-05 0 0 0 -0.0001341074954905485 0 0 0 0 0 0 
0 0 0 0 0 0 0 0 0 0 0 
0 0.001767339936471022 0 0 0 0 0 -0.000828170821044182 0 -0.000378479169704562 0 
0 0 0 0 0 0 0 0 0 0 0 
0 0 0 0 0 0 0 0 0 0 0 
0 0 0 0 0 0 0 0 0 0 0 
0 0 0 0 0 0 0 0 0 0 0 
0 0 0 0 0 0 0 0 0 0 0 
0 0 0 0 0 0 0 0 0 0 0 
0 0 0 0 0 0 0 0 0 0 0 
0 0 -6.431394155747337e-05 0 -4.972205219626091e-05 -2.563263849833928e-05 -7.959437894102942e-05 0.0004395370945189388 0 -0.000168080592566123 0 
0 0 0 0 0 0 0 0 0 0 0 
0 0 0 0 0 0 0 0 0 0 0 
0 0 0 0 0 0 0 0 0 0 0 
0 0 0 0 0 0 0 0 0 0 0 
0 0 -0.0004472270045347817 -0.0001823591412649774 0 0 0 0.00120110692041323 0 -2.404797574165803e-05 -4.536859306033013e-05 
0 0 0 0 0 0 0 0 0 0 0 
0 0 0 0 0 0 0 0 0 0 0 
0 0 0 0 0 0 0 0 0 0 0 
0 0 0 0 0 0 0 0 0 0 0 
-0.003763517011016626 -0.000388591042782112 -0.002486782799082286 0 0 0 0.004909566053900393 0 0 0 0 
0 0 0 0 0 0 0 0 0 0 0 
-0.001203396461078229 0 0 0 0 0 -0.0003292964585591292 0.0005847816242706059 0 0 0 
0 0 0 0 0 0 0 0 0 0 0 
0 0 0 0 0 0 0 0 0 0 0 
0 0 0 0 0 -0.001365975640247548 -8.667992241925044e-05 0 0 0 0 
0 0 0.01108490876861564 0 -0.007721532746565053 -5.699067125993011e-06 0 -0.00512974595980925 0 0 0 
0 0.005096022366086176 0 -0.0001982168659461928 -0.007188439843385762 0 0 0 0 0 0 
0 0 0 0 0 0 0 0 0 0 0 
0 0 0 0 0 0 0 0 0 0 0 
0 0 0 0 0 0 0 0 0 0 0 
0 0 0 0 0 0 0 0 0 0 0 
0 0 0 0 0 0 0 0 0 0 0 
0 0 0 0 0 0 0 0 0 0 0 
0 0 0 0 0 0 0 0 0 0 0 
0 0 0 0 0 0 0 0 0 0 0 
0 0 0 0 0 0 0 0 0 0 0 
-0.001641530428053888 0 0 -5.837797719021801e-05 0 0 0 0.002514089484259957 0 0 0 
0 0 0 0 0 0 0 0 0 -0.0007641998948216761 -0.0005299719342386697 
0 0 0 0 0 0 0 0 0 0 0 
0 0 0 0 0 0 0 0 0 0 0 
0 0 0 0 0 0 0 0 0 0 0 
0 0 0 0 0 0 0 0 0 0 0 
0.002074735754871512 0 -0.0007069925317772755 -0.0002422496693361281 0 0 -7.01348944294156e-07 -0.0001665188460844047 0 0 0 
0 0.00215714814400078 -0.007448929531630667 0 0 0 0 0 0 0 0 
0 0 0 0 0 0 0 0 0 0 0 
0 0 0.005205069293349015 0 -0.0008836018333550324 -0.0002749013130963011 0 -0.001201281823981083 0 0 0 
0 0 0 0 0 0 0 0 0 0 0 
0 0 0 0 0 0 0 0 0 0 -1.061329173659436e-05 
0 0 0 -0.001360262966234523 0 0 0 0.003421292172198072 0 -0.002346562054496522 0 
0 0 0 0 0 0 0 0 0 0 0 
0 0 0 0 0 0 0 0 0 0 0 
0 0 0 0 0 0 0 0 0 0 0 
0 0 0 0 0 0 0 0 0 0 0 
0 0 0 0 0 0 0 0 0 0 0 
0 0 0 0 0 0 0 0 0 0 0 
0 0 0 0 0 0 0 0 0 0 0 
0 0 0 0 0 0 0 0 0 0 0 
0 0 0 0 0 0 0 0 0 0 0 
-0.0008969099692199788 0 -0.0006916031341090215 0 0 0 0 0.00110575626994258 0 0 0 
-0.001544092089497924 0 0 0 0 -0.001281958563247899 -0.0004603924420663664 -0.002337761782682846 0 0.007030329847711295 0 
0 0 0 0 0 0 0 0 0 0 0 
0 0 0 0 0 0 0 0 0 0 0 
0 0 0 0 0 0 0 0 0 0 0 
0 0 0 0 0 0 0 0 0 0 0 
0 0 0 0 0 0 0 0 0 0 0 
0 0 0 0 0 0 0 0 0 0 0 
-0.0005456871166381195 0 -0.0001131355177325992 0 -0.0009113832877995691 0 0 0.0005146359155478405 0 0 0 
0 0 0 0 0 0 0 0 0 0 0 
5.421010862427522e-20 0 -0.0004054898448421744 0 0 0 0 0 0 -0.00010810913653031 0 
0.001785329011562657 0 9.167659495297756e-05 -0.0004696408828685882 -0.001818816718223054 -0.0006504469033531124 0 0 0 0 0 
0 0 -0.0002237874714886808 0 0.003079070062230619 -0.002462341980133491 0 0 0 0 0 
0 0 -0.002302899207806562 0 0 0 0 0 0 0 0 
0 0 0 0 0 0 0 0 0 0 0 
0 0 0 0 0 0 0 0 0 0 0 
0 0 0 0 0 0 0 0 0 0 0 
0.004028921066336007 0 0 0 0 0 0 -5.764796451054506e-07 -0.0001679200428548869 0 0 
0 0 0 0 0 0 0 0 0 0 0 
4.065758146820642e-20 0 0 0 0 0 0 0 -0.0002737762150567879 -0.000130982192620168 0 
0 0 0 0 0 0 0 0 0 0 0 
0 0 0 0 0 0 0 0 0 0 0 
0 0 0 0 0 0 0 0 0 0 0 
0 0 0 0 0 0 0 0 0 0 0 
0 0 0 0 0 0 0 0 0 0 0 
-6.505213034913027e-19 -5.421010862427522e-20 0 0 -0.0002047374048023154 0 0 -0.000942316858774907 0 0 0 
0 0 0 0 0 0 0 0 0 0 0 
0 0 0 0 0 0 0 0 0 0 0 
0 0 0 0 0 0 0 0 0 0 0 
0 0 0 0 0.001411671953476763 -0.0001053716633875858 0 0 0 0 0 
0 0 0 0 0 0 0 0 0 0 0 
0 0 0 0 0 0 0 0 0 0 0 
0 0 0 0 0 0 0 0 0 0 0 
0 0 0 0 0 0 0 0 0 0 0 
-9.304356249819551e-05 0 0 0 -0.0005244026061499915 -3.170408536668473e-06 0 0.000303094033301929 0 0 -4.76968665986072e-06 
0.002318402401648018 -0.001419876986595776 0 -0.0005950039731845076 0 0 0 0 0 0 0 
0 0 0 0 0 0 0 0 0 0 0 
0 0 0 0 0 0 0 0 0 0 0 
0 0 0 0 0 0 0 0 0 0 0 
0 0 -0.0004814368027925845 0 0 0 0 0 0 0 0 
0 0 0 0 0 0 0 0 0 0 0 
0 0 0 0 0 0 0 0 0 0 0 
0 0 0 0 0 0 0 0 0 0 0 
0 0 0 0 0 0 0 0 0 0 0 
0.001473189851344164 -0.0002496995509089832 0 -0.001057046579677561 0 0 0 -0.0006497594182460786 -0.0001110160873969184 -1.355252715606881e-20 0 
0 0 0 0 0 0 0 0 0 0 0 
0 0 0 0 0 0 0 0 0 0 0 
0 0 0 0 0 0 0 -0.0003367855034700565 0 0 0 
0 0 0 0 0 0 0 0 0 0 0 
0 0 0 0 0 0 0 0 0 0 0 
0 0 0 0 0 0 0 0 0 0 0 
0 0 0 0 0 0 0 0 0 0 0 
0 0 0 0 0 0 0 0 0 0 0 
0 0 0 0 0 0 0 0 0 0 0 
0 0 0 0 0 0 0 0 0 0 0 
0 0 0 0 0 0 0 0 0 0 0 
0 0 0 0 0 0 0 0 0 0 0 
0 0 0 0 0 0 0 0 0 0 0 
0 0 0 0 0 0 0 0 0 0 0 
0 0 0 0 0 0 0 0 0 0 0 
0 0 0 0 0 0 0 0 0 0 0 
0 0 0 0 0 0 0 0 0 0 0 
0 0 0 0 0 0 0 0 0 0 0 
0 0 0 0 0 0 0 0 0 0 0 
0 0 0 0 0 0 0 0 0 0 0 
0 0 0 0 0 0 0 0 0 0 0 
0 0 0 0 0 0 0 0 0 0 0 
0 0 0 0 0 0 0 0 0 0 0 
0 0 0 0 0 0 0 0 0 0 0 
0 0 0 0 0 0 0 0 0 0 0 
0 0 0 0 0 0 0 0 0 0 0 
0 0 0 0 0 0 0 0 0 0 0 
0 0 0 0 0 0 0 0 0 0 0 
0 0 0 0 0 0 0 0 0 0 0 
0 0 0 0 0 0 0 0 0 0 0 
0 0 0 0 0 0 0 0 0 0 0 
0 0 0 0 0 0 0 0 0 0 0 
0 0 0 0 0 0 0 0 0 0 0 
0 0 0 0 0 0 0 0 0 0 0 
0 0 0 0 0 0 0 0 0 0 0 
0 0 0 0 0 0 0 0 0 0 0 
0.001290005834634137 0 0 0 0 0 0 -0.0005366117330866917 0 0 0 
-0.002023491291264553 0 0 -0.0004339276609077432 0 -3.332158683301766e-05 0 0.002006796856975062 -0.000399200154236314 0 0 
0 0 0 -0.0007667289161966121 0 0 0 0.002070232125342296 -0.0004937540082659732 -0.0007042913820909703 -0.0002646041501852116 
0 0 -7.608554001240449e-05 0.0002425835471165736 -0.0009050335392542644 0 -0.0002183434424430372 0 0 -0.00134466564984789 0 
0 0 0 0 0 0 0 -0.002652544261736742 0 0 0 
0 0 0 0 0.002108700600666026 0 0 -0.001095780884108505 0 0 0 
0 0 0 0 0 0 0 0 0 0 0 
0 0 0 0 0 0 0 0 0 0 0 
0 0 0 0 0 0 0 0 0 0 0 
0 0 0 0 0 0 0 0 0 0 0 
0 0 0 0 0 0 0 0 0 0 0 
0 0 -0.01250105822992006 0 0.00559851859754852 0 -8.017931395301875e-06 0 0 0 0 
0 0 0 0 0 0 0 0 0 0 0 
0 0 0 0 0 0 0 0 0 0 0 
0 0 0 0 0 0 0 0 0 0 0 
0 0 0.002064491370652896 0 -0.004287487407348964 0 0 0 0 0 0 
0 0 0 0 -0.0002240968826066243 0 -0.0005908097809879633 0.002415513546200925 0 0 0 
0 0 0 0 0 0 0 0 0 0 0 
0 0 0 0 0 0 0 0 0 0 0 
0 0 0 0 0 0 0 0 0 0 0 
0 0 0 0 0 0 0 0 0 0 0 
-0.004788926925983351 -0.0003370209094759941 0.01111050192644971 0 -0.002377529680509385 -0.0001789016328482186 -0.003561456258831206 -0.0003674454475399499 0.0004857347335197285 0 -9.805309276870704e-05 
0 0 0 0 0 0 0 0 0 0 0 
0 0 0 0 0 0 0 0 0 0 0 
0 0 0 0 0 0 0 0 0 0 0 
0 0 0 0 0 0 0 0 0 0 0 
0 0 0 0 0 0 0 0 0 0 0 
0 0 0 0 0 0 0 0 0 0 0 
0 0 0 0 0 0 0 0 0 0 0 
0 0 0 0 0 0 0 0 0 0 0 
0 0 0 0 0 0 0 0 0 0 0 
0 0 0 0 0 0 0 0 0 0 0 
0 0 0 0 0 0 0 0 0 0 0 
0 0 0 0 0 0 0 0 0 0 0 
0 0 0 0 0 0 0 0 0 0 0 
0 0 0 0 0 0 0 0 0 0 0 
0 0 0 0 0 0 0 0 0 0 0 
0 0 0 0 0 0 0 0 0 0 0 
0 0 0 0 0 0 0 0 0 0 0 
0 0 0 0 0 0 0 0 0 0 0 
0 0 0 0 0 0 0 0 0 0 0 
0 0 0 0 0 0 0 0 0 0 0 
0 0 0 0 0 0 0 0 0 0 0 
0 0 0 0 0 0 0 0 0 0 0 
0 0 0 0 0 0 0 0 0 0 0 
0 0 0 0 0 0 0 0 0 0 0 
0 0 0 0 0 0 0 0 0 0 0 
0 0 0 0 0 0 0 0 0 0 0 
0 0 0 0 0 0 0 0 0 0 0 
0 0 0 0 0 0 0 0 0 0 0 
0 -0.0005014377980981744 0.0001508997295596677 0 0 0 -0.0002262798495933671 -6.714658358090429e-05 0 0 0 
0 0 0 0 0 0 0 0 0 0 0 
0 0 0 0 0 0 0 0 0 0 0 
0 0 0 0 0 0 0 0 0 0 0 
0 0 0 0 0 0 0 0 0 0 0 
0.004071263523625597 0 -0.0005180450158590822 0.0009274951845810594 0 -0.00162169551543704 2.710505431213761e-20 -0.0006683515358476242 -0.0009974279684413906 -0.001352510062179602 0 
0 0 0 0 0 -1.789366145874712e-05 0 0 0 0 0 
1.694065894508601e-21 0 0 -0.0005740785779514322 0 0.0002481907578361911 0.001188532175250404 0 -2.710505431213761e-20 -0.0001852252003040557 0 
0 0 -0.0001263337050112442 -0.0001360560664410155 -1.208471343525757e-05 -6.358312914938637e-05 -7.288599541174873e-05 0.000619639810965943 0 0 0 
0 0 0 0 0 0 0 0 0 0 0 
0 0 0 0 0 0 0 0 0 0 0 
-0.000579373958092882 0 -0.001109315340390084 0 0 -0.0004671161644322078 -0.001334021564663448 -0.003472686933624244 0.004221930988865539 0 -0.0001465009396919054 
-0.001965396429344201 -5.6147092753344e-05 0 0.001163752945696408 0 -0.0002466688444057487 -9.379459809333629e-05 0 -0.0001124361646635795 0 -0.0001740527846660514 
0 0 0.001035229661238061 -8.249697943900155e-06 -5.421010862427522e-20 -0.0002645078821190945 -0.0008313864955438202 0 -0.0004113296371427122 0 0 
0 0 0 0 0 0 0 0 0 0 0 
0 0 0 0 0 0 0 0 0 0 0 
0 0 0 0 0 0 0 0 0 0 0 
0 0 0 0 0 0 0 0 0 0 0 
0 0 0 0 0 0 0 0 0 0 0 
0 0 0 0 0 0 0 0 0 0 0 
0 0 0 0 0 0 0 0 0 0 0 
0 0 0 0 0 0 0 0 0 0 0 
0 0 0 0 0 0 0 0 0 0 0 
0 0 0 0 0 0 0 0 0 0 0 
0 0 0 0 0 0 0 0 0 0 0 
0 0 0 0 0 0 0 0 0 0 0 
0 0 0 0 0 0 0 0 0 0 0 
0 0 0 0 0 0 0 0 0 0 0 
0 0 0 0 0 0 0 0 0 0 0 
-0.001761337228344277 0 0.002895750456375966 -0.0004122016454610215 -0.002298661641311647 -0.0009956077763475651 0 0.0007173548266250935 0 0 0 
-0.0005306982012963905 0 0.0002980003433898918 -0.0005264529105828335 2.710505431213761e-20 -0.0002351730815675822 0 -5.421010862427522e-20 0 0 0 
0 0 0 0 0 0 0 0 0 0 0 
0 0 0 0 0 0 0 0 0 0 0 
0 0 0 0 0 0 0 0 0 0 0 
0 0 0 0 0 0 0 0 0 0 0 
0 0 0 0 0 0 0 0 0 0 0 
0 0 0 0 0 0 0 0 0 0 0 
0 0 0 0 0 0 0 0 0 0 0 
-0.004631372898858338 0 0 0 0.002134090380978603 0 0 0 0 0 0 
0 0 0 0 0 0 0 0 0 0 0 
0 0 0 0 0 0 0 0 0 0 0 
-0.003956385075716503 0.003708067284953271 -0.002407004450601981 -0.0004779828837350458 0.001768425068514993 -0.0002759495259830767 -0.0001712004913152226 -0.0004883880700319739 0 0 -0.0001825521940231344 
0 0 0 0 0 0 0 0 0 0 0 
0 0 0 0 0 0 0 0 0 0 0 
0 0 0 0 0 0 0 0 0 0 0 
0 -0.0003212713556366888 0 0.001764467787875571 0 -0.0002009830458195914 0 -0.0008418502756340168 0 0 0 
0 0 0 0 0 0 0 0 -0.0004575888790395052 0 0 
0 0 0 0 0 0 0 0 0 0 0 
0 0 0 0 0 0 0 0 0 0 0 
0 0 0 0 0 0 0 0 0 0 0 
0 0 0 0 0 0 0 0 0 0 0 
0 0 0 0 0 0 0 0 0 0 0 
0 0 0 0 0 0 0 0 0 0 0 
0 0 0 0 0 0 0 0 0 0 0 
0 0 0 0 0 0 0 0 0 0 0 
0 0 0 0 0 0 0 0 0 0 0 
0 0 0 0 0 0 0 0 0 0 0 
0 0 0 0 0 0 0 0 0 0 0 
0 0 0 0 0 0 0 0 0 0 0 
0 0 0 0 0 0 0 0 0 0 0 
0 0 0 0 0 0 0 0 0 0 0 
0 0 0 0 0 0 0 0 0 0 0 
0 0 0 0 0 0 0 0 0 0 0 
0 0 0 0 0 0 0 0 0 0 0 
0 0 0 -7.920905456414187e-05 0 0 0 0 0 0 0 
0 0 0 0 0 0 0 0 0 0 0 
0 0 0 0 0 0 0 0 0 0 0 
0 0 0 0 0 0 0 0 0 0 0 
0 0 0 0 0 0 0 0 0 0 0 
0 0 0 0 0 0 0 0 0 0 0 
0.004055775196057596 -0.00150044618653525 -0.000542101259577604 0.0009701929835582044 0 -0.0002913427384965085 -0.001053742695758204 0.002371642293616236 0.003880296256791031 0.0003039579377184558 -0.0002955177391722295 
0.003348159092247927 -0.0007234553329624069 0 -0.0001890186091155742 -1.355252715606881e-20 0.001731111999963231 -0.000264006840550744 -1.155233911361405e-05 -0.003520838125862233 -0.0001956528183892221 -0.0005401826844527452 
0 0 0 0 0 0 0 0 0 0 0 
0 -0.0004967224599982047 0.004481018566876461 0 0 0 0 0 0 0 0 
0 0 0 0 0 0 0 0 0 0 0 
0 0 0 0 0 0 0 0 0 0 0 
-0.0005048082845136157 0 0.001339067058166839 0 -0.0005303524932701591 -0.0005584929735647881 0 0 0 -0.0001861097339987655 0 
-0.001929491655550507 0 -0.0003049666174957078 0 0 0 0 0 0 0.003447433226459462 0 
0.0009292417204177622 0 -0.0002197192610695284 -3.092544883256762e-05 0 -0.0001023950873230964 0 -2.071034578935595e-05 -0.0003929993925294101 -0.000102420471434543 0 
0 0 0 0 0 0 0 0 0 0 0 
0 0 0 0 0 0 0 0 0 0 0 
0 0 0 0 0 0 0 0 0 0 0 
0 0 0 0 0 0 0 0 0 0 0 
0 0 0 0 0 0 0 0 0 0 0 
0 0 0 0 0 0 0 0 0 0 0 
0 0 0 0 0 0 0 0 0 0 0 
0 0 0 0 0 0 0 0 0 0 0 
0 0 0 0 0 0 0 0 0 0 0 
0 0 0 0 0 0 0 0 0 0 0 
0 0 0 0 0 0 0 0 0 0 0 
0 0 0 0 0 0 0 0 0 0 0 
0 0 0 0 0 0 0 0 0 0 0 
0 0 0 0 0 0 0 0 0 0 0 
0 0 0 0 0 0 0 0 0 0 0 
0 0 0 0 0 0 0 0 0 0 0 
0 0 0 0 0 0 0 0 0 0 0 
0 0 0 0 0 0 0 0 0 0 0 
0 -0.00225780613366737 0.006737463488568656 0 -0.0008946929477634019 0 -0.0007116671002092694 0 0 -0.0006993892642658472 -0.0002179968703800665 
0 0 0 0 0 0 0 0 0 0 0 
0 0 0 0 0 0 0 0 0 0 0 
0 0 0 0 0 0 0 0 0 0 0 
0 0 0 0 0 0 0 0 0 0 0 
0 0 0 0 0 0 0 0 0 0 0 
0 0 0 0 0 0 0 0 0 0 0 
0 0 0 0 0 0 0 0 0 0 0 
0 0 0 0 0 0 0 0 0 0 0 
0 0 0 0 0 0 0 0 0 0 0 
0 0.001329581963418196 0 0 -0.005204428415087993 0 -0.0001516570131606595 0 0 0 0 
0 0 0 0 0 0 0 0 0 0 0 
0 0 0 0 0 0 0 0 0 0 0 
0 0 0 0 0 0 0 0 0 0 0 
0 0 0 0 0 0 0 0 0 0 0 
0 0 0 0 0 0 0 0 0 0 0 
0 0 0 0 0 0 0 0 0 0 0 
0 0 0 0 0 0 0 0 0 0 0 
0 0 0 0 0 0 0 0 0 0 0 
0 0 0 0 0 0 0 0 0 0 0 
0 0 -0.001640782722998836 0 0 0 0 0 0 0 0 
0 0 0 0 0 0 0 0 0 0 0 
0 0 0 0 0 0 0 0 0 0 0 
0 0 0 0 0 0 0 0 0 0 0 
0 0 0 0 0 0 0 0 0 0 0 
0 0 0 0 0 0 0 0 0 0 0 
0 0 0 0 0 0 0 0 0 0 0 
0 0 0 0 0 0 0 0 0 0 0 
0 0 0 0 0 0 0 0 0 0 0 
0 0 0 0 0 0 0 0 0 0 0 
0 -1.730468670015815e-06 0 -0.0003580781243773872 0.002271408568216103 -5.610212250144623e-05 -0.0009703546258588304 -0.0005830279185380398 0 0 0 
0 0 0 0 0 0 0 0 0 0 0 
-0.0003079167173532943 0 -0.001111733413103904 0 0.0003537169636292754 0 0 0 0 0 0 
0 0 0 0 0 0 0 0 0 0 0 
0 0 0 0 0 0 0 0 0 0 0 
0 0 0 0 0 0 0 0 0 0 0 
0 -0.0009092600440948395 0 0 0 0 0.001337740006845821 0 0 0 -0.0001578587282762545 
0 0 0 0 0 0 0 0 0 0 0 
0 0 0 0 0 0 0 0 0 0 0 
0 0 0 0 0 0 0 0 0 0 0 
0 0 0 0 0 0 0 0 0 0 0 
0 0 0 0 0 0 0 0 0 0 0 
0 0 0 0 0 0 0 0 0 0 0 
0 0 0 0 0 0 0 0 0 0 0 
0 0 0 0 0 0 0 0 0 0 0 
0 0 0 0 0 0 0 0 0 0 0 
0 0 0 0 0 0 0 0 0 0 0 
0 0 0 0 0 0 0 0 0 0 0 
0 0 0 0 0 0 0 0 0 0 0 
0 0 0 0 0 0 0 0 0 0 0 
0 0 0 0 0 0 0 0 0 0 0 
0 0 0 0 0 0 0 0 0 0 0 
0 0 0 0 0 0 0 0 0 0 0 
0 0 0 0 0 0 0 0 0 0 0 
0 0 0 0 0 0 0 0 0 0 0 
0 0 0 0 0 0 0 0 0 0 0 
0 0 0 0 0 0 0 0 0 0 0 
0 0 -0.01146282393795712 0 0.007063408479581322 0 0 0 0 0 0 
0 0 0 0 0 0 0 0 0 0 0 
0 0 0 0 0 0 0 0 0 0 0 
0 0 0 0 0 0 0 0 0 0 0 
0 0 0 0 0 0 0 0 0 0 0 
0 0 0 0 0 0 0 0 0 0 0 
0 0 0 0 0 0 0 0 0 0 0 
0 0 0 0 0 0 0 0 0 0 0 
0 0 0 0 0 0 0 0 0 0 0 
0 0 0 0 0 0 0 0 0 0 0 
0 0 0 0 0 0 0 0 0 0 0 
0 0 0 0 0 0 0 0 0 0 0 
0 0 0 0 0 0 0 0 0 0 0 
0 0 0 0 0 0 0 0 0 0 0 
0 0 0 0 0 0 0 0 0 0 0 
0 0 0 0 0 0 0 0 0 0 0 
0 0 0 0 0 0 0 0 0 0 0 
0 0 0 0 0 0 0 0 0 0 0 
0 0 0 0 0 0 0 0 0 0 0 
0 0 0 0 0 0 0 0 0 0 0 
0 0 0 0 0 0 0 0 0 0 0 
0 0 0 0 0 0 0 0 0 0 0 
0 0 0 0 0 0 0 0 0 0 0 
0 0 0 0 0 0 0 0 0 0 0 
-0.0005215073321474736 0.01127608110648527 0 0 0 -0.006030533325748593 0 0 0 0 0 
0 0 0 0 0 0 0 0 0 0 0 
0 0 0 0 0 0 0 0 0 0 0 
-0.009219338564195011 0 0.01880612654550431 0 0 0 0 0 0 0 0 
0 0 0 0 0 0 0 0 0 0 0 
0 0 0 0 0 0 0 0 0 0 0 
0 0 0 0 0 0 0 0 0 0 0 
0 0 0 0 0 0 0 0 0 0 0 
0 0 0 0 0 0 0 0 0 0 0 
0 0 0 0 0 0 0 0 0 0 0 
0 0 0 0 0 0 0 0 0 0 0 
0 0 0 0 0 0 0 0 0 0 0 
0 0 0 0 0 0 0 0 0 0 0 
0 0 0 0 0 0 0 0 0 0 0 
0 0 0 0 0 0 0 0 0 0 0 
0 0 0 0 0 0 0 0 0 0 0 
0 0 0 0 0 0 0 0 0 0 0 
0 0 0.001552806003241292 0 -0.0005995629920362328 0 0 0 0 0 0 
0 0 0 0 0 0 0 0 0 0 0 
0 0 0 0 0 0 0 0 0 0 0 
0 0 0 0 0 0 0 0 0 0 0 
0 0 0 0 0 0 0 0 0 0 0 
0 0 0 -0.0001414076575531515 0 0.0004227290688753542 0 0 0 0 0 
0 0 0 0 0 0 0 0 0 0 0 
0 0 0 0 0 0 0 -0.002332124242562263 0 0 0 
0 0 0 0 0 0 0 0 0 0 0 
0 0 0 0 0 0 0 0 0 0 0 
0 0 0 0 0 0 0 0 0 0 0 
-0.001288840339461257 0 -0.006011587310452328 0 -0.0002307679868926778 0 0 0 0 0.004282792680910712 0 
0 0 0 0 0 0 0 0 0 0 0 
4.445298766254748e-06 0 -0.001011109900612455 0 0 0 -0.0002930049610443633 0 0 0 0 
0 0 -0.0009673628509673438 0.000589117142524425 0 0 0 0 0 -0.000464854705700486 0 
0 0 0 0 0 0 0 0 0 0 0 
0.02297722444223546 0 -0.01806859634372358 0 0 -1.841704249763715e-05 0 0.0008922810718506333 -2.585946945302434e-05 -0.001240763520637318 -1.230302689753309e-05 
-0.006217607128073665 0 0 0 -0.0002066248621298275 0 0 0.004498664572424587 0 0 0 
0.0009142277302385233 -0.0001933733400026124 -0.001380184520480541 -0.0004851573758669574 -0.00047109422948085 0.002555626072864472 -0.0003863517024411015 -0.0003835307624569208 -0.0002257963217047086 0 0 
0 0 0 0 0 0 0 0 0 0 0 
0.0007291532920437866 0 5.421010862427522e-20 0 0 0 0 -0.0008514044797223908 0 -0.000324956034316557 0 
0.0005716834937112888 -0.0004489789681658594 0 0 0 -0.000320650980855381 0 0 0 0 0 
-0.0001106867436603241 0 0 -0.0003173970450143995 1.355252715606881e-20 0 0 0.000133905097117992 -0.0004858448842665431 -0.0009832780136083434 0 
0 0 0 0 0 0 0 0 0 0 0 
0 0 0 0 0 0 0 0 0 0 0 
0 0 0 0 0 0 0 0 0 0 0 
0 0 0 0 0 0 0 0 0 0 0 
0 0 0 0 0 0 0 0 0 0 0 
0 0 0.004632647056383779 -0.000245525197399409 -0.006219213595734245 0 -0.0004758803366604502 0 0 -0.0007648983752179632 0 
0 0 0 0 0 0 0 0 0 0 0 
0 0 0 0 0 0 0 0 0 0 0 
0 0 0 0 0 0 0 0 0 0 0 
0 0 0 0 0 0 0 0 0 0 0 
0 0 0 0 0 0 0 0 0 0 0 
0 0 0 0 0 0 0 0 0 0 0 
0 0 0 0 0 0 0 0 0 0 0 
0 0 0 0 0 0 0 0 0 0 0 
0.0006634319080368823 7.623296525288703e-20 -6.155247997804307e-05 0.001884573569963198 -0.0002223299907489179 -0.0001509219240452343 -3.388131789017201e-21 -0.001559684891158563 -3.579544392541077e-05 -6.908473599661044e-05 0 
0 0 0 0 0 0 0 0 0 0 0 
0 0 0 0 0 0 0 0 0 0 0 
0 -0.0001066737927543654 0 0 -0.0002258840947183871 -5.524937335409671e-05 0.0007649826059664923 -0.0002289040120061363 -0.0001378447303474214 0 0 
0.001021592078751414 0 -0.001718957773076755 -0.0002831127866593616 -0.0001941115870398358 -7.559164198673779e-05 -0.0001713969651953929 0 0 0 -0.0004763299689720794 
0 0 0 0 0 0 0 0 0 0 0 
0 0 0 0 0 0 0 0 0 0 0 
0 0 0 0 0 0 0 0 0 0 0 
0 0 0 0 0 0 0 0 0 0 0 
0 0 0 0 0 0 0 0 0 0 0 
0 0 0 0 0 0 0 0 0 0 0 
-0.001057923440708097 -0.0002532783904417541 -0.0004837331325625998 0 0 0.0006366558850953053 0 0 -7.268225176109607e-05 0 0 
0 0 0 0 0 0 0 0 0 0 0 
0 0 0 0 0 0 0 0 0 0 0 
0 0 0 0 0 0 0 0 0 0 0 
0 0 0 0 0 0 0 0 0 0 0 
0 0 0 0 0 0 0 0 0 0 0 
0 0.0007583116331346654 0 0 -0.0006399532502739839 0 -0.0002996615684617751 0 -0.0002995240282874152 -5.136745590350394e-05 0 
0 0 0 0 0 0 0 0 0 0 0 
0 0 0 0 0 0 0 0 0 0 0 
0 -0.001011513413192805 0 0 0 0 0 0 0 0 0 
0 0 0 0 0 0 0 0 0 0 0 
0 0 0 0 0 0 0 0 0 0 0 
0 0 0 0 0 0 0 0 0 0 0 
0 0 0.00442466099239076 0 0 -0.0003165201167759464 -0.002300068782843065 -0.0009722532022405334 0 0 0 
-0.007807647922128326 0 -0.00223535352653934 0 0.007408218952052698 -0.0008978075299893804 0 0 0 -0.001779056426963989 0 
0.003787158766839716 0 -0.005028195645782364 -0.000736764410481608 0.00104668026311939 0 0 0 -0.0005342216207159648 0 0 
0 0 0 -0.0004847074339439951 0.0007669328918994701 -2.203204618493595e-05 0 -0.0002740747288400779 -3.569696635299845e-05 0 0 
0 0 0 0 0 0 0 0 0 0 0 
0 0 0 0 0 0 0 0 0 0 0 
0 0 0 0 0 0 0 0 0 0 0 
-1.506758334861265e-05 0 0 0 0 0 0 0 0 0 0 
0 0 0 0 0 0 0 0 0 0 0 
0 0 0 0 0 0 0 0 0 0 0 
0 0 0 0 0 0 0 0 0 0 0 
0 0 0 0 0 0 0 0 0 0 0 
0 0 0 0 0 0 0 0 0 0 0 
0 0 0 0 0 0 0 0 0 0 0 
0 0 0 0 0 0 0 0 0 0 0 
0 0 0 0 0 0 0 0 0 0 0 
0 0 0 0 0 0 0 0 0 0 0 
0 0 0 0 0 0 0 0.001246203221628883 0 0 0 
0 0 0 0 0 0 0 0 0 0 0 
0 0 0 0 0 0 0 0 0 0 0 
0 0 0 0 0 0 0 0 0 0 0 
0 0 0 0 0 0 0 0 0 0 0 
0 0 0 0 0 0 0 0 0 0 0 
0 0 0 0 0 0 0 0 0 0 0 
0 0 0 0 0 0 0 0 0 0 0 
0 0 0 0 0 0 0 0 0 0 0 
0 0 0 0 0 0 0 0 0 0 0 
0 0 0 0 0 0 0 0 0 0 0 
0 0 0 0 0 0 0 0 0 0 0 
0 0 0 0 0 0 0 0 0 0 0 
0 0 0 0 0 0 0 0 0 0 0 
0 -5.367983836546921e-05 0 0 -1.594476247742705e-06 -0.0001839570039182757 -5.646734884353946e-05 -0.0005632433130225567 -4.861321262831075e-05 0 0 
0 0 0 0 0 0 0 0 0 0 0 
0 0 -0.0003318400421803159 0 0 -0.0003165797709920289 -0.0001435903194174936 0.001413939796154607 -0.0001162417135958675 -0.0002097309720386733 0 
0 0 -0.0004599986650345497 -0.0001398728490636966 0 0 0 -0.0004298800175964019 -0.0002538940019264594 0.001137650365472016 0 
0 0 0 0 0 0 0 0 0 0 0 
0 0 0 0 0 0 0 0 0 0 0 
0 0 0 0 0 0 0 0 0 0 0 
0 0 0 0 0 0 0 0 0 0 0 
0 0 0 0 0 0 0 0 0 0 0 
0 0 0 0 0 0 0 0 0 0 0 
0 0 0 0 0 0 0 0 0 0 0 
0 0 0 0 0 0 0 0 0 0 0 
0 0 0 0 0 0 0 0 0 0 0 
0 0 0 0 0 0 0 0 0 0 0 
0 0 0 0 0 0 0 0 0 0 0 
0 0 0 0 0 0 0 0 0 0 0 
0 0 0 0 0 0 0 0 0 0 0 
0 0 0 0 0 0 0 0 0 0 0 
0 0 0 0 0 0 0 0 0 0 0 
0 0 0 0 0 0 0 0 0 0 0 
-0.001053505119857481 0 -0.0006022314242741382 0 -7.083747167330201e-06 0.0004707632166801886 0 0 0 0 0 
0 0 0 0 0 0 0 0 0 0 0 
0 0 0 0 0 0 0 0 0 0 0 
0 0 0 0 0 0 0 0 0 0 0 
-0.0006325796055775962 0 0 0 0 0 0 0 -0.0003548829716083499 0 0 
0 0 0 0 0 0 0 0 0 0 0 
0 0 0 0 0 0 0 0 0 0 0 
0 0 0 0 0 0 0 0 0 0 0 
0.0009141396747745384 0 0 0 0 0 0 0 0 -0.0004183714864349034 0 
-0.002290050387811484 -0.0003343101338687853 0 0.002079116130570408 0 0 0 0 0 0 0 
0 0 0 0 0 0 0 0 0 0 0 
0 0 0 0 0 0 0 0 0 0 0 
0 0 0 0 0 0 0 0 0 0 0 
0 -0.0005163972109746244 -0.007717842704264561 0 0.00550000158722162 0 0 0 0 0 0 
0 0 0 0 0 0 0 0 0 0 0 
0.001400663984499235 0 0 0 0 0 0 -3.243340143967167e-05 0 0 0 
0 0 0 0 0 0 0 0 0 0 0 
0 0 0 0 0 0 0 0 0 0 0 
0 0 0 0 0 0 0 0 0 0 0 
0 0 0 0 0 0 0 0 0 0 0 
0 0 0 0 0 0 0 0 0 0 0 
0 0 0 0 0 0 0 0 0 0 0 
0 0 0 0 0 0 0 0 0 0 0 
-0.0005591971189784407 0 -0.003185478607706082 0 0.0009723431163914248 0 0 0 0 0 0 
0 0 0 0 0 0 0 0 0 0 0 
0 0 0 0 0 0 0 0 0 0 0 
0 0.002322957174481995 0 0 0 0 -0.0004063894373655704 0 0 -0.0006515644859812168 0 
0 0 0 0 0 0 0 0 0 0 0 
0 0 0 0 0 0 0 0 0 0 0 
0 0 0 0 0 0 0 0 0 0 0 
0 0 0 0 0 0 0 0 0 0 0 
0 0 0 0 0 0 0 0 0 0 0 
0.0004424876865777902 -0.0001467997051083784 -0.000199805396350008 0 0 0 -1.425716281163626e-05 0 -0.0005038252094810757 0 0 
0 0 0 0 0 0 0 0 0 0 0 
0 0 0 0 0 0 0 0 0 0 0 
0 0 0 0 0 0 0 0 0 0 0 
0 0 0 0 0 0 0 0 0 0 0 
0 0 0 0 0 0 0 0 0 0 0 
0 0 0 0 0 0 0 0 0 0 0 
0 0 0 0 0 0 0 0 0 0 0 
0 -0.0006563298347346598 0 0 0 0 0 0.0003292161831527518 -0.0001791647357187543 0 0 
0 0 0 0 0 0 0 0 0 0 0 
-0.005474833599795788 0 0 -0.000293900028765252 -0.003904478761336424 0 0 -0.004697564413472573 0 0.004699635001853057 0 
-0.001002204656062599 0 0 -0.001900732490779714 -0.001326915228112599 0 0 0 0 0.002676624167579374 0 
-0.003373749745983007 -0.001583650156717546 0.005096037493248795 -0.001259638850926641 -0.0003734621140385501 0 -0.0006600067330367633 0.003254096156099933 0 -0.0008288948262748863 -0.00051173446891259 
0 0 0 0 0 0 0 0 0 0 0 
0 0 0 0 0 0 0 0 0 0 0 
0 0 0 0 0 0 0 0 0 0 0 
0 0 0 0 0 0 0 0 0 0 0 
0 0 0 0 0 0 0 0 0 0 0 
0 0 0 0 0 0 0 0 0 0 0 
0.00225676687317313 0 0.001611851843557758 0 0 0 -1.355252715606881e-20 -0.0003176537825520197 -0.0003287233964168286 -0.0003048237535371365 -0.0002448230105705479 
0 0 0 0 0 0 0 0 0 0 0 
0 0 -0.001597371534373712 0 0.00199217935738205 0 0 0 0 0 0 
0 0 0 0 0 0 0 0 0 0 0 
0 0 0 0 0 0 0 0 0 0 0 
-0.0005192881234029018 -7.93268876242378e-05 0.001426378169484425 0 0 -0.0001267046049527601 0 0 0 0 0 
0 0 0 0 0 0 0 0 0 0 0 
0 0 0 0 0 0 0 0 0 0 0 
0 0 0 0 0 0 0 0 0 0 0 
0 0 0 0 0 0 0 0 0 0 0 
0 0 0 0 0 0 0 0 0 0 0 
0 0 0 0 0 0 0 0 0 0 0 
0 0 0 0 0 0 0 0 0 0 0 
0 0 0 0 0 0 0 0 0 0 0 
0 0 0 0 0 0 0 0 0 0 0 
0 0 0 0 0 0 0 0 0 0 0 
0 0 0 0 0 0 0 0 0 0 -4.283309427940172e-06 
-2.404359425575558e-05 0 0 0 0 0.0007265040323289836 0 0 0 0 0 
0 0 0 0 0 0 0 0 0 0 0 
0 0 0 0 0 0 0 0 0 0 0 
0 0 0 0 0 0 0 0 0 0 0 
0 0 0 0 0 0 0 0 0 0 0 
0 0 0 0 0 0 0 0 0 0 0 
0 0 0 0 0 0 0 0 0 0 0 
0.0001924710346561534 0 -0.003022831849232292 0 0.001699922891641522 0 -0.0001488132031859308 0 -3.777765662691243e-05 0 0 
-0.0007959541108932272 -2.183951414962792e-06 0 0 -0.0002912727637320547 0 0 0 0 0 0.001410927891225473 
0 0 0 0 0 0 0 0 0 0 0 
0 0 0 0 0 0 0 0 0 0 0 
-0.002091046047920749 0.004532332839057593 -1.355252715606881e-20 -0.00095100017533324 -0.002412209733323277 0.001026527328008904 -0.0007247087819550915 0.000314814370744081 -0.001048116850237027 0.001521151798900684 -0.0005271371129279578 
0 0 0 0 0 0 0 0 0 0 0 
0 0 0 0 0 0 0 0 0 0 0 
-0.0001912743463536716 -0.0002240632473490801 -0.0001406423340701138 -0.000137147877198098 -0.00120098027332602 -0.0001227358724783261 0 -0.0005867478806136214 0 0.002183904450000897 0 
0 0 0 -0.0001639696663276223 0.0002729750456790974 0 0 0 0 -0.0008317917678258156 0 
0 0 0 0 0 0 0 0 0 0 0 
0 0 0 0 0 0 0 0 0 0 0 
0 0 0 0 0 0 0 0 0 0 0 
0 0 0 0 0 0 0 0 0 0 0 
0 0 0 0 0 0 0 0 0 0 0 
0 0 0 0 0 0 0 0 0 0 0 
0 0 0 0 0 0 0 0 0 0 0 
0 0 0 0 0 0 0 0 0 0 0 
0 0 0 0 0 0 0 0 0 0 0 
0 0 0 0 0 0 0 0 0 0 0 
0 0 0 0 0 0 0 0 0 0 0 
0 0 0 0 -0.0003720628076344561 0 0 0 0 0 0 
0 0 0 0 0 0 0 0 0 0 0 
0 0 0 0 0 0 0 0 0 0 0 
0 0 0 0 0 0 0 0 0 0 0 
0 0 0 0 0 0 0 0 0 0 0 
0 0 0 0 0 0 0 0 0 0 0 
0 0 0 0 0 0 0 0 0 0 0 
0 0 0 0 0 0 0 0 0 0 0 
0 0 0 0 0 0 0 0 0 0 0 
0 0 0 0 0 0 0 0 0 0 0 
0 0 0 0 0 0 0 0 0 0 0 
0 0 0 0 0 0 0 0 0 0 0 
0 0 0 0 0 0 0 0 0 0 0 
0 0 0 0 0 0 0 0 0 0 0 
0 0 0 0 0 0 0 0 0 0 0 
0 0 0 0 0 0 0 0 0 0 0 
0 -0.0007779904911157613 0.002156231377882411 -0.0001966329116041496 -0.001678996930987846 -0.0008035950487782425 0 0.00298091249113924 -1.355252715606881e-20 0 0 
0 0 0 0 0 0 0 0 0 0 0 
0 0 0 0 0 0 0 0 0 0 0 
0 0 0 0 0 0 0 0 0 0 0 
0 0 0 0 0 0 0 0 0 0 0 
-6.363730546579952e-05 0 0 0 -4.226466605198886e-05 -7.142323869346834e-05 0 0 0 0 0 
0 0 0.0006141337141274337 0 -0.002059654975964081 0 0 0 0 0 0 
0 0 0 0 0 0 0 0 0 0 0 
0 0 0 0 0 0 0 0 0 0 0 
0 0 0 0 0 0 0 0 0 0 0 
0 0 0 0 0 0 0 0 0 0 0 
0 0 0 0 0 0 0 0 0 0 0 
0 0 0 0 0 0 0 0 0 0 0 
0 0 0 0 0 0 0 0 0 0 0 
0 0 0 0 0 0 0 0 0 0 0 
0 0 0 0 0 0 0 0 0 0 0 
-0.002542358644258514 -0.006277249885713033 0.001061054826594905 0 -0.0009782440940622555 0 -0.0007982966388903831 0 -6.776263578034403e-21 -0.0007598500343699397 0 
-0.0005621607228358645 0.002318329799742838 0.007181169456386768 -0.0002313994558023893 0 0 0 0 0 0 0 
0 0 0 0 0 0 0 0 0 0 0 
-0.0006149628634193735 -0.001858294837624126 0.006301809674559798 0 -0.0009855322553391902 0 -5.074326991461296e-06 0.001029610190671383 -1.433500953741052e-05 0 -0.0001291453815452395 
0 0 0 0 0 0 0 0 0 0 0 
0 0 0 0 0 0 0 0 0 0 0 
0 0 0 0 0 0 0 0 0 0 0 
0 0 0 0 0 0 0 0 0 0 0 
0 0 0 0 0 0 0 0 0 0 0 
0 0 0 0 0 0 0 0 0 0 0 
0 0 0 0 0 0 0 0 0 0 0 
0 0 0 0 0 0 0 0 0 0 0 
0 0 0 0 0 0 0 0 0 0 0 
0 0 0 0 0 0 0 0 0 0 0 
0 0 0 0 0 0 0 0 0 0 0 
0 0 0 0 0 0 0 0 0 0 0 
0 0 0 0 0 0 0 0 0 0 0 
0.001422346311129943 0 0 0 -0.0008863686143726664 0 0 0 -0.0005711564915057907 0 0 
-7.963698619914834e-06 0 -0.0001957991617365561 -0.0004565762684901095 0 0 0 0 0 0.002538795138376178 0 
0 0 0 0 0 0 0 0 0 0 0 
0.009220494062574193 -0.0005236216458555437 -0.00293791197206454 -4.406743523245337e-05 -0.0007985884934986679 -0.001240664883132633 0 0 0 -0.0006100084057775481 0 
-9.046025202266265e-06 0 0 0 -0.0002849869839561654 0 0 0 -0.0001395910865300353 0.0007733810694085338 -9.693661170683054e-05 
0 0 0 0 0 0 0 0 0 0 0 
0 0 0 0 0 0 0 0 0 0 0 
0 0 -0.004792874934241872 0.01349447498840187 0 -0.0002591321517174622 0 -0.0004229085588965506 -0.0005476232580636572 -0.005686853911400858 -0.0001150263015465237 
0.003333842055594504 -0.00016383686957285 -0.001026356746786265 0 0 -0.001056613847129426 0 -0.0006624139211068986 0 0 0 
-0.0005982690203126873 -2.009349741838155e-05 0 0 -0.0002932267717459334 0 -0.0001943021857729874 0.0008064002149264132 0 0 0 
-0.002658313502022246 0 -0.0007970671787559899 0 0 0 0 0 0.001923669068416085 0 0 
-0.0003753325231240969 0 -0.0001511413481153835 0 -2.580262868056857e-05 -6.163996894978762e-05 -0.0001655186509169064 0.0001160962664329425 -3.04673490899236e-05 0 0 
0 -0.0009340079373268012 0 0.00175073792804705 0 0 0 -0.0001562951045755265 0 0 0 
0.001297135401613936 0 0 0 -0.0002402533825187564 0 0 0 0 -0.0003885522881622244 0 
0 0 -0.0004629453585212833 -0.0006357062027490569 -0.001035952549412379 0 0 -0.0002742040530709041 2.710505431213761e-20 0.001644465730388523 0 
0 0 0 0 0 0 0 0 0 0 0 
0 0 0 0 0 0 0 0 0 0 0 
2.321004971139233e-07 0 -0.0004845722269758992 0 0 -2.255637909397652e-05 0 0 0 0 0 
0 0 0 0 0 0 0 0 0 0 0 
0 -0.001113972056762398 -0.0003998954601430908 0 0 0 0 0 -2.344783295850881e-05 0 -8.782888104547127e-05 
0 0 0 0 0 0 0 0 0 0 0 
0 0 0 0 0 0 0 0 0 0 0 
0 0 0 0 0 0 0 0 0 0 0 
0 0 0 0 0 0 0 0 0 0 0 
0 0 0.0007136486400873902 0 -0.001255640922509562 0 0 0 -0.0002359435212617905 0 0 
0 0 0 0 0 0 0 0 0 0 0 
0 0 0 0 0 0 0 0 0 0 0 
0 0 0 0 0 0 0 0 0 0 0 
0 0 0 0 0 0 0 0 0 0 0 
0 0 0 0 0 0 0 0 0 0 0 
0 0 0 0 0 0 0 0 0 0 0 
0 0 0 0 0 0 0 0 0 0 0 
0 0 0 0 0 0 0 0 0 0 0 
0 0 0 0 0 0 0 0 0 0 0 
0 0 0 0 0 0 0 0 0 0 0 
0 0 0 0 0 0 0 0 0 0 0 
0 0 0 0.003366356836043601 -0.001247310436239115 0 -0.0003715957925515618 0 0 0 0 
0 0 -0.002174760531291934 -0.0004883910311761061 0 0 0 0 0 0.004840000330635748 0 
0 0 0 0 0 0 0 0 0 0 0 
0 0 0 0 0 0 0 0 0 0 0 
0 0 0 0 0 0 0 0 0 0 0 
0 0 0 0 0 0 0 0 0 0 0 
0 0 0 0 0 0 0 0 0 0 0 
0 0 0 0 0 0 0 0 0 0 0 
0 0 0 0 0 0 0 0 0 0 0 
0 0 0 0 0 0 0 0 0 0 0 
0 0 0 0 0 0 -0.0003732272154465589 0 0 0 0 
0 -0.0004050178452313417 0.002246190168651901 -6.047215178100228e-05 -0.0006791559055710112 -0.000146310572241456 -4.421931487895358e-05 0 0 0 0 
0 0 0 0 0 0 0 0 0 0 0 
0 0 0 0 0 0 0 0 0 0 0 
0 0 0.001078870050865055 -0.0002481209289028654 0 0 0 -0.0006027590623203113 0 0 0 
0 0 0 0 0 0 0 0 0 0 0 
0 0 0 0 0 0 0 0 0 0 0 
0 0 0 0 0 0 0 0 0 0 0 
0 0.002049743546620053 0 -0.001353015347269607 -0.002622325708708984 0 -0.0002897011497812405 0 -1.404171323622177e-05 0 -0.0001881814153134891 
0 0 0 0 0 0 0 0 0 0 0 
0 0.007273487603509537 0 0 -0.0001312174943965613 0 -0.0008098942822294759 0 0 -2.346910172975683e-05 0 
0 0 0 -0.0004924276326269892 -0.0004218798405774482 0 -4.861908143775921e-05 0.000139177578190931 0 -0.0002318918735757939 0 
0 0 0 0.003439250113973465 -0.002766229617486555 0 0 0 0 0 0 
0 0 0 0 0 0 0 0 0 0 0 
0.0003677605091971354 0 0 0 -5.483317198620104e-06 0 0 -0.0002652218542532497 0 0 0 
0 0 0 0 0 0 0 0 0 0 0 
0 0 0 0 0 0 0 0 0 0 0 
0 0 0 0 0 0 0 0 0 0 0 
0 0 0 0 0 0 0 0 0 0 0 
0 0 0 0 0 0 0 0 0 0 0 
0 0 0 0 0 0 0 0 0 0 0 
0 0 -0.00481041961433354 0 -0.009554341159151521 0 0 0.01001836616295316 -8.199652464456482e-05 0 0 
0 0 0.004625779647488821 0 0 0 0 -0.001165791916345498 0 -0.001759618917793771 0 
0 0 0 0 0 0 0 0 0 0 0 
0 0 0 0 0 0 0 0 0 0 0 
0 0 0 0 0 0 0 0 0 0 0 
0 0 0 0 0 0 0 0 0 0 0 
0 -5.531341234635394e-05 0 0 0 0 0 0 0 0 -3.670444560170925e-05 
0 0 0 0 0 0 0 0 0 0 0 
0 0 0 0 0 0 0 0 0 0 0 
0 0 0 0 0 0 0 0 0 0 0 
0 0 0 0 0 0 0 0 0 0 0 
0 0 0 0 0 0 0 0 0 0 0 
0 -0.000357621767180386 0.004621847623940269 0 0 0 -0.001450823219810586 0 -0.000339554867554373 -0.001041155381048417 0 
0 0 0 0 0 0 0 0 0 0 0 
0 0 0 0 0 0 0 0 0 0 0 
0 0 0 0 0 0 0 0 0 0 0 
0 0 0 0 0 0 0 0 0 0 0 
0 0 0 0 0 0 0 0 0 0 0 
0 0 0 0 0 0 0 0 0 0 0 
0 0 0 0 0 0 0 0 0 0 0 
0 0 0 0 0 0 0 0 0 0 0 
0 0 0 0 0 0 0 0 0 0 0 
0 0 0 0 0 0 0 0 0 0 0 
0 0 0 0 0 0 0 0 0 0 0 
0 0 0 0 0 0 0 0 0 0 0 
0 0 0 0 0 0 0 0 0 0 0 
0 0 0 0 0 0 0 0 0 0 0 
0 0 0 0 0 0 0 0 0 0 0 
0 0 0 0 0 0 0 0 0 0 0 
0 0 0 0 0 0 0 0 0 0 0 
0 0 0 0 0 0 0 0 0 0 0 
0 0 0 0 0 0 0 0 0 0 0 
0 0 0 0 0 0 0 0 0 0 0 
0 0 0 0 0 0 0 0 0 0 0 
0 0 0 0 0 0 0 0 0 0 0 
0 0 0 0 0 0 0 0 0 0 0 
0 0 0 0 0 0 0 0 0 0 0 
0 0 0 0 -0.001706595945475533 0 0 0 0 0 0 
0 0 0 0 0 0 0 0 0 0 0 
0 0 0 0 0 0 0 0 0 0 0 
0 0 0 0 0 0 0 0 0 0 0 
0 0 0 0 0 0 0 0 0 0 0 
0 0 0 0 0 0 0 0 0 0 0 
0 0 0 0 0 0 0 0 0 0 0 
0 0 0 0 0 0 0 0 0 0 0 
-0.002580282552328672 0 -0.001748560232639479 0 0 0 0 0 0 0 0 
0 0 0 0 0 0 0 0 0 0 0 
0 0 0 0 0 0 0 0 0 0 0 
0 0 -0.0003811720507730251 -1.169886728944326e-05 0.002541580922775124 0 0 -0.0005514576348179034 0 -0.0003802788781378676 0 
0 0 0 0 0 0 0 0 0 0 0 
0.004710499248547259 -3.70785225977176e-05 0 -6.379119046855091e-05 -0.0007813467964726668 -0.0008447146491825 0 0 0 -0.001156824193363279 -8.991927743004882e-06 
0 0 0 0 0 0 0 0 0 0 0 
0 0 0 0 0 0 0 0 0 0 0 
0 0 0 0 0 0 0 0 0 0 0 
0 0 0 0 0 0 0 0 0 0 0 
0 0 -0.0003383131200978818 0 -0.001029987814405775 -0.0003440278374585326 0.001671576498104154 -0.002275546917440957 0 0 0 
0 0 0 0 0 0 0 0 0 0 0 
0 -0.000206038401191118 0.002542010277880263 -0.0002130513125845293 0.003177008155386588 0.001695584378788967 -0.001079854950240535 -0.0001834220060536069 -0.0005699847764949277 0 -2.631658947471696e-05 
0 0 0 0 0 0 0 0 0 0 0 
0 0 0 0 0 0 0 0 0 0 0 
0 0 0 0 0 0 0 0 0 0 0 
0 0 0 0 0 0 0 0 0 0 0 
0 0 0 0 0 0 0 0 0 0 0 
0 0 0 0 0 0 0 0 0 0 0 
-0.000402855929942443 0 0 0 0 0 0 7.416588717491215e-05 -0.0003614236128984758 0 -0.0003824700258233668 
0 0 0 0 0 0 0 0 0 0 0 
0 0 0 0 0 0 0 0 0 0 0 
0 0 0 0 0 0 0 0 0 0 0 
-0.002130693889212124 -0.0001006014479927934 0 0.002352359832798354 0 0 0 -0.0004481009732065225 -0.0001704122474152312 -0.0001870030508796329 0 
0.003235832788916284 -0.005335119895409132 0 0 0.00429657393310855 -0.0004070579515687496 -0.0002724401924553717 -0.001616025442635916 -8.703635558999447e-05 -5.102888008122637e-05 0 
0 0 0 0 0 0 0 0 0 0 0 
0.001543454662887109 -4.167198746687486e-05 0 -0.0001274902006478052 0 -0.0002384894013352223 -0.0003836436708690935 -0.0006931852599188669 -2.99620780794313e-05 0 0 
0 0 0 0 0 0 0 0 0 0 0 
0 0 0 0 0 0 0 0 0 0 0 
0 0 0 0 0 0 0 0 0 0 0 
0 0 0 0 0 0 0 0 0 0 0 
0 0 0 0 0 0 0 0 0 0 0 
0 0 0 0 0 0 0 0 0 0 0 
0 0 0 0 0 0 0 0 0 0 0 
0 0 0 0 0 0 0 0 0 0 0 
0 0 0 0 0 0 0 0 0 0 0 
0 0 0 0 0 0 0 0 0 0 0 
0 0 0 0 0 0 0 0 0 0 0 
0 0 0 0 0 0 0 0 0 0 0 
0 -0.0008929005560848348 0 -7.650816167626709e-05 0.003243327539426564 0 -0.001373713822095099 -0.0003452470030580986 6.776263578034403e-21 -3.145816184154643e-06 0 
0 0 0 0 0 0 0 0 0 0 0 
0 0 0 0 0 0 0 0 0 0 0 
0 0 0 0 0 0 0 0 0 0 0 
0 0 0 0 0 0 0 0 0 0 0 
0 0 0 0 0 0 0 0 0 0 0 
0 0 0 0 0 0 0 0 0 0 0 
0 0 0 0 0 0 0 0 0 0 0 
0 0 0 0 0 0 0 0 0 0 0 
0 0 0 0 0 0 0 0 0 0 0 
0 0 0 0 0 0 0 0 0 0 0 
0 0 0 0 0 0 0 0 0 0 0 
0 -0.000177392542113363 -1.838501665276124e-05 -9.332788917794483e-05 0 0 0 0.0008626911345175405 0 -4.330774802473515e-05 0 
0 0 0 0 0 0 0 0 0 0 0 
0 0 0 0 0 0 0 0 0 0 0 
0.001271163490884505 -0.00174763996957726 0 -8.111855388254343e-06 -0.0001349261819570302 0.0008454070745937899 -0.0006623558398614155 -0.0001005053651534588 0 0.0009108916711827535 0 
0 0 0 0 0 0 0 0 0 0 0 
0 0 0 0 0 0 0 0 0 0 0 
0 0 0 0 0 0 0 0 0 0 0 
0 0 0 0 0 0 0 0 0 0 0 
0 0 0 0 0 0 0 0 0 0 0 
0 0 0 0 0 0 0 0 0 0 0 
0 0 0 0 0 0 0 0 0 0 0 
0 0 0 0 0 0 0 0 0 0 0 
0 0 0 0 0 0 0 0 0 0 0 
0 0 0 0 0.0004862463142632912 0 0 -0.00280964938797558 0 0 0 
0 0 0 0 0 0 0 0 0 0 0 
0 0 0 0 0 0 0 0 0 0 0 
0 0 -0.0007039844630910936 0 0.003465752048176194 -4.235020460873002e-05 0 0 0 0 0 
0 0 0 0 0 0 0 0 0 0 0 
0 0 0 0.001269042323608237 0 -0.0005737743404882988 0 0 -5.092523322742295e-06 0 -0.0001488777309381254 
0 0 0 0 0 0 0 0 0 0 0 
0 0 0 0 0 0 0 0 0 0 0 
0 0 0 0 0 0 0 0 0 0 0 
0 0 0 0 -0.0004899112682931003 0 0 0 0 0 0 
-0.00432947537059874 0 0 -0.0005099923418534697 0 -0.0002009492173812788 -3.261010923324613e-05 0.0004515612178767858 0 -1.362609703858445e-05 -0.0002248013976112514 
0 0 0 0 0 0 0 0 0 0 0 
0 0 0 0 0 0 0 0 0 0 0 
0 0 -0.0001749368731330595 0 0 0 0 0 0 0 0 
0 0 0 0 0 0 0 0 0 0 0 
0 0 0 0 0 0 0 0 0 0 0 
0 0 0 0 0 0 0 0 0 0 0 
0 0 0 0 0 0 0 0 0 0 0 
0 0 0 0 0 0 0 0 0 0 0 
0 0 0 0 0 0 0 0 0 0 0 
0 -0.0002494387145045151 0.0007835069531326484 0 -0.0002280349874837367 0 0 0 -0.0002043072598067386 0 0 
0 0 0 0 0 0 0 0 0 0 0 
0 0 0 0 0 0 0 0 0 0 0 
0 0 0 0 0 0 0 0 0 0 0 
0 0 0 0 0 0 0 0 0 0 0 
0 0 0 0 0 0 0 0 0 0 0 
0 0 0 0 0 0 0 0 0 0 0 
0 0 0 0 0 0 0 0 0 0 0 
0.0008830510943375457 -0.0004754257036400508 0 0 0 0 0 -0.0006635087208458552 0 0 0 
0 0 0 0 0 0 0 0 0 0 0 
-0.001564817978088181 0 0.008324760357683234 0.001680863948372217 -0.006965376655396047 -0.0001692678647886 0.001954541014945738 3.388131789017201e-21 -0.0002005549401160502 0 0 
0 0 0 0 0 0 0 0 0 0 0 
0 0 0 0 0 0 0 0 0 0 0 
0 0 0 0 0 0 0 0 0 0 0 
0 0 0 0 0 0 0 0 0 0 0 
0 0 0 0 0 0 0 0 0 0 0 
0 0 0 0 0 0 0 0 0 0 0 
0 0 0 0 0 0 0 0 0 0 0 
0 0 0 0 0 0 0 0 0 0 0 
0 0 0 0 0 0 0 0 0 0 0 
0 0 0 0 0 0 0 0 0 0 0 
0 0 0 0 0 0 0 0 0 0 0 
0 0 0 0 0 0 0 0 0 0 0 
0 0 0 0 0 0 0 0 0 0 0 
0 0 0 0 0 0 0 0 0 0 0 
0 0 0 0 0 0 0 0 0 0 0 
0 0 0 0 0 0 0 0 0 0 0 
0 0 0 0 0 0 0 0 0 0 0 
0 0 0 0 0 0 0 0 0 0 0 
0 0 0 0 0 0 0 0 0 0 0 
0 0 0 0 0 0 0 0 0 0 0 
0 0 0 0 0 0 0 0 0 0 0 
0 0 0 0 0 0 0 0 0 0 0 
0 0 0 0 0 0 0 0 0 0 0 
0 0 0 0 0 0 0 0 0 0 0 
-0.007621764166617325 0 0.004394670181767981 -0.0004559296819129754 0 0 0 0 0 -0.0003286404542674457 0 
0 0 0 -4.008925190335319e-05 -0.0002127869311468364 0 0 0.0002592184670027359 0 0 0 
0 0 0 0 0 0 0 0 0 0 0 
0 0 0 0 0 0 0 0 0 0 0 
0 0 0 0 0 0 0 0 0 0 0 
0 -6.066433665837761e-05 0.001363619375845146 -0.000696531013046544 -0.001535877625707265 0 0 0 0 0 0 
0 0 0 0 0 0 0 0 0 0 0 
0 0 0 0 0 0 0 0 0 0 0 
0 0 0 0 0 0 0 0 0 0 0 
0 0 0 0 0 0 0 0 0 0 0 
0 0 0 0 0 0 0 0 0 0 0 
4.065758146820642e-20 0 -0.0002831087091841196 0.001637252980056179 0.001684694076268571 -0.0002320143657933428 0 -0.0001193145752970334 -0.0001513936147185324 -0.0004058319824530128 0 
0.004838286480945202 0 -0.001097298539740056 -9.859132856495177e-05 0 0 0 -0.000616759057080403 -9.741714779143539e-05 0 0 
0 0 0 0 0 0 0 0 0 0 0 
0 0 0 0 0 0 0 0 0 0 0 
0 0 0 0 0 0 0 0 0 0 0 
0 0 0.00145155880609016 -0.001326963748716211 0 0 -0.0002238158185822967 0 0 0 0 
0 0 0 0 0 0 0 0 0 0 0 
0 0 0 0 0 0 0 0 0 0 0 
0 0 0 0 0 0 0 0 0 0 0 
0 0 0 0 0 0 0 0 0 0 0 
0 0 0 0 0 0 0 0 0 0 0 
0 0 0 0 0 0 0 0 0 0 0 
0 0 0 0 0 0 0 0 0 0 0 
0 0 0 0 0 0 0 0 0 0 0 
0 0 0 0 0 0 0 0 0 0 0 
0 0 0 0 0 0 0 0 0 0 0 
0 0 0 0 0 0 0 0 0 0 0 
0 0 0 0 0 0 0 0 0 0 0 
0 0 0 -0.0004061025618660575 0 0 0 -0.001086660278929491 -0.0002561893503491874 0 0 
0 0 0 0 0 0 0 0 0 0 0 
0 0 0 0 0 0 0 0 0 0 0 
0 0 0 0 0 0 0 0 0 0 0 
0 0 0 0 0 0 0 0 0 0 0 
0 0 0 0 0 0 0 0 0 0 0 
0 0 0 0 0 0 0 0 0 0 0 
0 0 0 0 0 0 0 0 0 0 0 
0 0 0 0 0 0 0 0 0 0 0 
0 0 0 0 0 0 0 0 0 0 0 
0 0 0 0 0 0 0 0 0 0 0 
0 0 0 0 0 0 0 0 0 0 0 
0 0 0 0 0 0 0 0 0 0 0 
0 0 0 0 0 0 0 0 0 0 0 
0 0 0 0 0 0 0 0 0 0 0 
0.003020795548905043 0 0 -0.0004176352490098209 0 -0.001178778920377848 0 -0.0004633135423448828 0 0 -0.0002330370735178018 
0.006491384405433159 -0.0005840541207672284 0 0 -0.002080135743361955 -0.0001227825341507179 0 0.0005668306806261786 -0.0001366803748301151 0 0 
0.0005346214629073346 -0.0002134180810124588 -8.715137816290653e-05 0 -1.355252715606881e-20 0.0007081877750111933 -1.164694778986403e-05 -5.621217362362352e-05 -9.195117471356627e-05 -3.496065067291909e-05 -3.110747266843204e-05 
0 0 0 0 0 0 0 0 0 0 0 
0 0 0 0 0 0 0 0 0 0 0 
-0.005188775719712294 0 -0.0008161536688300011 -0.0005057958504724339 0.005369045567827561 -7.994262008817662e-06 0 0 -0.0008370181606329072 -0.0003682692477991873 0 
0 0 0 0 0 0 0 0 0 0 0 
0 0 0 -0.0005143439795075904 0 -5.948701250024159e-05 0.002380310884987723 -0.001601233262248973 0 -0.0008493912642396311 0 
0 0 0 0 0 0 0 0 0 0 0 
0 0 0 0 0 0 0 0 0 0 0 
0 0 0 0 0 0 0 0 0 0 0 
0 0 0 0 0 0 0 0 0 0 0 
0 0 0 0 0 0 0 0 0 0 0 
0 0 0 0 0 0 0 0 0 0 0 
0 0 0 0 0 0 0 0 0 0 0 
0 0 0 0 0 0 0 0 0 0 0 
0 0 0 0 0 0 0 0 0 0 -0.0005439276922442509 
0 0 0 0 0 0 0 0 0 0 0 
0 0 0 0 0 0 0 0 0 0 0 
0 0 0 0 0 0 0 0 0 0 0 
0 0 0 0 0 0 0 0 0 0 0 
0 0 0 0 0 0 0 0 0 0 0 
0 0 0 0 0 0 0 0 0 0 0 
0 0 0 0 0 0 0 0 0 0 0 
0 0 0 0 0 0 0 0 0 0 0 
0 0 0 0 0 0 0 0 0 0 0 
0 -0.0005577314795447047 -0.0002409375744481538 -6.920859987809657e-05 0.001326150130761631 -6.21174909784637e-05 0 -0.0005383762927057696 0 0 0 
0 0 0 0 0 0 0 0 0 0 0 
0 0 0 0 0 0 0 0 0 0 0 
0 0 0 0 0 0 0 0 0 0 0 
0 0 0 0 0 0 0 0 0 0 0 
0 0 0 0 0 0 0 0 0 0 0 
0 0 0 0 0 0 0 0 0 0 0 
0 0 0 0 0 0 0 0 0 0 0 
0 0 0 0 0 0 0 0 0 0 0 
0 0 0 0 0 0 0 0 0 0 0 
0 0 0 0 0 0 0 0 0 0 0 
0 0 0 0 0 0 0 0 0 0 0 
0 0 0 0 0 0 0 0 0 0 0 
0 0 0 0 0 0 0 0 0 0 0 
-0.01062546513210635 0.005467514299052044 0 0 0 0 0 0 0 0 0 
0 0 0 0 0 0 0 0 0 0 0 
0 0 0 0 0 0 0 0 0 0 0 
0 0 0 0 0 0 0 0 0 0 0 
0 0 0 0 0 0 0 0 0 0 0 
0 0 0 0 0 0 0 0 0 0 0 
0 0 0 0 0 0 0 0 0 0 0 
0 0 0 0 0 0 0 0 0 0 0 
0 0 0 0 0 0 0 0 0 0 0 
0 0 0 0 0 0 0 0 0 0 0 
0 0 0 0 0 0 0 0 0 0 0 
0 0 0 0 0 0 0 0 0 0 0 
-0.006591355229644196 0 0 0 0.009087108320552163 0 0 0 0 0 0 
0 0 0 0 0 0 0 0 0 0 0 
0 0 0 0 0 0 0 0 0 0 0 
0 0 0 0 0 0 0 0 0 0 0 
0 0 0 0 0 0 0 0 0 0 0 
0 0 0 0 0 0 0 0 0 0 0 
0 0 0 0 0 0 0 0 0 0 0 
0 0 0 0 0 0 0 0 0 0 0 
0 0 0 0 0 0 0 0 0 0 0 
0 0 0 0 0 0 0 0 0 0 0 
0 0 0 0 0 0 0 0 0 0 0 
0 0 0 0 0 0 0 0 0 0 0 
0 0 0 0 0 0 0 0 0 0 0 
0 0 0 0 0 0 0 0 0 0 0 
0 -0.002498413899038682 0 0 0 0.0006769634970498518 0 0 0 0 0 
0 0 0 0 0 0 0 0 0 0 0 
0 0 0 0 0 0 0 0 0 0 0 
0 0 0 0 0 0 0 0 0 0 0 
0 0 0 0 0 0 0 0 0 0 0 
0 0 0 0 0 0 0 0 0 0 0 
0 0 0 0 0 0 0 0 0 0 0 
0 0 0 0 0 0 0 0 0 0 0 
0 0 0 0 0 0 0 0 0 0 0 
0 0 0 0 0 0 0 0 0 0 0 
0 0 0 0 0 0 0 0 0 0 0 
0 0 0 0 0 0 0 0 0 0 0 
0 0 0 -0.0002185133783480889 0 0 0 -0.0001456252086474795 0 0 0 
0 0 0 0 0 0 0 0 0 0 0 
0 0 0 0 0 0 0 0 0 0 0 
0 0 -0.0003072323410940204 0 0 -0.0005677365500878174 0 -0.0005563586080540948 0 0.001819742961461371 0 
0 0 0 0 0 0 0 0 0 0 0 
-0.003267016002191475 0 0 0 0 0.002696934632437982 0 0 0 0 0 
0 0 0 0 0 0 0 0 0 0 0 
0 0 0 0 0 0 0 0 0 0 0 
0 0 0 0 0 0 0 0 0 0 0 
0 0 0 0 0 0 0 0 0 0 0 
0 0 0 0 0 0 0 0 0 0 0 
0 -0.000193360012930555 -0.0003295895193249323 0.0007690289612701878 0 0 -0.0001846669993054496 0 0 0 0 
0 0 0 0 0 0 0 0 0 0 0 
0 0 0 0 0 0 0 0 0 0 0 
0 0 0 0 0 0 0 0 0 0 0 
0 0 0 0 0 0 0 0 0 0 0 
0 0 0 0 0 0 0 0 0 0 0 
0 0 0 0 0 0 0 0 0 0 0 
-0.0004232353643200554 0 0 0 0 0 0 6.776263578034403e-21 0 0 0 
0 0 0 0 0 0 0 0 0 0 0 
0 0 0 0 0 0 0 0 0 0 0 
0 0 0 0 0 0 0 0 0 0 0 
0 0 0 0 0 0 0 0 0 0 0 
0 0 0 0 0 0 0 0 0 0 0 
0 0 0 0 0 0 0 0 0 0 0 
0 0 0 0 0 0 0 0 0 0 0 
0 0 0 0 0 0 0 0 0 0 0 
0 0 0 0 0 0 0 0 0 0 0 
0 0 0 0 0 0 0 0 0 0 0 
0 -0.0001279528196374419 0 -0.0003586970432117381 0 0 0 0.0008411827165046883 0 0 0 
-0.0002768764059140396 0 -0.0007345426203538005 0 0 0 0.001073911769707567 0 0 0 0 
0 0 0 0 0 0 0 0 0 0 0 
0 0 0 0 0 0 0 0 0 0 0 
0 0 0 0 0 0 0 0 0 0 0 
0 0 0 0 0 0 0 0 0 0 0 
0 0 0 0 0 0 0 0 0 0 0 
0 0 0 0 0 0 0 0 0 0 0 
0 0 0 0 0 0 0 0 0 0 0 
0 0 0 0 0 0 0 0 0 0 0 
0 0 0 0 0 0 0 0 0 0 0 
0 0 0 0 0 0 0 0 0 0 0 
0 0 0 0 0 0 0 0 0 0 0 
0 0 0 0 0 0 0 0 0 0 0 
0 0 0 0 0 0 0 0 0 0 0 
0 0 0 0 0 0 0 0 0 0 0 
0 0 0 0 0 0 0 0 0 0 0 
0 0 0 0 0 0 0 0 0 0 0 
0 0 0 0 0 0 0 0 0 0 0 
0 0 0 0 0 0 0 0 0 0 0 
0 0 0 0 0 0 0 0 0 0 0 
0 0 0 0 0 0 0 0 0 0 0 
0 0 0 0 0 0 0 0 0 0 0 
0 0 0 0 0 0 0 0 0 0 0 
0 0 0 0 0 0 0 0 0 0 0 
0 0 0 0 0 0 0 0 0 0 0 
0 0 0 0 0 0 0 0 0 0 0 
0 0 0 0 0 0 0 0 0 0 0 
0 0 0 0 0 0 0 0 0 0 0 
0 0 0 0 0 0 0 0 0 0 0 
0 0 0 0 0 0 0 0 0 0 0 
0 0 0 0 0 0 0 0 0 0 0 
0 0 0 0 0 0 0 0 0 0 0 
0 0 0 0 0 0 0 0 0 0 0 
0 0 0 0 0 0 0 0 0 0 0 
0 0 0 0 0 0 0 0 0 0 0 
0 0 0 0 0 0 0 0 0 0 0 
0 0 0 0 0 0 0 0 0 0 0 
-0.02992765074099187 -0.0004875655965421141 -0.007126705573968101 -0.0001906742432364534 0.03618284575999017 -0.0008803963003454866 0.0006750648883036046 -0.0004895633481259292 -0.001425723935738925 -4.371501211187658e-05 -5.968826978908345e-05 
0 0 0 0 0 0 0 0 0 0 0 
0 0 0 0 0 0 0 0 0 0 0 
0 0 0 0 0 0 0 0 0 0 0 
-0.0002467360775847785 0 -0.001394501361435009 0 0 0 0 0 0.002923912581824349 -0.00107963925027653 0 
0 0 0 0 0 0 0 0 0 0 0 
0 0 0 -0.0001405690282337199 0 -0.0002137476421004282 0 0.0004205161185671731 0 0 0 
0 0 0 0 0 0 0 0 0 0 0 
0 0 0 0 0 0 0 0 0 0 0 
0 0 0 0 0 0 0 0 0 0 0 
0 0 0 0 0 0 0 0 0 0 0 
0 -0.0004082331691433477 0 0 0 0 0 -0.000464371870446324 0 0.001324974694096668 0 
0 0 0 0 0 0 0 0 0 0 0 
0 -5.677816515352404e-05 0 -0.0001021908708670254 0 0 0 0 -7.27669193764194e-05 0 0 
0 0 0 0 0 0 0 0 0 0 0 
0 0 0 0 0 0 0 0 0 0 0 
0 0 0 0 0 0 0 0 0 0 0 
0 8.9391329344652e-05 0 0 0 0 -0.0004469070768373061 0 0 0 0 
0 0 0 0 0 0 0 0 0 0 0 
0 0 0 0 0 0 0 0 0 0 0 
0 0 0 0 0 0 0 0 0 0 0 
0 0 0 0 0 0 0 0 0 0 0 
0 0 0 0 0 0 0 0 0 0 0 
0 0 0 0 0 0 0 0 0 0 0 
-0.0002206698572824695 -0.0002473167140245175 -0.0002380438069246927 -0.001746766381525094 0 0.002279951047979798 0 0 -2.604294536393822e-05 0 0 
0 0 0 0 0 0 0 0 0 0 0 
0 0 0 0 0 0 0 0 0 0 0 
0 0 0 0 0 0 0 0 0 0 0 
0 0 0.002405917107220466 0 -0.0004594168648549303 0 0 -0.0004610161520587984 0 0 0 
0 0 0 0 0 0 0 0 0 0 0 
0 0 0 0 0 0 0 0 0 0 0 
0 0 0 0 0 0 0 0 0 0 0 
0 0 0 0 0 0 0 0 0 0 0 
0.0002948823700783019 0 0 0 0 0 0 0 0 0 0 
-0.004026536623961217 0 0 0 -0.0004983778906955618 0 0 0 -0.0007455990562953651 0 0 
0 0 0 0 0 0 0 0 0 0 0 
0 0 0 0 0 0 0 0 0 0 0 
0 0 0 0 0 0 0 0 0 0 0 
0 0 0 0 0 0 0 0 0 0 0 
-0.003288559464026309 -0.0004283008325949556 -0.0003895684136686473 0 -0.001138062373308286 -7.965110741511414e-05 0 0.006045056557024817 -0.0006104833560529681 0 0 
0 0 -5.741074177766956e-05 -0.0007908811010150793 0 -4.425316552230884e-05 0 0.004553959857311943 0 0 0 
0 0 0 0 0 0 0 0 0 0 0 
0 0 0 0 0 0 0 0 0 0 0 
0 0 0 0 0 0 0 0 0 0 0 
0 0 0 0 0 0 0 0 0 0 0 
0 0 0 0 0 0 0 0 0 0 0 
0 0 0 0 0 0 0 0 0 0 0 
0 0 0 0 0 0 0 0 0 0 0 
0 0 0 0 0 0 0 0 0 0 0 
-0.005422409222254694 -0.00143384289425538 0.0009137117761898591 0 0 0 0 0 0 0.003973411022090058 0 
0 0 0 0 0 0 0 0 0 0 0 
0 0 0 0 0 0 0 0 0 0 0 
0 0 0 0 0 0 0 0 0 0 0 
0 0 0 0 0 0 0 -9.518800094922603e-05 0 6.776263578034403e-21 0 
0 0.000136402404342243 -0.002140521692114886 -0.0004476877924402574 -0.001367093619857599 0 0 0 0 0 0 
0 0 0 0 0 0 0 0 0 0 0 
0 0 0 0 0 0 0 0 0 0 0 
0 0 0 0 0 0 0 0 0 0 0 
0 0 0 0 0 0 0 0 0 0 0 
-0.001114022109882378 -0.0008252298165445145 0.003792483968784244 -0.0001507682624237645 -0.003724958055815001 0 0 0 0 0 0 
0 0 0 0 0 0 0 0 0 0 0 
0 0 0 0 0 0 0 0 0 0 0 
0 0 0 0 0 0 0 0 0 0 0 
0 0 0 0 0 0 0 0 0 0 0 
0 0 0 0 0 0 0 0 0 0 0 
0 0 0 0 0 0 0 0 0 0 0 
0 0 0 0 0 0 0 0 0 0 0 
0 -0.0003818869089955947 0 0 0 0 0 -2.264743139174383e-05 0.000204886280800554 0 -0.0001116698636121921 
0 0 0 0 0 0 0 0 0 0 0 
0 0 0 0 0 0 0 0 0 0 0 
0 0 0 0 0 0 0 0 0 0 0 
0 0 0 0 0 0 0 0 0 0 0 
-0.0002696866309253401 -0.000375808625519231 0 -0.00042111844279161 0.002142128885535415 -0.0005845776435086312 0 -0.00161842987177514 1.295849129792578e-05 -0.0008881884765459529 0 
0 0 0 -0.0001368186314463889 0 0 0 -7.061816634712843e-05 0 0.001013957652010283 -3.006376006262975e-05 
0 0 0 0 0 0 0 0 0 0 0 
-0.0002473927342768915 0 -0.0002168044037417216 0 0.0005323414421123098 0 0 0 -0.0001979204888449311 0 0 
0 0 0 -0.0004653369808690779 0.0009785009786029786 0 0 -0.0001526378326685182 0 0 -2.327341341859511e-05 
0 0 0 0 0 0 0 0 0 0 0 
0 0 0 0 0 0 0 0 0 0 0 
0 0 0 0 0 0 0 0 0 0 0 
0 0 0 0 0 0 0 0 0 0 0 
0 0 0 0 0 0 0 0 0 0 0 
0 0 0 0 0 0 0 0 0 0 0 
0 0 0 0 0 0 0 0 0 0 0 
0 0 0 -0.0002451063333535422 0 0 -0.0001500434618073029 0 0 0 0 
0 0 -0.0001545507154141624 -0.0001886956419050647 0 -2.780043235050904e-05 0 0 0 0.0003969257024891547 0 
0 0 0 0 0 0 0 0 0 0 0 
0 0 0 0 0 0 0 0 0 0 0 
0 0 -0.0004419198724136145 -0.0002742758431908086 0 0 0 0 -5.100396209645869e-05 0 0 
0 0 0 0 0 0 0 0 0 0 0 
0 0 -0.0002859071586175655 0 0 -7.582879534564555e-05 0 -0.0002893787112868789 0.0003680280973894702 0 0 
0 -0.000143839520648216 -0.001581676223979217 0 0 0 0 0 0 0 0 
0.001249376055817329 -0.0002230767946014229 -0.000972622805734339 -8.960332787198867e-06 -0.0002824801210516512 0 0 0 -0.0001398870748418542 0 -0.0001125664792877804 
0 0 0 0 0 0 0 0 0 0 0 
0 0 0 0 0 -0.0003035008868321549 0 0 0 0 0 
0 0 0 0 0 0 0 0 0 0 0 
0 0 0 0 0 0 0 0 0 0 0 
0 0 0 0 0 0 0 0 0 0 0 
0 0 0 0 0 0 0 0 0 0 0 
0 0 0 0 0 0 0 0 0 0 0 
0 0 0 0.000834450123127775 -1.712141605365224e-05 0 -0.0003387371760505737 0 -4.743682381118783e-05 -0.0007644449090981572 0 
0 0 0 0 0 0 0 0 0 0 0 
0 0 0 0 0 0 0 0 0 0 0 
0 0 0 0 0 0 0 0 0 0 0 
0 0 0 0 0 0 0 0 0 0 0 
0 0 0 0 0 0 0 0 0 0 0 
0 0 0 0 0 0 0 0 0 0 0 
0 0 0 0 0 0 0 0 0 0 0 
0 0 0 0 0 0 0 0 0 0 0 
0 0 0 0 0 0 0 0 0 0 0 
0 0 0.000770345149261669 0 0 0 0 0 0 0 0 
0 0 0 0 0 0 0 0 0 0 0 
0 0 0 0 0 0 0 0 0 0 0 
0 0 0 0 0 0 0 0 0 0 0 
0 0 0 0 0 0 0 0 0 0 0 
0 0 0 0 0 0 0 0 0 0 0 
0 0 0 0 0 0 0 0 0 0 0 
0 0 0 0 0 0 0 0 0 0 0 
-0.001974610905981801 -0.0004015035197307434 0 0 0 0.000430694990874949 -0.0001373652349915895 0 0 0 0 
-0.0004288740611405744 -2.710505431213761e-20 0 -0.0003515078452013308 0 0.001679413310114098 -0.0003290053846941523 -0.0004393758120997373 -0.0004768318735061633 0 -0.0001472007373823948 
0 0 0 0 0 0 0 0 0 0 0 
0 0 0 0 0 0 0 0 0 0 0 
0 0 0 0 0 0 0 0 0 0 0 
0 0 0 0 0 0 0 0 0 0 0 
0 0 0 0 0 0 0 0 0 0 0 
0 0 0 0 0 0 0 0 0 0 0 
0 0 0 0 0 0 0 0 0 0 0 
0 0 0 0 0 0 0 0 0 0 0 
0 0 0 0 0 0 0 0 0 0 0 
0 0 0 0 0 0 0 0 0 0 0 
0 0 0 0 0 0 0 0 0 0 0 
0 0 -0.0003831794349165614 0 0 -5.348559307982298e-05 0 0.001615955424799469 0 -0.0002502728083215297 0 
0 0 0 0 0 0 0 0 0 0 0 
0 0 0 0 0 0 0 0 0 0 0 
0 0 0 0 0 0 0 0 0 0 0 
0 0 0 0 0 0 0 0 0 0 0 
0 0 0 0 0 0 0 0 0 0 0 
0 0 0 0 0 0 0 0 0 0 0 
0 0 -0.00108725269263045 -0.0007479586169796731 0.000502130951425305 0 -8.220052935261269e-06 0 -0.00123233776209585 -0.002185217895362331 0 
0 0 0 0 0 0 0 0 0 0 0 
0 0 0 0 0 0 0 0 0 0 0 
0 0 -0.01737070755655939 -0.0002365945115249905 0.0008317756345811063 0 0 -0.0001923787961485249 -3.054558487421954e-05 0 -0.0004029103155937237 
0 0 0 0 0 0 0 0 0 0 0 
-0.003141293350643671 0 0 -0.0001136438361345729 -0.001773909384161003 -0.0006474860081948784 -0.0007930119031236149 0 0 0 0.001680872929599912 
0 0 0 0 0 0 0 0 0 0 0 
0 0 0 0 0 0 0 0 0 0 0 
0.00394869207582257 0 -0.01149378144083352 0 0.01094457122940393 0 0 0 0 0.007984598849659467 0 
0 0 0 0 0 0 0 0 0 0 0 
0 0 0 0 0 0 0 0 0 0 0 
0 0 0 0 0 0 0 0 0 0 0 
0 -0.005474260571123629 0 0 0.006573212997526096 0 -0.0002194943909096364 0 -0.0007368804958328706 -0.0004440768219035788 0 
0 0 0 0 0 0 0 0 0 0 0 
0 0 0 0 0 0 0 0 0 0 0 
0 0 0 0 0 0 0 0 0 0 0 
0 0 0 0 0 0 0 0 0 0 0 
0 0 0 0 0 0 0 0 0 0 0 
0 0 0 0 0 0 0 0 0 0 0 
0 0 0 0 0 0 0 0 0 0 0 
-0.001046636126191027 -0.0006645240932064268 0.001995064334511171 0 0 0 -0.0008061133097459458 0 0 0 -0.000685637271728774 
0 0 0 0 0 0 0 0 0 0 0 
0 0 0 0 0 0 0 0 0 0 0 
0 0 0 0 0 0 0 0 0 0 0 
0 0 0 0 0 0 0 0 0 0 0 
0 0 0 0 0 0 0 0 0 0 0 
0 0 0 0 0 0 0 0 0 0 0 
0 0 0 0 0 0 0 0 0 0 0 
0 0 0 0 0 0 0 0 0 0 0 
0 0 0 0 0 0 0 0 0 0 0 
0 0 0 0 0 0 0 0 0 0 0 
0 0 0 0 0 0 0 0 0 0 0 
0 0 0 0 0 0 0 0 0 0 0 
0 0 0 0 0 0 0 0 0 0 0 
0 0 0 0 0 0 0 0 0 0 0 
-0.0001135053241897364 0 -8.95003645338152e-05 0.0006257157918431494 0 -6.846154663157993e-05 0 -0.0003513134568364392 0 0 0 
-0.001656018423633787 0 0 -1.845385438343232e-05 0 0 0 0 0.0004840416661858463 0 0 
0 0 -0.0005025945165383425 -0.003265551351110469 0 0 0 0 0 0.00406487969598447 0 
0 0 0 0 0 0 0 0 0 0 0 
0 0 0 0 0 0 0 0 0 0 0 
0 0 0 0 0 0 0 0 0 0 0 
0 0 0 0 0 0 0 0 0 0 0 
0 0 0 0 0 0 0 0 0 0 0 
0 0 0 0 0 0 0 0 0 0 0 
0 0 0 0 0 0 0 0 0 0 0 
0 0 0 0 0 0 0 0 0 0 0 
0 0 0 0 0 0 0 0 0 0 0 
0 0 0 0 0 0 0 0 0 0 0 
0 0 0 0 0 0 0 0 0 0 0 
0 0 0 0 0 0 0 0 0 0 0 
0 0 0 0 0 0 0 0 0 0 0 
0 0 0 0 0 0 0 0 0 0 0 
0 0 0 0 0 0 0 0 0 0 0 
0 0 0 0 0 0 0 0 0 0 0 
0 0 0 0 0 0 0 0 0 0 0 
0 0 0 0 0 0 0 0 0 0 0 
-0.000217125841218214 0 -9.634388073737943e-05 -0.0001025822830540666 0 0 0 0.0006426712414105559 0 -0.0001966976608883781 0 
0.03101083938007317 0 -0.006355760800285635 -0.001172713217884302 -0.01439672231907524 0 0 0 0 0 -0.0001045314039523461 
0 0 0 0 0 0 0 0 0 0 0 
0 0 0 0 0 0 0 0 0 0 0 
0 0 0 0 0 0 0 0 0 0 0 
0 0 0 0 0 0 0 0 0 0 0 
0 0 0 0 0 0 0 0 0 0 0 
0 0 0 0 0 0 0 0 0 0 0 
0 0 0 0 0 0 0 0 0 0 0 
0 0 0 0 0 0 0 0 0 0 0 
0 0 0 0 0 0 0 0 0 0 0 
0 0 0 0 0 0 0 0 0 0 0 
0 0 0 0 0 0 0 0 0 0 0 
0 0 0 0 0 0 0 0 0 0 0 
0 0 0 0 0 0 0 0 0 0 0 
0 0 0 0 0 0 0 0 0 0 0 
0 0 0 0 0 0 0 0 0 0 0 
0 0 0 0 0 0 0 0 0 0 0 
-0.01494871157883257 0 0.008871860074231675 0 0 0 0 -0.0008098642281939232 0 0 0 
0 0 0 0 0 0 0 0 0 0 0 
0 0 0 0 0 0 0 0 0 0 0 
0 0 0 0 0 0 0 0 0 0 0 
0 0 0 0 0 0 0 0 0 0 0 
0 0 0 0 0 0 0 0 0 0 0 
0 0 0 0 0 0 0 0 0 0 0 
0 0 0 0 0 0 0 0 0 0 0 
0 0 0 0 0 0 0 0 0 0 0 
0 0 0 0 0 0 0 0 0 0 0 
0 0 0 0 0 0 0 0 0 0 0 
0 0 0 0 0 0 0 0 0 0 0 
0 0 0 0 0 0 0 0 0 0 0 
0 0 0 0 0 0 0 0 0 0 0 
0 0 0 -0.0001290017695002539 0 0 0 0.0004282521268578731 0 0 0 
0 0 0 0 0 0 0 0 0 0 0 
0 0 0 0 0 0 0 0 0 0 0 
0 0 0 0 0 0 0 0 0 0 0 
0 0 0 0 0 0 0 0 0 0 0 
0 0 0 0 0 0 0 0 0 0 0 
0 0 0 0 0 0 0 0 0 0 0 
0 0 0 0 0 0 0 0 0 0 0 
0 0 0 0 0 0 0 0 0 0 0 
0 0 0 0 0 0 0 0 0 0 0 
-0.002307019673388819 -1.690189187388693e-05 -0.001552216894462955 0.001241508705507467 -0.000134107233441913 -0.0002229595997176892 -0.0001668766813986473 -0.003358395033083024 -0.0004643094116958878 0.001175150789958107 0.0001863158444365521 
0 0 0 0 0 0 0 0 0 0 0 
0 -0.001552943296076498 0 -0.0004596497181089991 0 0 0 -1.715680331103038e-05 -7.490169044446722e-05 0.003301805097520237 -6.161227112751637e-05 
0.003309409342143975 0.0004626448708811752 0 -7.470290388120002e-05 0 -0.0008469194551125827 0 0 -7.366280142764742e-05 0 0 
-0.005763424516870984 0 -4.743384504624082e-20 -0.0008219675129681293 0 -0.0003416514272939741 -7.020650343437898e-05 0.0045482758071392 1.355252715606881e-20 0 0 
0.004250965119343593 0 0 0 -0.00032794846345449 -0.0003461517577951559 0 -0.001926393860210032 0.001599115902046425 0 0 
0 0 0 0 0 0 0 0 0 0 0 
0 0 0 0 0 0 0 0 0 0 0 
0 -0.000278447306174223 -0.000236807307512336 -0.001205188081365118 0 -0.00184545396876973 -0.0004467346216835092 0 0.005762095267236023 0 0 
0 0 0 0 0 0 0 0 0 0 0 
0 0 0 0 0 0 0 0 0 0 0 
0 0 0 0 0 0 0 0 0 0 0 
0 0 0 0 0 0 0 0 0 0 0 
0 0 0 0 0 0 0 0 0 0 0 
0 0 0 0 0 0 0 0 0 0 0 
0 0 0 0 0 0 0 0 0 0 0 
0 0 0 0 0 0 0 0 0 0 0 
0 0 0 0 0 0 0 0 0 0 0 
0 0 0 0 0 0 0 0 0 0 0 
0 0 0 0 0 0 0 0 0 0 0 
0.002262152161335311 0 0.003080798903623254 -0.0007063212719703697 -0.0002753733091997677 0.0001178666505688262 0 -0.001158671996704299 -0.00136925898046107 0.001560773208539351 0 
0 0 1.332474579479983e-05 0 0 -0.0002050258809178593 0 -0.0004047665910690404 -9.194965258905043e-06 -0.00013475019753001 0 
0 0 0 0 0 0 0 0 0 0 0 
0 0 0 0 0 0 0 0 0 0 0 
0.00299746193102003 0 0 0 -0.0009460217936520128 -0.00011647297505038 0 -0.0001494416296691335 -4.579356008353404e-05 -0.0001759818474010706 0 
0 0 -0.0006216510005799502 -0.0001473430233243581 0.001601893964580468 -9.233066700820844e-05 0 0 -0.0001953250875528177 0 0 
-6.776263578034403e-21 0 0 -6.535686522229049e-05 0 -0.000181952512845867 0 0 0.0008011590785354126 0 0 
0 0 0 0 0 0 0 0 0 0 0 
0 0 0 0 0 0 0 0 0 0 0 
0 0 0 0 0 0 0 0 0 0 0 
-0.01605113926652412 0 0 -0.004246240871556194 0.01851513548075132 0 0 0 -0.0001017851752936312 0 0 
0 0 0 0 0 0 0 0 0 0 0 
0.0006943154146008038 0 0 0 -0.004146777009388499 0 0 0 0 0 0 
-0.0006206063468813362 0 0 0 0 0.00363724806713517 0 -0.0004002543057148686 0 0 0 
0 0 0 0 0 0 0 0 0 0 0 
0 0 0 0 0 0 0 0 0 0 0 
0 0 0 0 0 0 0 0 0 0 0 
0 0 0 0 0 0 0 0 0 0 0 
0 0.006365745663807331 -0.00234530609716084 0 0 -5.334169160004159e-05 0 0 0 -0.0006326091657979561 0 
0 0 0 0 0 0 0 0 0 0 0 
0 0 0 0 0 0 0 0 0 0 0 
0 0 0 0 0 0 0 0 0 0 0 
0 0 0 0 0 0 0 0 0 0 0 
0 0 0 0 0 0 0 0 0 0 0 
0 0 0 0 0 0 0 0 0 0 0 
-0.002208462730037903 0 0 -4.191071655081626e-05 0 0 -0.0002456250400775627 0.00101334591481446 0 0 0 
0 0 0 0 0 0 0 0 0 0 0 
0 0 0 0 0 0 0 0 0 0 0 
0 0 0 0 0 0 0 0 0 0 0 
0 0 0 0 0 0 0 0 0 0 0 
0 0 0 0 0 0 0 0 0 0 0 
0 0 0 0 0 0 0 0 0 0 0 
0 0 0 0 0 0 0 0 0 0 0 
0 0 0 0 0 0 0 0 0 0 0 
0 0 0 0 0 0 0 0 0 0 0 
0 0 0 0 0 0 0 0 0 0 0 
0 0 0 0 0 0 0 0 0 0 0 
0 0 0 0 0 0 0 0 0 0 0 
0 0 0 0 0 0 0 0 0 0 0 
0 0 0 0 0 0 0 0 0 0 0 
0 0 0 0 0 0 0 0 0 0 0 
-8.087364908248104e-05 0 0 0.0004016773501520745 0 -0.0002156773269318198 -1.484403976571686e-06 0 0 0 -0.0001415993474994425 
0 0 0 0 0 0 0 0 0 0 0 
0 0 0 0 0 0 0 0 0 0 0 
0 0 -0.001949882378503211 0 0 0 0 0 0 0 0 
0 0 0 0 0 0 0 0 0 0 0 
0 0 0 0 0 0 0 0 0 0 0 
0 0 0 0 0 0 0 0 0 0 0 
0 0 0 0 0 0 0 0 0 0 0 
0.00767410541230121 -0.0003435281680662106 -0.001368929517126161 -0.0009929272288113299 0 -0.001525152705622959 -6.911496780271064e-05 0 0 -2.54915782627998e-05 -0.0009018596697779959 
-4.535335927579419e-05 0 -0.001096440411013437 -0.0007455891754791305 -0.000222004236978992 0.001491857476776857 0 0 0 0 0 
0 0 0 0 0 0 0 0 0 0 0 
0 0 0 0 0 0 0 0 0 0 0 
0 0 0 0 0 0 0 0 0 0 0 
0 0 0 0 0 0 0 0 0 0 0 
0 0 0 0 0 0 0 0 0 0 0 
0 0 0 0 0 0 0 0 0 0 0 
0 0 0 0 0 0 0 0 0 0 0 
-0.001862625294366491 -0.0002079952181683557 0.001783616646815207 0 0 0 0 0 0 0 0 
0 0 0 0 0 0 0 0 0 0 0 
0 0 0 0 0 0 0 0 0 0 0 
0 0 0 0 0 0 0 0 0 0 0 
0 0 0 0.0005940130346787252 0 -0.0001487826274512984 -7.99121412539065e-06 0 0 0 0 
0 0 0 0 0 0 0 0 0 0 0 
0 0 0 0 0 0 0 0 0 0 0 
0 0 0 0 0 0 0 0 0 0 0 
0 0 0 0 0 0 0 0 0 0 0 
0 0 0 0 0 0 0 0 0 0 0 
0 0 0 0 0 0 0 0 0 0 0 
0 0 0 0 0 0 0 0 0 0 0 
0 0 0 0 0 0 0 0 0 0 0 
-0.001576909244519499 -0.001771450486082929 -0.0003911609061652841 -0.0003066578772224925 0.008192812286472916 0 0 0 0 0 0 
0 3.388131789017201e-20 -0.003715451605996497 0.0008535842110514427 -0.001310416915119229 -0.001219785931359147 0 3.388131789017201e-21 -0.0001351240586782741 -0.0006855253066730976 -1.546562032546346e-05 
0 0 0 0 0 0 0 0 0 0 0 
0 0 0 0 0 0 0 0 0 0 0 
0 0 0 0 0 0 0 0 0 0 0 
0 0 0 0 0 0 0 0 0 0 0 
0 0 0 0 0 0 0 0 0 0 0 
0 0 0 0 0 0 0 0 0 0 0 
0 0 0 0 0 0 0 0 0 0 0 
0 0 0 0 0 0 0 0 0 0 0 
0 0 0.000150741715697538 0 0 0 0 0 0 0 0 
0 0 0 0 0 0 0 0 0 0 0 
0 0 0 0 0 0 0 0 0 0 0 
0 0 0 0 0 0 0 0 0 0 0 
0 0 0 0 0 0 0 0 0 0 0 
0 0 0 0 0 0 0 0 0 0 0 
0 0 0 0 0 0 0 0 0 0 0 
0 0 0 0 0 0 0 0 0 0 0 
0 0 0.0004361496334056127 -0.001061418060894807 0 0 -0.0001595060485278563 -0.001123012130954856 0 -0.001760778054378066 0 
0 0 0 0 0 0 0 0 0 0 0 
0 0 0 0 0 0 0 0 0 0 0 
0 0 0 0 0 0 0 0 0 0 0 
0 0 0 0 0 0 0 0 0 0 0 
0 0 0 0 0 0 0 0 0 0 0 
0 0 0 0 0 0 0 0 0 0 0 
0 0 0 0 0 0 0 0 0 0 0 
0 0 0 0 0 0 0 0 0 0 0 
0 0 0 0 0 0 0 0 0 0 0 
0 0 0 0 0 0 0 0 0 0 0 
0 0 0 0 0 0 0 0 0 0 0 
0 0 0 0 0 0 0 0 0 0 0 
0 0 0 0 0 0 0 0 0 0 0 
0 0 0 0 0 0 0 0 0 0 0 
0 0 0 0 0 0 0 0 0 0 0 
0 0 0 0 0 0 0 0 0 0 0 
0 0 0 0 0 0 0 0 0 0 0 
0 0 0 0 0 0 0 0 0 0 0 
0 0 0 0 0 0 0 0 0 0 0 
0 0 0 0 0 0 0 0 0 0 0 
0 0 0 0 0 0 0 0 0 0 0 
0 0 0 0 0 0 0 0 0 0 0 
0 0 0 0 0 0 0 0 0 0 0 
0 0 0 0 0 0 0 0 0 0 0 
0 0 0 0 0 0 0 0 0 0 0 
0 0 0 0 0 0 0 0 0 0 0 
0 0 0 0 0 0 0 0 0 0 0 
0 0 0 0 0 0 0 0 0 0 0 
0 0 -0.0001475227145453124 0.001329987371421022 0 0 0 0 0 0 0 
0 0 0 0 0 0 0 0 0 0 0 
0 0 0 0 0 0 0 0 0 0 0 
0 0 0 0 0 0 0 0 0 0 0 
0 0 0 0 0 0 0 0 0 0 0 
0 0 0 0 0 0 0 0 0 0 0 
0 0 0 0 0 0 0 0 0 0 0 
0 0 0 0 0 0 0 0 0 0 0 
0 0 0 0 0 0 0 0 0 0 0 
0 0 0 0 0 0 0 0 0 0 0 
0 0 0 0 0 0 0 0 0 0 0 
-0.0005986479062461693 -0.0005128908344926671 0.001147615421705842 0 -0.0007491612366081716 0.0007044004448596194 0 0 0 0 -7.213483907816574e-05 
-0.001276687479936545 0 0 -4.529795397679127e-05 -0.0002363344357825425 -5.815474332748362e-05 0 0 0.0009979371187072777 0 -5.964694277004288e-05 
0 0 0 0 0 0 0 0 0 0 0 
0 0 0 0 0 0 0 0 0 0 0 
0 0 0 0 0 0 0 0 0 0 0 
0.001677838691932922 0 0 -0.0004953400296348489 -0.0001249930704804453 0 0 0 -0.0002268325217053697 0 0 
0 0 0 0 0 0 0 0 0 0 0 
0 0 0 0 0 0 0 0 0 0 0 
0 0 0 0 0 0 0 0 0 0 0 
0 0 0 0 0 0 0 0 0 0 0 
0 0 0 0 0 0 0 0 0 0 0 
0 0 0 0 0 0 0 0 0 0 0 
0 0 0 0 0 0 0 0 0 0 0 
0 0 0 0 0 0 0 0 0 0 0 
0 0 0 0 0 0 0 0 0 0 0 
0 0 0 0 0 0 0 0 0 0 0 
0 0 0 0 0 0 0 0 0 0 0 
0 0 0 0 0 0 0 0 0 0 0 
0 0 0 0 0 0 0 0 0 0 0 
0 0 0 0 0 0 0 0 0 0 0 
0 0 0 0 0 0 0 0 0 0 0 
0 0 0 0 0 0 0 0 0 0 0 
0 0 0 0 0 0 0 0 0 0 0 
0 0 0 0 0 0 0 0 0 0 0 
0 0 0 -0.0009560096882248131 0.001412091875892147 -0.0009430471938984601 -0.0001258619889909487 -0.001261427158385997 0.004981241150756187 -0.0002057785240154792 -0.0008080778251006413 
0 0 0 0.001787738671185337 -0.003465834525480208 0 -0.0003532486752894449 -0.0005862589806451793 0 0 0 
0 0 0 0 0 0 0 0 0 0 0 
0 0 0 0 0 0 0 0 0 0 0 
0 0 0 0 0 0 0 0 0 0 0 
0 -0.0004007037260656526 -0.0001099072349958951 0 0 -0.0001107806885286907 0 0 0 -0.0003874324704127483 0 
0 0 0 0 0 0 0 0 0 0 0 
0 0 0 0 0 0 0 0 0 0 0 
0 0 0 0 0 0 0 0 0 0 0 
0 0 0 0 0 0 0 0 0 0 0 
0 0 -6.05131450084127e-05 0 0.0008101605899075881 0 0 0 0 0 0 
0 0 0 0 0 0 0 0 0 0 0 
-0.0006413148453332549 -0.001423981219110905 -0.0009093303800259127 -0.0003015434601212427 -0.0001335032649794085 -0.0009090859472053975 -0.0006187204944969284 -0.0003016167210766379 -5.421010862427522e-20 -0.00150598239938049 0.001056231494441116 
-0.001736739414385893 0.002522072328998082 -0.0009503408596181681 -0.0004697117428166051 1.355252715606881e-20 -0.0003314704099002012 -9.503001247774729e-05 -0.0005918445519163951 -0.0003441571405888958 -2.8354180798927e-06 -0.001434693060783462 
0 -0.002088148178743577 -0.0009484301035261544 -0.000136044662852037 0.002731209203110453 0 0 0 0 0.001616818498568924 0 
0 0 0 0 0 0 0 0 0 0 -0.001143465206620183 
0 0 0 0 0 0 0 0 0 0 0 
0 0 0 0 0 0 0 0 0 0 0 
0 0 0 0 0 0 0 0 0 0 0 
0 0 0 0 0 0 0 0 0 0 0 
0 0 0 0 0 0 0 0 0 0 0 
0 0 0 0 0 0 0 0 0 0 0 
0.002395410652280685 0 0 0 0 -0.0007681124619258457 0 -6.203599375770174e-05 0 0 0 
0 0 0 0 0 0 0 0 0 0 0 
0 0 0 0 0 0 0 0 0 0 0 
-0.006162910015604267 0 0.00181740531747321 0.001866832768545416 0 -7.058108950037786e-05 0 -0.004214543144468449 0 0 0 
0 0 0 0 0 0 0 0 0 0 0 
0 0 0 0 0 0 0 0 0 0 0 
0.0002902190984810779 6.776263578034403e-21 0 -0.0006918839557090065 -0.002262673623326178 0.0004655500914187795 -0.0001367451970874016 0.007820125052377733 -0.0006456270589928298 -0.00200329912235359 0 
-0.002883655402817883 0 0 0.0008483043270103865 -0.0003796508736108897 5.082197683525802e-21 -0.0003987180167434182 0.002616024806153445 -0.0005670836827305648 0 0 
-0.002471271505513465 0 0.002546944516960075 0 0 0 0 0 0 0 0 
0.001184067550141784 0 -0.0036928139755137 0 0 0 0.001159980698063203 0.001043480864640452 -0.0008656323480450445 -0.000143159206489208 0 
0 0.0001941481285330097 0 -0.0002119129946455741 -5.572734733306132e-05 -0.0001449487040428894 -0.0004419643680804821 -0.0002587203438127869 0 0 0 
0 0 0 0 0 0 0 0 0 0 0 
0 0 -0.0002385566685079123 -0.0003823894437537606 0 0.0001395105342753476 0 -0.0002108659988462381 0 0 0 
0 0 0 0 0 0 0 0 0 0 0 
0 0 0 0 0 0 0 0 0 0 0 
0 0 0 0 0 0 0 0 0 0 0 
0 0 0 0 0 0 0 0 0 0 0 
0 0 0 0 0 0 0 0 0 0 0 
0 0 0 0 0 0 0 0 0 0 0 
0 0 0 0 0 0 0 0 0 0 0 
0 0 0 0 0 0 0 0 0 0 0 
0 0 0 0 0 0 0 0 0 0 0 
0 0 0 0 0 0 0 0 0 0 0 
0 0 0 0 0 0 0 0 0 0 0 
0 0 0 0 0 0 0 0 0 0 0 
0 0 0 0 0 0 0 0 0 0 0 
0 0 0.002870207737301304 -0.0001723248530876158 -0.003716675415518787 0 0 0 0.0005070655604171302 0 0 
0 0 0 0 0 0 0 0 0 0 0 
0 0 0 0 0 0 0 0 0 0 0 
0 0 0 0 0 0 0 0 0 0 0 
-0.001726018559173396 0 -0.006032452508211297 0 -9.658092879057836e-05 -0.0006232447214624713 0.003694395681398926 -0.0002650201173169332 0.0003144872670078961 0 0 
0 0 0 0 0 0 0 0 0 0 0 
0 0 0 0 0 0 0 0 0 0 0 
0 0 0 0 0 0 0 0 0 0 0 
0 0 0 0 0 0 0 0 0 0 0 
0 0 0 0 0 0 0 0 0 0 0 
0 0 0 0 0 0 0 0 0 0 0 
-0.003180813207941733 0 -0.003847712614817111 0.000664266415119038 0.006052617865218791 -0.0003624328930716951 0 -8.222032714956832e-06 -0.000103269079332328 0 0 
0 0 0 0 0 0 0 0 0 0 0 
0 0 0 0 0 0 0 0 0 0 0 
0 0 0 0 0 0 0 0 0 0 0 
0 0 0 0 0 0 0 0 0 0 0 
0 0 0 0 0 0 0 0 0 0 0 
0 0 0 0 0 0 0 0 0 0 0 
0 0 0 0 0 0 0 0 0 0 0 
0 0 0 0 0 0 0 0 0 0 0 
-0.001099985599699357 0 0 0 0 0 0 -0.0005728615051959852 0.0007402410509036453 0 0 
-9.487830918686723e-05 0 0.0007947918213694952 0 -0.0002776217003410311 0 0 -0.0001397298069194083 -0.0001226251456316812 -0.0001366892595296692 0 
0 0 0 0 0 0 0 0 0 0 0 
0 0 0 0 0 0 0 0 0 0 0 
0 0 0 0 0 0 0 0 0 0 0 
0 0 0 0 0 0 0 0 0 0 0 
0 0 0 0 0 0 0 0 0 0 0 
0 0 0 0 0 0 0 0 0 0 0 
0 0 0 0 0 0 0 0 0 0 0 
-0.0005198614305217897 -0.002064941531287611 0 0.002987135258421017 0 -0.002611898549266503 0 0 -3.503899747984043e-05 -0.000144990701855719 0 
0 0 0 0 0 0 0 0 0 0 0 
0 0 0 0 0 0 0 0 0 0 0 
0 0 0 0 0 0 0 0 0 0 0 
0 0 0 0 0 0 0 0 0 0 0 
0 0 0 0 0 0 0 0 0 0 0 
0 0 0 0 0 0 0 0 0 0 0 
0 0 0 0 0 0 0 0 0 0 0 
0 -5.772583478022074e-05 0 0 0 0 0.002250578347974863 -0.002479448610678174 -0.0001982526834295482 0 -0.0001685867258326653 
0 0 0 0 0 0 0 0 0 0 0 
0 0 0 0 0 0 0 0 0 0 0 
0 0 0 0 0 0 0 0 0 0 0 
0 0 0 0 0 0 0 0 0 0 0 
0 0 0 0 0 0 0 0 0 0 0 
0 0 0 0 0 0 0 0 0 0 0 
0 0 0 0 0 0 0 0 0 0 0 
0 0 0 0 0 0 0 0 0 0 0 
0 0 0 0 0 0 0 0 0 0 0 
0 0 0 0 0 0 0 0 0 0 0 
0 0 -0.001525531958698386 0 0 1.694065894508601e-21 0.002038860678851142 -0.0009758647009218998 -0.0003333524924564356 0 -8.237922591038799e-05 
0 0 0 0 0 0 0 0 0 0 0 
0 0 0 0 0 0 0 0 0 0 0 
-0.01652529600481445 -9.706460498565118e-05 0 -1.82882780088347e-06 0 0 -0.0002459185563065755 -0.0055093718823977 -0.003649711544872819 0 0.0129412080825239 
0 0 0 0 0 0 0 0 0 0 0 
0 0 0 0 0 0 0 0 0 0 0 
0 0 0 0 0 0 0 -0.0004559103871887695 -0.00012379454998737 -0.001249167648832887 0 
0 0 0 0 0 0 0 0 0 0 0 
0 0 0 0 0 0 0 0 0 0 0 
0.0002321723181590628 -0.0001716003771210879 -0.001166712049534587 -0.0006149167040774599 -0.002185281252264217 0.001540184078542013 0 0 0 0 0 
0 0 0 0 0 0 0 0 0 0 0 
0 0 0 0 0 0 0 0 0 0 0 
-8.242833761571673e-05 0 -0.0009739652442170083 0 0.006231225465501645 0 0 0 0 0 0 
0 0 0 0 0 0 0 0 0 0 0 
0 0 0 0 0 0 0 0 0 0 0 
0 0 0 0 0 0 0 0 0 0 0 
0 0 0 0 -0.0001647256396276921 0 0 -0.0007581899822624893 0 0 0 
0 0 0 0 0 0 0 0 0 0 0 
0 0 0 0 0 0 0 0 0 0 0 
0 0 0 0 0 0 0 0 0 0 0 
0 0 0 0 0 0 0 0 0 0 0 
0 0 0 0 0 0 0 0 0 0 0 
0 0 0 0 0 0 0 0 0 0 0 
0 0 0 0 0 0 0 0 0 0 0 
0 0 0 0 0 0 0 0 0 0 0 
0 0 0 0 0 0 0 0 0 0 0 
0 0 0 0 0 0 0 0 0 0 0 
0 0 0 0 0 0 0 0 0 0 0 
0.002633716052362077 -0.001643154479237817 -0.001532888182350493 0 0.002409082878408437 0 0 0 -0.0004124339222259974 -0.0007677564169265017 0 
0 0 0 0 0 0 0 0 0 0 0 
0 0 0 0 0 0 0 0 0 0 0 
0 0 0 0 0 0 0 0 0 0 0 
0.002197280947297424 0 0 -0.0004313927705601257 -0.0003696584404258951 0 0 -0.0006006773861972176 0 0 0 
-0.000387297826218811 0 0.002397945405954818 0 0 0 0 0 -0.0001163978486355691 -0.0003453959331857745 0 
0 0 0 0 0 0 -0.0003578783247423644 -0.0008873392588130278 0 0 0 
0 0 -0.0002924674459528088 0.001390802188615353 -0.0003899684030559787 -7.717790233987649e-05 0 -0.0009170515287999934 0 0 0 
0 0 0 0 0 0 0 0 0 0 0 
0 0 0 0 0 0 0 0 0 0 0 
0 0 0.001517359456710823 0 -0.000957546449052383 0 0 0 0 -0.0008492368274064285 0 
0 -0.000395823415949298 0 0 0.001520003910817526 0 0 -0.001540850662328648 0 0 0 
-2.710505431213761e-20 5.421010862427522e-20 0 0 0 -7.751551807551869e-05 0 0 0 -0.0004118290133109599 0 
0 0 0 0 0 0 0 0 0 0 0 
-0.0003318698109357232 -7.28813364301378e-05 -5.057070427145409e-05 0 -0.0006280571293470077 -0.0008493433537143954 0 0.003162339188780206 -5.292582409292368e-05 -0.001012547672765166 0 
0 0 0 -0.0002702403439453858 -0.0001042064978859311 0.002978743413990423 0 -0.002787903535362366 -0.0008551389644750713 0 -5.267830710927865e-06 
0 0 0 0 0 0 0 0 0 0 0 
0 0 0 0 0 0 0 0 0 0 0 
0.00301418524132602 0 -0.0007444675829898499 -0.0001911802194725141 0 -0.001104947171342401 -5.256123952604331e-05 -0.002686641194784306 -0.0005025075871581167 0.0007778857938616781 -0.0001341092360733154 
0.003187944067534148 -8.027247358125156e-05 -0.000639982526539014 0 0 0 -8.979262587730078e-05 0.001500519919963582 0 -0.0003401065940060082 0 
0 0 0 0 0 0 0 0 0 0 0 
0 0 0 0 0 0 0 0 0 0 0 
0 0 0 0 0 0 0 0 0 0 0 
0 0 0 0 0 0 0 0 0 0 0 
0 0 0 0 0 0 0 0 0 0 0 
0 0 0 0 0 0 0 0 0 0 0 
0 0 0 0 0 0 0 0 0 0 0 
0 0 0 0 0 0 0 0 0 0 0 
-0.0002753186336773451 8.623824707760006e-05 0 0 1.355252715606881e-20 0.001360010404039044 -6.776263578034403e-21 -4.649997166398923e-05 -0.0002088563087706446 -0.0005370236597390112 0 
0 0 0 0 0 0 0 0 0 0 0 
0 0 0 0 0 0 0 0 0 0 0 
0 0 0 0 0 0 0 0 0 0 0 
0 0 0 0 0 0 0 0 0 0 0 
0 0 0 0 0 0 0 0 0 0 0 
0 0 0 0 0 0 0 0 0 0 0 
0 0 0 0 0 0 0 0 0 0 0 
0 0 0 0 0 0 0 0 0 0 0 
0.006949274309670451 0 -0.004099979678443692 -0.0008731261101187467 -0.000789358830235989 0.002312343576041479 -0.0001230272953128079 -0.0001142441337185054 -0.0003800311156895265 0 0 
0 0 0 0 0 0 0 0 0 0 0 
0 0 0 0 0 0 0 0 0 0 0 
0 0 0 0 0 0 0 0 0 0 0 
0 0 0 0 0 0 0 0 0 0 0 
0 0 0 0 0 0 0 0 0 0 0 
0 0 0 0 0 0 0 0 0 0 0 
0 0 0 0 0 0 0 0 0 0 0 
0 0 0 0 0 0 0 0 0 0 0 
0 0 0 0 0 0 0 0 0 0 0 
0 0 0 0 0 0 0 0 0 0 0 
0 0 0 0 0 0 0 0 0 0 0 
0 0 0 0 0 0 0 0 0 0 0 
0 0 0 0 0 0 0 0 0 0 0 
0 0 0 0 0 0 0 0 0 0 0 
0 0 0 0 0 0 0 0 0 0 0 
0 0 0 0 0 0 0 0 0 0 0 
0 0 0 0 0 0 0 0 0 0 0 
0 0 0 0 0 0 0 0 0 0 0 
0 0 0 0 0 0 0 0 0 0 0 
0 0 0 0 0 0 0 0 0 0 0 
0 0 0 0 0 0 0 0 0 0 0 
0 0 0 0 0 0 0 0 0 0 0 
0 0 0 0 0 0 0 0 0 0 0 
0 0 0 0 0 0 0 0 0 0 0 
0 0 0 0 0 0 0 0 0 0 0 
0 -0.0009366406099881774 -0.004139781925055863 0 0 0 0.00351865721236697 0 -0.0009949846003705241 0 0 
0 0 0 0 0 0 0 0 0 0 0 
0 0 0 0 0 -1.31100570520881e-05 0 8.842579006682793e-05 0 0 0 
0 0 0 0 0 0 0 0 0 0 0 
0 0 0 0 0 0 0 0 0 0 0 
-3.182635117379245e-05 -0.0009025200154077356 0 0 0 0.0001832779010208166 0 0 0 0 0 
0 0 0 0 0 0 0 0 0 0 0 
0 -0.000646246110029103 0 -0.0001101889449846557 0 0.000589032855846805 0 0 0 0 0 
0 0 0 0 0 0 0 0 0 0 0 
0 0 0 0 0 0 0 0 0 0 0 
0 0 0 0 0 0 0 0 0 0 0 
0 0 0 0 0 0 0 0 0 0 0 
0 0 0 0 0 0 0 0 0 0 0 
0 0 0 0 0 0 0 0 0 0 0 
0 0 0 0 0 0 0 0 0 0 0 
0 0 0 0 0 0 0 0 0 0 0 
0 0 0 0 0 0 0 0 0 0 0 
0 0 0 0 0 0 0 0 0 0 0 
0 0 0 0 0 0 0 0 0 0 0 
0 0 0 0 0 0 0 0 0 0 0 
0 0 0 0 0 0 0 0 0 0 0 
0 0 0 0 0 0 0 0 0 0 0 
0 0 0 0 0 0 0 0 0 0 0 
0 0 0 0 0 0 0 0 0 0 0 
0 0 0 0 0 0 0 0 0 0 0 
0 0 0 0 0 0 0 0 0 0 0 
0 0 0 0 0 0 0 0 0 0 0 
0 0 0 0 0 0 0 0 0 0 0 
0 0 0 0 0 0 0 0 0 0 0 
0 0 0 0 0 0 0 0 0 0 0 
-0.0007493198413886673 0 0 -0.0001477203795205762 0 0 -0.0006669198943946619 0.000148444155535164 -0.0002988655303303428 -0.0005870183787490192 -2.438183397825249e-05 
0 0 0 0 0 0 0 0 0 0 0 
0.003560467547918617 0 -0.002451619152656305 0 0 0 0 0 0 -0.0018249568465256 0 
0 0 0 0 0 0 0 0 0 0 0 
0 0 0 0 0 0 0 0 0 0 0 
0 0 0 0 0 0 0 0 0 0 0 
0 0 0 0 0 0 0 0 0 0 0 
0 0 0 0 0 0 0 0 0 0 0 
0 0 0 0 0 0 0 0 0 0 0 
0 0 0 0 0 0 0 0 0 0 0 
0 0 0 0 0 0 0 0 0 0 0 
0 0 0 0 0 0 0 0 0 0 0 
0 0 0 0 0 0 0 0 0 0 0 
0 0 0 0 0 0 0 0 0 0 0 
0 0 0 0 0 0 0 0 0 0 0 
0 0 0 0 0 0 0 0 0 0 0 
0 0 0 0 -0.0008985423646670479 0 0 0 0 0 0 
0 0 0 0 0 0 0 0 0 0 0 
0 0 0 0 0 0 0 0 0 0 0 
0 0 0 0 0 0 0 0 0 0 0 
0 0 0 0 0 0 0 0 0 0 0 
0 0 0 0 0 0 0 0 0 0 0 
0 0 0 0 0 0 0 0 0 0 0 
0 0 0 0 0 0 0 0 0 0 0 
0 0 0 0 0 0 0 0 0 0 0 
0 0 0 0 0 0 0 0 0 0 0 
0 0 0 0 0 0 0 0 0 0 0 
0 0 0 0 0 0 0 0 0 0 0 
0 0 0 0 0 0 0 0 0 0 0 
0 0 0 0 0 0 0 0 0 0 0 
0 0 0 0 0 0 0 0 0 0 0 
0 0 -0.0001533080528174255 -0.0001236290323832869 0.000316415228614849 -8.073393147204e-05 0 0 -0.0005762791073031104 0 0 
0 0 0 0 0 0 0 0 0 0 0 
0 0 0 0 0 0 0 0 0 0 0 
0 0 0 0 0 0 0 0 0 0 0 
0 0 0 0 0 0 0 0 0 0 0 
0 0 0 0 0 0 0 0 0 0 0 
0 0 0 0 0 0 0 0 0 0 0 
0 0 0 0 0 0 0 0 0 0 0 
0 0 0 0 0 0 0 0 0 0 0 
0 0 0 0 0 0 0 0 0 0 0 
0 0 0 0 0 0 0 0 0 0 0 
0 0 0 0 0 0 0 0 0 0 0 
0 0 0 0 0 0 0 0 0 0 0 
-0.0004865771495879757 0 -0.0005562223426753279 0 0 8.188374944142527e-06 0 0.0005011101760870126 0 -0.0005539426469039641 0 
-0.0003808284833630788 0 0 0 -0.001143640732377613 0 0 0.0009312914489902803 -0.0002700603073431838 0 -4.314123506297475e-05 
0 0 0 0 0 0 0 0 0 0 0 
0 0 0 0 0 0 0 0 0 0 0 
0 0 0 0 0 0 0 0 0 0 0 
0 0 0 0 0 0 0 0 0 0 0 
-0.0006469340111964371 0.001030180091932345 0 0 0 0 0 -0.000753689243800944 0 0 0 
0 0 0 0 0 0 0 0 0 0 0 
0 0 0 0 0 0 0 0 0 0 0 
0 0 0 0 0 0 0 0 0 0 0 
-0.002240155530492992 -0.0005684466835357867 0 0 -0.00142199956983822 0 0 0 0 0.0007500288619089285 0 
0 0 0 0 0 0 0 0 0 0 0 
-2.168404344971009e-19 -0.001482972527432985 -0.0004660530957989079 -0.000253550260143893 0.002232197663326575 0.001161057733520799 -7.43882427130697e-05 -6.201316859975455e-05 -1.355252715606881e-20 -0.0005892868798080109 0 
0.001992081472799358 0 0.0008734913517717032 0 0 -0.0002740809277231536 0 0 -2.183798003378639e-05 -0.0001881855058436872 0 
0 0 0 0 0 0 0 0 0 0 0 
0 0 0 0 0 0 0 0 0 0 0 
0 0 0 0 0 0 0 0 0 0 0 
0 0 0 0 0 0 0 0 0 0 0 
0 0 0 0 0 0 0 0 0 0 0 
0 0 0 0 0 0 0 0 0 0 0 
0 0 0 0 0 0 0 0 0 0 0 
0 0 0 0 0 0 0 0 0 0 0 
0 0 0 0 0 0 0 0 0 0 0 
-0.003997282897885108 0.0006264102105040122 0 -0.0002130429517320459 2.168404344971009e-19 -0.0002795456268076611 0 2.710505431213761e-20 0 -1.355252715606881e-20 -0.0001012163911118155 
-1.324455975961013e-05 0.0003534072698507375 0 0 -0.0004611553608943324 0 -5.964084095653659e-05 0 -0.0002936845485942488 0 -0.0002045002286326993 
0 0 0 0 0 0 0 0 0 0 0 
0 0 0 0 0 0 0 0 0 0 0 
0 0 0 0 0 0 0 0 0 0 0 
0 0 0 0 0 0 0 0 0 0 0 
0 0 0 -3.326477121091971e-05 0.0009934222537323948 -3.258820487853276e-06 -1.902453766828843e-05 -0.0001826248425919254 0 0 0 
0.001857337632036615 0 0 -1.072043311652479e-05 -0.0007965681559857572 0.0005883021023123863 0 -0.0001477551261047319 0 0 -0.001214871812726024 
0 0 0 0 0 0 0 0 0 0 0 
0 0 0 0 0 0 0 0 0 0 0 
0 0 0 0 0 0 0 0 0 0 0 
0 0 0 0 0 0 0 0 0 0 0 
-0.001989346128262452 -0.0008761172320207095 -0.0002263229477890011 0 -0.0001326482794240024 0 0.003427778727454836 0 -0.0002303224768480686 -9.643274271230283e-05 0 
0 0 0 0 0 0 0 0 0 0 0 
0 0 0 0 0 0 0 0 0 0 0 
0.001028266239180788 -0.0001008309255051776 -3.287465149858578e-05 -0.0001192757133243368 -0.001145559374716601 0 0.001826987894643817 0 -0.0005004517327705036 -0.0003387276098463514 -3.355589810691518e-05 
0 0 0 0 0 0 0 0 0 0 0 
0 0 0 0 0 0 0 0 0 0 0 
0 0 0 0 0 0 0 0 0 0 0 
0 0 0 0 0 0 0 0 0 0 0 
0 0 0 0 0 0 0 0 0 0 0 
0 0 0 0 0 0 0 0 0 0 0 
0 0 0 0 0 0 0 0 0 0 0 
0 0 0 0 0 0 0 0 0 0 0 
0 0 0 0 0 0 0 0 0 0 0 
0 0 0 0 0 0 0 0 0 0 0 
0 0 0 0 0 0 0 0 0 0 0 
0 0 0 0 0 0 0 0 0 0 0 
0 0 0 0 0 0 0 0 0 0 0 
0 0 0 0 0 0 0 0 0 0 0 
0 0 0 0 0 0 0 0 0 0 0 
0 0 0 0 0 0 0 0 0 0 0 
0 0 0 0 0 0 0 0 0 0 0 
0 0 0 0 0 0 0 0 0 0 0 
0 0 0 0 0 0 0 0 0 0 0 
0 0 0 0 0 0 0 0 0 0 0 
0 0 0 0 0 0 0 0 0 0 0 
0 0 0 0 0 0 0 0 0 0 0 
0 0 0 0 0 0 0 0 0 0 0 
0 0 -0.0004229031440855452 0.0009583589108928674 0 -0.0006942051832223345 0 0.001674669156543836 0 -7.191078397244442e-05 0 
0 0 0 0 0 0 0 0 0 0 0 
0 0 0 0 0 0 0 0 0 0 0 
0.0002661172945499899 0 0 -0.0002720705514652691 0 0 0 0 0 0 0 
0 0 0 0 0 0 0 0 0 0 0 
0.0002449835593295565 0 0.0002734272740007539 0.0004033451496383104 0.001546463738577286 -0.000125649273614961 -0.001466116700969183 -0.003436263051264125 0.0009868673387780059 -0.0002668976559483438 0 
0.0005413354267465446 -0.0001885480227245629 0 0 -0.0003197300241684982 -0.0001424314999839324 0 -8.706490834524587e-05 -6.822824877802692e-05 0 0 
0 0 0 0 0 0 0 0 0 0 0 
0 0 0 0 0 0 0 0 0 0 0 
0 0 0 0 0 0 0 0 0 0 0 
0 -8.8338878974659e-05 -0.003068415794919155 0 -0.0005304202055662366 0 0 0 0 0 0 
0 0 -0.003491024424710644 -0.0004418201530869296 -0.001119132024878641 0 0 0 0 0.008114253979338345 0 
0 -1.232253551349309e-05 0 0 0 0 0 -2.719843746320314e-05 0 0 0 
0 0 0.003942822120342195 0 0 -0.0005715142505720688 0 0 0 0 0 
0.001175009616403111 0 -7.700662509412625e-06 -2.275979649080737e-05 -0.0004142150396422585 0 0 -0.0002008342118910048 -3.554994730902019e-05 0 9.946036954025374e-05 
0 0 0 0 0 0 0 0 0 0 0 
-0.006283407581496331 0 0.00305027566759683 0 0 0 0 0 0 0 0 
0.0007583265120920772 0 0 0 0 0.001703973009616983 -0.0008488006193466281 0 0 0 0 
0 0 0 0 0 0 0 0 0 0 0 
0 0 0 0 0 0 0 0 0 0 0 
0 0 0 0 0 0 0 0 0 0 0 
0 0 0 0 0 0 0 0 0 0 0 
0 0 0 0 0 0 0 0 0 0 0 
0 0 0 0 0 -7.764583614440645e-05 0 0.0009845983830723026 0 0 0 
0 0 0 0 0 0 0 0 0 0 0 
0 0 0 0 0 0 0 0 0 0 0 
0 0.003077160655540599 0 -0.000459673327856866 -0.001521139083561017 -0.0004593095134837427 0 -0.0004688590120398645 -0.0003128909401704605 -0.0001064194414578512 -0.000304946198934605 
0 0 0 0 0 0 0 0 0 0 0 
0 0 0 0 0 0 0 0 0 0 0 
0.007236584279633879 0 -0.0004404282592104609 -0.0005091497867010246 -0.0002287779243572759 0 0 -0.0003198952442996592 -8.291345803740967e-05 0 -9.52255863845585e-05 
0 0 0 0 0 0 0 0 0 0 0 
0 0 0 0 0 0 0 0 0 0 0 
0 0 0 0 0 0 0 0 0 0 0 
0 0 0 0 0 0 0 0 0 0 0 
-0.0009515043995026508 0 0 0 0 0.0001780954984986014 -0.0001255928683110306 0 -0.0001437839583475488 0 0 
0 0 -2.465011707345064e-05 -6.519032764817722e-05 0 0 -0.0001008150669997311 0 -4.110242852671966e-05 0 -3.188290341145958e-05 
0 0 0 0 0 0 0 0 0 0 0 
0 0 0 0 0 0 0 0 0 0 0 
0 0 0 0 0 0 0 0 0 0 0 
0 0 0 0 0 0 0 0 0 0 0 
-0.003899796058441848 0.0002991041367948295 -0.0006703346098907613 0 -0.0002353827095740053 0 0 -2.710505431213761e-20 0 1.355252715606881e-20 -7.40134646426677e-05 
0 0 0 0 0 0 0 0 0 0 0 
0 -0.0001292248933317834 0 -0.0002240589709242388 0 7.596674930509621e-05 0 0 -0.0001559312494612217 0 0 
-0.0004598216350157339 0 0 -0.0002056514131442352 0.001168829499499853 0 0 -0.0007056342760788174 0 0 0 
0 0 0 0 0 0 0 0 0 0 0 
0 0 0 0 0 0 0 0 0 0 0 
0 0 0 0 0 0 0 0 0 0 0 
-0.02292942961054674 -0.004510294814832344 0.0123820038778639 0 0 0 0 0 0 -0.009958142955964866 0 
0 0 0 0 0 0 0 0 0 0 0 
0 0 0 0 0 0 0 0 0 0 0 
-0.0006553004082704897 -0.0008577925189789901 0.008609376798333169 0 -0.0005428503859296962 -0.0006602137967555928 0 -0.0005541397049911312 0 0 0 
0 0 0 0 0 0 0 0 0 0 0 
-0.0006058023381411592 0 0.001945500669649744 -7.880106234440329e-05 0 -0.0003708381642674244 -0.000335534082367217 -0.0006070996719021409 0 0 0 
0 0 0 0 0 0 0 0 0 0 0 
0 0 0 0 0 0 0 0 0 0 0 
0 0.006126332076548164 -0.002405709158189638 0 0 0 0 0 0 0 0 
0 0 0 0 0 0 0 0 0 0 0 
0 0 0 0 0 0 0 0 0 0 0 
0 0 0 0 0 0 0 0 0 0 0 
0 0 0 0 0 0 0 0 0 0 0 
0 0 0 0 0 0 0 0 0 0 0 
-0.000761362117152566 0 -7.5137872697543e-05 0 -8.573069689190171e-05 0 -0.0005377850255979473 -0.0004421340852074767 0 0 0 
-0.0002939088605200601 0 0 0.001143743226648094 0 0 0 0 -0.0002800361267874296 0 0 
0 0 0 0 0 0 0 0 0 0 0 
0 0 0 0 0 0 0 0 0 0 0 
0 0 0 0 0 0 0 0 0 0 0 
-0.0007625293494767979 0 -0.002838874630710466 -0.002515198908335387 0.0002300992461922392 0 -0.0003450363955364854 -1.626303258728257e-19 1.355252715606881e-20 0.006596759832132636 0 
0 0 0 0 0 0 0 0 0 0 0 
0 0 0 0 0 0 0 0 0 0 0 
-0.0001900654046227324 0 0 -0.0001628620290688458 0.000138295248589749 0 0 0 0 0 0 
0 0 0 0 0 0 0 0 0 0 0 
0 0 0 0 0 0 0 0 0 0 0 
0 0 0 0 0 0 0 0 0 0 0 
0 0 0 0 0 0 0 0 0 0 0 
0 0 0 0 0 0 0 0 0 0 0 
0 0 0 0 0 0 0 0 0 0 0 
0 0 0 0 0 0 0 0 0 0 0 
0 0 0 0 0 0 0 0 0 0 0 
0 0 0 0 0 0 0 0 0 0 0 
0 0 0 0 0 0 0 0 0 0 0 
0 0 0 0 0 0 0 0 0 0 0 
0 0 0 0 0 0 0 0 0 0 0 
0 0 0 0 0 0 0 0 0 0 0 
0 0 0 0 0 0 0 0 0 0 0 
0 0 0 0 0 0 0 0 0 0 0 
0 0 0 0 0 0 0 0 0 0 0 
0 0 0 0 0 0 0 0 0 0 0 
0 0 0 0 0 0 0 0 0 0 0 
0 0 0 0 0 0 0 0 0 0 0 
0 0 0 0 0 0 0 0 0 0 0 
0 0 0 0 0 0 0 0 0 0 0 
0 0 0 0 0 0 0 0 0 0 0 
0 0 0 0 0 0 0 0 0 0 0 
0 0 0 0 0 0 0 0 0 0 0 
0 0 0 0 0 0 0 0 0 0 0 
0 0 0 0 0 0 0 0 0 0 0 
0 0 0 0 0 0 0 0 0 0 0 
0 0 0 0 0 0 0 0 0 0 0 
0 0 0 0 0 0 0 0 0 0 0 
0 0 0 0 0 0 0 0 0 0 0 
0 0 0 0 0 0 0 0 0 0 0 
0 0 0.0007109679117754541 0 -5.421010862427522e-20 0 0 0 0 0 0 
0 0 0 0 0 0 0 0 0 0 0 
-0.002241707034957187 0 0.002852336147487089 0 0 0 0 0 0 -0.0005758976393182099 0 
0 0 0 0 0 0 0 0 0 0 0 
0 0 0 0 0 0 0 0 0 0 0 
0 0 0 0 0 0 0 0 0 0 0 
0 0 0 0 0 0 0 0 0 0 0 
0 0 0 0 0 0 0 0 0 0 0 
0 0 0 0 0 0 0 0 0 0 0 
0 0 0 0 0 0 0 0 0 0 0 
0 0 0 0 0 0 0 0 0 0 0 
0 0 0 0 0 0 0 0 0 0 0 
0 0 0 0 0 0 0 0 0 0 0 
0 0 0 0 0 0 0 0 0 0 0 
0 0 0 0 0 0 0 0 0 0 0 
0 0 0 0 0 0 0 0 0 0 0 
0 0 0 0 0 0 0 0 0 0 0 
0 0 0 0 0 0 0 0 0 0 0 
0 0 0 0 0 0 0 0 0 0 0 
0 0 0 0 0 0 0 0 0 0 0 
0 0 0 0 0 0 0 0 0 0 0 
0 0 0 0 0 0 0 0 0 0 0 
0 0 0 0 0 0 0 0 0 0 0 
0 0 0 0 0 0 0 0 0 0 0 
0 0 0 0 0 0 0 0 0 0 0 
0 0 0 0 0 0 0 0 0 0 0 
0 0 0 0 0 0 0 0 0 0 0 
0 0 0 0 0 0 0 0 0 0 0 
0 0 0 0 0 0 0 0 0 0 0 
0 0 0 0 0 0 0 0 0 0 0 
0 0 0 0 0 0 0 0 0 0 0 
0 0 0 0 0 0 0 0 0 0 0 
0 0 0 0 0 0 0 0 0 0 0 
0 0 0 0 0 0 0 0 0 0 0 
0 0 0 0 0 0 0 0 0 0 0 
0 0 0 0 0 0 0 0 0 0 0 
0 0 0 0 0 0 0 0 0 0 0 
0 0 0 0 0 0 0 0 0 0 0 
0 0 0 0 0 0 0 0 0 0 0 
0 0 0 0 0 0 0 0 0 0 0 
0 0 0 0 0 0 0 0 0 0 0 
0 0 0 0 0 0 0 0 0 0 0 
0 0 0 0 0 0 0 0 0 0 0 
0 0 0 0 0 0 0 0 0 0 0 
-0.001388555674708485 0 0.003283946716639719 -7.303056330809236e-05 0 0 -0.0008493431706676299 -0.0008180113330761027 0 0 0 
0 0 0 0 0 0 0 0 0 0 0 
0 0 0 0 0 0 0 0 0 0 0 
0 0 0 0 0 0 0 0 0 0 0 
0 0 0 0 0 0 0 0 0 0 0 
0 0 0 0 0 0 0 0 0 0 0 
0 0 0 0 0 0 0 0 0 0 0 
0 0 0 0 0 0 0 0 0 0 0 
0 0 0 0 0 0 0 0 0 0 0 
0 0 0 0 0 0 0 0 0 0 0 
0 0 0 0 0 0 0 0 0 0 0 
0 0 0 0 0 0 0 0 0 0 0 
0 0 0 0 0 0 0 0 0 0 0 
0 0 0 0 0 0 0 0 0 0 0 
0.002528764943954905 -0.0004526930917195575 -0.000213822259410264 -0.0001219597726173958 0 -0.0006663935896523776 0 0 0 0 0 
0 0 0 0 0 0 0 0 0 0 0 
0 0 0 0 0 0 0 0 0 0 0 
0 0 0 0 0 0 0 0 0 0 0 
0 0 0 0 0 0 0 0 0 0 0 
0 0 0 0 0 0 0 0 0 0 0 
0 0 0 0 0 0 0 0 0 0 0 
0.0009459033423269249 -6.091803273757396e-05 0 -0.0001805630619866281 0 0 0 0 0 0 0 
0 0 0 0 0 0 0 0 0 0 0 
0.0006896739270231633 0 0 0 -0.001082396231978258 0 0 0 0 0 0 
0 0 0 0 0 0 0 0 0 0 0 
0 0 0 0 0 0 0 0 0 0 0 
0.002550738273681 -0.000138562722819444 0 0 0 0 0 -0.00106652892373867 -0.0007749892230522405 0 0 
-0.003093823183978637 0 0.004427778733824569 0 0 0 -4.042189106851003e-05 0 -8.973965133736241e-06 0 0 
0.001600356497851248 -0.0004646534496512549 0 -6.225640859709685e-05 -0.000643588663972378 0.0002862073259140621 0 -0.0002997814488305291 0 0 0 
0 0 0 0 0 0 0 0 0 0 0 
0 0 0 0 0 0 0 0 0 0 0 
0 0 0 0 0 0 0 0 0 0 0 
0.0009753293125624041 0 0 0 0 0 0 0 0 0 0 
0 -8.425222184781162e-05 0 0 -0.0004504827024494576 0.0005425698054525645 0 0 -0.0007629859380981143 0 0 
0 0 0 0 0 0 0 0 0 0 0 
0 -0.0006479235821085011 0.001315538058013047 0 -0.0008171574748784151 -0.0001541174687141264 0 0 0 0 0 
-4.335482787602783e-05 0 -0.0001457773095003906 0.0002272343745409869 -0.001722215432993064 -1.459967410017022e-05 0.0008129352899669993 -0.0001300427014717464 -0.0001458968093027598 -2.710505431213761e-20 -1.838295524367149e-05 
0 0 0 0 0 0 0 0 0 0 0 
0 0 0 0 0 0 0 0 0 0 0 
-0.0005629929819378095 0 -0.003277414228416265 0 -0.004742732617567457 0.00550469585358823 0 1.355252715606881e-20 0 0 0 
0 0 0 0 0 0 0 0 0 0 0 
0 0 0 0 0 0 0 0 0 0 0 
0 0 0 0 0 0 0 0 0 0 0 
-0.003277691816289216 0.0009764901591498181 0 0 0 0 0 0 0 0 0 
0 0.0003799722441997442 -0.001177914946756442 0 0 0 0 0 0 -0.0008463111102569717 -0.0003585772072644483 
0 0.000175656331416305 0 0 -0.0007793316768252343 0 0 0 0 -0.0003380636796994806 0 
0 0 0 0 0 0 0 0 0 0 0 
0 0 0 0 0 0 0 0 0 0 0 
0 0 0 0 0 0 0 0 0 0 0 
0 0 0 0 0 0 0 0 0 0 0 
0 0 0 0 0 0 0 0 0 0 0 
0 0 0 0 0 0 0 0 0 0 0 
0 0 0 0 0 0 0 0 0 0 0 
0 0 0 0 0 0 0 0 0 0 0 
0 0 0 0 0 0 0 0 0 0 0 
0 0 0 0 0 0 0 0 0 0 0 
0 0 0 0 0 0 0 0 0 0 0 
0 0 0 0 0 0 0 0 0 0 0 
0 0 0 0 0 0 0 0 0 0 0 
0 0 0 0 0 0 0 0 0 0 0 
0 0 0 0 0 0 0 0 0 0 0 
0 0 0 0 0 0 0 0 0 0 0 
0 0 0 0 0 0 0 0 0 0 0 
-0.002152204359993576 0 -0.001924948853412038 -0.0001524716212462011 0.003925642013370072 0 0 0 -0.0001771585059654633 0 0 
0 0 -0.0002166936353531637 -0.00015013442418798 0 -0.0005944754985769556 0.0005110403302320067 -0.0007352225326712525 0 0 0 
0 0 0 0 0 0 0 0 0 0 0 
0 0 0 0 0 0 0 0 0 0 0 
0 0 0 0 0 0 0 0 0 0 0 
0 0 0 0 0 0 0 0 0 0 0 
0 0 0 0 0 0 0 0 0 0 0 
0 0 0 0 0 0 0 0 0 0 0 
0 0 0 0 0 0 0 0 0 0 0 
0 0 0 0 0 0 0 0 0 0 0 
0 0 0 0 0 0 0 0 0 0 0 
0 0 0 0 0 0 0 0 0 0 0 
0 0 0 0 0 0 0 0 0 0 0 
0 0.001890813929677329 -0.008893086501106305 0 0 0 0 0 0 0 0 
0 0 0 0 0 0 0 0 0 0 0 
0 0 0 0 0 0 0 0 0 0 0 
0 0 0 0 0 0 0 0 0 0 0 
0 0 0 0 0 0 0 0 0 0 0 
0 0 0 0 0 0 0 0 0 0 0 
0.001269774636955217 0 0 0 0 0 0 0 -0.0004972512820836644 0 0 
0.001220122131105804 0 -0.0001551606495827824 -0.000323377871961934 0 -0.001114682749575355 0 0 0 0 0 
0 0 0 0 0 0 0 0 0 0 0 
0 0 0 0 0 0 0 0 0 0 0 
0 0 0 0 0 0 0 0 0 0 0 
-0.0002192291843243186 0 0 -0.0002537635371807518 -0.0003320940298340267 -0.0001977396163070526 -0.0001074295074073173 0.000667340025295499 -9.856002858196303e-05 0 0 
0 0 0 0 0 0 0 0 0 0 0 
0 0 0 0 0 0 0 0 0 0 0 
0 0 0 0 0 0 0 0 0 0 0 
0 0 0 0 0 0 0 0 0 0 0 
0 0 0 0 0 0 0 0 0 0 0 
0 0 0 0 0 0 0 0 0 0 0 
0 0 0 0 0 0 -0.0004791722248094783 0.001235108004209967 -0.0004832473845873997 0 0 
0 0 0 0 0 0 0 0 0 0 0 
-0.007832460130802113 -0.002326887485928129 0.02225668324739563 0 0 0 0 0 0 -0.01252891709627084 0 
0.002234365889482522 0 -0.002452762225369813 0 0 0 0 0 0 0 0 
0 0 0 0 0 0 0 0 0 0 0 
0 0 0.009327251027711949 0 0 0 0 0 0 0 0 
0 0 0 0 0 0 0 0 0 0 0 
0 0 0 0 0 0 0 0 0 0 0 
0 0 0 0 0 0 0 0 0 0 0 
0 0 0 0 0 0 0 0 0 0 0 
0 0 0 0 0 0 0 0 0 0 0 
0 0 0 0 0 0 0 0 0 0 0 
0 0 0 0 0 0 0 0 0 0 0 
0.008625125035804353 -0.000107873678144683 -0.001650904845620946 -0.001010110637121157 -0.001795840290625909 0.001976282934473085 -0.001264808703906113 -0.0001784960393871733 0.002411212912965721 0.0004348913191775739 0.0004576608188784408 
0.0001238532004423561 0 0 0 0 0 0 0 0 -0.000476787804168163 0 
0 0 0 0 0 0 0 0 0 0 0 
0 0 0 0 0 0 0 0 0 0 0 
-0.00328578149256103 0 0 -0.0004727306771588119 -0.001173828809783957 0.0001504771551637975 0 0.001008507007364372 0 0 0 
0 0 0 0 0 0 0 0 0 0 0 
-0.0001074897782042846 0 0 -0.0004599000620516217 0 -0.0001901626035742995 0 0.0005671332468622957 -0.0002867730664415587 0 0 
0 0 0 0 0 0 0 0 0 0 0 
0 0 0 0 0 0 0 0 0 0 0 
0 0 0 0 0 0 0 0 0 0 0 
0 0 0 0 0 0 0 0 0 0 0 
0.01435279051077012 -0.002598387591096892 0 -0.0005186236095042434 -0.003513790964780386 -0.0007961769093355048 -0.0005951757759768069 -0.002940240550135166 -0.0003875408393121814 2.710505431213761e-20 0 
0.004257314444441164 0 -0.0002945318335227913 0.0002039635393855735 -0.00145116177629722 -0.0007949602091285484 0 0 -0.0002229680163776688 0 0 
0 0 0 0 0 0 0 0 0 0 0 
0 0 0 0 0 0 0 0 0 0 0 
0 0 0 0 0 0 0 0 0 0 0 
0 0 0 0 0 0 0 0 0 0 0 
0 0 0 0 0 0 0 0 0 0 0 
0 0 0 0 0 0 0 0 0 0 0 
0 0 0 0 0 0 0 0 0 0 0 
0 0 0 0 0 0 0 0 0 0 0 
