solver_type L2R_L2LOSS_SVC_DUAL
nr_class 11
label 10 8 2 3 4 6 7 11 1 5 9
nr_feature 64460
bias -1
w
0 0 0 0 0 0 0 0 0 0 0 
0 0 0 0 0 0 0 0 0 0 0 
0 0 0 0 0 0 0 0 0 0 0 
0 0 0 0 0 0 0 0 0 0 0 
0 0 0 0 0 0 0 0 0 0 0 
0 0 0 0 0 0 0 0 0 0 0 
0 0 0 0 0 0 0 0 0 0 0 
0 0 0 0 0 0 0 0 0 0 0 
0 0 0 0 0 0 0 0 0 0 0 
0 0 0 0 0 0 0 0 0 0 0 
0 0 0 0 0 0 0 0 0 0 0 
0 0 0 0 0 0 0 0 0 0 0 
0 0 0 0 0 0 0 0 0 0 0 
0 0 0 0 0 0 0 0 0 0 0 
0 0 0 0 0 0 0 0 0 0 0 
0 0 0 0 0 0 0 0 0 0 0 
0 0 0 0 0 0 0 0 0 0 0 
0 0 0 0 0 0 0 0 0 0 0 
0 0 0 0 0 0 0 0 0 0 0 
0 0 0 0 0 0 0 0 0 0 0 
0 0 0 0 0 0 0 0 0 0 0 
0 0 0 0 0 0 0 0 0 0 0 
0 0 0 0 0 0 0 0 0 0 0 
0 0 0 0 0 0 0 0 0 0 0 
0 0 0 0 0 0 0 0 0 0 0 
0 0 0 0 0 0 0 0 0 0 0 
0 0 0 0 0 0 0 0 0 0 0 
0 0 0 0 0 0 0 0 0 0 0 
0 0 0 0 0 0 0 0 0 0 0 
0 0 0 0 0 0 0 0 0 0 0 
0 0 0 0 0 0 0 0 0 0 0 
0 0 0 0 0 0 0 0 0 0 0 
0 0 0 0 0 0 0 0 0 0 0 
0 0 0 0 0 0 0 0 0 0 0 
0 0 0 0 0 0 0 0 0 0 0 
0 0 0 0 0 0 0 0 0 0 0 
0 0 0 0 0 0 0 0 0 0 0 
0 0 0 0 0 0 0 0 0 0 0 
0 0 0 0 0 0 0 0 0 0 0 
0 0 0 0 0 0 0 0 0 0 0 
0 0 0 0 0 0 0 0 0 0 0 
0 0 0 0 0 0 0 0 0 0 0 
0 0 0 0 0 0 0 0 0 0 0 
0 0 0 0 0 0 0 0 0 0 0 
0 0 0 0 0 0 0 0 0 0 0 
0 0 0 0 0 0 0 0 0 0 0 
0 0 0 0 0 0 0 0 0 0 0 
0 0 0 0 0 0 0 0 0 0 0 
0 0 0 0 0 0 0 0 0 0 0 
0 0 0 0 0 0 0 0 0 0 0 
0 0 0 0 0 0 0 0 0 0 0 
0 0 0 0 0 0 0 0 0 0 0 
0 0 0 0 0 0 0 0 0 0 0 
0 0 0 0 0 0 0 0 0 0 0 
0 0 0 0 0 0 0 0 0 0 0 
0 0 0 0 0 0 0 0 0 0 0 
0 0 0 0 0 0 0 0 0 0 0 
0 0 0 0 0 0 0 0 0 0 0 
0 0 0 0 0 0 0 0 0 0 0 
0 0 0 0 0 0 0 0 0 0 0 
0 0 0 0 0 0 0 0 0 0 0 
0 0 0 0 0 0 0 0 0 0 0 
0 0 0 0 0 0 0 0 0 0 0 
0 0 0 0 0 0 0 0 0 0 0 
0 0 0 0 0 0 0 0 0 0 0 
0 0 0 0 0 0 0 0 0 0 0 
0 0 0 0 0 0 0 0 0 0 0 
0 0 0 0 0 0 0 0 0 0 0 
0 0 0 0 0 0 0 0 0 0 0 
0 0 0 0 0 0 0 0 0 0 0 
0 0 0 0 0 0 0 0 0 0 0 
0 0 0 0 0 0 0 0 0 0 0 
0 0 0 0 0 0 0 0 0 0 0 
0 0 0 0 0 0 0 0 0 0 0 
0 0 0 0 0 0 0 0 0 0 0 
0 0 0 0 0 0 0 0 0 0 0 
0 0 0 0 0 0 0 0 0 0 0 
0 0 0 0 0 0 0 0 0 0 0 
0 0 0 0 0 0 0 0 0 0 0 
0 0 0 0 0 0 0 0 0 0 0 
0 0 0 0 0 0 0 0 0 0 0 
0 0 0 0 0 0 0 0 0 0 0 
0 0 0 0 0 0 0 0 0 0 0 
0.0002177979307892112 0 0 -0.0005258148937456531 0 -9.888639121759668e-05 0 0 0 -4.815167763505656e-05 0 
0 0 0 -0.0002049610636968361 0 0.0001965429859748628 0 -0.0002054508439148392 -0.000389129379746971 0 0 
0 0 0 0 0 0 0 0 0 0 0 
0 0 0 0 0 0 0 0 0 0 0 
0 0 0 0 0 0 0 0 0 0 0 
0 0 0 0 0 0 0 0 0 0 0 
0 8.839105244644435e-05 0 0 0 0 0 0 -2.445158240379886e-06 0 -2.173027582418891e-05 
-0.001659990461920554 0 0 0 0 0 0 0 -2.832369027870839e-05 0 0 
0 0 0 0 0 0 0 0 0 0 0 
-0.0004647411949668322 0 0 -6.226777156600986e-05 0.0008989452691248998 -0.0008036128444465301 -3.200598122448575e-05 0 0 0 0 
0 0 0 0 0 0 0 0 0 0 0 
0 0 0 0 0 0 0 0 0 0 0 
0 0 0 0 0 0 0 0 0 0 0 
0.001040088335164169 0 0 0 0 0 0 -0.001316284980432141 0 0 0 
0 0 0 0 0 0 0 0 0 0 0 
0 0 0 0 0 0 0 0 0 0 0 
0 0 0 0 0 0 0 0 0 0 0 
0 0 0 0 0 0 0 0 0 0 0 
0 0 0 0 0 0 0 0 0 0 0 
0 0 0 0 0 0 0 0 0 0 0 
0 -0.0001901060520647123 0 0 -0.0003445742329587611 0 0 0.001047794895880123 0 0 0 
0.001603029621568873 -0.0001364854616285375 0 0 0 -0.0004213387514554691 0 -9.67806117566122e-05 0 0 -7.240194518695469e-05 
0 0 0 0 0 0 0 0 0 0 0 
0 0 0 0 0 0 0 0 0 0 0 
0 0 0 0 0 0 0 0 0 0 0 
0 0 0 0 0 0 0 0 0 0 0 
0 0 0 0 0 0 0 0 0 0 0 
0 0 0 0 0 0 0 0 0 0 0 
0 0 0 0 0 0 0 0 0 0 0 
0 0 0 0 0 0 0 0 0 0 0 
0 0 0 0 0 0 0 0 0 0 0 
0 0 0 0 0 0 0 0 0 0 0 
0 0 0 0 0 0 0 0 0 0 0 
0 0 0 0 0 0 0 0 0 0 0 
0 0 0 0 0 0 0 0 0 0 0 
-0.0003387429986936242 0 0 0 -2.436411337727543e-05 0.001052160539006014 0 -0.001056362128731397 0 0 0 
0 0 0 0 0 0 0 0 0 0 0 
0 -0.0008258623955572848 -0.0004012422914754301 0 -1.50768017652762e-05 -9.108427549993231e-05 0 0 0 0 0.001186686141993084 
0 0 0 0 0 0 0 0 0 0 0 
0.006164557851160588 0 -0.001998183631140036 0 0 0 0 0 0 0 0 
0 0 0 0 0 0 0 0 0 0 0 
0 0 0 0 0 0 0 0 0 0 0 
0 0 0 0 0 0 0 0 0 0 0 
0 0 0 0 0 0 0 0 0 0 0 
0 0 0 0 0 0 0 0 0 0 0 
-0.004744059826639118 -0.0003463110388066662 0.002213669174621831 0 0.002540282933545393 -0.0004203298478580006 -0.0009069765460636984 0.0005741824760136893 0 -9.288993990216406e-05 0 
0 0 0 0 0 -7.652788438987106e-06 0 0 0 0 0 
0 0 0 0 0 0 0 0 0 0 0 
0 0 0 0 0 0 0 0 0 0 0 
0 0 0 0 0 0 0 0 0 0 0 
0 0 0 0 0 0 0 0 0 0 0 
0 0 0 0 0 0 0 0 0 0 0 
0 0 0 0 0 0 0 0 0 0 0 
0 0 0 0 0 0 0 0 0 0 0 
0 0 0 0 0 0 0 0 0 0 0 
0 0 0 0 0 0 0 0 0 0 0 
-0.0009667911786218025 0 0 -0.000397013735467012 0.001352026968649358 -0.0009472463280310881 0 -0.0009616017694796364 0 0 -0.0003916855061276588 
0 0 0 0 0 0 0 0 0 0 0 
0 0 0 0 0 0 0 0 0 0 0 
0 0 0 0 0 0 0 0 0 0 0 
0 0 0 0 0 0 0 0 0 0 0 
0 0 0 0 0 0 0 0 0 0 0 
0 0 0 0 0 0 0 0 0 0 0 
0 0 0 0 0 0 0 0 0 0 0 
0.000115667426687255 0 -0.001590036731034707 0 0 0 0 0 0 0 0 
0 0 0 0 0 0 0 0 0 0 0 
0 0 0 0 0 0 0 0 0 0 0 
0 0 0 0 0 0 0 0 0 0 0 
-0.000614786526643369 0 0 0 -0.0005231294333319476 0 0 0 0 0.001891437355233725 0 
-0.0008918329612136208 0 -0.0004875598098856456 0 5.421010862427522e-20 0 -0.0001492017557344208 0 0 0.001022012370005844 0 
-0.002762305006828169 0 0 0 0 0 0 0 -0.0004363278589986963 0 0 
0 0 0 0 0 0 0 0 0 0 0 
0 0 0 0 0 0 0 0 0 0 0 
0 0 0 0 0 0 0 0 0 0 0 
0.0005426452477315106 -0.0001734133149685897 0 0 0 0 0 -0.000423610224248575 -0.0004371912917448374 -0.000436824976250552 -8.475025807139333e-06 
0 0 0 0 0 0 0 0 0 0 0 
0 0 0 0 0 0 0 0 0 0 0 
0 0 0 0 0 0 0 0 0 0 0 
0 0 0 0 0 0 0 0 0 0 0 
0 -8.086197811931384e-05 0.002074825715938301 0 0 0 0 0 0 0 0 
0 -9.879079179978943e-05 -0.0006569422671698132 0 0 0 0 0 0 0 0 
0 0 0 0 0 0 0 0 0 0 0 
0 0 0 0 0 0 0 0 0 0 0 
-0.001696712857998316 0 0 0 0 0 0 0 0 0.0002681861809052969 0 
0 0 0 0 0 0 0 0 0 0 0 
0 0 0 0 0 0 0 0 0 0 0 
0 0 0 0 0 0 0 0 0 0 0 
0 0 0 0 0 0 0 0 0 0 0 
0 0 0 -0.000641882972171775 0.002073463645538199 0 -0.0002866589835405323 0 0 -0.004486098951262752 0 
0 -7.811371382451485e-05 0 0 0 0.0001156638841796375 0 0 -0.0002623644069498908 0 0 
0 0 0 0 0 0 0 0 0 0 0 
0 0 0 0 0 0 0 0 0 0 0 
0 0 0 0 0 0 0 0 0 0 0 
0 0 0 0 0 0 0 0 0 0 0 
0 0 0 0 0 0 0 0 0 0 0 
0 0 0 0 0 0 0 0 0 0 0 
0 0 0 0 0 0 0 0 0 0 0 
0 0 0 0 0 0 0 0 0 0 0 
0 0 0 0 0 0 0 0 0 0 0 
0 0 0 0 0 0 0 0 0 0 0 
-0.0003378089985238102 0 0 -0.0001767287263958342 0.001614212419407298 -0.0002579118111534077 0 0 0 0 -0.0001833029748664328 
0.01169552645151202 0 0 0 -0.00147970585363201 0 0 0 0 0 0 
0 0 0 0 0 0 0 0 0 0 0 
-0.0007378152157611799 0.004548221980214491 0 0 -0.000522256138298721 0 -0.0006138665977608588 -0.0004236798186458494 -0.001250493584053981 0 -0.0001110094442949377 
0 0 0 0 0 0 0 0 0 0 0 
0.001738933000906926 -3.894973712150219e-05 0 0 0 0 -7.067509162732683e-05 0 0 0 0 
0 0 0 0 0 0 0 0 0 0 0 
0 0 -0.000912808059004504 -0.0002925451425671762 0 0 0 0.0008555280619743056 0 0 0 
0 0 -0.0007652969699502252 0 0 0 0 0 0 0 0 
0 0 0 0 0 0 0 0 0 0 0 
0 0 0 0 0 0 0 0 0 0 0 
0 0 0 0 0 0 0 0 0 0 0 
0 0 0 0 0 0 0 0 0 0 0 
0 0 0 0 0 0 0 0 0 0 0 
0 0 0 0 0 0 0 0 0 0 0 
0 0 0 0 0 0 0 0 0 0 0 
0 0 0 0 0 0 0 0 0 0 0 
0 0 0 0 0 0 0 0 0 0 0 
0 0 0 0 0 0 0 0 0 0 0 
0 -8.390093330483915e-05 0 -8.753218961410589e-05 0 0 0 0 0 0 0 
0 0 0 0 0 0 0 0 0 0 0 
0 0 0 0 0 0 0 0 0 0 0 
0 0 0 0 0 0 0 0 0 0 0 
0 0 0.0004386633005268988 0 0 0 0 -0.0007690712495129374 0 -0.0003600695902093234 0 
0 0 0 0 0 0 0 0 0 0 0 
0 0 0 0 0 0 0 0 0 0 0 
0 0 0 0 0 0 0 0 0 0 0 
0 0 0 0 0 0 0 0 0 0 0 
0 0 0 0 0 0 0 0 0 0 0 
0 0 0 0 0 0 0 0 0 0 0 
0 0 0 0 0 0 0 -0.0001922117381217773 0 0 -2.25631297266085e-05 
0 0 0 0 0 0 0 0 0 0 0 
0 0 0 0 0 0 0 0 0 0 0 
0 0 0 0 0 0 0 0 0 0 0 
0 0 0 0 0 0 0 0 0 0 0 
0 0 0 0 0 0 0 0 0 0 0 
0 0 0 0 0 0 0 0 0 0 0 
0.0005013008990399731 0 0 0 -4.110660062368973e-05 0 0 -0.0005207887612445797 0 0 -0.0001772652141461593 
0.006136551531328307 -0.003526709323139669 0 0 -0.0002847907186337661 0 0 0 -0.0003864979305651218 0 0 
0 0 0 0 0 0 0 0 0 0 0 
0 0 0 0 0 0 0 0 0 0 0 
0 0 0 0 0 0 0 0 0 0 0 
0 0 0 0 0 0 0 0 0 0 0 
-0.003445933962309898 -0.0003503554618689857 0 0 0 0.003130259903000507 0 0 0 0 0 
0 0 0 0 0 0 0 0 0 0 0 
0 0 0 0 0 0 0 0 0 0 0 
0 0 0 0 0 0 0 0 0 0 0 
0 0 0 0 0 0 0 0 0 0 0 
0 0 0 0 0 0 0 0 0 0 0 
0 0 0 0 0 0 0 0 0 0 0 
0 0 0 0 0 0 0 0 0 0 0 
0 0 0 0 0 0 0 0 0 0 0 
0 0 0 0 0 0 0 0 0 0 0 
0 0 0 0 0 0 0 0 0 0 0 
0 0 0 0 0 0 0 0 0 0 0 
0 0 0 0 0 0 0 0 0 0 0 
0 0 0 0 0 0 0 0 0 0 0 
0 0 0 0 0 0 0 0 0 0 0 
0 0 0 0 0 0 0 0 0 0 0 
0.03862097026100258 0 0.001231317795753625 0 -0.04190705998071616 0 -0.0002353724171753207 0.0009247971267805577 0 -1.73666634179878e-06 0 
0 0 0 0 0 0 0 0 0 0 0 
0 0 0 0 0 0 0 0 0 0 0 
0 0 0 0 0 0 0 0 0 0 0 
-0.0002249569236864173 0 -0.000172601788388396 0 0 0.0001093729691303447 0 0 0 0 0 
0.001153398330304152 0 0 -0.00013532613281511 0 -0.0002968769385410376 0 0 -0.0001689951703215402 0 -5.620929185098104e-05 
0 -7.558850847628896e-05 0 0 0 0 0 0 0 0 0 
0 0 0 0 0.000370020655154056 -6.034625147830511e-05 0 0 -0.0005678468481727316 0 0 
0 0 0 0 0 0.0007230152118209638 0 -0.0006136302787185474 -0.0001250995753947262 -9.791815112921995e-06 0 
0 0 0 0 0 0 0 0 0 0 0 
0 0 0 0 0 0 0 0 0 0 0 
0 0 0 0 0 0 0 0 0 0 0 
0 0 0 0 0 0 0 0 0 0 0 
0 0 0 0 0 0 0 0 0 0 0 
0 0 0 0 0 0 0 0 0 0 0 
0 0 0 0 0 0 0 0 0 0 0 
0 0 0 0 0 0 0 0 0 0 0 
0 0 0 0 0 0 0 0 0 0 0 
0 0 0 0 0 0 0 0 0 0 0 
-0.0003658487298072111 0 0 0 0.001666818284774528 0 0 0 0 -0.0003835903350155917 0 
0 0 0 0 0 0 0 0 0 0 0 
0.0009847159680170504 -0.001388954662737637 -0.000765217262357528 -0.0006323887833311774 0 -0.0002610277597015878 -0.000515452439191251 0 -0.001144573187245589 0 -4.220996279983466e-05 
0 0 0 0 0 0 0 0 0 0 0 
0 0 0 0 0 0 0 0 0 0 0 
0 0 0 0 0 0 0 0 0 0 0 
0 0 0 0 0 0 0 0 0 0 0 
0 0 0 0 0 0 0 0 0 0 0 
0 0 0 0 0 0 0 0 0 0 0 
0 0 0 0 0 0 0 0 0 0 0 
0 0 0 0 0 0 0 0 0 0 0 
0 0 0 0 0 0 0 0 0 0 0 
0 0 0 0 -3.814164033090841e-05 0 0 0 -0.0002543612135391646 0 -0.0001672364010316046 
0 0 0 0 0 0 0 0 0 0 0 
0 0 0 0 0 0 0 0 0 0 0 
0 0 0 0 0 0 0 0 0 0 0 
0 0 0 0 0 0 0 0 0 0 0 
0 0 0 0 0 0 0 0 0 0 0 
-0.005966493711862592 0 0.0004662970450896532 0 0.006294368668972965 0 0 -0.004986636884904158 0 0 0 
0 0 0 0 0 0 0 0 0 0 0 
0 0 0 0 -0.0005103886703129769 0 0 0 0 -0.005456894711269783 0 
0 0 0 0 0 0 0 0 0 0 0 
0.0009392735896262252 0 -0.0004041108052323855 0 0 -0.0001631385834738564 0 -0.0004948002111015691 0 0 0 
0 0 0 0 0 0 0 -0.00206693788267165 -0.0002408626703776128 0 0 
0 0 0 0 0 0 0 0 0 0 0 
0 0 0 0 0 0 0 0 0 0 0 
0 0 0 0 0 0 0 0 0 0 0 
0 0 0 0 0 0 0 0 0 0 0 
0 0 0 0 0 0 0 0 0 0 0 
0 0 0 0 0 0 0 0 0 0 0 
0 0 0 0 0 0 0 0 0 0 0 
0 0 0 0 0 0 0 0 0 0 0 
0 0 0 0 0 0 0 0 0 0 0 
0 0 0 0 0 0 0 0 0 0 0 
0 0 0 0 0 0 0 0 0 0 0 
0.0001526895953706313 2.710505431213761e-20 0 -0.001359665371577266 0 0 -0.002325849945583162 -0.001247289097400733 0 0 -0.001274486190508826 
-0.004161671873133344 0 0 0 -8.70265710148586e-05 0 0 0.002855139629680609 0 0 0 
0 0 0 0 0 0 0 0 0 0 0 
0 0 0 0 0 0 0 0 0 0 0 
0 0 0 0 0 0 0 0 0 0 0 
0 0 0 0 0 0 0 0 0 0 0 
0 0 0 0 0 0 0 0 0 0 0 
0 0 -0.006337717238463841 0 0 0 -0.0005871224293320477 0 0 0 -0.000673420748192435 
0 -6.625892463575989e-05 -5.375911718328404e-05 -0.0001544259395117176 -9.961490303343767e-05 -5.532870748373555e-05 -4.9825843657879e-05 -0.0002663059932875112 0.0002732790744395941 0 -0.0001132352717547592 
0 0 0 0 0 0 0 0 0 0 0 
0.00177416882925207 -9.622019850778044e-05 0 -0.0005125647624237197 0 -0.0006136006230184589 -4.682390442091308e-06 -3.557778694742155e-05 -0.0007890695884978761 0 -0.000139480894283753 
0 0 0 0 0 0 0 0 0 0 0 
0 0 0 0 0 0 0 0 0 0 0 
0 0 0 0 0 0 0 0 0 0 0 
0 0 0 0 0 0 0 0 0 0 0 
0 0 0 0 0 0 0 0 0 0 0 
0.0001057843352453932 0 -7.9400700036636e-05 0 0 0 0 0 -0.0004390204719118207 0 0 
0 0 0 0 0 0 0 0 0 0 0 
-0.007445386310928889 0 0.008066121994107707 0 0 0 0 0 -0.0001012452698379974 0 3.99548017989403e-05 
0.004026662615659939 -0.0003050144964377297 -0.004872944370124336 0 0 2.710505431213761e-20 0 0 0 0 0 
0.0005898445467843823 0 -0.006304501879417397 0 0 0 0 0 -0.0007527445073617563 0 0 
0 0 0 0 0 0 0 0 0 0 0 
0 0 0 0 0 0 0 0 0 0 0 
0.00127772133933292 0 0 0 0 0 0 0 0 0 0 
0 0 0 0 0 0 0 0 0 0 0 
0 0 0 0 0 0 0 0 0 0 0 
0 0 0 0 0 0 0 0 0 0 0 
0 0 0 0 0 0 0 0 0 0 0 
0 0 0 0 0 0 0 0 0 0 0 
0 0 0 0 0 0 0 0 0 0 0 
0 0 0 0 0 0 0 0 0 0 0 
0 0 0 0 0 0 0 0 0 0 0 
0 0 0 0 0 0 0 0 0 0 0 
0 0 0 0 0 0 0 0 0 0 0 
0 0 0 0 0 0 0 0 0 0 0 
0 0 0 -0.0003983752096855501 -0.001066415868132331 0 -0.0008305811274571561 0.002185142011285659 0 0 -2.90332241664001e-05 
0 0 0 0 0 0 0 0 0 0 0 
0 0 0 0 0 0 0 0 0 0 0 
0 0 0 0 0 0 0 0 0 0 0 
0 0 0 0 0 0 0 0 0 0 0 
0 0 0 0 0 0 0 0 0 0 0 
0 0 0 0 0 0 0 0 0 0 0 
0 0 0 0 0 0 0 0 0 0 0 
0 0 0 0 0 0 0 0 0 0 0 
0 -4.21062326389854e-05 0 -0.0001351990451877156 -0.0005489723370817158 -4.83504510002189e-05 -0.0002332676886663341 -0.0006724805873207903 0 0.0008360422202046204 0 
0.001284318958470677 0 0 -0.0002524132586979133 -0.0001495316719324028 -0.0002873117770198775 0 -0.0002314780341933031 0 -0.0002268166212165888 0 
0 0 0 0 0 0 0 0 0 0 0 
0 0 0 0 0 0 0 0 0 0 0 
0 0 0 0 0 0 0 0 0 0 0 
-0.004196470348095828 -0.0008485515863498473 0 -0.001224894178557777 0 -0.002085369650726612 0 0.008581796517603841 -0.0001411587706120308 0 -0.001135039451499721 
0 0 0 0 0 0 0 0 0 0 0 
0 0 0 0 0 0 0 0 0 0 0 
0 0 0 0 0 0 0 0 0 0 0 
0 0 0 0 0 0 0 0 0 0 0 
0 0 0 0 0 0 0 0 0 0 0 
0 0 0 0 0 0 0 0 0 0 0 
0 0 0 0 0 0 0 0 0 0 0 
0 0 0 0 0 -9.840121625174862e-06 0 -0.0008716475731605693 0 0 0 
0 0 0 0 0 0 0 0 0 0 0 
0 0 0 0 0 0 0 0 0 0 0 
0 0 0 0 0 0 0 0 0 0 0 
0 0 0 0 0 0 0 0 0 0 0 
0 0 0 0 0 0 0 0 0 0 0 
0 0 0 0 0 0 0 0 0 0 0 
0 0 0 0 0 0 0 0 0 0 0 
0 0 0 0 0 0 0 0 0 0 0 
0 0 0 0 0 0 0 0 0 0 0 
0 0 0 0 0 0 0 0 0 0 0 
0 0 0 0 0 0 0 0 0 0 0 
-0.008922506377273921 -0.0003453377729914448 0 -0.0002896106711851615 2.710505431213761e-20 0 -0.000653483864782711 0.003514746656872377 0.001033359285154716 0 0 
0 0 0 0 0 0 0 0 0 0 0 
0 0 0 0 0 0 0 0 0 0 0 
0 0 0 0 0 0 0 0 0 0 0 
0 0 0 0 0 0 0 0 0 0 0 
0 0 0 0 0 0 0 0 0 0 0 
0 0 0 0 0 0 0 0 0 0 0 
0 0 0 0 0 0 0 0 0 0 0 
0 0 0 0 0 0 0 0 0 0 0 
0 0 0 0 0 0 0 0 0 0 0 
0 0 0 0 0 0 0 0 0 0 0 
0 0 0 0 0 0 0 0 0 0 0 
0 0 0 0 0 0 0 0 0 0 0 
-0.0006068337717819289 -0.0002061018843338527 0 0 -0.0002159868723864219 0 0.0005749024316492151 0 0 0 0 
0 0 0 0 0 0 0 0 0 0 0 
0 0 0 0 0 0 0 0 0 0 0 
0 0 0 0 0 0 0 0 0 0 0 
0 0 0 0 0 0 0 0 0 0 0 
0 0 0 0 0 0 0 0 0 0 0 
0.001011065673044392 0 -0.000998208821222233 -0.0001663830908654438 -0.0002293717083528507 0 0 -2.315557877687108e-05 0 -0.0002526485776963133 0 
0 0 0 0 -0.0001093691902689153 0 0 -0.000352799220950655 0 0 0 
0 0 0 0 0 0 0 0 0 0 0 
0.0001471984617905799 0 0 0 0 -0.0003139989540299902 0 0 0 0 -1.902367534561688e-05 
0 0 0 0 -0.0003974043474936063 0 0 0 0 0 0 
0 0 0 0 0 0 0 0 0 0 0 
0 0.00157918088611283 0 0 0 0 0 -0.0001136720338688656 0 -0.0005617625310799647 0 
0 0 0 0 0 0 0 0 0 0 0 
0 0 0 0 0 0 0 0 0 0 0 
0 0 0 0 0 0 0 0 0 0 0 
0 0 0 0 0 0 0 0 0 0 0 
0 0 0 0 0 0 0 0 0 0 0 
0 0 0 -3.669715028884532e-05 0 -4.574041420407351e-06 -2.664828003434485e-05 0.0009866153299230686 0 -0.0001691464813247611 0 
0 0 0 0 0 0 0 0 0 0 0 
0 0 0 0 0 0 0 0 0 0 0 
0 0 0 0 0 0 0 0 0 0 0 
0 0 0 0 0 0 0 0 0 0 0 
-0.0004598889310396331 0 -0.0003879952043208513 0 -0.000521772541781785 0 0 0.001403636084382749 0 -0.0001424777329443092 -6.025730452418811e-05 
0 0 0 0 0 0 0 0 0 0 0 
0 0 0 0 0 0 0 0 0 0 0 
0 0 0 0 0 0 0 0 0 0 0 
0 -0.0004574250805878934 -0.006429231977036653 0 0 0 0.005197627310804759 0 0 0 0 
0 0 0 0 0 0 0 0 0 0 0 
-0.0004939566504297789 0 0 0 0 0 -0.0003274870441439433 0.0007313220333485824 0 -0.000103683817689116 0 
0 0 0 0 0 0 0 0 0 0 0 
0 0 0 0 0 0 0 0 0 0 0 
0 0 0 0 0 -0.001684721229082047 0 0 0 0 0 
0 0 0.01033033978599066 0 -0.009871699086168886 -7.474327454120605e-05 0 -0.001244670787822384 0 0 0 
0 0 0 0 0 0 0 0 0 0 0 
0 0 0 0 0 0 0 0 0 0 0 
0 0 0 0 0 0 0 0 0 0 0 
0 0 0 0 0 0 0 0 0 0 0 
0 0 0 0 0 0 0 0 0 0 0 
0 0 0 0 0 0 0 0 0 0 0 
0 0 0 0 0 0 0 0 0 0 0 
0 0 0 0 0 0 0 0 0 0 0 
-0.001210238426777422 0 0 -0.0004435194276941057 0 0 0 0.002061176091004903 0 0 0 
0 0 0 0 0 0 -0.0001047644034185258 0 0 -0.0006578517161857918 -0.0001789618768882235 
0 0 0 0 0 0 0 0 0 0 0 
0 0 0 0 0 0 0 0 0 0 0 
0 0 0 0 0 0 0 0 0 0 0 
0 0 0 0 0 0 0 0 0 0 0 
0.002239738736664015 0 -0.0009099001104677763 -0.0002157886299429819 0 0 -1.467734849302769e-05 0 -1.683254805320638e-05 -0.000185579122473347 0 
0 0 0 0 0 0 0 0 0 0 0 
0 0 0.003052761842461997 0 -0.0006250447493239825 -0.0001298046861644928 0 -0.0007352125560439731 0 0 0 
0 0 0 0 0 0 0 0 0 0 0 
0 0 0 0 -0.0002241658798750577 0 0 0 0 0 0 
0 0 0 0 0 0 0 0 0 0 0 
0 0 0 0 0 0 0 0 0 0 0 
0 0 0 0 0 0 0 0 0 0 0 
0 0 0 0 0 0 0 0 0 0 0 
0 0 0 0 0 0 0 0 0 0 0 
0 0 0 0 0 0 0 0 0 0 0 
0 0 0 0 0 0 0 0 0 0 0 
0 0 0 0 0 0 0 0 0 0 0 
0 0 0 0 0 0 0 0 0 0 0 
0 0 0 0 0 0 0 0 0 0 0 
-0.0005357911796663339 0 -0.0003461307926977745 0 -0.0001342680276954533 0 0 0.0008781551682473354 0 0 0 
-0.001590053111434788 0 0 -7.734024704506958e-05 -0.0004081461049438971 -0.001492920841190681 -0.0005086810389913574 -0.002172350284754671 0 0.007176434435749684 -0.0002563457305010322 
0 0 0 0 0 0 0 0 0 0 0 
0 0 0 0 0 0 0 0 0 0 0 
0 0 0 0 0 0 0 0 0 0 0 
0 0 0 0 0 0 0 0 0 0 0 
0 0 0 0 0 0 0 0 0 0 0 
-0.0001607609181706073 0 -8.117444675802866e-05 0 -0.000930176852561368 0 0 0.0008303687612375793 0 0 0 
0 0 0 0 0 0 0 0 0 0 0 
0.0001897701574479708 0 0 0 0 0 0 0 0 -0.0004414971692787677 0 
0.002408901352783497 0 0 -0.0001898836514771398 -0.001588422441068998 -0.0001967524328403269 0 0 0 0 0 
-0.0002320347506240106 0 -0.0004666673649704676 0 0.003827199990583534 -0.002166760866687451 0 0 0 0 0 
0 0 0 0 0 0 0 0 0 0 0 
0 0 0 0 0 0 0 0 0 0 0 
0 0 0 0 0 0 0 0 0 0 0 
0 0 0 0 0 0 0 0 0 0 0 
0 0 0 0 0 0 0 0 0 0 0 
0 0 0 0 0 0 0 0 0 0 0 
0.0007008288351206967 0 0 0 0 0 0 -2.710505431213761e-20 -0.001311283152938672 0 0 
0 0 0 0 0 0 0 0 0 0 0 
0 0 0 0 0 0 0 0 0 0 0 
0 0 0 0 0 0 0 0 0 0 0 
0 0 0 0 0 0 0 0 0 0 0 
0 0 0 0 0 0 0 0 0 0 0 
0.000560810538565937 0 0 0 0 0 0 -0.001822235640054242 0 0 0 
0 0 0 0 0 0 0 0 0 0 0 
0 0 0 0 0 0 0 0 0 0 0 
0 0 0 0 0.0005634254503923917 -0.0001755353561894288 0 0 0 0 0 
0 0 0 0 0 0 0 0 0 0 0 
0 0 0 0 0 0 0 0 0 0 0 
0 0 0 0 0 0 0 0 0 0 0 
0 0 0 0 0 0 0 0 0 0 0 
-0.0008496379425561858 0 0 0 -0.0005553948790380933 -0.0001479593213597852 0 0.0001398113607546146 0 0 0 
0 0 0 0 0 0 0 0 0 0 0 
0 0 0 0 0 0 0 0 0 0 0 
0 0 0 0 0 0 0 0 0 0 0 
0 0 0 0 0 0 0 0 0 0 0 
0 0 0 0 0 0 0 0 0 0 0 
0 0 0 0 0 0 0 0 0 0 0 
0 0 0 0 0 0 0 0 0 0 0 
0 0 0 0 0 0 0 0 0 0 0 
0 0 0 0 0 0 0 0 0 0 0 
0 0 0 0 0 0 0 0 0 0 0 
0 0 0 0 0 0 0 0 0 0 0 
0.002221256639715937 0 0 0 0 0 0 -0.001115823610151724 0 0 0 
0 0 0 0 0 0 0 0 0 0 0 
0 0 0 0 0 0 0 0 0 0 0 
0 0 0 0 0 0 0 0 0 0 0 
0 0 0 0 0 0 0 0 0 0 0 
0 0 0 0 0 0 0 0 0 0 0 
0 0 -0.001143713547604132 0 0 0 0 0 0 0 0 
0 0 0 0 0 0 0 0 0 0 0 
0 0 0 0 0 0 0 0 0 0 0 
0 0 0 0 0 0 0 0 0 0 0 
0 0 0 0 0 0 0 0 0 0 0 
0 0 0 0 0 0 0 0 0 0 0 
0 0 0 0 0 0 0 0 0 0 0 
0 0 0 0 0 0 0 0 0 0 0 
0 0 0 0 0 0 0 0 0 0 0 
0 0 0 0 0 0 0 0 0 0 0 
0 0 0 0 0 0 0 0 0 0 0 
0 0 0 0 0 0 0 0 0 0 0 
0 0 0 0 0 0 0 0 0 0 0 
0 0 0 0 0 0 0 0 0 0 0 
0 0 0 0 0 0 0 0 0 0 0 
0 0 0 0 0 0 0 0 0 0 0 
0 0 0 0 0 0 0 0 0 0 0 
0 0 0 0 0 0 0 0 0 0 0 
0 0 0 0 0 0 0 0 0 0 0 
0 0 0 0 0 0 0 0 0 0 0 
0 0 0 0 0 0 0 0 0 0 0 
0 0 0 0 0 0 0 0 0 0 0 
0 0 0 0 0 0 0 0 0 0 0 
0 0 0 0 0 0 0 0 0 0 0 
0 0 0 0 0 0 0 0 0 0 0 
0.001841703788467296 0 -5.034031468625752e-05 0 0 0 -1.174942908045921e-05 -0.0004410576944232546 0 -2.766767976782083e-05 0 
0 0 0 -0.0002952933112031354 0 -6.931888419863188e-05 -2.778494213727184e-06 0.001839478662093634 -0.0006529087234032119 0 -5.113509754199205e-05 
-0.0003292207265280964 -0.0002252832365527715 0 -0.001024650209387717 -0.0002455910161364412 0 0 0.001998169065298653 -0.0006381744906928687 -0.0001844992983101157 -0.0004083950963364146 
0 0 -0.0003958354755178147 0.0004732746637428452 -0.0006295899512815116 0 -0.0002518966358558293 0 0 -0.000693798355791889 0 
0 0.0005360268093389447 0 0 0 0 0 -0.003210179622634084 0 0 0 
0 -0.0002637868052395312 0 0 0.00162092582821549 0 0 -0.001269345288570101 0 0 0 
0 0 0 0 0 0 0 0 0 0 0 
0 0 0 0 0 0 0 0 0 0 0 
0 0 0 0 0 0 0 0 0 0 0 
0 0 0 0 0 0 0 0 0 0 0 
0 0 0 0 0 0 0 0 0 0 0 
0 0 0 0 0 0 0 0 0 0 0 
0 0 0 0 0 0 0 0 0 0 0 
0 0 0 0 0 0 0 0 0 0 0 
0 0 0 0 0 0 0 0 0 0 0 
0 0 0 0 -0.0005353377094753613 0 -0.001452696841326098 0.002195458200956375 -6.386355157084685e-05 0 0 
0 0 0 0 0 0 0 0 0 0 0 
0 0 0 0 0 0 0 0 0 0 0 
0 0 0 0 0 0 0 0 0 0 0 
0 0 0 0 0 0 0 0 0 0 0 
-0.003307058216142454 0 0.007749426282486031 0 0 -0.0004382660358625541 -0.002863746866129879 -0.0002906856199421007 0.0003691411023521454 1.355252715606881e-20 -2.361757267787904e-05 
0 0 0 0 0 0 0 0 0 0 0 
0 0 0 0 0 0 0 0 0 0 0 
0 0 0 0 0 0 0 0 0 0 0 
0 0 0 0 0 0 0 0 0 0 0 
0 0 0 0 0 0 0 0 0 0 0 
0 0 0 0 0 0 0 0 0 0 0 
0 0 0 0 0 0 0 0 0 0 0 
0 0 0 0 0 0 0 0 0 0 0 
0 0 -0.0009418792349159276 0 0 0 0 0 0 0 0 
0 0 0 0 0 0 0 0 0 0 0 
0 0 0 0 0 0 0 0 0 0 0 
0 0 0 0 0 0 0 0 0 0 0 
0 0 0 0 0 0 0 0 0 0 0 
0 0 0 0 0 0 0 0 0 0 0 
0 0 0 0 0 0 0 0 0 0 0 
0 0 0 0 0 0 0 0 0 0 0 
0 0 0 0 0 0 0 0 0 0 0 
0 0 0 0 0 0 0 0 0 0 0 
0 0 0 0 0 0 0 0 0 0 0 
0 0 0 0 0 0 0 0 0 0 0 
0 0 0 0 0 0 0 0 0 0 0 
0 0 0 0 0 0 0 0 0 0 0 
0 0 0 0 0 0 0 0 0 0 0 
0 0 0 0 0 0 0 0 0 0 0 
0 0 0 0 0 0 0 0 0 0 0 
0 0 0 0 0 0 0 0 0 0 0 
0 0 0.0005118230023173158 0 0 0 -0.0003165400631610149 0 0 0 0 
0 0 0 0 0 0 0 0 0 0 0 
0 0 0 0 0 0 0 0 0 0 0 
0.004141402098690212 0 -6.776263578034403e-20 0.001273443150290066 0 -0.001990392851390075 0 -0.0009796222191243314 -0.0008276697892339927 -0.0008181747259065936 -0.0002284473990910453 
0 0 0 0 0 -0.0001689014993427215 0 0 0 0 0 
-0.0004893868126928821 0 0 -0.0003644155377259169 0 0.0003912085615278064 0.0009674483829926952 -1.355252715606881e-20 0 -0.0001961574375492323 0 
0 0 -0.0001834250325576488 -4.590301919200721e-05 0 -7.987187438713021e-05 -0.0001322808646450932 0.0006696045163743474 0 -2.127127556941486e-05 0 
0 0 0 0 0 0 0 0 0 0 0 
0 0 0 0 0 0 0 0 0 0 0 
0 0 -0.000298441765886975 0 0 0 0 0 0 0 0 
0 0 0 0 0 0 0 0 0 0 0 
0 0 0.001207377245450579 0 -0.0001894130789145079 -0.0002663966623861839 -0.000578696867187224 0 0.0002675341124243509 0 0 
0 0 0 0 0 0 0 0 0 0 0 
0 0 0 0 0 0 0 0 0 0 0 
0 0 0 0 0 0 0 0 0 0 0 
0 0 0 0 0 0 0 0 0 0 0 
0 0 0 0 0 0 0 0 0 0 0 
0 0 0 0 0 0 0 0 0 0 0 
0 0 0 0 0 0 0 0 0 0 0 
0 0 0 0 0 0 0 0 0 0 0 
0 0 0 0 0 0 0 0 0 0 0 
0 0 0 0 0 0 0 0 0 0 0 
0 0 0 0 0 0 0 0 0 0 0 
0 0 0 0 0 0 0 0 0 0 0 
0 0 0 0 0 0 0 0 0 0 0 
0 0 0 0 0 0 0 0 0 0 0 
-0.0002813478590317258 0 0.002786364939868023 -0.0006161614619924172 -0.001431271663075838 -0.0009240535922938334 0 0.0003837342938089986 0 0 -9.923092839645567e-05 
-0.0004446181746477779 0 0.0002159201661803804 0 -0.0002752400347035734 -0.0001119017281629359 0 0 0 0 0 
0 0 0 0 0 0 0 0 0 0 0 
0 0 0 0 0 0 0 0 0 0 0 
0 0 0 0 0 0 0 0 0 0 0 
-0.000169940931804192 0 -0.001233711102798127 0 0.0003289528163863973 0 0 0 0 0 0 
0 0 0 0 0 0 0 0 0 0 0 
-0.004870495635179715 0.00472286063229359 -0.00156626999156873 0 -0.0009386658715843828 -0.0003466216929994675 -0.000393833087868989 -0.001092975622616139 0 0 -0.0001846513559048484 
0 0 0 0 0 0 0 0 0 0 0 
0 0 0 0 0 0 0 0 0 0 0 
0 0 0 0 0 0 0 0 0 0 0 
0 0 0 0 0 0 0 0 0 0 0 
0 0 0 0 0 0 0 0 -0.0002551004114555398 0 0 
0 0 0 0 0 0 0 0 0 0 0 
0 0 0 0 0 0 0 0 0 0 0 
0 0 0 0 0 0 0 0 0 0 0 
0 0 0 0 0 0 0 0 0 0 0 
0 0 0 0 0 0 0 0 0 0 0 
0 0 0 0 0 0 0 0 0 0 0 
0 0 0 0 0 0 0 0 0 0 0 
0 0 0 0 0 0 0 0 0 0 0 
0 0 0 0 0 0 0 0 0 0 0 
0 0 0 0 0 0 0 0 0 0 0 
0 0 0 0 0 0 0 0 0 0 0 
0 0 0 0 0 0 0 0 0 0 0 
0 0 0 0 0 0 0 0 0 0 0 
0 0 0 0 0 0 0 0 0 0 0 
0 0 0 0 0 0 0 0 0 0 0 
0 0 0 0 0 0 0 0 0 0 0 
0 0 0 -0.0001453697898558173 -1.785270309037335e-05 0 0 0.001162799298524448 0 0 0 
0 0 0 0 0 0 0 0 0 0 0 
0 0 0 0 0 0 0 0 0 0 0 
0 0 0 0 0 0 0 0 0 0 0 
0 0 0 0 0 0 0 0 0 0 0 
0 0 0 0 0 0 0 0 0 0 0 
0.0003678582839329853 -0.000593228086994389 -0.0008981913535247462 0.001404646871361649 0 -0.0008605018137544656 -0.0002318192102892077 0.001346083256690619 0.003312930215228443 0.0003970217159715577 0.0003785839714176172 
0.00195933607693511 -0.0006875200365219235 0 -0.0001640897780379765 -0.0005372847562738797 0.001785103323046481 -0.0004900624396327269 -0.0002921569127613449 -0.002821401926819197 -0.0006398706000365732 -0.0001767756796085634 
0 0 0 0 0 0 0 0 0 0 0 
0 -0.001265927642893399 0.003377214340257731 0 0 0 0 0 0 0 -0.0001066496161511423 
0 0 0 0 0 0 0 0 0 0 0 
0 0 0 0 0 0 0 0 0 0 0 
-0.001829643197831189 0 0 0 0 0 0 -1.963792079088894e-06 0 0.003163363315931991 0 
0.0006943986370576578 0 -8.967730968184084e-05 -2.112050824856152e-08 0 -6.285759121412037e-05 0 -2.753900873126418e-05 -0.0002249473393344701 -0.0001477333802003283 -1.745996080062786e-05 
0 0 0 0 0 0 0 0 0 0 0 
0 0 0 0 0 0 0 0 0 0 0 
0 0 0 0 0 0 0 0 0 0 0 
0 0 0 0 0 0 0 0 0 0 0 
0 0 0 0 0 0 0 0 0 0 0 
0 0 0 0 0 0 0 0 0 0 0 
0 0 0 0 0 0 0 0 0 0 0 
0 0 0 0 0 0 0 0 0 0 0 
0 0 0 0 0 0 0 0 0 0 0 
0 0 0 0 0 0 0 0 0 0 0 
0 0 0 0 0 0 0 0 0 0 0 
0 0 0 0 0 0 0 0 0 0 0 
0 -0.002388496548911755 0.004183575696762434 -0.0007064913035037608 -0.001837652656404609 0 -0.001317496439392229 -0.001349215412013191 0 0 -0.0003963927482109933 
0 0 0 0 0 0 0 0 0 0 0 
0 0 0 0 0 0 0 0 0 0 0 
0 0 0 0 0 0 0 0 0 0 0 
0 0 0 0 0 0 0 0 0 0 0 
0 0 0 0 0 0 0 0 0 0 0 
0 0 0 0 0 0 0 0 0 0 0 
0 0 0 0 0 0 0 0 0 0 0 
0 0 0 0 0 0 0 0 0 0 0 
0 0 0 0 0 0 0 0 0 0 0 
0 0.002461116313032604 0 0 -0.001671866575996381 -0.0002660924553478447 -0.0009798884493690278 0 0 0 0 
0 0 0 0 0 0 0 0 0 0 0 
0 0 0 0 0 0 0 0 0 0 0 
0 0 0 0 0 0 0 0 0 0 0 
0 0 0 0 0 0 0 0 0 0 0 
0 0 0 0 0 0 0 0 0 0 0 
0 6.776263578034403e-21 -0.002020148682712967 0 0.0003066686245216005 0 0 -6.776263578034403e-21 0 0 0 
0 0 0 0 0 0 0 0 0 0 0 
0 0 0 0 0 0 0 0 0 0 0 
0 0 0 0 0 0 0 0 0 0 0 
0 0 0 0 0 0 0 0 0 0 0 
0 0 0 0 0 0 0 0 0 0 0 
0 0 0 0 0 0 0 0 0 0 0 
0 0 0 0 0 0 0 0 0 0 0 
0 0 0 0 0 0 0 0 0 0 0 
0 0 0 0 0 0 0 0 0 0 0 
0 0 0 0 0 0 0 0 0 0 0 
-2.967488767764361e-05 0 -0.0008016098138498369 0 0.001237783750401219 0 0 0 0 0 -5.907254671153988e-05 
0 0 0 0 0 0 0 0 0 0 0 
0 0 0 0 0 0 0 0 0 0 0 
-0.001072062549225163 -0.0001560733593668533 0 0 0 0 0.001408511589740746 0 0 0 -3.171988574623437e-05 
0 0 0 0 0 0 0 0 0 0 0 
0 0 0 0 0 0 0 0 0 0 0 
0 0 0 0 0 0 0 0 0 0 0 
0 0 0 0 0 0 0 0 0 0 0 
0 0 0 0 0 0 0 0 0 0 0 
0 0 0 0 0 0 0 0 0 0 0 
0 0 0 0 0 0 0 0 0 0 0 
0 0 0 0 0 0 0 0 0 0 0 
0 0 0 0 0 0 0 0 0 0 0 
0 0 0 0 0 0 0 0 0 0 0 
0 0 0 0 0 0 0 0 0 0 0 
0 0 0 0 0 0 0 0 0 0 0 
0 0 0 0 0 0 0 0 0 0 0 
0 0 0 0 0 0 0 0 0 0 0 
0 0 0 0 0 0 0 0 0 0 0 
0 0 0 0 0 0 0 0 0 0 0 
0 0 0 0 0 0 0 0 0 0 0 
0 0 0 0 0 0 0 0 0 0 0 
0 0 0 0 0 0 0 0 0 0 0 
0 0 0 0 0 0 0 0 0 0 0 
0 0 0 0 0 0 0 0 0 0 0 
0 0 0 0 0 0 0 0 0 0 0 
0 0 0 0 0 0 0 0 0 0 0 
0 0 0 0 0 0 0 0 0 0 0 
0 0 0 0 0 0 0 0 0 0 0 
0 0 0 0 0 0 0 0 0 0 0 
0 0 0 0 0 0 0 0 0 0 0 
0 0 0 0 0 0 0 0 0 0 0 
0 0 0 0 0 0 0 0 0 0 0 
0 0 0 0 0 0 0 0 0 0 0 
0 0 0 0 0 0 0 0 0 0 0 
0 0 0 0 0 0 0 0 0 0 0 
0 0 0 0 0 0 0 0 0 0 0 
0 0 0 0 0 0 0 0 0 0 0 
0 0 0 0 0 0 0 0 0 0 0 
0 0 0 0 0 0 0 0 0 0 0 
0 0 0 0 0 0 0 0 0 0 0 
0 0 0 0 0 0 0 0 0 0 0 
0 0.009612424769725835 0 0 0 -0.005598094819136773 0 0 0 0 0 
0 0 0 0 0 0 0 0 0 0 0 
0 0 0 0 0 0 0 0 0 0 0 
-0.006763422643614701 0 0.01224089088575673 0 0 0 0 0 0 0 0 
0 0 0 0 0 0 0 0 0 0 0 
0 0 0 0 0 0 0 0 0 0 0 
0 0 0 0 0 0 0 0 0 0 0 
0 0 0 0 0 0 0 0 0 0 0 
0 0 0 0 0 0 0 0 0 0 0 
0 0 0 0 0 0 0 0 0 0 0 
0 0 0 0 0 0 0 0 0 0 0 
0 0 0 0 0 0 0 0 0 0 0 
0 0 0 0 0 0 0 0 0 0 0 
0 0 0 0 0 0 0 0 0 0 0 
0 0 0 0 0 0 0 0 0 0 0 
0 0 0 0 0 0 0 0 0 0 0 
0 0 0 0 0 0 0 0 0 0 0 
0 0 0.003136298579938553 -0.0004369750467439942 -0.0004919605434587102 0 0 0 0 0 0 
0 0 0 0 0 0 0 0 0 0 0 
0 0 0 0 0 0 0 0 0 0 0 
0 0 0 0 0 0 0 0 0 0 0 
0 0 0 0 0 0 0 0 0 0 0 
0 0 0 0 0 0 0 0 0 0 0 
0 0 0 0 0 0 0 0 0 0 0 
0 0 0 0 0 0 0 0 0 0 0 
0 0 0 0 0 0 0 0 0 0 0 
0 0 0 0 0 0 0 0 0 0 0 
0 0 0 0 0 0 0 0 0 0 0 
0 0 0 0 0 0 0 0 0 0 0 
0 0 -0.002229034496592268 0.000535175220466255 0 0 -3.248609325697301e-05 0 0 0 0 
0 0 0 0 0 0 0 0 0 0 0 
-0.0001181829263180317 0 -0.0001022524199844684 0 0 -4.236471166037958e-05 0 0.0006254084543874622 0 0 0 
0 0 0 0 0 0 0 0 0 0 0 
0.001346130634032903 -1.213610695422652e-05 -0.000495043091537176 0 0 0.00232786010916438 -0.0003951739519898557 -0.0003297529883717279 -0.0006034578025602899 0 -5.020697919256172e-05 
0 0 0 0 0 0 0 0 0 0 0 
0.003389534963096341 0 -0.00129611244949583 0 -0.0003661262312427638 0 0 -0.0002284782448307245 0 0 0 
0.001203081761781787 -0.000673303611434541 0 0 0 -0.0002910335637715288 0 0 0 0 0 
0.001680629926358161 0 -0.0006007226086800672 -0.0001448399247286469 0 0 0 -0.0004913835412939631 -0.0004659914406007379 -0.0002487693447552065 0 
0 0 0 0 0 0 0 0 0 0 0 
0 0 0 0 0 0 0 0 0 0 0 
0 0 0 0 0 0 0 0 0 0 0 
0 0 0 0 0 0 0 0 0 0 0 
0 0 0 0 0 0 0 0 0 0 0 
0 0 0.003528468159804066 -0.0003988789479783948 -0.003475518498631567 0 -0.0003772413816987839 0 0 -0.000511434651838036 0 
0 0 0 0 0 0 0 0 0 0 0 
0 0 0 0 0 0 0 0 0 0 0 
0 0 0 0 0 0 0 0 0 0 0 
0.0004779744477607255 -0.0004345691180287352 -0.0002065604698437474 0.001864451091498551 -0.0001070435188851101 -0.0001446153023840584 0 -0.001268040244996548 -1.628058994060005e-05 -4.855620317804606e-05 0 
0 0 0 0 0 0 0 0 0 0 0 
0 0 0 0 0 0 0 0 0 0 0 
0 0 0 0 -0.0004150718798942322 -8.783934525128361e-05 0.0007439906022515194 -0.0003065574048831891 -4.776250607465666e-05 0 -5.002915259013484e-05 
0.0006859889918729106 0 -0.0008162045126366742 -0.0004556277044865566 0 0.0001549909948442209 -0.0002811817053693867 0 0 0 -0.000259929813183102 
0 0 0 0 0 0 0 0 0 0 0 
0 0 0 0 0 0 0 0 0 0 0 
0 0 0 0 0 0 0 0 0 0 0 
0 0 0 0 0 0 0 0 0 0 0 
0 0 0 0 0 0 0 0 0 0 0 
0 0 0 0 0 0 0 0 0 0 0 
-0.0008243552883675327 -0.0002819779130879766 -0.0004642077380710709 -3.122034484418308e-05 0 0.0006910702128127458 0 0 -6.946945574646176e-05 0 -8.527000540400792e-05 
0 0 0 0 0 0 0 0 0 0 0 
0 0 0 0 0 0 0 0 0 0 0 
0 0 0 0 0 0 0 0 0 0 0 
0 0 0 0 0 0 0 0 0 0 0 
0 0.0007409572550144646 0 0 0 0 0 0 0 -0.0002331476042828238 0 
0 0 0 0 0 0 0 0 0 0 0 
0 0 0 0 0 0 0 0 0 0 0 
0 0 0 0 0 0 0 0 0 0 0 
0 0 0 0 0 0 0 0 0 0 0 
0 0 0 0 0 0 0 0 0 0 0 
0 0 0.002581256296974388 0 0 -0.0004533655802538578 -0.003024718152659821 -0.001455462339694847 0 0 -0.0001188751076294885 
-0.002455611471550953 -0.002074856474038544 -0.001195383937461618 0 0.007121144556182002 -0.0005968128848505805 0 -0.0003571733597631987 0 -0.0002469578068974217 0 
0.00277435300393356 0 -0.003065628164849528 -0.0005324213784202097 0.001783321768403854 0 -0.000406535838371647 0 -0.000685910328638739 0 0 
0 0 0 -0.0003435842794967707 0.0004934018491579077 -2.861856161603596e-05 0 -0.0002119026706384968 -0.0001245174158348745 0 -1.96112658011357e-05 
0 0 0 0 0 0 0 0 0 0 0 
0 0 0 0 0 0 0 0 0 0 0 
0 0 0 0 0 0 0 0 0 0 0 
-0.0002304131562374872 -0.0001764030363181207 0 0 0 0 0 -5.194663519769832e-05 0 0 0 
0 0 0 0 0 0 0 0 0 0 0 
0 0 0 0 0 0 0 0 0 0 0 
0 0 0 0 0 0 0 0 0 0 0 
0 0 0 0 0 0 0 0 0 0 0 
0 0 0 0 0 0 0 0 0 0 0 
0 0 0 0 0 0 0 0 0 0 0 
0 0 0 0 0 0 0 0 0 0 0 
0 0 0 0 -0.0002195378590892871 0 0 0.001125461805664335 0 0 0 
0 0 0 0 0 0 0 0 0 0 0 
0 0 0 0 0 0 0 0 0 0 0 
0 0 0 0 0 0 0 0 0 0 0 
0 0 0 0 0 0 0 0 0 0 0 
0 0 0 0 0 0 0 0 0 0 0 
0 0 0 0 0 0 0 0 0 0 0 
0 0 0 0 0 0 0 0 0 0 0 
0 0 0 0 0 0 0 0 0 0 0 
0 0 0 0 0 0 0 0 0 0 0 
0 0 -0.0001000313788458609 -0.0002010319970829548 0 0 0 0 0 0 0 
0 0 0 0 0 0 0 0 0 0 0 
0 -9.007815452155934e-05 0 0 0 -0.0001400346253167304 -9.789419431140663e-05 -0.0001235435404266874 -1.77886350444247e-05 0 -2.6893101619357e-05 
0 0 0 0 0 0 0 0 0 0 0 
0 0 -0.0005106641875783526 0 0 -0.0004536731438579103 -0.0002219694499012068 0.001633867492677734 0 0 0 
-1.001686242942878e-05 0 -8.062993913823601e-05 0 0 0 0 -0.0006841878030775521 -0.0001376790652580907 0.001265173768033487 0 
0 0 0 0 0 0 0 0 0 0 0 
0 0 0 0 0 0 0 0 0 0 0 
0 0 0 0 0 0 0 0 0 0 0 
0 0 0 0 0 0 0 0 0 0 0 
0 0 0 0 0 0 0 0 0 0 0 
0 0 0 0 0 0 0 0 0 0 0 
0 0 0 0 0 0 0 0 0 0 0 
0 0 0 0 0 0 0 0 0 0 0 
0 0 0 0 0 0 0 0 0 0 0 
0 0 0 0 0 0 0 0 0 0 0 
0 0 0 0 0 0 0 0 0 0 0 
0 0 0 0 0 0 0 0 0 0 0 
0 0 0 0 0 0 0 0 0 0 0 
0 0 0 0 0 0 0 0 0 0 0 
0 0 0 0 0 0 0 0 0 0 0 
0 0 0 0 0 0 0 0 0 0 0 
0 0 0 0 0 0 0 0 0 0 0 
0 0 0 0 0 0 0 0 0 0 0 
0 0 0 0 0 0 0 0 0 0 0 
0 0 0 0 0 0 0 0 0 0 0 
0 0 0 0 0 0 0 0 0 0 0 
0 0 0 0 0 0 0 0 0 0 0 
-0.001865171650181081 0 0 0 0.000371927641571683 0 0 0 0 0 0 
0 0 0 0 0 0 0 0 0 0 0 
0 0 0 0 0 0 0 0 0 0 0 
0 0 -0.007836350059355858 0 0.008621285050655292 0 0 0 0 0 0 
0 0 0 0 0 0 0 0 0 0 0 
9.294805077837165e-05 0 0 0 0 0 0 0 0 0 0 
0 0 0 0 0 0 0 0 0 0 0 
0 0 0 0 0 0 0 0 0 0 0 
0 0 0 0 0 0 0 0 0 0 0 
0 0 0 0 0 0 0 0 0 0 0 
0 0 0 0 0 0 0 0 0 0 0 
0 0 0 0 0 0 0 0 0 0 0 
-5.75012097731117e-05 -0.0001372458743485565 -0.002821209535938214 0 0.001447142252222854 0 0 0 0 0 0 
0 0 0 0 0 0 0 0 0 0 0 
0 0 0 0 0 0 0 0 0 0 0 
0 0.001725068227475134 0 0 -0.001108717141592854 0 -0.0006747737566458513 0 0 0 0 
0 0 0 0 0 0 0 0 0 0 0 
0 0 0 0 0 0 0 0 0 0 0 
0 0 0 0 0 0 0 0 0 0 0 
0 0 0 0 0 0 0 0 0 0 0 
0 0 0 0 0 0 0 0 0 0 0 
9.693648738214799e-05 -0.0007877278697684803 -4.586054597277472e-05 0 0 0 0 0.0002321370219987535 -0.0003233875557180305 0 0 
0 0 0 0 0 0 0 0 0 0 0 
0 0 0 0 0 0 0 0 0 0 0 
0 0 0 0 0 0 0 0 0 0 0 
0 0 0 0 0 0 0 0 0 0 0 
0 0 0 0 0 0 0 0 0 0 0 
0 0 0 0 0 0 0 0 0 0 0 
0 0 0 0 0 0 0 0 0 0 0 
0 -0.000633207967086825 0 0 0 0 0 9.292544567185461e-05 -4.835086029217852e-05 0 0 
0.0041632279012937 0 0 0.001297059518822622 -0.002539862000702409 0 -3.634260767206731e-05 -0.003680769326243161 0 0.0005164940920322038 0 
-0.004896774569788164 0 0 -0.00217924566519047 -0.0006043616034625513 0 -6.940233127040711e-05 0 0 0.003002760954552213 0 
-0.003505834347792286 -0.001123451306870651 0.003671995632563746 -0.001509379198765201 -0.001172365903222528 0 -0.0003518435180084483 0.003820271961224565 -3.176373552203626e-21 0.001514876017871825 -0.0004975618418011612 
0 0 0 0 0 0 0 0 0 0 0 
0 0 0 0 0 0 0 0 0 0 0 
0 0 0 0 0 0 0 0 0 0 0 
0 0 0 0 0 0 0 0 0 0 0 
0 0 0 0 0 0 0 0 0 0 0 
0.001061917991194927 0 0.001240523501138359 0 0 0 -0.0002446157470535504 -0.000166522116027956 -2.372029347047085e-06 -0.0005398006208323511 0 
0 0 0 0 0 0 0 0 0 0 0 
0 0 -0.001874127766733325 -9.22349752292996e-05 0.001606294670508074 0 0 0 0 0 0 
0 0 0 0 0 0 0 0 0 0 0 
0 0 0 0 0 0 0 0 0 0 0 
0 0 0 0 0 0 0 0 0 0 0 
0 0 0 0 0 0 0 0 0 0 0 
0 0 0 0 0 0 0 0 0 0 0 
0 0 0 0 0 0 0 0 0 0 0 
0 0 0 0 0 0 0 0 0 0 0 
0 0 0 0 0 0 0 0 0 0 0 
0 0 0 0 0 0 0 0 0 0 0 
0 0 0 0 0 0 0 0 0 0 0 
0 0 0 0 0 0 0 0 0 0 0 
0 0 0 0 0 0 0 0 0 0 0 
0 0 0 0 0 0 0 0 0 0 0 
0 0 0 0 0 0 0 0 0 0 0 
0 0 0 0 0 0 0 0 0 0 0 
0 0 0 0 0 0 0 0 0 0 0 
0 0 0 0 0 0 0 0 0 0 0 
0.003504323373556167 0 -0.003078593129477376 0 0.0004862266821654924 0 -0.0002115873672703253 -0.0003266791302090337 -8.926297760868308e-05 0 0 
-0.0009571542141310097 -1.551281000770723e-05 0 0 -0.0007920388624217965 0 0 0 0 0 0.001634362458291135 
0 0 0 0 0 0 0 0 0 0 0 
0 0 0 0 0 0 0 0 0 0 0 
-0.002238289208145326 -0.0003517923268938745 -5.421010862427522e-20 -0.0003655359595445095 -0.0005426509774462806 0.0009202990001419001 -0.0002077421242291233 0.000685493011263209 -0.001033305965611476 0.004249325409514676 0 
0 0 0 0 0 0 0 0 0 0 0 
0 0 0 0 0 0 0 0 0 0 0 
-0.0002057080208800801 -9.568839912613263e-05 -0.00112421334643924 -0.0005636421520455655 -0.001514657305427542 -0.0003144640706817485 -1.490966006698371e-05 -0.0005861135373759785 0 0.002141414482425761 8.470329472543003e-22 
0 0 0 -0.0001130589035963356 0.0001375976244706447 0 0 0 0 -0.0005453608038180101 0 
0 0 0 0 0 0 0 0 0 0 0 
0 0 0 0 0 0 0 0 0 0 0 
0 0 0 0 0 0 0 0 0 0 0 
0 0 0 0 0 0 0 0 0 0 0 
0 0 0 0 0 0 0 0 0 0 0 
0 0 0 0 0 0 0 0 0 0 0 
0 0 0 0 0 0 0 0 0 0 0 
0 0 0 0 0 0 0 0 0 0 0 
0 -2.754927436497796e-06 0 0 -0.0004979231353314551 0 0 0 -7.313532826939403e-06 0 0 
0 0 0 0 0 0 0 0 0 0 0 
0 0 0 0 0 0 0 0 0 0 0 
0 0 0 0 0 0 0 0 0 0 0 
0 0 0 0 0 0 0 0 0 0 0 
0 0 0 0 0 0 0 0 0 0 0 
0 0 0 0 0 0 0 0 0 0 0 
0 0 0 0 0 0 0 0 0 0 0 
0 0 0 0 0 0 0 0 0 0 0 
0 0 0 0 0 0 0 0 0 0 0 
0 0 0 0 0 0 0 0 0 0 0 
0 0 0 0 0 0 0 0 0 0 0 
0 0 0 0 0 0 0 0 0 0 0 
0 -0.0003619050184592291 0.001101150924515786 -0.0008243132280071902 -0.0004418533584042487 -0.001140305813291581 0 0.002368935255747245 1.355252715606881e-20 0 -1.631399085490965e-06 
0 0 0 0 0 0 0 0 0 0 0 
0 0 0 0 0 0 0 0 0 0 0 
0 0 0 0 0 0 0 0 0 0 0 
0 0 0 0 0 0 0 0 0 0 0 
0 0 3.685603149665414e-05 0 -9.09152175393745e-05 -8.169999342682925e-05 -3.795016550123022e-06 0 0 0 0 
0 0 0 0 0 0 0 0 0 0 0 
0 0 0 0 0 0 0 0 0 0 0 
0 0 0 0 0 0 0 0 0 0 0 
0 0 0 0 0 0 0 0 0 0 0 
0 0 0 0 0 0 0 0 0 0 0 
0 0 0 0 0 0 0 0 0 0 0 
0 0 0 0 0 0 0 0 0 0 0 
0 0 0 0 0 0 0 0 0 0 0 
0 0 0 0 0 0 0 0 0 0 0 
0 0 0 0 0 0 0 0 0 0 0 
-2.168404344971009e-19 -0.006384938560450819 0.001154692664523765 0 -5.421010862427522e-20 0 0 0 -2.753320382494814e-05 0 0 
-0.001529837266242457 0.0019909808612149 0.005377389741022019 -1.084202172485504e-19 -7.485688069677713e-05 0 0 0 0 -0.0002945214296154503 0 
0 0 0 0 0 0 0 0 0 0 0 
-0.0008285136035838896 -0.0003029485192546984 0.003862652803711277 0 -0.0006985842542796318 0 0 0.001002903763766176 -4.598413650642604e-05 0 -0.0001509378004159369 
0 0 0 0 0 0 0 0 0 0 0 
0 0 0 0 0 0 0 0 0 0 0 
0 0 0 0 0 0 0 0 0 0 0 
0 0 0 0 0 0 0 0 0 0 0 
0 0 0 0 0 0 0 0 0 0 0 
0 0 0 0 0 0 0 0 0 0 0 
0 0 0 0 0 0 0 0 0 0 0 
0 0 0 0 0 0 0 0 0 0 0 
0 0 0 0 0 0 0 0 0 0 0 
0 0 0 0 0 0 0 0 0 0 0 
0 0 0 0 0 0 0 0 0 0 0 
0 0 0 0 0 0 0 0 0 0 0 
-0.0003594057554179612 0 -0.0001173472195266266 -0.0001747206408607791 0 -3.597559826388669e-06 0 0 0 0.002014092345394261 0 
0 0 0 0 0 0 0 0 0 0 0 
0.01360949779367027 -0.001267959052980213 -0.003381312156035208 -0.0001330432851667571 -0.001216100269884239 -0.0009153323453471792 0 -0.0006117438686774516 0 -6.098637220230962e-20 0 
0 -4.138392244432943e-05 0 0 -0.0005179050102358882 0 0 0 -0.0002714901484227835 0.0009710152752817042 0 
0 0 0 0 0 0 0 0 0 0 0 
0 0 0 0 0 0 0 0 0 0 0 
-0.002452768725213168 -0.0003214707893733255 -0.002261260722909361 0.01248552669512548 0 -0.0005511370302282131 0 -0.0004419297367714426 -0.0009059127895735854 -0.006351404336194659 -0.0001507973219842661 
0.002050059350488814 0 -0.00111286182528429 0 0 -0.001089126245361225 0 -0.0006208687363019964 0 0 0 
-0.001059488179372451 -0.0002983536546112369 0 0 -0.0002032186991699451 0 -0.0002793716817618583 0.0006112300847535971 0 0 0 
-0.002907357930161998 0 0 0 0 0 0 0 0.001727562633711992 0 0 
-0.0003374927266625815 0 -0.0003293541765294362 0 -0.0001213406816252251 -3.912465264295177e-05 -0.0001275855464450188 0.0002349446980626282 0 0 0 
0 -0.0003598962617395617 0 0.001691158596586748 0 0 0 -0.001033401292016964 0 0 0 
0.00158245438149596 0 -6.803508081004497e-05 0 -0.0004562725937526163 0 0 0 0 -0.0002793730959806602 0 
0 0 -0.0001555183522340526 -0.0007532016303065491 -0.0006618468200507005 0 0 -0.0005843996944162441 0 0.001200057030228898 0 
0 0 0 0 0 0 0 0 0 0 0 
0 0 0 0 0 0 0 0 0 0 0 
0.0006415229383152144 0 -0.0003927619297563422 0 0 -0.0002336531303974521 0 0 0 0 0 
0 0 0 0 0 0 0 0 0 0 0 
0 -0.001053760395921639 0 0 0 0 0 0 -0.0001240873485155869 0 -3.600534074123126e-05 
0 0 0 0 0 0 0 0 0 0 0 
0 0 0 0 0 0 0 0 0 0 0 
0 0 0 0 0 0 0 0 0 0 0 
0 0 0 0 0 0 0 0 0 0 0 
0 0 0 0 0 0 0 0 0 0 0 
0 0 0 0 0 0 0 0 0 0 0 
0 0 0 0 0 0 0 0 0 0 0 
0 0 0 0 0 0 0 0 0 0 0 
0 0 0 0 0 0 0 0 0 0 0 
0 0 0 0 0 0 0 0 0 0 0 
0 0 0 0 0 0 0 0 0 0 0 
0 0 0 0 0 0 0 0 0 0 0 
0 0 0 0 0 0 0 0 0 0 0 
0 0 0 0 0 0 0 0 0 0 0 
0 0 0 0 0 0 0 0 0 0 0 
0 0 0 0 0 0 0 0 0 0 0 
0 0 0 0 0 0 0 0 0 0 0 
0 0 0 0 0 0 0 0 0 0 0 
0 0 0 0 0 0 0 0 0 0 0 
0 0 0 0 0 0 0 0 0 0 0 
0 0 0 0 0 0 0 0 0 0 0 
0 0 0 0 0 0 0 0 0 0 0 
-0.001462765535864778 0 0 0 0 0 -0.0004863906113620487 0.001259522533781081 0 0 -5.611187366800678e-05 
0 -0.0004182211486776161 0.001559401308687586 -0.0003258191679719445 -0.0003030334423774933 -0.0001602920039126477 -0.0001072761542563718 0 0 0 0 
0 0 0 0 0 0 0 0 0 0 0 
0 0 0 0 0 0 0 0 0 0 0 
-0.0003249851808013107 0 0.0004745014100335528 -0.0004075376387883506 0 0 0 -0.0005557657987182428 0 0 0 
0 0 0 0 0 0 0 0 0 0 0 
0 0.001398863066337507 0 -0.0009920609812354435 -0.002081090255897886 0 -0.00010502229751841 0 0 -0.0001928903355192491 -0.0001094056692676147 
0 0.006370361986528733 -0.003854048124776178 -0.0003756848319461042 0 0 -0.0009144285658566935 0 -0.0003213651728838379 0 0 
0 0 0 -0.0002964155479254608 0.0007701145029776516 0 -9.460690877654849e-05 -0.0003416395597692634 0 -0.000198044647674997 0 
0 0 0 0.003517203709023279 -0.0006151967229967674 0 0 0 0 0 0 
0 0 0 0 0 0 0 0 0 0 0 
0.0006966483141224761 0 0 0 -0.0004155215844817498 0 0 -0.0002063025838787142 0 0 -0.0001239216134839538 
0 0 0 0 0 0 0 0 0 0 0 
0 0 0 0 0 0 0 0 0 0 0 
0 0 0 0 0 0 0 0 0 0 0 
0 0 0 0 0 0 0 0 0 0 0 
0 0 0 0 0 0 0 0 0 0 0 
0 0 -0.006474699382819681 0 -0.009468217717670271 0 0 0.008838032798411959 0 0 0 
0 0 0.003338709971834878 0 0 0 0 -0.001585196651322974 0 0 0 
0 0 0 0 0 0 0 0 0 0 0 
0 0 0 0 0 0 0 0 0 0 0 
0 0 0 0 0 0 0 0 0 0 0 
0 0 0 0 0 0 0 0 0 0 0 
0 0 0 0 0 0 0 0 0 0 0 
0 0 0 0 0 0 0 0 0 0 0 
0 0 0 0 0 0 0 0 0 0 0 
0 0 0 0 0 0 0 0 0 0 0 
0 0 0 0 0 0 0 0 0 0 0 
0 0 0 0 0 0 0 0 0 0 0 
0 0 0 0 0 0 0 0 0 0 0 
0 0 0 0 0 0 0 0 0 0 0 
0 0 0 0 0 0 0 0 0 0 0 
0 0 0 0 0 0 0 0 0 0 0 
0 0 0 0 0 0 0 0 0 0 0 
0 0 0 0 0 0 0 0 0 0 0 
0 0 0 0 0 0 0 0 0 0 0 
0 0 0 0 0 0 0 0 0 0 0 
0 0 0 0 0 0 0 0 0 0 0 
0 0 0 0 0 0 0 0 0 0 0 
0 0 0 0 0 0 0 0 0 0 0 
0 0 0 0 0 0 0 0 0 0 0 
0 0 0 0 0 0 0 0 0 0 0 
0 0 0 0 0 0 0 0 0 0 0 
0 0 0 0 0 0 0 0 0 0 0 
0 0 0 0 0 0 0 0 0 0 0 
0 0 0 0 0 0 0 0 0 0 0 
0 0 0 0 0 0 0 0 0 0 0 
0 0 0 0 0 0 0 0 0 0 0 
0.001010559646944318 0 0 0 -0.000546297814673612 0 0 0 0 0 0 
0 0 0 0 0 0 0 0 0 0 0 
0 0 0 0 0 0 0 0 0 0 0 
0 0 0 0 0 0 0 0 0 0 0 
0 0 0 0 0 0 0 0 0 0 0 
0 0 0 0 0 0 0 0 0 0 0 
-0.003540504147534675 0 -0.0008283535489634918 0 0 0 0 0 0 0 0 
0 0 0 0 0 0 0 0 0 0 0 
0 0 0 0 0 0 0 0 0 0 0 
0 0 0 0 0.001537342105694399 0 0 -0.0004820365828989243 0 -0.0002713446967686341 0 
0.003850812576754452 0 0 -0.0002167932823179712 0 -0.0008476865126806401 0 -5.590346511672772e-05 0 -0.0009002026244000278 -6.051582822814273e-05 
0 0 0 0 0 0 0 0 0 0 0 
0 0 0 0 0 0 0 0 0 0 0 
0 0 0 0 0 0 0 0 0 0 0 
0 0 0 0 0 0 0 0 0 0 0 
0 0 -3.310470799629888e-05 0 -0.0003433336161906549 -0.0002599112384824617 0.001473919013914775 -0.001388267516954853 0 0 0 
0 0 0 0 0 0 0 0 0 0 0 
0 -0.0007070084566007053 0.003387296488852862 -0.0002752309350378266 -0.0007309211600899907 0.001640629147727357 -0.00102599282920768 -0.0001105078433696342 -0.000411717584631568 0 0 
0 0 0 0 0 0 0 0 0 0 0 
0 0 0 0 0 0 0 0 0 0 0 
0 0 0 0 0 0 0 0 0 0 0 
0 0 0 0 0 0 0 0 0 0 0 
0 0 0 0 0 0 0 0 0 0 0 
0 0 0 0 0 0 0 0 0 0 0 
0 0 -6.30352147498226e-05 0 0 0 0 0 -8.6620814439112e-05 0 0 
0 0 0 0 0 0 0 0 0 0 0 
0 0 0 0 0 0 0 0 0 0 0 
0 0 0 0 0 0 0 0 0 0 0 
-0.001794968579916555 -0.0004226523981964068 0 0.00207247075647518 -8.899221060246416e-05 0 0 -0.00055972838849828 -0.0001709763334156439 -0.0002055343668632371 0 
0.002280627852320691 -0.002965821820549299 -0.0006647008777980087 -8.694064188325067e-05 0.003316685175236052 -0.000531044310107884 -0.0005423377610040277 -0.0003013040226328118 -1.735447624819178e-05 -0.0003716376831658132 0 
0.00104907780706181 -5.154800728317516e-05 0 -2.777973864390709e-05 0 -0.0002264255306142881 -0.0001638391844938416 -0.0007544804921568053 -8.617089151574705e-05 0 -4.904002683428571e-05 
0 0 0 0 0 0 0 0 0 0 0 
0 0 0 0 0 0 0 0 0 0 0 
0 0 0 0 0 0 0 0 0 0 0 
0 0 0 0 0 0 0 0 0 0 0 
0 0 0 0 0 0 0 0 0 0 0 
0 0 0 0 0 0 0 0 0 0 0 
0 0 0 0 0 0 0 0 0 0 0 
0 0 0 0 0 0 0 0 0 0 0 
0 0 0 0 0 0 0 0 0 0 0 
0 0 0 0 0 0 0 0 0 0 0 
0 -0.0002183170029433666 -0.0007140523697615319 0 0.004603236850939527 0 -0.001483402253243979 -0.0003807498760702883 -0.0003974569321534074 0.001558252099975345 0 
0 0 0 0 0 0 0 0 0 0 0 
0 0 0 0 0 0 0 0 0 0 0 
0 0 0 0 0 0 0 0 0 0 0 
0 0 0 0 0 0 0 0 0 0 0 
0 0 0 0 0 0 0 0 0 0 0 
0 0 0 0 0 0 0 0 0 0 0 
0 0 0 0 0 0 0 0 0 0 0 
0 0 0 0 0 0 0 0 0 0 0 
0 0 0 0 0 0 0 0 0 0 0 
0 0 0 0 0 0 0 0 0 0 0 
0 -0.0004155527637788307 0 -6.543924991584913e-05 0 0 0 0.0009414943015099992 0 0 0 
0 0 0 0 0 0 0 0 0 0 0 
0 0 0 0 0 0 0 0 0 0 0 
-0.0001103403590741272 -0.001986833096215284 0 -2.506055006813127e-05 0 0.0009910525293514208 -0.0006274277136676197 -0.000293068618903761 0 0.0005018114526941467 0 
0 0 0 0 0 0 0 0 0 0 0 
0 0 0 0 0 0 0 0 0 0 0 
0 0 0 0 0 0 0 0 0 0 0 
0 0 0 0 0 0 0 0 0 0 0 
0 0 0 0 0 0 0 0 0 0 0 
0 0 0 0 0 0 0 0 0 0 0 
-2.102237496896019e-05 0 0 0 0.002233468951686672 0 0 0 0 0 0 
0 0 0 0 0 0 0 0 0 0 0 
0 0 0 0 0 0 0 0 0 0 0 
0 0 0 0 0 0 0 0 0 0 0 
0 0 0 0.001189462994975455 -2.710730270362005e-05 -0.000439751721976803 0 0 0 0 -1.504222064495061e-05 
0 0 0 0 0 0 0 0 0 0 0 
0 0 0 0 0 0 0 0 0 0 0 
0.002742558769464858 0 0 0 -0.00181874359119622 0 0 0 0 0 0 
-0.003091274852054571 0 0 -0.0004771750724069628 0.000494909525039799 -0.0002829084702132692 -5.111390432657173e-05 0.0004994588751015258 0 -1.489585470597309e-05 -0.0002431828837834507 
0 0 0 0 0 0 0 0 0 0 0 
0 0 -0.00013118276020884 0 0 0 0 0 0 0 0 
0 0 0 0 0 0 0 0 0 0 0 
0 0 0 0 0 0 0 0 0 0 0 
0 0 0 0 0 0 0 0 0 0 0 
0 0 0 0 0 0 0 0 0 0 0 
0 0 0 0 0 0 0 0 0 0 0 
0 0 0 0 0 0 0 0 0 0 0 
0 0 0.0008710836407341761 0 -0.0002661129073886349 0 0 0 -0.0002060039623859811 0 0 
0 0 0 0 0 0 0 0 0 0 0 
0 0 0 0 0 0 0 0 0 0 0 
0 0 0 0 0 0 0 0 0 0 0 
0 0 0 0 0 0 0 0 0 0 0 
0 0 0 0 0 0 0 0 0 0 0 
0.001550622052251636 -0.0008464343047595343 0 0 0 0 0 -0.0009198482161273825 0 0 0 
-0.002522322895316142 0 0.003171786095630391 0.002041857689961997 -0.001373363031283879 -0.0002017759467880443 0.002470886462934849 -0.000468957660336055 0 0 0 
0 0 0 0 0 0 0 0 0 0 0 
0 0 0 0 0 0 0 0 0 0 0 
0 0 0 0 0 0 0 0 0 0 0 
0 0 0 0 0 0 0 0 0 0 0 
0 0 0 0 0 0 0 0 0 0 0 
0 0 0 0 0 0 0 0 0 0 0 
0 0 0 0 0 0 0 0 0 0 0 
0 0 0 0 0 0 0 0 0 0 0 
0 0 0 0 0 0 0 0 0 0 0 
0 0 0 0 0 0 0 0 0 0 0 
0 0 0 0 0 0 0 0 0 0 0 
0 0 0 0 0 0 0 0 0 0 0 
0 0 0 0 0 0 0 0 0 0 0 
0 0 0 0 0 0 0 0 0 0 0 
0 0 0 0 0 0 0 0 0 0 0 
0 0 0 0 0 0 0 0 0 0 0 
0 0 0 0 0 0 0 0 0 0 0 
0 0 0 0 0 0 0 0 0 0 0 
0 0 0 0 0 0 0 0 0 0 0 
0 0 0 0 0 0 0 0 0 0 0 
0 0 0 0 0 0 0 0 0 0 0 
0 0 0 0 0 0 0 0 0 0 0 
-0.005172524947858829 0 0.004461361370985857 2.710505431213761e-20 0 0 0 0 0 -0.0003814367676250164 0 
0 0 0 -0.000180224276731934 -0.0002404115364853353 0 0 0.0004262385050954155 0 -6.417013619322884e-07 0 
0 0 0 0 0 0 0 0 0 0 0 
0 -0.0006706169891252025 0.001003682475097839 -0.001008735781171335 -0.002103436284607119 0 0 0 0 0 0 
0 0 0 0 0 0 0 0 0 0 0 
0 0 0 0 0 0 0 0 0 0 0 
0 0 0 0 0 0 0 0 0 0 0 
0 0 -0.0009684076085798712 0.00159768819433509 0.0004520929469176124 -0.0001926483640242624 -8.655974040925634e-05 -0.0002467308797750828 0 0 0 
0.005006946862500135 -1.355252715606881e-20 -0.001567470223353083 -6.917851197338093e-05 0 0 0 -0.0002950218632606239 0 -0.0007461264521683001 0 
0 0 0 0 0 0 0 0 0 0 0 
-3.982514640330701e-05 -0.0004410853893630048 0.001653835969957297 -0.001574223392773346 0 0 -0.000233997349242423 0 0 0 0 
0 0 0 0 0 0 0 0 0 0 0 
0 0 0 0 0 0 0 0 0 0 0 
0 0 0 0 0 0 0 0 0 0 0 
0 0 0 0 0 0 0 0 0 0 0 
0 0 0 0 0 0 0 0 0 0 0 
0 0 0 0 0 0 0 0 0 0 0 
0 0 0 0 0 0 0 0 0 0 0 
0 0 0 0 0 0 0 0 0 0 0 
0 0 0 0 0 0 0 0 0 0 0 
0 0 0 0 0 0 0 0 0 0 0 
0 0 0 -0.0003019033453705865 0 0 0 -0.0008792003307263304 -0.0002244686814300915 0 0 
0 0 0 0 0 0 0 0 0 0 0 
0 0 0 0 0 0 0 0 0 0 0 
0 0 0 0 0 0 0 0 0 0 0 
0 0 0 0 0 0 0 0 0 0 0 
0 0 0 0 0 0 0 0 0 0 0 
0 0 0 0 0 0 0 0 0 0 0 
0 0 0 0 0 0 0 0 0 0 0 
0 0 0 0 0 0 0 0 0 0 0 
0 0 0 0 0 0 0 0 0 0 0 
0 0 0 0 0 0 0 0 0 0 0 
0 0 0 0 0 0 0 0 0 0 0 
0 0 0 -0.0003911752476704312 0 -0.001030434663376006 0 -0.001376238861302245 0 0 0 
0.003406181960409244 -0.001690889917402977 0 0 6.776263578034403e-21 -0.0001174030230232236 0 0.0006019483135401489 -0.0002501629895520845 0 0 
0.0002249112199806087 -3.648991940418177e-05 -1.150699741267476e-05 0 0 0.0006069145262436834 -7.464221964633756e-05 -0.0001884391531118588 -4.959228639359329e-05 -0.0001292384285499698 0 
0 0 0 0 0 0 0 0 0 0 0 
-0.0009682665854689093 0 0 -0.0001242145270333863 0.001162263508096328 -7.891209320870764e-05 0 -5.313882231057292e-05 -0.0009145200673803332 0 0 
0 0 0 0 0 0 0 0 0 0 0 
0 0 0 -0.0004139248191839157 0 -6.002830258641322e-05 0.001954607774669887 -0.001140053118350433 0 -0.000775051717573348 0 
0 0 0 0 0 0 0 0 0 0 0 
0 0 0 0 0 0 0 0 0 0 0 
0 0 0 0 0 0 0 0 0 0 0 
0 0 0 0 0 0 0 0 0 0 0 
0 0 0 0 0 0 0 0 0 0 0 
0 0 0 0 0 0 0 0 0 0 0 
0 0 0 0 0 0 0 0 0 0 0 
0 0 0 0 0 0 0 0 0 0 0 
0 0 0 0 0 0 0 0 0 0 0 
0 0 0 0 0 0 0 0 0 0 0 
0 0 0 0 0 0 0 0 0 0 0 
0 0 0 0 0 0 0 0 0 0 0 
0 0 0 0 0 0 0 0 0 0 0 
0 0 0 0 0 0 0 0 0 0 0 
0 0 0 0 0 0 0 0 0 0 0 
0 0 0 0 0 0 0 0 0 0 0 
0 0 0 0 0 0 0 0 0 0 0 
0 0 0 0 0 0 0 0 0 0 0 
0 0 0 0 0 0 0 0 0 0 0 
0 0 0 0 0 0 0 0 0 0 0 
0 0 0 0 0 0 0 0 0 0 0 
0 0 0 0 0 0 0 0 0 0 0 
0 0 0 0 0 0 0 0 0 0 0 
0 0 0 0 0 0 0 0 0 0 0 
0 0 0 0 0 0 0 0 0 0 0 
0 0 0 0 0 0 0 0 0 0 0 
0 0 0 0 0 0 0 0 0 0 0 
-0.008579560342864152 0.004701691385172538 0 0 0 0 0 0 0 0 0 
0 0 0 0 0 0 0 0 0 0 0 
0 0 0 0 0 0 0 0 0 0 0 
0 0 0 0 0 0 0 0 0 0 0 
0 0 0 0 0 0 0 0 0 0 0 
0 0 0 0 0 0 0 0 0 0 0 
0 0 0 0 0 0 0 0 0 0 0 
0 0 0 0 0 0 0 0 0 0 0 
0 0 0 0 0 0 0 0 0 0 0 
0 0 0 0 0 0 0 0 0 0 0 
0 0 0 0 0 0 0 0 0 0 0 
0 0 0 0 0.003746660777580573 0 0 0 0 0 0 
0 0 0 0 0 0 0 0 0 0 0 
0 0 0 0 0 0 0 0 0 0 0 
0 0 0 0 0 0 0 0 0 0 0 
0 0 0 0 0 0 0 0 0 0 0 
0 0 0 0 0 0 0 0 0 0 0 
0 0 0 0 0 0 0 0 0 0 0 
0 0 0 0 0 0 0 0 0 0 0 
0 0 0 0 0 0 0 0 0 0 0 
0 0 0 0 0 0 0 0 0 0 0 
0 -0.001609792135300719 0 0 0 0.0002377193691474097 0 -0.0003624215967545272 0 0 0 
0 0 0 0 0 0 0 0 0 0 0 
0 0 0 0 0 0 0 0 0 0 0 
0 0 0 0 0 0 0 0 0 0 0 
0 0 0 0 0 0 0 0 0 0 0 
0 0 0 0 0 0 0 0 0 0 0 
0 0 0 0 0 0 0 0 0 0 0 
0 0 0 0 0 0 0 0 0 0 0 
0 0 0 0 0 0 0 0 0 0 0 
0 0 0 0 0 0 0 0 0 0 0 
0 0 0 -0.0001533166053333869 0 0 0 -0.0007654481037999356 0 0 0 
0 0 0 0 0 0 0 0 0 0 0 
0 0 0 0 0 0 0 0 0 0 0 
0 0 -0.000577855161584697 0 0 -0.0006817248840342106 0 -0.0004250313738080291 0 0.002069620877796538 0 
-0.001568049638271766 0 0 0 0 0.002518781296128101 0 8.216920304126005e-05 -0.0001219002063870214 3.599890025830776e-21 0 
0 0 0 0 0 0 0 0 0 0 0 
0 0 0 0 0 0 0 0 0 0 0 
0 0 0 0 0 0 0 0 0 0 0 
0 0 0 0 0 0 0 0 0 0 0 
0 0 0 0 0 0 0 0 0 0 0 
0 0 0 0 0 0 0 0 0 0 0 
0 0 0 0 0 0 0 0 0 0 0 
0 0 0 0 0 0 0 0 0 0 0 
0 -0.0001434154690565826 0 0 0 0 0 0 0 0 0 
0 0 0 0 0 0 0 0 0 0 0 
0 0 0 0 0 0 0 0 0 0 0 
0 0 0 0 0 0 0 0 0 0 0 
0 0 0 0 0 0 0 0 0 0 0 
0 0 0 0 0 0 0 0 0 0 0 
0 0 0 0 0 0 0 0 0 0 0 
0 0 0 0 0 0 0 0 0 0 0 
0 0 0 0 0 0 0 0 0 0 0 
0 0 0 0 0 0 0 0 0 0 0 
0 0 -0.0009945829100935697 0 0 0 0.001043463015741999 0 0 -4.117004616365868e-05 0 
0 0 0 0 0 0 0 0 0 0 0 
0 0 0 0 0 0 0 0 0 0 0 
0 0 0 0 0 0 0 0 0 0 0 
0 0 0 0 0 0 0 0 0 0 0 
0 0 0 0 0 0 0 0 0 0 0 
0 0 0 0 0 0 0 0 0 0 0 
0 0 0 0 0 0 0 0 0 0 0 
0 0 0 0 0 0 0 0 0 0 0 
0 0 0 0 0 0 0 0 0 0 0 
0 0 0 0 0 0 0 0 0 0 0 
0 0 0 0 0 0 0 0 0 0 0 
0 0 0 0 0 0 0 0 0 0 0 
0 0 0 0 0 0 0 0 0 0 0 
0 0 0 0 0 0 0 0 0 0 0 
0 0 0 0 0 0 0 0 0 0 0 
0 0 0 0 0 0 0 0 0 0 0 
0 0 0 0 0 0 0 0 0 0 0 
0 0 0 0 0 0 0 0 0 0 0 
0 0 0 0 0 0 0 0 0 0 0 
0 0 0 0 0 0 0 0 0 0 0 
0 0 0 0 0 0 0 0 0 0 0 
0 0 0 0 0 0 0 0 0 0 0 
0 0 0 0 0 0 0 0 0 0 0 
0 0 0 0 0 0 0 0 0 0 0 
0 0 0 0 0 0 0 0 0 0 0 
0 0 0 0 0 0 0 0 0 0 0 
0 0 0 0 0 0 0 0 0 0 0 
0 0 0 0 0 0 0 0 0 0 0 
-0.03412136536188561 4.065758146820642e-20 0.00252806143425343 -0.0001312966715153696 0.03868124351374858 -0.0008228901345316904 0.0006687822524781451 -0.0003856824351499425 -0.001248710775562681 -0.0001021642227222542 -0.0003558343781821568 
0 0 0 0 0 0 0 0 0 0 0 
0 0 0 0 0 0 0 0 0 0 0 
0 0 0 0 0 0 0 0 0 0 0 
-0.001331424005311473 0 -0.0008610983876543511 -7.661853769337113e-05 0 0 0 0 0.002546267940441917 -0.0003903304505731387 0 
0 0 0 -2.931134305347659e-05 -0.0001076752098849258 -0.0001444823673682591 0 0.0007578465704959244 0 0 -0.0001339168671357602 
0 0 0 0 0 0 0 0 0 0 0 
0 0 0 0 0 0 0 0 0 0 0 
0 0 0 0 0 0 0 0 0 0 0 
0 0 0 0 0 0 -0.0002858480944744482 -0.0002301600288371524 0 0.001580612626053409 0 
0 0 0 0 0 0 0 0 0 0 0 
5.118761041103731e-05 -0.0001364563472977293 0 -9.243295562548083e-05 0 0 0 0 -0.0001065705704552423 0 -4.761098364153968e-05 
0 0 0 0 0 0 0 0 0 0 0 
0 0 0 0 0 0 0 0 0 0 0 
0 0.0002794301395353606 0 -0.0001471857718115309 -9.172026629534668e-05 0 -0.0004646211154950577 0 0 0 -2.209964622402732e-05 
0 0 0 0 0 0 0 0 0 0 0 
0 0 0 0 0 0 0 0 0 0 0 
0 0 0 0 0 0 0 0 0 0 0 
0 0 0 0 0 0 0 0 0 0 0 
0 0 0 0 0 0 0 0 0 0 0 
0 0 0 0 0 0 0 0 0 0 0 
-3.833378144134351e-05 -0.00061193490015466 -0.0002630995881242475 -0.0003389217527354976 0 0.00159202879868462 0 0 0 -2.482736919584616e-07 -1.099423060187533e-05 
0 0 0 0 0 0 0 0 0 0 0 
0 0 0 0 0 0 0 0 0 0 0 
0 0 0 0 0 0 0 0 0 0 0 
0 0 0.001282374469570815 0 0 0 0 -0.0003146246960634834 0 0 0 
0 0 0 0 0 0 0 0 0 0 0 
0 0 0 0 0 0 0 0 0 0 0 
0 0 0 0 0 0 0 0 0 0 0 
0 0 0 0 0 0 0 0 0 0 0 
-0.004530039381108147 0 -0.0001170997287538458 0 0.0004340384004724654 0 0 0 -0.0007829621967990297 0 0 
0 0 0 0 0 0 0 0 0 0 0 
0 0 0 0 0 0 0 0 0 0 0 
0 0 0 0 0 0 0 0 0 0 0 
0 0 0 0 0 0 0 0 0 0 0 
0 0 -0.0004581499130079383 -0.0008160378854028435 0 -3.635865142020706e-08 0 0.004714858884161744 0 0 0 
0 0 0 0 0 0 0 0 0 0 0 
0 0 0 0 0 0 0 0 0 0 0 
0 0 0 0 0 0 0 0 0 0 0 
0 0 0 0 0 0 0 0 0 0 0 
0 0 0 0 0 0 0 0 0 0 0 
0 0 0 0 0 0 0 0 0 0 0 
0 0 0 0 0 0 0 0 0 0 0 
0 0 0 0 0 0 0 0 0 0 0 
-0.004072853785332457 -0.001182946894319357 0.0007788663852646028 0 -2.410364129468442e-05 0 0 -0.0003475856454712024 0 0.003953047917917164 0 
0 0 0 0 0 0 0 0 0 0 0 
0 0 0 0 0 0 0 0 0 0 0 
0 0 0 0 0 0 0 0 0 0 0 
0 0 0 0 0 0 0 0 0 0 0 
-0.001732464511389677 0.0002964700506400801 -0.002320305850292721 -0.0004331644595156139 -0.001664238840058885 0 0 0 0 0 -3.873916118537943e-05 
0 0 0 0 0 0 0 0 0 0 0 
0 0 0 0 0 0 0 0 0 0 0 
0 0 0 0 0 0 0 0 0 0 0 
-0.001865673693619123 -0.000445959707204214 0.003892476860229886 0 -0.003243397152182867 0 0 0 0 0 0 
0 0 0 0 0 0 0 0 0 0 0 
0 0 0 0 0 0 0 0 0 0 0 
0 0 0 0 0 0 0 0 0 0 0 
0 0 0 0 0 0 0 0 0 0 0 
0 0 0 0 0 0 0 0 0 0 0 
0 0 0 0 0 0 0 0 0 0 0 
0 0 0 0 0 0 0 0 0 0 0 
0 -0.0003567794279625841 0 0 -0.000393082992089448 -1.140849787924668e-06 -9.174970796127709e-05 -0.0001105383955993205 0.0006706366768018745 0 0 
0 0 0 0 0 0 0 0 0 0 0 
0 0 0 0 0 0 0 0 0 0 0 
0.001178258043629779 6.776263578034403e-21 -2.710505431213761e-20 -0.0002221165440496927 -0.0005641958457220905 -0.0006659265352352759 0 -0.001006584951277311 0 -0.00105947607426095 0 
0 0 0 -9.715310791786336e-05 -0.0004314343813966135 0 0 -0.0002075994175506515 0 0.0009544396435464144 -6.276365960476207e-07 
0 0 0 0 0 0 0 0 0 0 0 
0 0 0 0 0 0 0 0 0 0 0 
0 -0.0002562390939333506 0 -0.0005875166818744331 0.0008491885214731614 0 0 -0.0003500047226112045 0 0 0 
0 0 0 0 0 0 0 0 0 0 0 
0 0 0 0 0 0 0 0 0 0 0 
0 0 0 0 0 0 0 0 0 0 0 
0 0 0 0 0 0 0 0 0 0 0 
0 0 0 0 0 0 0 0 0 0 0 
0 0 0.0003379373858310722 0 -3.05635630471765e-05 0 -0.000214983626184288 0 0 0 0 
0 0 0 0 0 0 0 0 0 0 0 
0 0 0 0 0 0 0 0 0 0 0 
0 0 0 0 0 0 0 0 0 0 0 
0 0 -0.0003218655063985142 -0.0003093899142796532 0 0 0 0 0 4.607974966761567e-05 0 
0 0 0 0 0 0 0 0 0 0 0 
0 0 -0.0003230881656163143 0 -0.0001387217890596869 -2.23426218770388e-05 0 -0.0001723884407076057 0.0003967519823554272 0 0 
0 -0.001171146432755964 -0.0004163105080932969 0 0 -4.72553864993845e-06 0 -0.0002694780132695813 0 0 -3.439227528353564e-05 
0.0009040503053466335 -0.0001545481626196173 -0.0003078816297062007 -3.418315734057838e-05 0 0 -1.356624155041256e-06 0 -7.202960334123957e-05 0 -0.0003081680614438586 
0 0 0 0 0 0 0 0 0 0 0 
0 0 0 0 0 -9.878382962738188e-05 0 -0.00031751782537071 0 0 0 
0 0 0 0 0 0 0 0 0 0 0 
0 0 0 0.0007166263075141058 0 0 0 0 0 0 0 
0 0 0 0 0 0 0 0 0 0 0 
0 0 0 0 0 0 0 0 0 0 0 
0 0 0 0 0 0 0 0 0 0 0 
0 0 0 0 0 0 0 0 0 0 0 
0 0 0 0 0 0 0 0 0 0 0 
0 0 0 0 0 0 0 0 0 0 0 
0 0 0 0 0 0 0 0 0 0 0 
0 0 0 0 0 0 0 0 0 0 0 
0 0 0 0 0 0 0 0 0 0 0 
0 0 0 0 -0.0001024358374247531 0 0 0 0 0 0 
0 0 0 0 0 0 0 0 0 0 0 
0 0 0 0 0 0 0 0 0 0 0 
0 0 0 0 0 0 0 0 0 0 0 
0 0 0 0 0 0 0 0 0 0 0 
0 0 0 0 0 0 0 0 0 0 0 
0 0 0 0 0 0 0 0 0 0 0 
0 0 0 0 0 0 0 0 0 0 0 
-0.002248467382593493 -0.0002819598996529234 0 0 0 0.0005556150897067494 -6.30122534017418e-05 0 0 0 0 
-0.0004131508772199097 0 0 -0.0003269120256117926 0 0.001187859883065777 -0.0002751202204082134 0 0 0 0 
0 0 0 0 0 0 0 0 0 0 0 
0 0 0 0 0 0 0 0 0 0 0 
0 0 0 0 0 0 0 0 0 0 0 
0 0 0 0 0 0 0 0 0 0 0 
0 0 0 0 0 0 0 0 0 0 0 
0 0 0 0 0 0 0 0 0 0 0 
0 0 0 0 0 0 0 0 0 0 0 
0 0 0 0 0 0 0 0 0 0 0 
0 0 0 0 0 0 0 0 0 0 0 
0 0 -0.0008434650438394848 0 0 -8.939807037868175e-05 0 0.001952434613555927 0 -0.0003137047710510198 0 
0 0 0 0 0 0 0 0 0 0 0 
0 0 0 0 0 0 0 0 0 0 0 
0 0 0 0 0 0 0 0 0 0 0 
0 0 0 0 0 0 0 0 0 0 0 
0 0 0 0 0 0 0 0 0 0 0 
0 0 0 0 0 0 0 0 0 0 0 
0 0 -0.002178044872514758 -0.0006129807117340837 0.001853284529325463 0 0 -0.0003667238424435906 -0.00133447500310138 -0.001435481508733883 -9.935660651753605e-05 
0 0 0 0 0 0 0 0 0 0 0 
0 0 0 0 0 0 0 0 0 0 0 
0.003767603520474491 0 -0.01302825408204908 -0.0001512771318219454 0.0007437388016045205 0 0 -0.0004175833507559854 -0.0002119945810699735 0 -1.534750877480347e-05 
0 0 0 0 0 0 0 0 0 0 0 
-0.002264745381857009 0 0 -0.0005020269106654815 -0.001832311821454254 -0.0004742898762343461 -0.0005653765791573987 0 0 0 0.002270997765052936 
0 0 0 0 0 0 0 0 0 0 0 
0 0 0 0 0 0 0 0 0 0 0 
0.001681358103970516 -0.0007641596036056016 -0.009000164746806011 -0.0004534876755464288 0.008173770534564858 0 0 0 0 0.009371142668009227 0 
0 0 0 0 0 0 0 0 0 0 0 
0 0 0 0 0 0 0 0 0 0 0 
0 0 0 0 0 0 0 0 0 0 0 
0 0 0 0 0 0 0 0 0 0 0 
0 0 0 0 0 0 0 0 0 0 0 
0 0 0 0 0 0 0 0 0 0 0 
0 0 0 0 0 0 0 0 0 0 0 
0 0 0 0 0 0 0 0 0 0 0 
0 0 0 0 0 0 0 0 0 0 0 
0 0 0 0 0 0 0 0 0 0 0 
0 0 0 0 0 0 0 0 0 0 0 
0 0 0 0 0 0 0 0 0 0 0 
0 0 0 0 0 0 0 0 0 0 0 
0 0 0 0 0 0 0 0 0 0 0 
0 0 0 0 0 0 0 0 0 0 0 
0 0 0 0 0 0 0 0 0 0 0 
0 0 0 0 0 0 0 0 0 0 0 
0 0 0 0 0 0 0 0 0 0 0 
0 0 0 0 0 0 0 0 0 0 0 
0 0 0 0 0 0 0 0 0 0 0 
-0.0006715338050022066 0 0 0.0007806430302886659 0 -9.354144632871076e-05 0 0 0 0 0 
-0.001404554635066808 -0.0003832731301138442 0 0 0 0 0 0 0.0004186944196326573 0 0 
0 0 -0.001763435448286607 -0.002577400235860269 0 0 0 0 0 0.004812520078899199 0 
0 0 0 0 0 0 0 0 0 0 0 
0 0 0 0 0 0 0 0 0 0 0 
0 0 0 0 0 0 0 0 0 0 0 
0 0 0 0 0 0 0 0 0 0 0 
0 0 0 0 0 0 0 0 0 0 0 
0 0 0 0 0 0 0 0 0 0 0 
0 0 0 0 0 0 0 0 0 0 0 
0 0 0 0 0 0 0 0 0 0 0 
0 0 0 0 0 0 0 0 0 0 0 
0 0 0 0 0 0 0 0 0 0 0 
0 0 0 0 0 0 0 0 0 0 0 
0 0 0 0 0 0 0 0 0 0 0 
0 0 0 0 0 0 0 0 0 0 0 
0 0 0 0 0 0 0 0 0 0 0 
-0.0002582578926325528 0 -8.531727565162933e-05 -8.338188982219984e-05 0 0 -8.560408245764817e-05 0.000604919595950664 0 -0.0001653441106403203 -1.323933835001263e-07 
0 0 0 0 0 0 0 0 0 0 0 
0 0 0 0 0 0 0 0 0 0 0 
0 0 0 0 0 0 0 0 0 0 0 
0 0 0 0 0 0 0 0 0 0 0 
0 0 0 0 0 0 0 0 0 0 0 
0 0 0 0 0 0 0 0 0 0 0 
0 0 0 0 0 0 0 0 0 0 0 
0 0 0 0 0 0 0 0 0 0 0 
0 0 0 0 0 0 0 0 0 0 0 
0 0 0 0 0 0 0 0 0 0 0 
0 0 0 0 0 0 0 0 0 0 0 
0 0 0 0 0 0 0 0 0 0 0 
0 0 0 0 0 0 0 0 0 0 0 
0 0 0 0 0 0 0 0 0 0 0 
0 0 0 0 -0.0001821553212233289 0 0 0 0 0 0 
-0.004484568001804991 0 0.002458034989408186 0 -0.001296204743385031 0 0 -0.0002430235161371275 0 0 0 
0 0 0 0 0 0 0 0 0 0 0 
0 0 0 0 0 0 0 0 0 0 0 
0 0 0 0 0 0 0 0 0 0 0 
0 0 0 0 0 0 0 0 0 0 0 
0 0 0 0 0 0 0 0 0 0 0 
0 0 0 0 0 0 0 0 0 0 0 
0 0 0 0 0 0 0 0 0 0 0 
0 0 0 0 0 0 0 0 0 0 0 
0 0 0 0 0 0 0 0 0 0 0 
0 0 0 0 0 0 0 0 0 0 0 
0 0 0 0 0 0 0 0 0 0 0 
0 0 0 0 0 0 0 0 0 0 0 
0 0 0 0 0 0 0 0 0 0 0 
0 0 0 0 0 0 0 0 0 0 0 
0 0 0 0 0 0 0 0 0 0 0 
0 0 0 0 0 0 0 0 0 0 0 
0 0 0 0 0 0 0 0 0 0 0 
0 0 0 0 0 0 0 0 0 0 0 
-0.004980029256621268 0 -0.004994972739691442 -0.0007358837217132284 -6.776263578034403e-20 0.001264975753651299 -0.0005800848062186621 -0.001255612991051603 0.0002953343987709834 0.001622480789327624 2.958372618388023e-05 
0 0 0 0 0 0 0 0 0 0 0 
-0.0013075233503426 -0.001268024157405605 0 -0.0004693083413227594 0 0 0 -0.0002184045779453611 -0.0001585199866803642 0.002923391649737395 -0.0001178003100047037 
0.003049659671986156 -0.001501603946124735 0 -5.279123339105506e-05 0 0 0 0 -0.000108378630814033 0 0 
0.001269651312969847 0 -6.776263578034403e-21 -0.000446675289194195 0 -0.000562968244890745 -6.838940920499184e-05 0.001254225336186108 2.710505431213761e-20 0 0 
0.003681789896396513 -0.0001105131707109363 0 0 -0.0001237670648633558 0 0 -0.0003527993163623526 0 0 0 
0 0 0 0 0 0 0 0 0 0 0 
0 -0.0003946846862400918 -0.0001408415928342804 -0.0006452471752954655 0 -0.001881349868291493 -0.0004572464361992485 -0.0002713272019687333 0.006046680250710772 0 0 
0 0 0 0 0 0 0 0 0 0 0 
0 0 0 0 0 0 0 0 0 0 0 
0 0 0 0 0 0 0 0 0 0 0 
0 0 0 0 0 0 0 0 0 0 0 
0 0 0 0 0 0 0 0 0 0 0 
0 0 0 0 0 0 0 0 0 0 0 
0 0 0 0 0 0 0 0 0 0 0 
0.001145142706317424 1.355252715606881e-20 0.00266219471544826 -0.0008928374247088316 -1.287490079826537e-19 -2.377127675876871e-05 0 -0.0006772016868249473 -0.0009355395965208166 0.000368094442863618 0 
0 0 0.0001112702195857372 0 0 -0.000203434037472518 0 -0.0003804251456605726 -5.267285965075858e-05 -0.0001932760062550654 0 
0 0 0 0 0 0 0 0 0 0 0 
0 0 0 0 0 0 0 0 0 0 0 
0 0 0 0 0 0 0 0 0 0 0 
-7.317399287242766e-06 0 -0.000543348776613565 -0.0002553016183752682 0.001222571409730102 -0.0001317560075352312 0 0 -0.0001277711441689617 0 -7.448027207068699e-05 
0 0 0 -0.0003268169251445058 0 -0.0002093233267213308 0 0 0.0008215889272231248 0 0 
0 0 0 0 0 0 0 0 0 0 0 
0 0 0 0 0 0 0 0 0 0 0 
-0.01115445732053379 0 -0.00158522569218339 -0.002003801486555301 0.01803710410771633 0 0 0 -0.0007550052948058507 0 -9.477334195810552e-06 
0 0 0 0 0 0 0 0 0 0 0 
0.003082095650790909 0 0 0 -0.003027354737797867 0 0 0 0 0 0 
-0.003432797064717163 0 0 0 -0.0006476045516283188 0.002939028545011583 0 0 0 0 0 
0 0 0 0 0 0 0 0 0 0 0 
0 0 0 0 0 0 0 0 0 0 0 
0 0 0 0 0 0 0 0 0 0 0 
0 0 0 0 0 0 0 0 0 0 0 
0 0 0 0 0 0 0 0 0 0 0 
0 0 0 0 0 0 0 0 0 0 0 
0 0 0 0 0 0 0 0 0 0 0 
0 0 0 0 0 0 0 0 0 0 0 
0 0 0 0 0 0 0 0 0 0 0 
0 0 0 0 0 0 0 0 0 0 0 
0 0 0 0 0 0 0 0 0 0 0 
-0.002490421469095362 0 0 -5.603621069681182e-06 0 0 -0.0002850521331112837 0.001650924657444514 -1.538658928907348e-05 0 0 
0 0 0 0 0 0 0 0 0 0 0 
0 0 0 0 0 0 0 0 0 0 0 
0 0 0 0 0 0 0 0 0 0 0 
0 0 0 0 0 0 0 0 0 0 0 
0 0 0 0 0 0 0 0 0 0 0 
0 0 0 0 0 0 0 0 0 0 0 
0 0 0 0 0 0 0 0 0 0 0 
0 0 0 0 0 0 0 0 0 0 0 
0 0 0 0 0 0 0 0 0 0 0 
0 0 0 0 0 0 0 0 0 0 0 
0 0 0 0 0 0 0 0 0 0 0 
0 0 0 0 0 0 0 0 0 0 0 
0 0 0 0 0 0 0 0 0 0 0 
0 0 0 0 0 0 0 0 0 0 0 
0 0 0 0 0 0 0 0 0 0 0 
0 0 0 0.0009087896571414552 -0.0003304962356304189 -0.0004316156461584747 -9.99885254081287e-05 0 0 0 -0.0003791262035534379 
0 0 0 0 0 0 0 0 0 0 0 
0 0 0 0 0 0 0 0 0 0 0 
0 0 -0.00121697516191439 0 0 0 0 0 0 0 0 
0 0 0 0 0 0 0 0 0 0 0 
0 0 0 0 0 0 0 0 0 0 0 
0 0 0 0 0 0 0 0 0 0 0 
0 0 0 0 0 0 0 0 0 0 0 
0 0 0 0 0 0 0 0 0 0 0 
-0.0006922000164172903 0 -0.000706361832118969 -0.0007141417376812437 0 0.001104449836370079 0 0 0 0 -2.364962761134898e-05 
0 0 0 0 0 0 0 0 0 0 0 
0 0 0 0 0 0 0 0 0 0 0 
0 0 0 0 0 0 0 0 0 0 0 
0 0 0 0 0 0 0 0 0 0 0 
0 0 0 0 0 0 0 0 0 0 0 
0 0 0 0 0 0 0 0 0 0 0 
-0.0003867965936528242 0 0 0.0005328662892816817 0 -0.0002731724071927139 -9.32384627052751e-05 0 0 0 0 
0 0 0 0 0 0 0 0 0 0 0 
0 0 0 0 0 0 0 0 0 0 0 
0 0 0 0 0 0 0 0 0 0 0 
0 0 0 0 0 0 0 0 0 0 0 
0 0 0 0 0 0 0 0 0 0 0 
0 0 0 0 0 0 0 0 0 0 0 
-0.001204076611676036 0 -0.001834123862101841 0 0.004817226713431703 0 0 0 0 0 0 
0 0 -0.003731214280370845 8.470329472543003e-22 0.0001880445499390521 0 0 0 0 -7.705258976629503e-05 0 
0 0 0 0 0 0 0 0 0 0 0 
0 0 0 0 0 0 0 0 0 0 0 
0 0 0 0 0 0 0 0 0 0 0 
0 0 0 0 0 0 0 0 0 0 0 
0 0 0 0 0 0 0 0 0 0 0 
0 0 0 0 0 0 0 0 0 0 0 
0 0 0 0 0 0 0 0 0 0 0 
0 0 0 0 0 0 0 0 0 0 0 
0 0 0 0 0 0 0 0 0 0 0 
0 0 0 0 0 0 0 0 0 0 0 
0 0 0.0004888302121651255 -0.000987149039664877 0 0 -3.941168798094848e-05 -0.001061513044912259 0 -0.001367631649882712 0 
0 0 0 0 0 0 0 0 0 0 0 
0 0 0 0 0 0 0 0 0 0 0 
0 0 0 0 0 0 0 0 0 0 0 
0 0 0 0 0 0 0 0 0 0 0 
0 0 0 0 0 0 0 0 0 0 0 
0 0 0 0 0 0 0 0 0 0 0 
0 0 0 0 0 0 0 0 0 0 0 
0 0 0 0 0 0 0 0 0 0 0 
0 0 0 0 0 0 0 0 0 0 0 
0 0 0 0 0 0 0 0 0 0 0 
0 0 0 0 0 0 0 0 0 0 0 
0 0 0 0 0 0 0 0 0 -4.696425929392997e-06 0 
0 0 0 0 0 0 0 0 0 0 0 
0 0 0 0 0 0 0 0 0 0 0 
0 0 0 0 0 0 0 0 0 0 0 
0 0 0 0 0 0 0 0 0 0 0 
0 0 0 0 0 0 0 0 0 0 0 
0 0 0 0 0 0 0 0 0 0 0 
0 0 0 0 0 0 0 0 0 0 0 
0 0 0 0 0 0 0 0 0 0 0 
0 0 0 0 0 0 0 0 0 0 0 
0 0 0 0 0 0 0 0 0 0 0 
0 0 0 0 0 0 0 0 0 0 0 
0 0 0 0 0 0 0 0 0 0 0 
0 0 0 0 0 0 0 0 0 0 0 
0 0 0 0.0009213403083881407 -0.0003086087286817002 0 0 0 0 0 0 
0 0 0 0 0 0 0 0 0 0 0 
0 0 0 0 0 0 0 0 0 0 0 
0 0 0 0 0 0 0 0 0 0 0 
0 0 0 0 0 0 0 0 0 0 0 
0 0 0 0 0 0 0 0 0 0 0 
0 0 0 0 0 0 0 0 0 0 0 
0 0 0 0 0 0 0 0 0 0 0 
-0.0006468316557683421 -0.0004548064256478844 0.0005991562784087225 0 -0.0001789906613734532 0.0006342515861140045 0 0 -0.0001114485219569443 0 -0.000187839555165089 
0 0 0 0 0 0 0 0 0 0 0 
0 0 0 0 0 0 0 0 0 0 0 
0 0 0 0 0 0 0 0 0 0 0 
0.002820086700319973 0 0 -0.0003846675391251667 0 0 0 0 -3.209092052367597e-05 0 0 
0 0 0 0 0 0 0 0 0 0 0 
0 0 0 0 0 0 0 0 0 0 0 
0 0 0 0 0 0 0 0 0 0 0 
0 0 0 0 0 0 0 0 0 0 0 
0 0 0 0 0 0 0 0 0 0 0 
0 0 0 0 0 0 0 0 0 0 0 
0 0 0 0 0 0 0 0 0 0 0 
0 0 0 0 0 0 0 0 0 0 0 
0 0 0 0 0 0 0 0 0 0 0 
0 0 0 0 0 0 0 0 0 0 0 
0 0 0 0 0 0 0 0 0 0 0 
0 0 0 0 0 0 0 0 0 0 0 
0 0 0 0 0 0 0 0 0 0 0 
0 0 0 0 0 0 0 0 0 0 0 
0 0 0 0 0 0 0 0 0 0 0 
0 0 0 0 0 0 0 0 0 0 0 
-0.0003395626433196507 0 0 -0.000611964944996993 -0.0007617443460091988 -0.000915333760552665 -1.993748284778034e-05 -0.0009181199447222414 0.004274516330361829 0 -7.02574944841857e-05 
0 0 0 0 0 0 0 0 0 0 0 
0 0 0 0 0 0 0 0 0 0 0 
0 0 0 0 0 0 0 0 0 0 0 
0 0 0 0 0 0 0 0 0 0 0 
0 -0.0003312212807563243 -0.001514394493075245 0 0 -0.0001271627925299366 -1.355252715606881e-20 0 0 -0.0001737742926962044 0 
0 0 0 0 0 0 0 0 0 0 0 
0 0 0 0 0 0 0 0 0 0 0 
0 0 0 0 0 0 0 0 0 0 0 
0 0 0 0 0 0 0 0 0 0 0 
0 0 0 0 0 0 0 0 0 0 0 
0 0 0 0 0 0 0 0 0 0 0 
0 -3.184843881676169e-19 -0.0005646694854518474 -0.0003396097462547278 -0.0002998380681893172 -0.0009791307214702908 -0.000312975756934142 -2.327625149305593e-05 -0.0001573925067432563 -0.001589803972711489 -0.0001681868688231582 
-0.001716455819544509 0.001240424358380089 -0.001170353905982465 -0.0004288691093454939 -0.0003216869835260724 -0.0002301279549270599 0 -0.0006638863476542648 -0.0001328222988064942 -5.421010862427522e-20 -6.393088387651806e-05 
0 -0.001546619779567542 -0.001059674310075695 0 0.001273651395214169 0 0 0 -3.749350300910286e-05 0.002690077878902109 0 
0 0 0 0 0 0 0 -0.0009363178067579417 0 0 0 
0 0 0 0 0 0 0 0 0 0 0 
0 0 0 0 0 0 0 0 0 0 0 
0 0 0 0 0 0 0 0 0 0 0 
0 0 0 0 0 0 0 0 0 0 0 
0 0 0 0 0 0 0 0 0 0 0 
0 0 0 0 0 0 0 0 0 0 0 
0.001340652358732158 0 0 0 0 -0.0006384166444038492 -1.4387514710552e-05 -1.917172533412209e-05 0 0 0 
0 0 0 0 0 0 0 0 0 0 0 
0 0 0 0 0 0 0 0 0 0 0 
-0.004555604790122499 0 0.003770356494409639 0.001985735152469939 0 -9.286546096306478e-05 0 -0.003078914322275167 0 0 0 
0 0 0 0 0 0 0 0 0 0 0 
0 0 0 0 0 0 0 0 0 0 0 
-0.003066047995598513 -0.0001928792741020573 0 -0.0002277646692203396 -0.001139754752421448 0.000677429767479772 -8.385995867481697e-06 0.00514610448045154 -0.0008218924336765501 -0.001760631376368198 0 
-0.0008961661567225382 0 0 0.001683235803860999 -5.199602158347479e-06 -1.355252715606881e-20 0 -0.0003434552970949937 -0.000412140714518908 -0.0002636544167113204 0 
-0.001183048755771694 0 0.001463252372085775 0 0 0 0 0 0 0 0 
0.01310390024462523 0 -0.004672681256629911 -0.001085002408697325 0 0 0.001119308696318751 -0.004063262281544982 -0.0008955046869555512 -0.0006715001066439424 0 
0 0.0003749572931277607 0 -0.0002801705954435893 -5.958004652127684e-05 -4.257778365438819e-05 -0.0002780891735172799 -0.0005471873586704132 0 0 0 
0 0 0 0 0 0 0 0 0 0 0 
0 0 -0.0001277491570640263 -0.0002341213705767334 0 0.0001563507239404116 -7.930144253762724e-05 -0.0003392602641083033 -4.274524505033595e-05 0 0 
0 0 0 0 0 0 0 0 0 0 0 
0 0 0 0 0 0 0 0 0 0 0 
0 0 0 0 0 0 0 0 0 0 0 
0 0 0 0 0 0 0 0 0 0 0 
0 0 0 0 0 0 0 0 0 0 0 
0 0 0 0 0 0 0 0 0 0 0 
0 0 0 0 0 0 0 0 0 0 0 
0 0 0 0 0 0 0 0 0 0 0 
0 0 0 -0.0001444568682169731 -0.0004115774952562362 0 0 0 0.0004632545486865179 -7.521587470485772e-06 0 
0 0 0 0 0 0 0 0 0 0 0 
0 0 0 0 0 0 0 0 0 0 0 
-0.0006077157299215372 0 -0.004835479065930341 -2.710505431213761e-20 -0.0002789219819826574 -3.021770624981746e-05 0.001910805645333761 -7.848182630464615e-05 4.502205827378221e-05 -0.0001143165911069764 0 
0 0 0 0 0 0 0 0 0 0 0 
0 0 0 0 0 0 0 0 0 0 0 
0 0 0 0 0 0 0 0 0 0 0 
0 0 0 0 0 0 0 0 0 0 0 
0 0 0 0 0 0 0 0 0 0 0 
-0.001008523014064996 0 -0.005354673170945724 0.0005736516039442692 0.006017231226402236 -0.0003781649909655395 -6.486487026086044e-06 0 -0.0002764765866247659 0 -0.0006445354244961603 
0 0 0 0 0 0 0 0 0 0 0 
0 0 0 0 0 0 0 0 0 0 0 
0 0 0 0 0 0 0 0 0 0 0 
0 0 0 0 0 0 0 0 0 0 0 
0 0 0 0 0 0 0 0 0 0 0 
0 0 0 0 0 0 0 0 0 0 0 
-0.001111702040500013 0 0 0 0 0 -5.968647298358538e-05 -0.0003113891400672847 0.001008258705123228 0 0 
-0.0001316502209825116 -4.048739968537276e-05 0.0006977686308494573 -1.924084744471499e-05 -0.0001178457795310562 -2.378560036817801e-05 -3.256099742977441e-05 -0.0003187937137663702 -8.802223246677862e-05 -5.335141506568453e-05 0 
0 0 0 0 0 0 0 0 0 0 0 
0 0 0 0 0 0 0 0 0 0 0 
0 0 0 0 0 0 0 0 0 0 0 
0 0 0 0 0 0 0 0 0 0 0 
0 0 0 0 0 0 0 0 0 0 0 
0 0 0 0 0 0 0 0 0 0 0 
-0.0003129527953280313 -0.001657506941337578 0 0.003531480148240858 0 -0.002937470329424055 0 -1.355252715606881e-20 -8.954554054893225e-05 -0.0002515473898941433 -0.000158115984908787 
0 0 0 0 0 0 0 0 0 0 0 
0 0 0 0 0 0 0 0 0 0 0 
0 0 0 0 0 0 0 0 0 0 0 
0 0 0 0 0 0 0 0 0 0 0 
0 0 0 0 0 0 0 0 0 0 0 
0 0 0 0 0 0 0 0 0 0 0 
0 -8.327072189082215e-05 0 0 0 0 0.003141611214851837 -0.002137953093299916 -0.0002772302117672142 0 -0.0001985537839651131 
0.001637785291637726 0 0 0 0 0 0 0 0 0 0 
0 0 0 0 0 0 0 0 0 0 0 
0 0 0 0 0 0 0 0 0 0 0 
0 0 0 0 0 0 0 0 0 0 0 
0 0 0 0 0 0 0 0 0 0 0 
0 0 0 0 0 0 0 0 0 0 0 
0 0 0 0 0 0 0 0 0 0 0 
0 0 0 0 0 0 0 0 0 0 0 
0 0 0 0 0 0 0 0 0 0 0 
0 0 -0.001427090033877961 0 0 -0.0002998907187552246 0.002046528873035405 -0.0003637156382019777 -0.0003576993808226024 -0.0006924967782330869 0 
0 0 0 0 0 0 0 0 0 0 0 
0 0 0 0 0 0 0 0 0 0 0 
0 0 0 0 0 0 0 0 0 0 0 
0.0003747535079292527 0 0 0 0 0 0 -0.00033370192369897 0 -0.001142873273685717 0 
0 0 0 0 0 0 0 0 0 0 0 
0 0 0 0 0 0 0 0 0 0 0 
0 -0.0001949280092998974 -0.0006278269268377342 -0.0006794157316826831 -0.0005478083297083832 0.001784090133963077 0 0 -0.0001017893987628004 0 0 
0 0 0 0 0 0 0 0 0 0 0 
0 0 0 0 0 0 0 0 0 0 0 
0 0 -0.002438858121252129 0 0.003583174973158851 0 0 0 0 0 0 
0 0 0 0 0 0 0 0 0 0 0 
0 0 0 0 0 0 0 0 0 0 0 
0 0 0 0 0 0 0 0 0 0 0 
0 0.0003915299529287251 0 0 0 0 0 -0.0001242009223163996 0 0 0 
0 0 0 0 0 0 0 0 0 0 0 
0 0 0 0 0 0 0 0 0 0 0 
0 0 0 0 0 0 0 0 0 0 0 
0 0 0 0 0 0 0 0 0 0 0 
0 0 0 0 0 0 0 0 0 0 0 
0 0 0 0 0 0 0 0 0 0 0 
0 0 0 0 0 0 0 0 0 0 0 
0 0 0 0 0 0 0 0 0 0 0 
0.001240577662150504 0 0 0 -0.00042388181718108 0 0 0 0 -0.0008333028833849759 0 
0 0 0 0 0 0 0 0 0 0 0 
0 0 0 0 0 0 0 0 0 0 0 
0 0 0 0 0 0 0 0 0 0 0 
0.001974360560579349 0 -0.000124728155863321 -0.0001892571893846796 0 0 0 -0.000506681206244551 0 0 0 
0 0 0.0005966311266405736 0 0 0 0 0 -0.0003280133079039119 0 0 
0 0 0 0 0 0 -0.0002348785805377328 0 0 0 0 
0 0 -0.000869124629751837 0.001138325480241369 0 -6.031678318694876e-05 0 -0.000802300039031454 0 0 0 
0 0 0 0 0 0 0 0 0 0 0 
0 0 0 0 0 0 0 0 0 0 0 
0 -3.556074841911843e-05 0.001015926926590725 0 -0.001124635283281276 -1.461281691249422e-05 0 0 0 -0.0007910202108330983 0 
0 -0.0002120866379192861 0 0 0.002079076214353241 0 0 -0.001075875690195081 0 0 0 
-7.115812025526312e-05 0 0 0 0 0 0 0 0 -0.0007118473167644644 0 
0 0 0 0 0 0 0 0 0 0 0 
-0.0007586030277057289 -4.092657072533467e-05 -5.082197683525802e-21 -3.388131789017201e-21 -0.0002658490554909384 -0.001243194756689799 0 0.003903750983829632 -2.617299295018e-05 -0.0009027452740832064 0 
0 -0.0002045211557383235 0 -0.0001951541293009531 0 0.002951428770507385 0 -0.002320818385950764 -0.0009024005373963599 0 0 
0 0 0 0 0 0 0 0 0 0 0 
0 0 0 0 0 0 0 0 0 0 0 
0.004736924412217164 0 -0.0007823911449272681 -0.0002277443237093767 0 -0.0008433856674044003 -7.393171366564474e-06 -0.002358567614204112 0 0.0005414893681169854 0 
0.001378106549888372 0 -0.0004328752638707881 0 -0.001171500666144749 0 -0.0004204196895676467 0.001163184728164617 0 -0.001091715793126164 0 
0 0 0 0 0 0 0 0 0 0 0 
0 0 0 0 0 0 0 0 0 0 0 
0 0 0 0 0 0 0 0 0 0 0 
0 0 0 0 0 0 0 0 0 0 0 
0 0 0 0 0 0 0 0 0 0 0 
0 0 0 0 0 0 0 0 0 0 0 
0 0 0 0 0 0 0 0 0 0 0 
-0.0001286667317313763 3.465349866540231e-05 0 0 0 0.001357580444627601 0 -0.0002762372888710961 -0.0003963905868725738 -0.0002957542655995188 0 
0 0 0 0 0 0 0 0 0 0 0 
0 0 0 0 0 0 0 0 0 0 0 
0 0 0 0 0 0 0 0 0 0 0 
0.005037740742069432 0 -0.004202214839619298 0 -0.001915918038616077 0.002253345894278602 -0.0002036107902304228 0 -0.0005393293006473058 0 0 
0 0 0 0 0 0 0 0 0 0 0 
0 0 0 0 0 0 0 0 0 0 0 
0 0 0 0 0 0 0 0 0 0 0 
0 0 0 0 0 0 0 0 0 0 0 
0 0 0 0 0 0 0 0 0 0 0 
0 0 0 0 0 0 0 0 0 0 0 
0 0 0 0 0 0 0 0 0 0 0 
0 0 0 0 0 0 0 0 0 0 0 
0 0 0 0 0 0 0 0 0 0 0 
0 0 0 0 0 0 0 0 0 0 0 
0 0 0 0 0 0 0 0 0 0 0 
0 0 0 0 0 0 0 0 0 0 0 
0 0 0 0 0 0 0 0 0 0 0 
0 0 0 0 0 0 0 0 0 0 0 
0 0 0 0 0 0 0 0 0 0 0 
0 0 0 0 0 0 0 0 0 0 0 
0 0 0 0 0 0 0 0 0 0 0 
0 0 0 0 0 0 0 0 0 0 0 
0 0 0 0 0 0 0 0 0 0 0 
0 0 0 0 0 0 0 0 0 0 0 
0 -0.001193181339213241 -0.003012315449564445 0 -0.0003893066640234521 0 0.003052369589780927 0 -0.0007642192780940405 0 -0.0004101086852175007 
0 0 -9.125554703198447e-05 0 0 -2.025843373712394e-06 -2.868847854828692e-05 0.0001124719668272353 0 -4.153444781905447e-05 0 
0 0 0 0 0 0 0 0 0 0 0 
0 0 0 0 0 0 0 0 0 0 0 
-0.0006817837452978222 -0.0003732201487673661 0 0 0 0.0001336940323668449 0 0 0 0 0 
0 0 0 0 0 0 0 0 0 0 0 
0 -0.0004088609520393482 0 -0.0002528195430285878 0 0.0006102229247560457 0 0 0 0 0 
0 0 0 0 0 0 0 0 0 0 0 
0 0 0 0 0 0 0 0 0 0 0 
0 0 0 0 0 0 0 0 0 0 0 
0 0 0 0 0 0 0 0 0 0 0 
0 0 0 0 0 0 0 0 0 0 0 
0 0 0 0 0 0 0 0 0 0 0 
0 0 0 0 0 0 0 0 0 0 0 
0 0 0 0 0 0 0 0 0 0 0 
0 0 0 0 0 0 0 0 0 0 0 
0 0 0 0 0 0 0 0 0 0 0 
0 0 0 0 0 0 0 0 0 0 0 
0 0 0 0 0 0 0 0 0 0 0 
0 0 0 0 0 0 0 0 0 0 0 
0 0 0 0 0 0 0 0 0 0 0 
0 0 0 0 0 0 0 0 0 0 0 
0 0 0 0 0 0 0 0 0 0 0 
0 0 0 0 0 0 0 0 0 0 0 
0 0 0 0 0 0 0 0 0 0 0 
0 0 0 0 0 0 0 0 0 0 0 
0 0 0 0 0 0 0 0 0 0 0 
-0.0004107711582778754 0 0 -0.0002128844234523906 0 0 -0.000478837421243968 0.0006250503456463914 -0.0001727774670549265 0 -4.246664311489622e-05 
0 0 0 0 0 0 0 0 0 0 0 
0.003775812979432839 0 -0.002526761852955072 0 0 0 0 -0.0001878062447166451 0 -0.001824816458032832 -0.0003441686637914459 
0 0 0 0 0 0 0 0 0 0 0 
0 0 0 0 0 0 0 0 0 0 0 
0 0 0 0 0 0 0 0 0 0 0 
0 0 0 0 0 0 0 0 0 0 0 
0 0 0 0 0 0 0 0 0 0 0 
0 0 0 0 0 0 0 0 0 0 0 
0 0 0 0 0 0 0 0 0 0 0 
0 0 0 0 0 0 0 0 0 0 0 
0 0 0 0 0 0 0 0 0 0 0 
0 0 0 0 0 0 0 0 0 0 0 
0 0 0 0 0 0 0 0 0 0 0 
0 0 0 0 0 0 0 0 0 0 0 
0 0 0 0 0 0 0 0 0 0 0 
0 0 0 -7.334773805969584e-05 -0.0004981443584685148 0 -0.0005243245642449566 0 0 0 4.419758548439412e-05 
0 0 0 0 0 0 0 0 0 0 0 
0 0 0 0 0 0 0 0 0 0 0 
0 0 0 0 0 0 0 0 0 0 0 
0 0 0 0 0 0 0 0 0 0 0 
0 0 0 0 0 0 0 0 0 0 0 
0 0 0 0 0 0 0 0 0 0 0 
0 0 0 0 0 0 0 0 0 0 0 
0 0 0 0 0 0 0 0 0 0 0 
0 0 0 0 0 0 0 0 0 0 0 
0 0 0 0 0 0 0 0 0 0 0 
-0.0002380097706605543 0 -0.0004062985209112209 -7.20873338496538e-05 0.0006638841972000352 -4.835482081752663e-05 0 0 -0.0005084628724728222 0 0 
0 0 0 0 0 0 0 0 0 0 0 
0 0 0 0 0 0 0 0 0 0 0 
0 0 0 0 0 0 0 0 0 0 0 
0 0 0 0 0 0 0 0 0 0 0 
0 0 0 0 0 0 0 0 0 0 0 
0 0 0 0 0 0 0 0 0 0 0 
0 0 0 0 0 0 0 0 0 0 0 
0 0 0 0 0 0 0 0 0 0 0 
0 0 0 0 0 0 0 0 0 0 0 
0 0 0 0 0 0 0 0 0 0 0 
0 0 0 0 0 0 0 0 0 0 0 
-0.0006501564286566611 8.470329472543003e-22 -0.0003415501801693078 0 0 7.830271297150997e-05 0 0.00056107776632031 0 -0.0004425901046733132 -6.637162591529853e-05 
0 0 0 0 0 0 0 0 0 0 0 
0 0 0 0 0 0 0 0 0 0 0 
0 0 0 0 0 0 0 0 0 0 0 
0 0 0 0 0 0 0 0 0 0 0 
-0.001397959686677013 0.000481636067907594 0 0 0 0 0 -0.0009345382406513145 0 0 0 
0 0 0 0 0 0 0 0 0 0 0 
0 0 0 0 0 0 0 0 0 0 0 
0 0 0 0 0 0 0 0 0 0 0 
-0.002495751336311208 0 0 0 -0.0005747259612023181 0 0 0 0 0.0003614675772023956 0 
0 0 0 0 0 0 0 0 0 0 0 
-0.0008284876458620763 0 -0.001295906341583098 -0.0005711738166879038 0.00191267231964529 0.0009223759264471598 -0.0003158196532005274 -2.710505431213761e-20 0 -0.0004495711518846293 -0.0002589426082962893 
0.001970665815173665 0 -0.001473038473282887 0 6.776263578034403e-21 -0.0002774705542154477 0 -0.0002504219115273963 -2.54689779177162e-05 0 0 
0 0 0 0 0 0 0 0 0 0 0 
0 0 0 0 0 0 0 0 0 0 0 
0 0 0 0 0 0 0 0 0 0 0 
0 0 0 0 0 0 0 0 0 0 0 
-0.002796579758216114 0.00238018130618015 0 -0.0005725070968070214 0 -0.0002675883106484945 0 0 0 -0.0001404825207595932 -7.045872651076231e-05 
0 0.0002600025799679851 0 0 -0.0004679495586432778 0 -0.0001140649187094383 0 -0.0004128801552898497 -2.883133789222765e-05 -0.0001164147746905565 
0 0 0 0 0 0 0 0 0 0 0 
0 0 0 0 0 0 0 0 0 0 0 
0 0 0 0 0 0 0 0 0 0 0 
-4.757300081295356e-05 0 0 0 0.0005699661390683462 0 -4.916237338359054e-05 -0.0001700234549812383 0 0 0 
0.0003991316674209441 -3.847078139835183e-06 0 -0.0001372917085713892 -0.0007379325004519805 0.0005884068067723172 0 -0.0002109451591121743 -0.0006441548562643567 0 -1.014874446221631e-05 
0 0 0 0 0 0 0 0 0 0 0 
0 0 0 0 0 0 0 0 0 0 0 
-0.001678432345597962 -0.000830153260436405 -6.969399846561903e-05 0 1.355252715606881e-20 0 0.002854046045770107 0 -0.0004450822245319881 -0.0001231865525358279 0 
0 0 0 0 0 0 0 0 0 0 0 
0 0 0 0 0 0 0 0 0 0 0 
0.001237657589798914 -0.0003574149205767992 0 -6.529720638919137e-06 -0.002356129872336482 -3.388131789017201e-21 0.001676831774031952 0 -0.000288815419306134 -0.0009586484797535368 -0.0001325574464032191 
0 0 0 0 0 0 0 0 0 0 0 
0 0 0 0 0 0 0 0 0 0 0 
0 0 0 0 0 0 0 0 0 0 0 
0 0 0 0 0 0 0 0 0 0 0 
0 0 0 0 0 0 0 0 0 0 0 
0 0 0 0 0 0 0 0 0 0 0 
0 0 0 0 0 0 0 0 0 0 0 
0 0 0 0 0 0 0 0 0 0 0 
0 0 0 0 0 0 0 0 0 0 0 
0 0 0 0 0 0 0 0 0 0 0 
0 0 0 0 0 0 0 0 0 0 0 
0 0 0 0 0 0 0 0 0 0 0 
0 0 0 0 0 0 0 0 0 0 0 
0 0 0 0 0 0 0 0 0 0 0 
0 0 0 0 0 0 0 0 0 0 0 
0 0 0 0 0 0 0 0 0 0 0 
0 0 0 0 0 0 0 0 0 0 0 
0 0 0 0 0 0 0 0 0 0 0 
0 0 0 0 0 0 0 0 0 0 0 
0 0 -0.0007531063508677018 0.0008380688158039168 0 -0.0003761432187496089 0 0.001547350979114175 0 -0.0002970495533788012 0 
0 0 0 0 0 0 0 0 0 0 0 
0 0 0 0 0 0 0 0 0 0 0 
6.350654005525557e-05 0 -0.0004178435558557657 -0.0002672304679049754 0 0 0 0 0 0 0 
0.0004329191194588329 0 -0.0006468257929489214 0.0007014345929933736 -3.200765268024075e-05 -0.0002107513863855117 -0.001261967274493347 -0.001641389257615354 0.0009651394376660729 -4.074766734184001e-05 -4.57985042696802e-05 
0.0005132677569506814 0 0 0 -0.0004941278027767948 -0.0001204233819998657 0 0 -0.0001038344808725344 0 -3.516231483601271e-05 
0 0 0 0 0 0 0 0 0 0 0 
0 0 0 0 0 0 0 0 0 0 0 
0 0 0 0 0 0 0 0 0 0 0 
0 0 0 0 0 0 0 0 0 0 0 
0 0 0 0 0 0 0 0 0 0 0 
0 0 0 0 0 0 0 -8.172163918999505e-05 -5.271417788068977e-06 0 0 
0 0 0.005250338847983856 0 0 -0.000668043969155796 0 0 0 -0.0002075469435634992 -0.0002093908889080298 
0.0007068596093664706 0 -1.441690441575246e-05 -1.116635273222171e-05 -0.0003963903156846172 0 0 -0.0001358880736682249 -2.722110220025162e-05 0 -4.413172057662867e-05 
-0.00567952520810983 0 0.002923723209718845 0 0 0 0 0 0 0 0 
0.001278560612107788 0 0 0 0 0.001014442899194049 -0.0004081948458524629 -5.717472393966527e-21 0 0 0 
0 0 0 0 0 0 0 0 0 0 0 
0 0 0 0 0 0 0 0 0 0 0 
0 0 0 0 0 0 0 0 0 0 0 
0 0 0 0 0 0 0 0 0 0 0 
0 0 0 0 0 -5.388512541023439e-05 0 0.0006674567406664528 0 0 0 
0 0 0 0 0 0 0 0 0 0 0 
0 0 0 0 0 0 0 0 0 0 0 
0 0.00254018897220424 0 -0.0004251860035234999 -0.001451132715996167 -0.0003486511202056766 -1.355252715606881e-20 0 -0.0001315024525311962 -0.0003212557031637655 -0.0001617389825124582 
0 0 0 0 0 0 0 0 0 0 0 
0 0 0 0 0 0 0 0 0 0 0 
0 0 0 0 0 0 0 0 0 0 0 
0 0 0 0 0 0 0 0 0 0 0 
0 0 0 0 0 0 0 0 0 0 0 
0 0 0 0 0 0 0 0 0 0 0 
0 0 0 0 0 0 0 0 0 0 0 
-0.0006662305576725497 0 0 0 0 0.0002808492255640523 -0.0001668834549906132 0 -0.0003035154852371454 0 0 
0 0 0 -7.991250237588693e-05 0 0 -0.0001895002053831496 0 0 0 0 
0 0 0 0 0 0 0 0 0 0 0 
0 0 0 0 0 0 0 0 0 0 0 
0 0 0 0 0 0 0 0 0 0 0 
-0.003634087475000885 0.00357352004302933 -0.001742380013193177 0 0 0 0 -0.0006733067741867093 0 0 -0.0004478963591840911 
0 0 0 0 0 0 0 0 0 0 0 
0 -0.0003766685414552892 0 -0.0002378963515270199 0 0.0001103701095996167 0 0 -1.64748307364688e-05 0 0 
-0.000101065537083064 0 0 -0.0002083231300683828 0.0008162826799917367 0 0 -0.0005301375494807554 0 -6.790394082468189e-05 0 
0 0 0 0 0 0 0 0 0 0 0 
0 0 0 0 0 0 0 0 0 0 0 
0 0 0 0 0 0 0 0 0 0 0 
0 -0.002058104373799891 0.002104141201550625 0 0 0 0 0 0 -0.0007563680121604029 0 
0 0 0 0 0 0 0 0 0 0 0 
0 -0.0003699103414518482 0.005074204772855872 0 -0.002253710353720504 -0.0004608808903560936 0 -0.00110934065148224 0 0 0 
0 0 0 0 0 0 0 0 0 0 0 
-0.000914712428424152 0 0.002065954906987499 -0.0002388057344731103 0 -0.0003992903549233497 -0.0002906153791838172 -0.0003784285944782891 0 0 -0.0001582141780673936 
0 0 0 0 0 0 0 0 0 0 0 
0 0 0 0 0 0 0 0 0 0 0 
0 0 0 0 0 0 0 0 0 0 0 
0 0 0 0 0 0 0 0 0 0 0 
0 0 0 0 0 0 0 0 0 0 0 
0 0 0 0 0 0 0 0 0 0 0 
0 0 0 0 0 0 0 0 0 0 0 
-0.000873240924765409 0 -8.18948482674334e-06 0 -0.0002326661959685993 -1.732566853096521e-05 -0.0004272987498058374 0.0004272921424114244 0 0 0 
-0.0006369859749151808 0 0 0.001170805220368367 -9.558104716055703e-05 0 0 0 -0.0003492641409005754 0 0 
0 0 0 0 0 0 0 0 0 0 0 
0 0 0 0 0 0 0 0 0 0 0 
0 0 0 0 0 0 0 0 0 0 0 
0 0 -0.00317043295009625 -0.004758950175783412 0.0006084442893612642 0 -0.0007862383854882377 -0.0003287424053645338 0 0.005382020564692511 0 
0 0 0 0 0 0 0 0 0 0 0 
0 0 0 0 0 0 0 0 0 0 0 
-9.401938283527488e-05 0 0 -0.0001433810886893081 0 0 0 0 0 0 0 
0 0 0 0 0 0 0 0 0 0 0 
0 0 0 0 0 0 0 0 0 0 0 
0 0 0 0 0 0 0 0 0 0 0 
0 0 0 0 0 0 0 0 0 0 0 
0 0 0 0 0 0 0 0 0 0 0 
0 0 0 0 0 0 0 0 0 0 0 
0 0 0 0 0 0 0 0 0 0 0 
0 0 0 0 0 0 0 0 0 0 0 
0 0 0 0 0 0 0 0 0 0 0 
0 0 0 0 0 0 0 0 0 0 0 
0 0 0 0 0 0 0 0 0 0 0 
0 0 0 0 0 0 0 0 0 0 0 
0 0 0 0 0 0 0 0 0 0 0 
0 0 0 0 0 0 0 0 0 0 0 
0 0 0 0 0 0 0 0 0 0 0 
0 0 0 0 0 0 0 0 0 0 0 
0 0 0 0 0 0 0 0 0 0 0 
0 0 0 0 0 0 0 0 0 0 0 
0 0 0 0 0 0 0 0 0 0 0 
0 0 0 0 0 0 0 0 0 0 0 
0 0 0 0 0 0 0 0 0 0 0 
0 0 0 0 0 0 0 0 0 0 0 
0 0 0 0 0 0 0 0 0 0 0 
0 0 0 0 0 0 0 0 0 0 0 
0 0 0 0 0 0 0 0 0 0 0 
0 0 0 0 0 0 0 0 0 0 0 
0 0 0 0 0 0 0 0 0 0 0 
0 0 0 0 0 0 0 0 0 0 0 
-9.304907231815724e-05 0 0.0005305943668130549 0 0 0 0 0 0 0 0 
0 0 0 0 0 0 0 0 0 0 0 
0 0 0.0005765048948640576 0 0 -0.0001235406511718595 0 0 0 -0.000103126313648012 0 
0 0 0 0 0 0 0 0 0 0 0 
0 0 0 0 0 0 0 0 0 0 0 
0 0 0 0 0 0 0 0 0 0 0 
0 0 0 0 0 0 0 0 0 0 0 
0 0 0 0 0 0 0 0 0 0 0 
0 0 0 0 -1.947748384888662e-05 0 0 0 0 0 0 
0 0 0 0 0 0 0 0 0 0 0 
0 0 0 0 0 0 0 0 0 0 0 
0 0 0 0 0 0 0 0 0 0 0 
0 0 0 0 0 0 0 0 0 0 0 
0 0 0 0 0 0 0 0 0 0 0 
0 0 0 0 0 0 0 0 0 0 0 
0 0 0 0 0 0 0 0 0 0 0 
0 0 0 0 0 0 0 0 0 0 0 
0 0 0 0 0 0 0 0 0 0 0 
0 0 0 0 0 0 0 0 0 0 0 
0 0 0 0 0 0 0 0 0 0 0 
0 0 0 0 0 0 0 0 0 0 0 
0 0 0 0 0 0 0 0 0 0 0 
0 0 0 0 0 0 0 0 0 0 0 
0 0 0 0 0 0 0 0 0 0 0 
0 0 0 0 0 0 0 0 0 0 0 
0 0 0 0 0 0 0 0 0 0 0 
0 0 0 0 0 0 0 0 0 0 0 
0 0 0 0 0 0 0 0 0 0 0 
0 0 0 0 0 0 0 0 0 0 0 
0 0 0 0 0 0 0 0 0 0 0 
0 0 0 0 0 0 0 0 0 0 0 
0 0 0 0 0 0 0 0 0 0 0 
0 0 0 0 0 0 0 0 0 0 0 
0 0 0 0 0 0 0 0 0 0 0 
0 0 0 0 0 0 0 0 0 0 0 
0 0 0 0 0 0 0 0 0 0 0 
-0.0008638957407665936 0 0.003402846147407291 -9.984169124495419e-05 0 0 -0.0008699885243580335 -0.001572709397463089 0 0 -1.700164295228356e-05 
0 0 0 0 0 0 0 0 0 0 0 
0 0 0 0 0 0 0 0 0 0 0 
0 0 0 0 0 0 0 0 0 0 0 
0 0 0 0 0 0 0 0 0 0 0 
0 0 0 0 0 0 0 0 0 0 0 
0 0 0 0 0 0 0 0 0 0 0 
0 0 0 0 0 0 0 0 0 0 0 
0 0 0 0 0 0 0 0 0 0 0 
0 0 0 0 0 0 0 0 0 0 0 
0.003630803271542278 0 -0.000133943145166222 -0.0002488372367072976 0 -0.0004177196204758034 0 0 -4.061837929729883e-05 0 0 
0 0 0 0 0 0 0 0 0 0 0 
0 0 0 0 0 0 0 0 0 0 0 
0 0 0 0 0 0 0 0 0 0 0 
0 0 0 0 0 0 0 0 0 0 0 
0 0 0 0 0 0 0 0 0 0 0 
0.001803092539810024 -0.0004369716758124039 0 -0.0002959485721279512 0 0 0 0 0 0 0 
0 0 0 0 0 0 0 0 0 0 0 
0 0 0 0 0 0 0 0 0 0 0 
0 0 0 0 0 0 0 0 0 0 0 
0.00223945046254619 -6.119299639584498e-05 0 0 0 0 -0.0002817192810144061 -0.0006661096538159512 -0.0005252839387705532 0 0 
-0.001716302970244578 0 0.004079184824327255 0 0 0 -0.0006872137720181938 -0.0002508858520281525 -0.000440056506356887 0 0 
0 0 0 0 0 0 0 0 0 0 0 
0 0 0 0 0 0 0 0 0 0 0 
0 0 0 0 0 0 0 0 0 0 0 
0 0 0 0 0 0 0 0 0 0 0 
0 0 0 0 0 0 0 0 0 0 0 
-2.710505431213761e-20 -0.0002802414035746848 0 0 -0.0008475525400913692 0.0005424561160656417 0 0 -0.0003873868542015008 0 0 
0 0 0 0 0 0 0 0 0 0 0 
0 0 0 0 0 0 0 0 0 0 0 
-8.355282896124153e-05 0 0.0003437503708505574 6.418795592191049e-05 -0.0004707837858569884 -4.905517263911622e-05 0.0008746077479585262 -1.355252715606881e-20 -2.850407750973346e-05 -9.541822827887493e-06 -9.840194419386699e-05 
0 0 0 0 0 0 0 0 0 0 0 
0 0 0 0 0 0 0 0 0 0 0 
-0.000246088676836574 0 -0.004585742969274841 -7.448448338092795e-05 -0.003019749712113718 0.004909247309261599 0 5.421010862427522e-20 0 0 0 
0 0 0 0 0 0 0 0 0 0 0 
0 0 0 0 0 0 0 0 0 0 0 
-0.002198244724608292 0.0006751110323103199 0 0 0 0 0 0 0 0 0 
0 0 -0.001006852239566485 0 0 2.710505431213761e-20 0 -0.0005191151424791111 0 -0.000926733373149778 -0.0001714921442148661 
0 0.0003754207531777374 0 0 0 0 0 0 0 -0.0003246577062427879 0 
0 0 0 0 0 0 0 0 0 0 0 
0 0 0 0 0 0 0 0 0 0 0 
0 0 0 0 0 0 0 0 0 0 0 
0 0 0 0 0 0 0 0 0 0 0 
0 0 0 0 0 0 0 0 0 0 0 
0 0 0 0 0 0 0 0 0 0 0 
0 0 0 0 0 0 0 0 0 0 0 
0 0 0 0 0 0 0 0 0 0 0 
0 0 0 0 0 0 0 0 0 0 0 
0 0 0 0 0 0 0 0 0 0 0 
0 0 0 0 0 0 0 0 0 0 0 
0 0 0 0 0 0 0 0 0 0 0 
0 0 0 0 0 0 0 0 0 0 0 
0 0 0 0 0 0 0 0 0 0 0 
0 0 0 0 0 0 0 0 0 0 0 
0 0 0 0 0 0 0 0 0 0 0 
0 0 0 0 0 0 0 0 0 0 0 
0 0 0 -0.0002287879863840557 0 -0.0004789353490656613 0.0005592435271124817 -0.000677652393093582 0 0 0 
0 0 0 0 0 0 0 0 0 0 0 
0 0 0 0 0 0 0 0 0 0 0 
0 0 0 0 0 0 0 0 0 0 0 
0 0 0 0 0 0 0 0 0 0 0 
0 0 0 0 0 0 0 0 0 0 0 
0 0 0 0 0 0 0 0 0 0 0 
0 0 0 0 0 0 0 0 0 0 0 
0 0 0 0 0 0 0 0 0 0 0 
0 0 0 0 0 0 0 0 0 0 0 
0 0 0 0 0 0 0 0 0 0 0 
0 0 0 0 0 0 0 0 0 0 0 
0 0.001963578288905356 -0.00154933494250992 0 0 0 0 0 0 0 0 
0 0 0 0 0 0 0 0 0 0 0 
0 0 0 0 0 0 0 0 0 0 0 
0 0 0 0 0 0 0 0 0 0 0 
0 0 0 0 0 0 0 0 0 0 0 
0 0 0 0 0 0 0 0 0 0 0 
0.0005022084133954225 0 0 0 -0.0001833808422537147 0 0 0 -0.0005474143286297757 -9.930648074562051e-05 0 
0.0008296863880843187 -0.0001205514504099057 0 -0.000470327885034364 0 -0.0009332113708877621 0 0 0 0 0 
0 0 0 0 0 0 0 0 0 0 0 
0 0 0 0 0 0 0 0 0 0 0 
0 0 0 0 0 0 0 0 0 0 0 
0 0 0 0 0 0 0 0 0 0 0 
0 0 0 0 0 0 0 0 0 0 0 
0 0 0 0 0 0 0 0 0 0 0 
0 0 0 0 0 0 0 0 0 0 0 
0 0 0 0 0 0 0 0 0 0 0 
0 0 0 0 0 0 0 0 0 0 0 
-0.001355235581713186 0 0.01589720099647202 0 0 0 0 0 0 -0.01912629558610239 0 
0 0 0 0 0 0 0 0 0 0 0 
0 0 0 0 0 0 0 0 0 0 0 
0 0 0.007399282722069685 0 -0.008331237270700448 0 0 0 0 0 0 
0 0 0 0 0 0 0 0 0 0 0 
0 0 0 0 0 0 0 0 0 0 0 
0 0 0 0 0 0 0 0 0 0 0 
0 0 0 0 0 0 0 0 0 0 0 
0 0 0 0 0 0 0 0 0 0 0 
0.001609763684954653 -0.0007584172618104034 -0.001158917008300084 -0.001478591923561171 -0.0003790089674012349 0.002087189108075799 -0.001230013908498145 -0.002490502596657274 0.002343499990410522 -0.0002344763817336484 0.0004128517635281903 
5.186705746997892e-05 0 0 0 0 0 0 0 0 -0.0004156761220729613 0 
0 0 0 0 0 0 0 0 0 0 0 
0 0 0 0 0 0 0 0 0 0 0 
-0.00149783722105354 0 0 -0.0001168508472459245 -0.001608059583155165 0 0 0.001963156338733574 0 -6.776263578034403e-21 0 
0 0 0 0 0 0 0 0 0 0 0 
0 0 0 -0.0005312511358888325 0 -0.0001795074607033953 0 0.0004807829873118849 -0.0001555103607729437 0 0 
0 0 0 0 0 0 0 0 0 0 0 
0 0 0 0 0 0 0 0 0 0 0 
0 0 0 0 0 0 0 0 0 0 0 
0 0 0 0 0 0 0 0 0 0 0 
0.01095163077190232 -0.002079367253405108 0 -0.001680953544491508 -0.005284991706394341 -0.0007815751818409369 -0.000781931259174334 0 0 -0.001494148917739659 -0.0004472291926813523 
0.002474440329728927 0 0 0.0005166843182382745 -0.001326795320070178 -0.00101610927903081 0 -0.0003284919086996431 -0.0003232745252001731 0 -5.585957439042291e-06 
0 0 0 0 0 0 0 0 0 0 0 
0 0 0 0 0 0 0 0 0 0 0 
0 0 0 0 0 0 0 0 0 0 0 
0 0 0 0 0 0 0 0 0 0 0 
0 0 0 0 0 0 0 0 0 0 0 
0 0 0 0 0 0 0 0 0 0 0 
0 0 0 0 0 0 0 0 0 0 0 
0.0006157750874603132 -4.012378156019827e-05 -0.0001724057183623665 -0.0002951346419510702 0 -0.0005862166813770128 -5.508893859588896e-05 0.0003809223411627286 0 0.0001358254551841897 -9.035629118050528e-06 
0 0 0 0 0 0 0 0 0 0 0 
0 0 0 0 0 0 0 0 0 0 0 
0 -0.001888361992001661 0.00144257402720815 0 0 0 0 0 0 -0.00100584771433996 0 
0 0 0 0 0 0 0 0 0 0 0 
0.002754954092505166 0 -0.0006055395688450307 -0.0003130374703154932 0 0.002138854918135965 0 0.005472050188785096 -0.0009727634882007415 -0.0001678916014715097 0 
0.0007245840285338565 0 0 1.355252715606881e-20 -0.0002205441451388331 -0.001274036988598866 0 -0.003015093053537285 -0.0004922134737926876 -0.0001893758840629162 0 
0 0 0 -0.000316507365549213 0 0 -2.33038692539109e-05 -0.0002285024747925191 -0.0002925553554355389 0 0 
0 0 0 0 0 0 0 0 0 0 0 
0 0 0 0 0 0 0 0 0 0 0 
0 0 0 0 0 0 0 0 0 0 0 
0.002789789192317502 0 -0.002970841508002696 0 0 0 0 0 0 0 0 
0 0 0 0 0 0 0 0 0 0 0 
0 0 0 0 0 0 0 0 0 0 0 
0 0 0 0 0 0 0 0 0 0 0 
0 0 0 0 0 0 0 0 0 0 0 
0 0 0 0 0 0 0 0 0 0 0 
0 0 0 0 0 0 0 0 0 0 0 
0 0 0 0 0 0 0 0 0 0 0 
0 0 0 0 0 0 0 0 0 0 0 
0 0 0 0 0 0 0 0 0 0 0 
0 0.001461405809610547 0 0 0 0 0 -0.0001817166980037785 0 -0.000547703776982322 0 
0 0 -0.000363798001693112 0.0009577699653530306 0 0 0 -0.0004785051323860732 0 0 0 
0 0 0 0 0 0 0 0 0 0 0 
0 0 0 0 0 0 0 0 0 0 0 
0 0 0 0 0 0 0 0 0 0 0 
0 0 0 0 0 0 0 0 0 0 0 
0 -3.809560478168915e-05 -0.0001327046372192782 -0.0009851268875811991 -0.0006988293260893803 0 -0.001012314053919172 0.004714799758020011 -0.0001382369515594771 0 -0.0005801119062381449 
0 0 0 0 0 0 0 0 0 0 0 
0 0 0 0 0 0 0 0 0 0 0 
0 0 0 0 0 0 0 0 0 0 0 
0 0 0 0.003381356314182321 -0.002775215487499951 0 0 -0.0006923550610846948 -0.0004502883860349176 -0.002145855283392847 0 
0 0 0 0 0 0 0 0 0 0 0 
0 0 0 0 0 0 0 0 0 0 0 
0 0 0 0 0 0 0 0 0 0 0 
0 0 0 0 0 0 0 0 0 0 0 
0 0 0 0 0 0 0 0 0 0 0 
0 0 0 0 0 0 0 0 0 0 0 
0 0 0 0 0 0 0 0 0 0 0 
0 0 0 0 0 0 0 0 0 0 0 
0 0 0 0 0 0 0 0 0 0 0 
0 0 0 0 0 0 0 0 0 0 0 
0 0 0 0 0 0 0 0 0 0 0 
-0.0002263463936146426 0.00184383365110211 -0.0004280299970840916 -0.0003160205679432547 0 0 -8.208312470956674e-05 0 0 0 0 
0 0 0 0 0 0 0 0 0 0 0 
0.002316424856547524 0 0 0 0 0 0 0 0 0 0 
0 0 0 0 0 0 0 0 0 0 0 
0 0 0 0 0 0 0 0 0 0 0 
0 0 0 0 0 0 0 0 0 0 0 
0 0 0 0 0 0 0 0 0 0 0 
0 0 0 0 0 0 0 0 0 0 0 
0 0 0 0 0 0 0 0 0 0 0 
0.002751508540212694 0 -0.0001485872733275923 0 -0.0003277424619452616 -2.062964613114063e-05 -0.0002113324141820371 -1.738441508225191e-05 0 0 0 
0 0 0 0 0 0 0 0 0 0 0 
0 0 0 0 0 0 0 0 0 0 0 
0 0 0 0 0 0 0 0 0 0 0 
0.0005566993036933038 0 0 0 0 -5.151692464377646e-05 0 -0.0003376268432133114 0 0 0 
0 0 0 0 0 0 0 0 0 0 0 
0 0 0 0 0 0 0 0 0 0 0 
0 0 0 0 0 0 0 0 0 0 0 
0 0 0 0 0 0 0 0 0 0 0 
0 0 0 0 0 0 0 0 0 0 0 
0 0 0 0 0 0 0 0 0 0 0 
0.002368203604962155 0 0 0 0 -2.758679971411992e-05 -0.0002610806034691254 -0.0001940094705327904 -0.0005805042812059313 0 0 
-0.004854391764767698 -0.001112321865509814 0 -0.0001793887507885519 -0.0006589306339986649 0 0 0 0.00362102135513872 0 0 
0 0 0 0 0 0 0 0 0 0 0 
0 0 0 0 0 0 0 0 0 0 0 
0 0 0 0 0 0 0 0 0 0 0 
-0.00225448191365032 0 0.002962513468166568 -0.0005351037813087058 0 0 0 0 0 0 0 
0 -0.0001910942170750642 0.001793252193409016 -0.0003410747809591682 -0.001156257155366371 0 0 0 -0.0003441086821122373 -0.0008997070873260059 0 
0 0 0 0 0 0 0 0 0 0 0 
0 0 0 0 0 0 0 0 0 0 0 
0 0 0 0 0 0 0 0 0 0 0 
0 0 0 0 0 0 0 0 0 0 0 
0 0 0 0 0 0 0 0 0 0 0 
0 0 0 0 0 0 0 0 0 0 0 
0 0 0 0 0 0 0 0 0 0 0 
0 0 0 0 0 0 0 0 0 0 0 
-0.002915661900795215 0 0 -0.0005003577871462764 0 0 0 0.002772860301934454 -0.0003370180418163777 -0.0004415309772888974 0 
0 -0.0001752627398759084 0 0 0 -2.607360554390099e-06 0 0.0003173144931751672 -7.560672197823705e-05 0 0 
0 0 0 0 0 0 0 0 0 0 0 
0 0 0 0 0 0 0 0 0 0 0 
-0.001280222850046909 0 0.001790755494221943 -0.0001010323502993578 0.0008053857596500575 0 0 0 0 8.131516293641283e-20 0 
0 0 0 0 0.00302872552684336 0 0 -3.169958864759166e-05 0 -0.001661081245773519 0 
0 0 0 0 0 0 0 0 0 0 0 
0 0 0 0 0 0 0 0 0 0 0 
0 0 0 0 0 0 0 0 0 0 0 
0 0 0 0 0 0 0 0 0 0 0 
-0.0007316878812478383 0 -3.536152944083196e-05 -0.0001873705353471784 0 -0.0001031798244258202 0.001141245838358544 0 -6.811372579131335e-05 0 0 
0 0 0 0 0 0 0 0 0 0 0 
0 0 0 0 0 0 0 0 0 0 0 
0.007731116648037479 -0.0002756539851221396 -0.002401871873788327 -0.0001050460661818299 -0.002375058300171116 0 0 -0.001210496860355185 -0.0001762616799658791 0 -4.119618198829098e-05 
0.002686490739403524 0 -0.0007441171688367003 0 0 0 0 0 0 -0.001532695713118729 0 
0 0 0 0 0 0 0 0 0 0 0 
-0.0004535738306669079 -0.0002658898118630919 -0.001013249793315154 -0.0008094786798280091 -0.0001579961567929691 -0.0005268683193839417 0 0.001457331288838867 -0.0001536705196202167 0 -0.0003935194830875328 
0 0 0 -0.0002390303991958057 0 0 -0.002161175221212775 0.0004967721291631872 0 0 -0.0001329406029950955 
0.0003006127932096718 -0.0006276176440235145 0 0 0 0 -4.157022976155524e-05 0 0 0 0 
0 0 0 0 0 0 0 0 0 0 0 
0 0 0 0 0 0 0 0 0 0 0 
0 0 0 0 0 0 0 0 0 0 0 
0 -0.0001238626723433807 0 0 0 -0.0004259911246070049 -7.307537141182743e-05 0 0.0007852283975065323 0 0 
0 0 0 0 0 0 0 0 0 0 0 
0 0 0 0 0 0 0 0 0 0 0 
0 0 0 0 0 0 0 0 0 0 0 
0 0 0.001311491960426628 -0.0004195140987777945 -0.0003918180425459092 0 0 0 -0.0001549556389198737 0 0 
0 0 0 0 0 0 0 0 0 0 0 
0 0 0 0 0 0 0 0 0 0 0 
0 0 0 0 0 0 0 0 0 0 0 
0 0 0 0 0 0 0 0 0 0 0 
0 0 0 0 0 0 0 0 0 0 0 
0 0 0 0 0 0 0 0 0 0 0 
-0.001700775278289872 0 0 0 0 0.001105047610960178 -0.0001054726951487727 0 0 0 0 
0 0 0 0 0 0 0 0 0 0 0 
0 0 0 0 0 0 0 0 0 0 0 
0 0 0 0 0 0 0 0 0 0 0 
0 0 0 0 0 0 0 0 0 0 0 
0 0 0 0 0 0 0 0 0 0 0 
0 0 0 0 0 0 0 0 0 0 0 
0 0 0 0 0 0 0 0 0 0 0 
0 0 0 0 0 0 0 0 0 0 0 
0 0 0 0 0 0 0 0 0 0 0 
0 0 0 0 0 0 0 0 0 0 0 
0 0.001749998768955044 -0.0008507892358711582 0 0 -2.779469781736532e-05 0 0 -0.0002646112140206117 0 0 
0 0 0 0 0 0 0 0 0 0 0 
0 0 0 0 0 0 0 0 0 0 0 
0 0 0 0 0 0 0 0 0 0 0 
0 0 0 0 0 0 0 0 0 0 0 
0 0 0 0 0 0 0 0 0 0 0 
0 0 0 0 0 0 0 0 0 0 0 
0.0008291181644451351 0 -0.002898731983748028 0 -0.0009639463564684729 0 0 0 0 0 0 
0 0 0 0 0 0 0 0 0 0 0 
-0.0006232779327363789 0 -0.0008884348799679045 0 0.00194089902546524 0 0 0 0 0 -0.0002483921446218746 
0 0 0 0 0 0 0 0 0 0 0 
0 0 0 0 0 0 0 0 0 0 0 
0 0 0 0 0 0 0 0 0 0 0 
0 0 0 0 0 0 0 0 0 0 0 
0 0 0 0 0 0 0 0 0 0 0 
0 0 0 0 0 0 0 0 0 0 0 
0 0 0 0 0 0 0 0 0 0 0 
0 0 0 0 0 0 0 0 0 0 0 
0 0 0 0 0 0 0 0 0 0 0 
0 0 0 0 0 0 0 0 0 0 0 
0 0 0 0 0 0 0 0 0 0 0 
0 0 0 0 0 0 0 0 0 0 0 
0 0 0 0 0 0 0 0 0 0 0 
0 0 0 0 0 0 0 0 0 0 0 
0 0 0 0 0 0 0 0 0 0 0 
0 0 0 0 0 0 0 0 0 0 0 
0 0 0 0 0 0 0 0 0 0 0 
0 0 0 0 0 0 0.001020598484550643 0 0 0 -7.488519024227678e-05 
0 0 0 0 0 0 0 0 0 0 0 
0 0 0 0 0 0 0 0 0 0 0 
0 0 0 0 0 0 0 0 0 0 0 
0 0 0 0 0.0008398255396388719 0 0 0 0 -0.0004247428693315403 -1.30249135413595e-05 
0 0 0 0 0 0 0 0 0 0 0 
0 0 0 0 0 0 0 0 0 0 0 
0 0 0 0 0 0 0 0 0 0 0 
0 0 0 0 0 0 0 0 0 0 0 
0 0 0 0 0 0 0 0 0 0 0 
0 0 0 0 0 0 0 0 0 0 0 
0 0 0.002829559430862288 0 -0.001956725129456243 -0.0003085649226352142 0 -0.0002569983321103583 0 0 0 
0 -0.001496887923591029 0.001715671881685705 0 0 0 -0.001035900762614247 0 0 -0.0008880135167876245 0 
0 0 0 0 0 0 0 0 0 0 0 
0 0 0 0 0 0 0 0 0 0 0 
0 0 0 0 0 0 0 0 0 0 0 
0 0 0 0 0 0 0 0 0 0 0 
0 0 0 0 0 0 0 0 0 0 0 
-0.000767296863794718 -1.787452970652762e-05 5.421010862427522e-20 0.001846708486986699 -0.0009713393506628335 0 0 -0.0005139939166000401 0.001385711746790418 -0.0008699238055983524 0 
0 0 0 0 0 0 0 0 0 0 0 
0 0 0 0.001058431402351049 0 -0.0004611397007531187 0 -0.0001455910936956422 0 0 0 
0 0 0 0 0 0 0 0 0 0 0 
0.001089850342542659 0 0 0 0 0 0 0 0 0 0 
0 0 0 0 0 0 0 0 0 0 0 
0 0 0 0 0 0 0 0 0 0 0 
0 0 0 0 0 0 0 0 0 0 0 
2.827073302516257e-05 0 0 -0.0007481493403410323 0 0 -0.0003611289732427784 0 0 0 -1.173428174232526e-05 
0 0 0 0 0 0 0 0 0 0 0 
0 0 0 0 0 0 0 0 0 0 0 
0 0 0 0 0 0 0 0 0 0 0 
0 0 0 0 0 0 0 0 0 0 0 
0 0 0 0 0 0 0 0 0 0 0 
0 0 0 0 0 0 0 0 0 0 0 
0 0 0 0 0 0 0 0 0 0 0 
0 0 0 0 0 0 0 0 0 0 0 
0 0 0 0 0 0 0 0 0 0 0 
0 0 0 0 0 0 0 0 0 0 0 
0 0 0 0 0 0 0 0 0 0 0 
0 0 0 0 0 0 0 0 0 0 0 
0 0 0 0 0 0 0 0 0 0 0 
0 0 0 0 0 0 0 0 0 0 0 
0 0 0 0 0 0 0 0 0 0 0 
0 0 0 -2.759294066183371e-05 -8.502144800934937e-06 0 0 0 0 0 0 
0 0 0 0 0 0 0 0 0 0 0 
0 0 0 0 0 0 0 0 0 0 0 
0 0 0 0 0 0 0 0 0 0 0 
0 0 0 0 0 0 0 0 0 0 0 
0 0 0 0 0 0 0 0 0 0 0 
0 0 0 0 0 0 0 0 0 0 0 
0 0 0 0 0 0 0 0 0 0 0 
0 0 0 0 0 0 0 0 0 0 0 
0 0 0 0 0 0 0 0 0 0 0 
0 0 0 0 0 0 0 0 0 0 0 
0 0 0 0 0 0 0 0 0 0 0 
0 0 0 -0.0002489876553232304 0 -0.0001391203000562897 0 -0.0002859630961374247 0.000755707481269995 0 0 
0 0 0 0 0 0 0 0 0 0 0 
0 0 0 0 0 0 0 0 0 0 0 
0 0 0 0 0 0 0 0 0 0 0 
0 0 0 0 0 0 0 0 0 0 0 
-0.0005616162200138716 0 0.003190982401221727 0.000770420759318634 -0.001363934478348749 0 0 0 0 -0.0003467345558089966 0 
0 0 0 0 0 0 0 0 0 0 0 
0 0 0 0 0 0 0 0 0 0 0 
0 0 0 0 0 0 0 0 0 0 0 
0 0 0 0 0 0 0 0 0 0 0 
0 0 0 0 0 0 0 0 0 0 0 
0 0 0 0 0 0 0 0 0 0 0 
0 0 0 0 0 0 0 0 0 0 0 
-0.0002095861764056716 0 0 0.001738605363186601 -0.0004380342704928916 0 0 0 0 0 -0.0005256380092364848 
0 0 0 0 0 0 0 0 0 0 0 
0 0 0 0 0 0 0 0 0 0 0 
0.0008739670370137554 0 0 0 0 0 0 0 -0.0001454669919625142 0 0 
0 0 0 0 0 0 0 0 0 0 0 
0 0 -0.0005700175405625772 0.002424263933726702 0.001330561506292686 -0.0002493929340689174 -0.0004492021935890693 0 -0.0001991950653477692 -0.001524536498084501 0 
0 -0.0003324416643289321 -1.387579654043213e-05 0.0005703674106225028 -7.39482884788793e-05 0 -0.0003178943114355438 0 -0.0006635529842873788 0 0 
0 0 0 0 0 0 0 0 0 0 0 
0 0 0 0 0 0 0 0 0 0 0 
0 0 0 0 0 0 0 0 0 0 0 
0 0 0 0 0 0 0 0 0 0 0 
0 0 0 0 0 0 0 0 0 0 0 
0 0 0 0 0 0 0 0 0 0 0 
0 0 0 0 0 0 0 0 0 0 0 
0 0 0 0 0 0 0 0 0 0 0 
0 0 0 0 0 0 0 0 0 0 0 
0 0 0 0 0 0 0 0 0 0 0 
0 0 0 0 0 0 0 0 0 0 0 
0 0 0 0 0 0 0 0 0 0 0 
0 0 0 0 0 0 0 0 0 0 0 
0 0 0 0 0 0 0 0 0 0 0 
0 0 0 0 0 0 0 0 0 0 0 
0 0 0 0 0 0 0 0 0 0 0 
0 0 0 0 0 0 0 0 0 0 0 
0 0 0 0 0 0 0 0 0 0 0 
0 0 0 0 0 0 0 0 0 0 0 
0 0 0 0 0 0 0 0 0 0 0 
0 0 0 0 0 0 0 0 0 0 0 
0 0 0 0 0 0 0 0 0 0 0 
0 0 0 0 0 0 0 0 0 0 0 
0 0 0 0 0 0 0 0 0 0 0 
0 0 0 0 0 0 0 0 0 0 0 
0 0 0 0 0 0 0 0 0 0 0 
-0.0006468316557683421 -0.0004548064256478844 0.0005991562784087225 0 -0.0001789906613734532 0.0006342515861140045 0 0 -0.0001114485219569443 0 -0.000187839555165089 
0 0 0 0 0 0 0 0 0 0 0 
0 0 0 0 0 0 0 0 0 0 0 
0 0 0 0 0 0 0 0 0 0 0 
0 0 0 0 0 0 0 0 0 0 0 
0 0 0 0 0 0 0 0 0 0 0 
0 0 0 0 0 0 0 0 0 0 0 
0 0 0 0 0 0 0 0 0 0 0 
0 0 0 0 0 0 0 0 0 0 0 
0 0 0 0 0 0 0 0 0 0 0 
0 0 -0.0007652969699502252 0 0 0 0 0 0 0 0 
0 0 0 0 0 0 0 0 0 0 0 
-0.005035598938036236 0.00138098853663098 0.002594384430342263 0.0002018404967218013 -0.004957614110540165 -5.623403200101076e-06 -0.0004948397493094749 0.003774974436544398 0.00104869370497404 -2.099950958459859e-05 -0.0001813972555341282 
-0.001716455819544509 0.001615845111557826 -0.001170353905982465 -0.0004288691093454939 -0.0003216869835260726 -0.0002301279549270599 0 -0.0006638863476542648 -0.0001328222988064942 -0.0003246577062427878 -6.393088387651806e-05 
-0.02408930716240335 -0.0004564168683236075 0.01961664305006065 0.005300404093159131 0.01250501339212629 0.0001271390053916037 0.0003566315645512073 -0.007462320294016694 0.001132484948608717 -0.0074297223540499 -0.001001989979643329 
0.007274152202518977 -0.001081579513432391 -0.002401871873788327 0.001576249442622919 -0.004282794101969796 -0.001030434663376006 0 -0.00314646411015571 7.145640625113445e-05 -0.0002055343668632371 -4.119618198829098e-05 
-0.001397959686677013 0.001017662877246539 0 0 0 0 0 -0.004144717863285395 0 0 0 
0 0 0 0 0 0 0 0 0 0 0 
0 0 0 0 0 0 0 0 0 0 0 
0 0 0 0 0 0 0 0 0 0 0 
0 0 0 0 0 0 0 0 0 0 0 
0.006712652947278647 0.001070953972399766 -0.000912808059004504 -0.0009344281147389511 0.0007432873552737635 -2.710505431213761e-20 -0.0009712006729287184 0.0004318482433284565 -0.001639436672859483 -0.003036158765307796 -0.0001327397201191266 
-0.0004860086134157455 -0.01018893342590328 -0.00608082195049961 -0.001632025926665747 -0.01270903933038708 0.0008856808167746248 -0.000911171305761679 0.005958631943023903 -0.0001479708143744346 0.000895978913927265 -0.0008592932850991556 
0 0 0 0 0 0 0 0 0 0 0 
0 0 0 0 0 0 0 0 0 0 0 
0 0 0 0 0 0 0 0 0 0 0 
0 0 0 0 0 0 0 0 0 0 0 
